tree
version=v4
num_class=1
num_tree_per_iteration=1
label_index=0
max_feature_idx=514
objective=binary sigmoid:1
feature_names=Column_0 Column_1 Column_2 Column_3 Column_4 Column_5 Column_6 Column_7 Column_8 Column_9 Column_10 Column_11 Column_12 Column_13 Column_14 Column_15 Column_16 Column_17 Column_18 Column_19 Column_20 Column_21 Column_22 Column_23 Column_24 Column_25 Column_26 Column_27 Column_28 Column_29 Column_30 Column_31 Column_32 Column_33 Column_34 Column_35 Column_36 Column_37 Column_38 Column_39 Column_40 Column_41 Column_42 Column_43 Column_44 Column_45 Column_46 Column_47 Column_48 Column_49 Column_50 Column_51 Column_52 Column_53 Column_54 Column_55 Column_56 Column_57 Column_58 Column_59 Column_60 Column_61 Column_62 Column_63 Column_64 Column_65 Column_66 Column_67 Column_68 Column_69 Column_70 Column_71 Column_72 Column_73 Column_74 Column_75 Column_76 Column_77 Column_78 Column_79 Column_80 Column_81 Column_82 Column_83 Column_84 Column_85 Column_86 Column_87 Column_88 Column_89 Column_90 Column_91 Column_92 Column_93 Column_94 Column_95 Column_96 Column_97 Column_98 Column_99 Column_100 Column_101 Column_102 Column_103 Column_104 Column_105 Column_106 Column_107 Column_108 Column_109 Column_110 Column_111 Column_112 Column_113 Column_114 Column_115 Column_116 Column_117 Column_118 Column_119 Column_120 Column_121 Column_122 Column_123 Column_124 Column_125 Column_126 Column_127 Column_128 Column_129 Column_130 Column_131 Column_132 Column_133 Column_134 Column_135 Column_136 Column_137 Column_138 Column_139 Column_140 Column_141 Column_142 Column_143 Column_144 Column_145 Column_146 Column_147 Column_148 Column_149 Column_150 Column_151 Column_152 Column_153 Column_154 Column_155 Column_156 Column_157 Column_158 Column_159 Column_160 Column_161 Column_162 Column_163 Column_164 Column_165 Column_166 Column_167 Column_168 Column_169 Column_170 Column_171 Column_172 Column_173 Column_174 Column_175 Column_176 Column_177 Column_178 Column_179 Column_180 Column_181 Column_182 Column_183 Column_184 Column_185 Column_186 Column_187 Column_188 Column_189 Column_190 Column_191 Column_192 Column_193 Column_194 Column_195 Column_196 Column_197 Column_198 Column_199 Column_200 Column_201 Column_202 Column_203 Column_204 Column_205 Column_206 Column_207 Column_208 Column_209 Column_210 Column_211 Column_212 Column_213 Column_214 Column_215 Column_216 Column_217 Column_218 Column_219 Column_220 Column_221 Column_222 Column_223 Column_224 Column_225 Column_226 Column_227 Column_228 Column_229 Column_230 Column_231 Column_232 Column_233 Column_234 Column_235 Column_236 Column_237 Column_238 Column_239 Column_240 Column_241 Column_242 Column_243 Column_244 Column_245 Column_246 Column_247 Column_248 Column_249 Column_250 Column_251 Column_252 Column_253 Column_254 Column_255 Column_256 Column_257 Column_258 Column_259 Column_260 Column_261 Column_262 Column_263 Column_264 Column_265 Column_266 Column_267 Column_268 Column_269 Column_270 Column_271 Column_272 Column_273 Column_274 Column_275 Column_276 Column_277 Column_278 Column_279 Column_280 Column_281 Column_282 Column_283 Column_284 Column_285 Column_286 Column_287 Column_288 Column_289 Column_290 Column_291 Column_292 Column_293 Column_294 Column_295 Column_296 Column_297 Column_298 Column_299 Column_300 Column_301 Column_302 Column_303 Column_304 Column_305 Column_306 Column_307 Column_308 Column_309 Column_310 Column_311 Column_312 Column_313 Column_314 Column_315 Column_316 Column_317 Column_318 Column_319 Column_320 Column_321 Column_322 Column_323 Column_324 Column_325 Column_326 Column_327 Column_328 Column_329 Column_330 Column_331 Column_332 Column_333 Column_334 Column_335 Column_336 Column_337 Column_338 Column_339 Column_340 Column_341 Column_342 Column_343 Column_344 Column_345 Column_346 Column_347 Column_348 Column_349 Column_350 Column_351 Column_352 Column_353 Column_354 Column_355 Column_356 Column_357 Column_358 Column_359 Column_360 Column_361 Column_362 Column_363 Column_364 Column_365 Column_366 Column_367 Column_368 Column_369 Column_370 Column_371 Column_372 Column_373 Column_374 Column_375 Column_376 Column_377 Column_378 Column_379 Column_380 Column_381 Column_382 Column_383 Column_384 Column_385 Column_386 Column_387 Column_388 Column_389 Column_390 Column_391 Column_392 Column_393 Column_394 Column_395 Column_396 Column_397 Column_398 Column_399 Column_400 Column_401 Column_402 Column_403 Column_404 Column_405 Column_406 Column_407 Column_408 Column_409 Column_410 Column_411 Column_412 Column_413 Column_414 Column_415 Column_416 Column_417 Column_418 Column_419 Column_420 Column_421 Column_422 Column_423 Column_424 Column_425 Column_426 Column_427 Column_428 Column_429 Column_430 Column_431 Column_432 Column_433 Column_434 Column_435 Column_436 Column_437 Column_438 Column_439 Column_440 Column_441 Column_442 Column_443 Column_444 Column_445 Column_446 Column_447 Column_448 Column_449 Column_450 Column_451 Column_452 Column_453 Column_454 Column_455 Column_456 Column_457 Column_458 Column_459 Column_460 Column_461 Column_462 Column_463 Column_464 Column_465 Column_466 Column_467 Column_468 Column_469 Column_470 Column_471 Column_472 Column_473 Column_474 Column_475 Column_476 Column_477 Column_478 Column_479 Column_480 Column_481 Column_482 Column_483 Column_484 Column_485 Column_486 Column_487 Column_488 Column_489 Column_490 Column_491 Column_492 Column_493 Column_494 Column_495 Column_496 Column_497 Column_498 Column_499 Column_500 Column_501 Column_502 Column_503 Column_504 Column_505 Column_506 Column_507 Column_508 Column_509 Column_510 Column_511 Column_512 Column_513 Column_514
feature_infos=[0:7347.5018542547159] [0:1877.6238823190079] [0:100] [0:24.757281553398059] [0:0.11621150493898896] [0:65.167237001876586] [0:63.965607087024495] [0:5.7692307692307692] [0:54.265536723163841] [0:40.070765148164533] [0:40.070765148164533] [0:53.944795427196148] [0:49.514563106796118] [0:0.8928571428571429] [0:49.553602566785237] [0:28.50504646747277] [0:58.757847533632287] [0:24.352777322628214] [0:21.117633605245103] [0:17.765273311897108] [0:34.417040358744394] [0:46.483904933814678] none [0:20.302648171500632] [0:27.375724574038294] [0:49.9972285350036] [0:24.757281553398059] [0:34.417040358744394] [0:20.445934129991254] [0:20.445934129991254] [0:11.744628871164764] [0:64.332138988417626] [0:30.312693772699088] [0:16.760664071808723] [0:17.280843384936841] [0:17.386134991768795] [0:36.454986925663057] [0:49.996661324786331] [0:16.445711746407937] [0:10.398981324278438] [0:10.821297693468422] [0:10.810519508514767] [0:10.810519508514767] [0:10.810519508514767] [0:10.806926780196882] [0:22.338438550616363] [0:49.896501068376068] [0:10.806926780196882] [0:10.806926780196882] [0:49.997346072186836] [0:49.997451320216129] [0:18.089887640449437] [0:18.089887640449437] [0:18.089887640449437] [0:18.089887640449437] [0:17.765273311897108] [0:17.488789237668161] [0:30.648769574944073] [0:30.325149303251493] [0:16.564201651150537] [0:17.857142857142854] [0:24.757281553398059] [0:24.757281553398059] [0:24.757281553398059] [0:30.600972160848432] [0:31.082762912258872] [0:74.83700274024379] [0:75.082731648616118] [0:10.162423178226515] [0:10.818505338078293] [0:11.300427425493297] [0:20.281346920691181] [0:20.563873845173621] [0:11.399964869137538] [0:11.092569822589144] [0:17.044250132485427] [0:20.080029101491451] [0:22.368421052631579] [0:20.916696980720264] [0:21.530802738021158] [0:10.361496427070199] [0:10.178884986830553] [0:5.4968196664947566] [0:6.7652643149795146] [0:6.6553412611172185] [0:9.3210625674217908] [0:10.790262955988002] [0:5.3762366343559513] [0:48.856887153201534] [0:49.73267230485078] [0:5.4946619217081851] [0:5.6531412846185374] [0:4.4901906604034263] [0:4.6767262915958829] [0:4.6567402818027386] [0:4.6567402818027386] [0:4.6567402818027386] [0:68.55670103092784] [0:62.340707513508001] [0:50.006658232904989] [0:50.008278145695364] [0:5.133016889281377] [0:38.965153115100314] [0:41.757859996525966] [0:5.5096902628959548] [0:14.754098360655737] [0:15.573770491803279] [0:5.5096902628959548] [0:5.4921248316646176] [0:23.55881372875708] [0:23.45315631262525] [0:4.0027605244996547] [0:24.416239524855587] [0:24.919801691455234] [0:9.8360655737704921] [0:24.062322024245383] [0:25.255588286258881] [0:5.4687042566895023] [0:10.512913786831575] [0:12.5] [0:5.6531412846185374] [0:10.458348490360132] [0:10.765401369010579] [0:10.765401369010579] [0:10.765401369010579] [0:10.765401369010579] [0:10.765401369010579] [0:12.5] [0:10.765401369010579] [0:48.912023210171519] [0:48.918650793650798] [0:7.3249422448817016] [0:33.537946428571423] [0:49.997346072186836] [0:49.997451320216129] [0:2.579578932241144] [0:5.1056338028169019] [0:5.0347222222222223] [0:2.0927041244186935] [0:2.0908689898544335] [0:2.0908689898544335] [0:2.0888922771975302] [0:2.082046757829731] [0:2.082046757829731] [0:2.082046757829731] [0:2.082046757829731] [0:2.082046757829731] [0:2.082046757829731] [0:2.8079710144927534] [0:2.7290192996244866] [0:2.1482134980149978] [0:2.1468574984443061] [0:1.8211250505868071] [0:1.8211250505868071] [0:2.3080839508966453] [0:2.3323881825665422] [0:2.2334365943839316] [0:2.2334365943839316] [0:2.2065356896041068] [0:2.0679146713104051] [0:2.0679146713104051] [0:2.0679146713104051] [0:2.3210831721470022] [0:3.0715532286212914] [0:3.3106710020691694] [0:1.8076352353972749] [0:1.8076352353972749] [0:1.8076352353972749] [0:1.6716196136701336] [0:1.6623328380386329] [0:1.6499504705299652] [0:3.4657246515180447] [0:17.977528089887642] [0:17.934782608695652] [0:2.1598968407479049] [0:3.3034179873973653] [0:3.2546326780171198] [0:1.3498014997794443] [0:1.355245384961729] [0:3.0647317166316594] [0:22.338438550616363] [0:49.896501068376068] [0:3.0647317166316594] [0:3.1996224634261443] [0:3.0194713573511427] [0:1.2192910887498867] [0:1.7857142857142856] [0:1.7040476607674786] [0:1.158283756985758] [0:1.1518686968558434] [0:1.1513008793400417] [0:1.1377028374580727] [0:6.0830860534124627] [0:13.498062931115941] [0:13.511659807956105] [0:2.8182860888087826] [0:5.1148504273504276] [0:5.2432389813135698] [0:5.199249365272105] [0:5.0528401585204756] [0:5.7692307692307692] [0:5.475427350427351] [0:5.199249365272105] [0:5.1968155683325961] [0:5.2174868189806674] [0:5.4945054945054945] [0:5.0279942913601934] [0:2.5729178218919819] [0:2.6689625484287562] [0:2.5604078918199957] [0:2.6061883109681712] [0:2.6403004860804242] [0:2.5886917960088689] [0:2.5974025974025974] [0:2.6190476190476191] [0:2.6213268032056991] [0:2.6051385101191329] [0:2.5746310065475528] [0:2.6689625484287562] [0:2.6207433785889163] [0:2.569060773480663] [0:2.5729178218919819] [0:2.6053215077605323] [0:2.650548963069757] [0:2.6289180990899896] [0:2.6067665002773155] [0:2.615179167594035] [0:2.6943556975505856] [0:2.8846153846153846] [0:2.7035623409669212] [0:2.8846153846153846] [0:2.7035623409669212] [0:2.7009783071033597] [0:2.8305785123966944] [0:2.7884615384615388] [0:2.761782896139902] [0:2.6611535199321459] [0:2.6778154106689245] [0:2.6753357493071843] [0:2.7141645462256152] [0:2.7113578138343293] [0:2.7754237288135593] [0:2.6915113871635614] [0:2.7647809442790301] [0:1376.8] [0:3336.3333333333335] [0:140.27461139896374] [0:265119] [0:602.84210526315792] [0:25202.363636363636] [0:307861] [0:144.98412698412699] [0:136.83937823834196] [0:214781.66666666666] [0:249589.66666666666] [0:138.5241935483871] [0:140.93181818181819] [0:142.77358490566039] [0:134.86772486772486] [0:1288] [0:2704.0746606334842] [0:2837] [0:1285] [0:16728] [0:7044] [0:136.17676767676767] [0:24370.277777777777] [0:32007] [0:763660] [0:5804.5333333333338] [0:133.03664921465969] [0:137.05789473684212] [0:158.38020833333334] [0:139.1356783919598] [0:141.83854166666666] [0:137.19999999999999] [0:139.74489795918367] [0:138.59895833333334] [0:141.83419689119171] [0:143.76616915422886] [0:149.13903743315507] [0:144.75916230366491] [0:348.66666666666669] [0:738.66666666666663] [0:809404] [0:85007] [0:4164] [0:104528.75] [0:928399] [0:122281.71428571429] [0:995672] [0:5003.333333333333] [0:134.25853658536585] [0:152.77248677248679] [0:523.33333333333337] [0:507.33333333333331] [0:146.47979797979798] [0:139.5612244897959] [0:146433] [0:372514] [0:747.79999999999995] [0:27551] [0:183084] [0:134.96938775510205] [0:1332.6666666666667] [0:1624] [0:760] [0:140.44162436548223] [0:631.75] [0:1314.5] [0:1810.5542521559523] [0:4708.3273392292231] [0:153.84950109596852] [0:1031.006364351517] none [0:83548.644298124578] [0:533209.24303972826] [0:147.00723325728677] [0:148.08006338992109] [0:372011.89317592164] [0:432301.98371084692] [0:159.37189282310436] [0:144.70988103067461] [0:145.71972913749983] [0:151.23779800621455] [0:1851.1991094577434] [0:11196.406260902404] [0:13038.332756949998] [0:3569.5733316268643] [0:4985.4259931658135] [0:8927.2559747155919] [0:146.98224044072509] [0:103371.87128535473] [0:178615.1604373286] [0:7511.0384768019931] [0:7053.3901423358111] [0:147.87147517003748] [0:148.54589912222011] [0:168.99132919904204] [0:142.37956630169606] [0:145.8499171253932] [0:151.56396134341915] [0:153.05399206127206] [0:146.83078660206075] [0:156.96812797342608] [0:162.46440097079301] [0:148.27066298338184] [0:154.45869693982021] [0:653.82580078930641] [0:831.12233355465389] [0:103651.95462701126] [0:103650.54041344888] [0:3266.5819238386412] none [0:910.58734361115933] [0:155608.24697266132] [0:4729.6969194158255] [0:4862.2852517086449] [0:148.23170163679887] [0:153.84001805086163] [0:885.96403237753771] [0:817.66330828421405] [0:151.32041505173052] [0:159.46498422110426] [0:151.75870535624543] [0:8827.0436103490647] [0:1403.7684994328661] [0:18669.740343668414] [0:20180.827535064065] [0:150.12960853712332] [0:1334.7917815150047] [0:1451.9528229250425] [0:1031.5501511248565] [0:145.24684440494005] [0:987.98764331004327] [0:2908.4636615496443] [0:376648] [0:376648] none none none [0:20146.153846153848] [0:1183629] [0:1195138] [0:1164823] [0:11346.760869565218] [0:1122863] [0:1160487] none none none [0:1165815] [0:1167054] [0:1165668] [0:8954.1641791044767] [0:8256.1908396946565] [0:1165754] [0:1187563] [0:1150125] [0:1138301] none none [0:1181926] [0:1197391] [0:1195859] [0:1168534] [0:1190284] [0:1162298] [0:1188775] [0:1130567] [0:1198597] [0:1178843] [0:1172221] none [0:1097707] [0:1135067] none none none none none none none none none [0:1187503] [0:1161059] [0:1181081] none [0:1182718] [0:1165355] none [0:27082.206896551725] [0:32485.18181818182] [0:1174205] [0:1176263] [0:13310.644067796609] [0:1145151] [0:1169594] [0:1168538] [0:1156593] [0:1150907] [0:251729.88150696133] [0:339147.84902531817] none none none [0:125529.46260572047] [0:675216.26535503427] [0:823467.56599182461] [0:782367.6914421377] [0:37529.628826376822] [0:790930.7545623068] [0:816651.05662118632] none none none [0:705421.03862019884] [0:815110.27094498079] [0:717656.81436185085] [0:31073.589726875707] [0:31776.817465700486] [0:832430.85155014531] [0:791718.47151654866] [0:840286.10078234668] [0:784052.01979492407] none none [0:832271.04541759717] [0:819874.04932983452] [0:831348.27106814866] [0:837544.64779168635] [0:806051.52597119997] [0:806942.48051549494] [0:813206.73949002661] [0:732060.57949462079] [0:803749.89339843777] [0:836026.48953247885] [0:836444.38964016014] none [0:640486.71579705691] [0:790609.02097686694] none none none none none none none none none [0:789421.78869125468] [0:812957.83790304896] [0:801929.80054366356] none [0:796403.05394190946] [0:812271.94432529795] none [0:145617.7129770618] [0:152211.77341161302] [0:791277.23688508826] [0:787422.09071405919] [0:102101.15670943994] [0:746279.08265071991] [0:793431.79124736367] [0:808812.77795173344] [0:781173.38808871363] [0:781188.23733111855] [0:688849.64750593679] [0:1209451.3897518471] [0:517000.1568181818] [0:66.666666666666671] [0:50.000000000000007] [0:6347150] [0:6347150]
tree_sizes=5012 7307 7175 6980 7082 6653 6317 6632 6647 6649 6647 6327 6755 6728 6425 6174 6021 6203 6322 6403 6191 6100 6194 5893 5576 6223 5588 5576 5484 5725 5485 5800 5240 5378 5453 5260 5172 5366 5033 4731 5347 5253 4936 4956 5260 5038 4947 5191 4823 4729 4632 4719 4730 4531 4406 4650 4407 4536 4629 4425 4520 4209 4425 4330 4399 4272 4193 4292 4182 4100 4095 4106 4001 4009 3787 3887 3776 3647 3668 3671 3776 3674

Tree=0
num_leaves=47
num_cat=0
split_feature=26 8 237 509 23 512 507 263 88 207 512 511 261 226 261 261 212 261 513 396 393 76 478 44 435 19 239 74 395 411 350 427 32 411 404 0 228 1 514 398 311 2 29 269 0 0
split_gain=101.097 190.228 40.5105 54.6945 35.1388 30.6262 49.0854 32.8186 22.6308 33.7923 22.8658 29.1681 27.6523 10.5603 12.0813 16.6278 10.5582 10.1702 10.1213 8.50681 8.29112 7.40604 5.93714 6.69569 5.99972 5.15391 4.53736 5.49046 8.07188 4.35932 4.00004 3.699 3.52844 3.14394 2.47247 5.61969 2.38102 4.74313 1.73059 1.39871 1.33767 1.23484 0.706862 0.120855 7.10543e-15 1.77636e-15
threshold=10.361731433044415 49.711559792323158 0.14375575526259191 0.57262455401168177 8.5195755411107807 39.931202790334375 33732.080508332554 28.563976885591401 1.7237414762232748 0.55226056078358654 24.00902199984036 24.400598802395212 62.472134519071474 0.67898676462444407 74.54766523086198 63.042288151911485 0.7638061699607851 75.562383293581703 3.2681728880157173 66218.111111111139 4311.6791652288493 3.3774154142924737 99306.0545670961 0.0045302171393781553 83195.175000000017 10.225689814811487 0.23536252612823144 3.4848803965369624 205.04884319148155 67892.809523809541 93.164438432489064 32367.000000000004 5.1484383340126127 73805.166666666672 27041.750000000004 30.633345902060281 0.22398231939122967 183.68792973564885 23904.500000000004 71205.916666666672 67.743861074673688 0.33320518296836982 6.8159524570425578 78.298370582406704 76.902025942103265 88.645756317915627
decision_type=2 2 2 2 2 2 2 2 2 2 2 2 2 2 2 2 2 2 2 2 2 2 2 2 2 2 2 2 2 2 2 2 2 2 2 2 2 2 2 2 2 2 2 2 2 2
left_child=2 -2 3 4 18 7 -7 8 9 10 11 12 -5 26 15 21 -3 -14 19 22 30 -15 23 24 31 -12 27 36 -29 -18 40 33 -10 34 35 -1 38 -38 -4 -36 -9 -37 -28 -43 -44 -42
right_child=1 16 13 5 -6 6 -8 20 32 -11 25 -13 17 14 -16 -17 29 -19 -20 -21 -22 -23 -24 -25 -26 -27 42 28 -30 -31 -32 -33 -34 -35 39 41 37 -39 -40 -41 45 43 44 -45 -46 -47
leaf_value=-3.1301869688516284 -2.6101166806147291 -3.0392699400275673 -3.2560270623956624 -2.8248000275545899 -2.9597238237318577 -2.7649646973613309 -3.1349808771771155 -3.2036153120948483 -3.145506632413511 -2.8513353386799243 -3.0983855188552294 -3.1709402041667256 -3.1618800294479037 -3.2419050074534983 -3.2560270623956624 -2.9581399659593952 -3.2560270623956624 -2.9717277984284176 -3.0732710572617781 -3.0800445315779292 -3.0979771210740363 -3.0962460979071809 -3.1276447447396278 -3.1107716401334065 -3.1180907117977834 -3.2237138858330843 -3.2163087828708266 -3.0856888739180168 -3.2397323836162424 -3.1368722238211553 -3.1468627113089975 -3.2560270623956624 -3.2560270623956624 -3.1404829765052313 -3.2560270623956624 -3.1997887905020899 -3.2560270623956624 -3.1304976851319841 -3.1992232659802551 -3.197814011489033 -3.2560270623956624 -3.2560270623956624 -3.2560270623956624 -3.2361679226332445 -3.2560270623956624 -3.2560270623956624
leaf_weight=7.9465928301215198 9.5988547056913394 5.0748043321073082 22.50223316252232 8.8120633363723808 6.4123496599495402 6.9237640500068647 7.4351784400641918 7.6318762823939386 6.3336705230176431 7.9072532616555682 5.0748043321073046 9.4021568633615953 5.3108417429029924 7.0811223238706642 8.7333841994404775 5.0354647636413565 7.8679136931896192 5.9796144068241119 6.0189539752900592 5.1141439005732527 7.5925367139279833 6.8844244815409184 7.7892345562577239 5.5075395852327338 5.0748043321073046 9.284138157963751 5.0354647636413565 7.6318762823939306 6.1369726806879044 5.0354647636413574 6.4123496599495402 34.146745428442955 5.3108417429029942 5.192823037505149 20.731952581554655 8.8907424733042735 5.7042374275624734 6.373010091483593 7.0417827554047099 5.1534834690392008 7.9072532616555673 7.8285741247236711 32.140427436679602 5.0354647636413574 8.536686357110737 5.5468791536986828
leaf_count=202 244 129 572 224 163 176 189 194 161 201 129 239 135 180 222 128 200 152 153 130 193 175 198 140 129 236 128 194 156 128 163 868 135 132 527 226 145 162 179 131 201 199 817 128 217 141
internal_value=-3.15175 -2.96956 -3.16798 -3.14401 -3.18801 -3.093 -2.95656 -3.11289 -3.06995 -3.04162 -3.07592 -3.02556 -2.95756 -3.21334 -3.15868 -3.11393 -3.16147 -3.06117 -3.19977 -3.2062 -3.19048 -3.1701 -3.2119 -3.21812 -3.22403 -3.17942 -3.22833 -3.20909 -3.15435 -3.20953 -3.21602 -3.22969 -3.19591 -3.21489 -3.22185 -3.20216 -3.2272 -3.18979 -3.24249 -3.24444 -3.23706 -3.22845 -3.25165 -3.24825 -3.25603 -3.25603
internal_weight=0 27.577 372.546 243.709 130.843 112.865 14.3589 98.5063 63.4154 51.7709 43.8636 29.5047 20.1025 128.837 27.7344 19.001 17.9782 11.2905 124.431 118.412 35.0909 13.9655 113.298 105.509 100.001 14.3589 101.103 55.3901 13.7688 12.9034 27.4984 94.9264 11.6445 60.7796 55.5868 29.7014 41.6213 12.0772 29.544 25.8854 21.086 21.7548 45.7126 12.864 40.6771 13.4541
internal_count=10171 701 9470 6195 3326 2869 365 2504 1612 1316 1115 750 511 3275 705 483 457 287 3163 3010 892 355 2880 2682 2542 365 2570 1408 350 328 699 2413 296 1545 1413 755 1058 307 751 658 536 553 1162 327 1034 342
is_linear=0
shrinkage=1


Tree=1
num_leaves=67
num_cat=0
split_feature=12 31 426 237 509 512 29 221 329 405 75 1 71 508 335 85 226 263 76 69 396 501 229 237 11 55 499 410 194 350 271 434 0 383 55 60 383 496 100 260 8 496 52 1 12 100 476 310 509 263 245 239 74 103 393 1 37 427 237 411 29 478 1 384 0 0
split_gain=67.0924 67.5838 52.8409 32.5261 39.2779 40.3695 28.6413 27.6453 27.0883 23.7363 21.371 33.9665 16.1061 14.1548 11.0249 13.7852 10.0807 11.6472 11.156 8.23917 8.15362 7.68453 7.07435 7.51882 9.18035 12.4805 6.21176 5.9908 11.0136 5.83316 5.77259 5.4515 4.76755 4.59854 4.59249 4.42205 4.20595 4.79133 3.50165 1.84344 1.44202 1.28216 1.19262 0.577006 0.412821 0.177296 0.176922 0.116015 0.000149322 0.000128537 8.30696e-05 4.46002e-05 3.39526e-05 3.26263e-05 3.19982e-05 1.63693e-05 1.51466e-05 1.3017e-05 8.97012e-06 5.02191e-06 4.95917e-06 3.78297e-06 2.91171e-06 2.16266e-07 7.10543e-15 3.55271e-15
threshold=19.889583905058736 0.011090778052183599 62976.100000000013 0.1425034109605523 0.69402946830778467 39.931202790334375 6.7905022156337713 0.62667939825013808 67.71162850258635 57073.812500000007 3.3628692990827136 183.19787371359499 3.4342625605266139 0.57057614587355809 72.085511207629068 0.012036798803361389 0.67898676462444407 24.547333121409803 3.3774154142924737 3.4189387293691866 67353.300000000017 78867.595036335959 0.22999080171971198 0.21813002359878567 18.90991696444863 5.1546646503945084 18663.929574109316 38235.020833333336 0.015876062993507932 93.164438432489064 65.097361883355035 65903.861111111124 30.633345902060281 74413.000000000015 16.583309863417444 5.1735335132272695 15333.215277777779 42355.299809830518 0.020458615647463586 1.0000000180025095e-35 25.739230903901152 78965.909101155004 5.1171953110753625 89.322330915837426 33.231941364440736 1.7755299794243837 93812.050961794695 45.749728818729153 0.52417123305526558 40.963412098361609 15.174922804893493 0.23536252612823144 3.4834926000209951 0.82436928256895492 4007.9407407407411 183.6976214471222 0.0037081014239109477 23423.875000000004 0.1573275382902278 54158.357142857152 6.8389588592990602 52477.716127337495 183.76353176396483 69482.250000000015 76.661771482614157 68.479152317262432
decision_type=2 2 2 2 2 2 2 2 2 2 2 2 2 2 2 2 2 2 2 2 2 2 2 2 2 2 2 2 2 2 2 2 2 2 2 2 2 2 2 2 2 2 2 2 2 2 2 2 2 2 2 2 2 2 2 2 2 2 2 2 2 2 2 2 2 2
left_child=3 7 -3 4 6 8 13 -2 10 -7 14 -12 -13 20 26 -16 22 18 42 -14 21 27 23 33 -25 -26 30 28 32 38 35 41 36 40 -9 39 -1 -38 -10 -6 -5 46 -18 -34 -36 51 48 -41 56 -40 -44 55 58 -45 -51 -24 57 59 -42 -29 -53 63 -60 -59 65 -62
right_child=1 2 -4 16 5 9 -8 34 29 -11 11 12 19 -15 15 -17 17 -19 -20 -21 -22 -23 45 24 25 -27 -28 31 -30 -31 -32 -33 43 -35 44 -37 37 -39 49 47 52 -43 50 53 -46 -47 -48 -49 -50 54 -52 60 -54 -55 -56 -57 -58 61 62 -61 64 -63 -64 -65 -66 -67
leaf_value=0.026486200354911501 0.21149431584834233 0.45211388853766049 0.055672870396244301 -0.044786239377522262 -0.029442139979173831 0.39056358960057042 0.15575242635143882 0.01850620194879006 -0.010474102105125099 0.095746991467578993 0.34985823269428096 0.1967142040003011 0.1068494169048969 0.11346811126798478 0.2267491881498018 0.0007306954814001532 -0.044593028614316202 0.13207707926892628 0.069171398585450614 -0.05480135107399995 0.073877915829995214 0.03469144175892229 -0.10398406615062983 -0.10401130925752543 -0.051965669673665983 0.15207111917446364 0.094049271727538589 -0.10396900154995362 0.084578301302229916 0.019837709238427096 0.068388732004041733 0.011501835232766664 -0.064844863595794167 0.0090982033509753053 -0.10460092469872416 0.034959290580661932 -0.10406278212007743 0.0095741111696111426 -0.10468034889809033 -0.084346956217030394 -0.10409669261600588 -0.051408890832330668 -0.10396842356948544 -0.10395979295584785 -0.064606709977144544 -0.084049507645034549 -0.084124553810964009 -0.10469766822227151 -0.10456740730693409 -0.10390027947357493 -0.10454425475362941 -0.10396208284526408 -0.10428424656670757 -0.10426587009664144 -0.10424858173140861 -0.104237030490525 -0.10414359904318454 -0.10385412467287188 -0.10388574123507065 -0.10409457518979495 -0.10385412467287183 -0.10396783580554128 -0.10398727130477302 -0.10388170224818086 -0.10385412467287192 -0.10385412467287192
leaf_weight=9.1733784712851065 5.6807421259582069 8.5870481207966787 5.525563519448041 5.0623802915215519 6.6510083489120104 5.0369088351726514 7.6690306589007369 7.3085651472210911 5.3459969684481683 5.9650795608758926 5.712346043437722 6.9634789675474194 5.1973260901868334 5.5028802044689646 5.1268351674079877 5.6972541883587837 5.0330050289630952 5.0738057419657698 6.9095736108720294 8.0161065943539125 5.0427099578082553 8.6284112296998483 5.0295064747333509 5.2847558706998852 5.7643406987190229 6.2466126717627048 5.023866180330514 6.338194143027069 6.3583240471780291 8.0528599731624109 5.2130066193640223 5.1908157728612414 5.1027027070522335 5.3017635010182849 5.2872598059475404 5.0095977038145056 9.3454342260956746 6.1534474603831759 5.0097914077341548 5.0091624967753869 5.2803527638316217 5.6875385008752337 5.0087860226631147 7.7483203187584859 5.0420635715126991 5.0334474630653849 5.016261711716651 6.3553367741405964 5.0018246211111537 5.5614938847720605 5.0122316256165504 5.0939303785562542 5.091375656425952 6.3259100317955017 5.0170170441269875 5.2057672552764416 5.018931418657302 6.5392663814127463 5.3984961807727796 6.4010060578584671 8.1472827047109657 5.3451764471828929 5.9243876896798611 5.031748428940773 9.576630547642706 8.1115490086376649
leaf_count=232 123 148 89 136 160 100 169 180 145 126 122 162 122 131 118 137 132 127 168 192 120 216 137 143 156 167 114 173 167 202 134 138 138 142 130 119 250 161 120 128 141 150 137 212 130 139 135 152 123 154 123 139 130 164 129 134 132 183 150 170 228 146 161 140 268 227
internal_value=0 0.12417 0.296894 -0.0164053 0.00481055 0.0490003 -0.0318299 0.0196364 0.028798 0.230719 0.0624713 0.134587 0.0736413 -0.0433429 0.0201217 0.107784 -0.0583879 -0.00447951 -0.0360254 0.00878181 -0.050567 -0.0560521 -0.0736418 -0.0473166 0.00582267 0.054149 -0.00840547 -0.0634542 -0.0384171 -0.0524897 -0.0266333 -0.0860748 -0.056252 -0.0759853 -0.0421564 -0.0481468 -0.0271815 -0.0589461 -0.0803122 -0.0712562 -0.0928441 -0.0961285 -0.0843092 -0.0936528 -0.0850785 -0.101766 -0.101819 -0.0957276 -0.104057 -0.104263 -0.104256 -0.103932 -0.104058 -0.104097 -0.104065 -0.104113 -0.103983 -0.103956 -0.103989 -0.104032 -0.103872 -0.103898 -0.103939 -0.103866 -0.103854 -0.103854
internal_weight=0 37.4312 14.1126 365.176 242.586 109.964 132.621 23.3186 98.9625 11.002 69.9753 25.8893 20.1769 124.952 44.0861 10.8241 122.59 27.0374 21.9636 13.2134 119.449 114.407 95.5526 49.3545 17.2957 12.011 33.262 105.778 50.2075 28.9872 28.2381 55.5708 43.8492 32.0588 17.6379 23.0251 24.6723 15.4989 20.9343 18.0155 26.757 50.3799 15.054 19.1769 10.3293 46.1981 44.6924 11.3645 39.6761 15.5883 10.021 41.1647 21.6946 14.0742 10.5785 10.2353 34.6743 29.6554 16.6032 12.7392 30.9294 16.9162 11.3229 11.571 25.8355 16.2588
internal_count=10171 800 237 9371 6086 2636 3450 563 2410 226 1660 598 476 3281 1062 255 3285 687 560 314 3150 3030 2598 1326 466 323 807 2814 1324 750 693 1490 1157 860 440 559 643 411 548 440 718 1352 392 514 260 1272 1202 280 1067 403 260 1133 582 376 283 271 944 812 452 343 862 469 311 323 723 455
is_linear=0
shrinkage=0.1


Tree=2
num_leaves=66
num_cat=0
split_feature=26 54 237 509 512 410 410 24 263 405 461 513 73 121 67 71 510 28 263 261 72 411 412 25 514 510 513 513 307 247 427 409 509 53 107 199 72 347 29 215 387 412 510 9 434 102 220 197 115 438 439 510 229 404 216 509 26 238 55 435 477 91 229 450 58
split_gain=47.8066 51.9859 29.526 32.9024 29.2635 27.0816 22.077 21.5489 18.2065 15.3939 15.254 12.7223 12.465 18.1474 26.8739 12.3278 9.59833 8.38948 12.7084 20.4015 8.05888 7.90455 8.22541 7.66879 13.2707 7.57894 7.78132 7.59443 7.1708 7.19049 5.74309 10.4501 11.5609 5.09475 7.3276 3.60962 7.01482 3.35356 2.01758 5.51772 2.00327 4.13243 6.37825 1.86293 1.25152 0.776712 0.634349 0.628791 0.494801 0.43953 0.424224 0.151915 0.000104215 9.15728e-05 6.10888e-05 4.64067e-05 4.03669e-05 3.10642e-05 2.9063e-05 2.08717e-05 1.14189e-05 9.82726e-06 6.17559e-06 1.39054e-06 3.86921e-07
threshold=10.361731433044415 16.468198109575489 0.1425034109605523 0.73607759345180368 39.931202790334375 51606.366666666676 107655.50000000001 8.5928056172149851 28.563976885591401 48044.944444444453 20786.148237266501 4.5000000000000009 3.4558509358858762 1.688070576355243 3.4082204783061836 3.4328558465054173 37.033958077026348 6.9429535318939992 23.557880241998934 73.933356241222228 3.436562817186108 62729.916666666679 73060.10000000002 0.12619119209937105 28103.000000000004 0.89910179640718579 14903.000000000002 36302.500000000007 70.627706218681752 80.577589317935775 51785.166666666672 41163.666666666679 0.42787587894012408 5.1129993145022326 1.7149070309006083 1.7569727285930623 3.438778730907575 76.511776712944837 6.9111302661723499 0.60186102793798979 49865.250000000007 19514.683333333338 0.2983309345837783 24.201631009945025 55646.888888888898 0.39993607415398141 0.65430126972900349 1.6688208256318402 0.0045996044437497646 49610.150000000009 55621.000000000007 0.26225865209471777 0.22999080171971198 23315.375000000004 0.68239173132659403 0.48222887263041198 8.3948170293339803 0.23343557883873042 5.1546646503945084 55475.312500000007 36792.697192492888 1.6987747648633889 0.26071503669116608 52375.245292719461 7.5643351226424143
decision_type=2 2 2 2 2 2 2 2 2 2 2 2 2 2 2 2 2 2 2 2 2 2 2 2 2 2 2 2 2 2 2 2 2 2 2 2 2 2 2 2 2 2 2 2 2 2 2 2 2 2 2 2 2 2 2 2 2 2 2 2 2 2 2 2 2
left_child=2 5 3 7 8 -2 16 11 10 -6 12 21 13 25 -15 -16 -3 18 33 -20 -14 28 30 24 -10 26 -5 -28 40 -30 31 32 -23 34 -4 38 -37 56 47 -40 41 44 -43 -22 45 51 52 -35 -27 -18 -32 -1 58 -53 57 59 -25 61 -19 63 -55 -49 -54 -42 -64
right_child=1 6 17 4 9 -7 -8 -9 23 -11 -12 -13 20 14 15 -17 49 46 19 -21 43 22 -24 37 -26 48 27 -29 29 -31 50 -33 -34 35 -36 36 -38 -39 39 -41 55 42 -44 -45 -46 -47 -48 54 -50 -51 -52 53 62 60 -56 -57 -58 -59 -60 -61 -62 -63 64 -65 -66
leaf_value=-0.084387444466112127 0.12789429945018438 0.051643137849839031 0.082322285213970781 0.15511027454204029 0.3173950822446806 0.42405373029260868 0.20699720858979551 0.12124479597753224 -0.055001099037540517 0.086625122275461902 0.21940998265368461 0.10532309717879576 0.051586326739957167 0.33416668952837392 0.19319761786879608 -0.00635738710624456 -0.10593013097138924 -0.1037711104509149 0.19351265690516439 -0.05403483423677749 -0.10491681197953467 0.16742603972960007 0.11068231476354434 -0.10391487980423067 0.1506669717586471 -0.024901834110651583 -0.069493513312026203 0.095977159163576409 0.058728570968637719 -0.076530875331602577 -0.10407378835695365 -0.10421126524768409 -0.035001332582720548 -0.065794532007835402 -0.065402405784439732 0.063877059249083323 -0.089126985426430105 -0.018017018529864145 0.028477590719159153 -0.10390882417778327 -0.10361444484441135 -0.086290873389302317 0.066769332879224041 -0.026382644604137636 -0.042676306485889423 -0.061767813929483342 -0.065813848929307209 -0.10394104057753595 -0.06851829044668703 -0.066017715823285181 -0.06398576612087567 -0.10418801736611344 -0.10361381539592403 -0.10384569981136194 -0.10413592162572716 -0.10400444209777052 -0.10427747053800461 -0.1035933025639702 -0.10409376240729035 -0.10382244602081435 -0.10363330439612482 -0.10376345169795538 -0.10351130211305436 -0.10354098357920152 -0.10347423290752444
leaf_weight=5.0687300860881868 6.3596612773835641 8.8177593238651806 5.9015020392835122 5.7685918137431207 5.3982170931994897 6.0011943615972996 5.0892679058015338 8.8275505155324918 8.1442097499966604 6.2227460406720638 5.2188873477280131 5.7029558196663848 8.9175214804708975 5.4545789621770409 5.0149917006492606 8.0889613628387433 6.134602025151251 5.8944167271256465 5.7024470418691617 7.9996479563415051 7.396424185484646 5.5193875059485489 5.1148550808429709 7.9439206570386904 5.1031754128634921 5.003353685140608 5.6367731764912588 5.4606547951698303 8.5960156843066198 7.241028878837823 5.5862629711627942 5.4932837635278693 5.771577138453722 5.2468280531466034 7.7902675792574883 5.3630383014678937 6.790518406778574 6.9682250879704943 5.2871999070048314 7.7822270169854164 5.0350734554231185 5.6416323073208314 5.2618301175534725 5.1054412312805653 6.5077255181968203 7.0047911517322055 5.2211768329143515 6.0836360678076797 5.4167874827980995 5.0144577212631702 5.00473577901721 8.2600073628127593 6.2936716750264194 5.0551382973790151 5.2621255815029135 5.1995789967477313 5.0047554522752762 7.571742456406354 5.3036273308098316 5.2077688761055461 5.0699002854526043 6.387891948223114 5.0126155428588373 5.2774925865232944 6.4247821494936943
leaf_count=135 105 170 160 132 75 86 95 191 216 117 100 124 194 111 99 180 137 169 141 218 173 140 130 221 137 116 128 115 229 192 153 144 151 147 218 150 193 185 148 219 150 155 139 123 173 176 141 169 117 108 140 222 188 144 141 145 132 227 143 148 151 184 153 160 198
internal_value=0 0.103861 -0.0148102 0.00469604 0.0432038 0.27168 0.0210711 -0.0296579 0.026636 0.193823 0.0547163 -0.0405216 0.041938 0.0713628 0.147652 0.070014 -0.0263189 -0.0561633 -0.0390277 0.0489878 -0.0210409 -0.0476356 -0.00572104 -0.0347356 0.0242266 0.0194753 0.0609004 0.0119288 -0.0637656 -0.00311488 -0.0274701 0.00891397 0.0639517 -0.0563885 -0.00172929 -0.0698063 -0.0216104 -0.0739533 -0.0832342 -0.0503523 -0.0777696 -0.066526 -0.0124266 -0.0728455 -0.082483 -0.0909881 -0.097895 -0.0973003 -0.0475753 -0.0879789 -0.0851303 -0.0997151 -0.103685 -0.103941 -0.103833 -0.103746 -0.104055 -0.103753 -0.103924 -0.103659 -0.103739 -0.10385 -0.103534 -0.103577 -0.10349
internal_weight=0 37.4169 366.035 248.716 117.268 12.3609 25.0561 131.447 105.647 11.621 72.483 122.62 67.2641 45.8447 18.5585 13.104 19.9668 117.319 83.1691 13.7021 21.4194 116.917 32.4901 33.1643 13.2474 27.2862 16.866 11.0974 84.4267 15.837 27.3752 16.7842 11.291 69.467 13.6918 55.7752 12.1536 19.9169 43.6217 13.0694 68.5897 47.8698 10.9035 12.5019 36.9663 30.4586 34.1503 30.5522 10.4201 11.1491 10.591 23.4538 28.9291 18.385 25.3054 20.7199 12.9487 20.0433 11.198 15.5203 10.125 12.4715 17.7311 10.3126 11.4374
internal_count=10171 701 9470 6163 2671 191 510 3492 2479 192 1588 3301 1488 998 390 279 415 3307 2315 359 490 3177 858 891 353 608 375 243 2319 421 728 435 291 1956 378 1578 343 538 1235 367 1898 1295 294 296 1001 828 992 868 233 245 293 652 851 517 721 603 353 580 312 458 295 353 539 310 351
is_linear=0
shrinkage=0.1


Tree=3
num_leaves=64
num_cat=0
split_feature=239 20 35 327 244 1 511 514 512 459 508 470 24 504 513 459 335 500 283 89 3 8 405 28 262 204 493 184 398 477 430 263 472 97 429 35 426 471 211 5 29 223 2 397 25 451 71 119 1 357 511 2 238 229 477 233 229 412 510 51 223 229 450
split_gain=37.4871 45.975 32.4471 31.2577 25.0135 31.994 26.9535 15.6433 19.4206 25.9974 16.8925 14.5377 20.2474 15.5274 13.6218 12.2604 10.9968 10.7284 10.0084 9.43664 8.8622 21.0475 8.63877 6.48797 7.3374 8.41172 6.31979 6.44425 5.66285 6.75858 4.47963 4.34645 4.15117 4.01681 3.91785 3.54125 3.21026 3.99769 2.86399 2.47933 2.40086 5.13812 2.11312 5.07929 4.49379 1.66486 0.989029 0.664069 0.507245 0.372042 0.123217 0.00163238 0.000407446 0.000283199 0.000110059 7.52926e-05 6.22629e-05 5.15289e-05 4.33401e-05 1.86355e-05 1.80155e-05 1.35169e-05 9.80422e-06
threshold=0.11672721580102757 10.178854745433247 0.0055460041211015266 101.85388860888831 16.538843746848194 183.19787371359499 0.087624181164412604 4.5000000000000009 39.931202790334375 18626.068926508251 0.70702221618186967 53881.612449967157 8.7386060316288887 52380.899870761968 14903.000000000002 1523.7451629173536 51.630113868122969 18718.791304383816 3.5500000000000003 2.1551680750625537 8.6825372656185351 49.689458214538867 31816.053571428576 6.9429535318939992 22.732765338273193 1.7901968417309628 62189.639152870026 0.002963467777858744 57329.687500000007 23357.538803866973 61839.507936507944 26.614884038363922 59594.106563476882 0.032351121435188653 61164.500000000007 0.023034696855271434 57730.03333333334 67220.72437610144 0.7536606814798511 35.867331238715558 6.8997083886561539 0.59781217161589062 0.33724625603943986 30448.321428571431 0.0083086443386981863 3561.8132251617449 3.4536730484038638 1.6846016534499653 166.54300096566956 97.80384856072547 16.206699657403885 0.018865788886063616 0.15512895117379286 0.22999080171971198 44351.257192320198 0.167507376095717 0.23214401368228746 61677.225000000006 0.50025025025025038 5.1421981762055378 0.60101428058871842 0.22999080171971198 48927.920895482101
decision_type=2 2 2 2 2 2 2 2 2 2 2 2 2 2 2 2 2 2 2 2 2 2 2 2 2 2 2 2 2 2 2 2 2 2 2 2 2 2 2 2 2 2 2 2 2 2 2 2 2 2 2 2 2 2 2 2 2 2 2 2 2 2 2
left_child=1 7 3 4 5 -3 -7 10 17 15 26 12 20 -13 22 -10 23 19 38 35 46 -22 -12 24 25 31 27 28 36 -30 34 32 39 -16 -31 48 37 42 -5 -2 52 -42 43 44 -1 -6 -8 -25 -9 50 -44 -40 -41 55 -38 -49 -43 62 -54 -60 -55 -61 -28
right_child=16 2 -4 18 45 6 11 8 9 -11 14 13 -14 -15 33 -17 -18 -19 -20 -21 21 -23 -24 47 -26 -27 57 -29 29 30 -32 -33 -34 -35 -36 -37 54 -39 51 40 41 56 49 -45 -46 -47 -48 53 -50 -51 -52 -53 58 60 -56 -57 -58 -59 59 61 -62 -63 -64
leaf_value=0.063272815535548574 -0.016529450426622395 0.36187454402784147 0.29616284371153051 -0.028783469889700715 -0.086564137075717251 0.27356557493869443 -0.10569062684171771 -0.070114329623825133 0.087451818204293097 -0.070252364231335532 0.21089669547637557 0.28539035218940162 0.20831707167916533 0.043108212791098659 0.037767979173891596 0.2752397405307454 0.065758404034353499 0.11106167984198585 0.088909124108920129 0.087380503709266796 0.15836264319953763 -0.10533967179826483 0.036255558634602919 -0.063835075915147643 0.037088904711726337 0.067285485128686387 -0.10350669950804031 0.071256213578375416 0.075173657774013969 -0.10384614988977442 0.033266618246675754 0.020393155906171412 0.015426966247459057 -0.06841255922513266 0.00020500309611962023 -0.0067236065226919627 -0.10373781980285841 0.025208496561604329 -0.10417270220655024 -0.10448889571171789 -0.0023733886891666861 -0.10405493235057606 -0.104243623048577 -0.10374601731237765 -0.064778562421347649 -0.0058138405537685942 -0.04519558418747141 -0.10417683338867663 -0.10477796510890142 -0.063709107083947392 -0.08394487153988095 -0.10667581562916756 -0.10380137275088447 -0.10316257424127835 -0.10431246067380906 -0.10366401564425487 -0.10358629707108589 -0.10378013756226211 -0.10367834143543467 -0.10355360241384033 -0.103395300415772 -0.10332718593265917 -0.10332568771775835
leaf_weight=5.9752458501607197 5.6516725420951834 5.109964281320571 6.1248421519994727 9.1723671387881094 5.198561314493416 7.3694482352584592 5.8529596328735405 8.7919445615261882 6.6512920465320367 5.5537373069673768 5.6870417371392268 5.3242391813546401 5.0894369482994071 5.2569521777331829 6.2865458056330672 7.2843355890363455 7.6229005195200434 6.0070716943591824 5.0039617512375107 5.2016798704862586 7.1019532978534681 5.2746962308883667 5.6428454369306564 5.0213933791965273 9.9086671620607358 5.2514380738139144 5.0814978331327456 5.1244608238339415 7.2486787829548147 9.7853009365499037 6.5456948094069949 5.5851086732000104 5.0241815391927949 8.2231247220188362 5.7422601878643027 8.2130718082189542 8.8360456191003305 6.1991215236484996 5.3562035690993053 6.9385550823062685 8.8542216587811726 5.1447700690478069 7.364167036488654 7.129456413909792 5.0625930223613977 5.0175746697932482 5.020816070958972 5.4136349130421895 8.1207988839596492 5.0093387216329566 5.0350258257240057 5.0727391038089991 8.466608280315997 9.6222233381122333 5.3516182731837025 6.0767648387700319 6.3148610517382622 5.0160238798707715 5.0535001456737509 5.4894719272851926 5.0835554469376794 5.0737263783812523 7.2778458911925554
leaf_count=167 141 83 70 219 111 136 124 229 111 115 116 89 104 87 135 107 195 138 61 130 111 120 116 153 271 146 158 130 194 284 173 133 143 194 151 220 262 180 146 181 247 143 204 210 132 113 118 150 207 151 147 103 249 324 141 181 192 146 150 168 162 164 235
internal_value=0 0.0159077 0.073761 0.0579625 0.0960108 0.124416 0.0982032 -0.0122931 0.0321651 0.1127 -0.0308663 0.0649995 0.0276552 0.16502 0.041751 0.185611 -0.0505242 -0.0110325 -0.0373182 -0.0352162 -0.0118911 0.0459777 0.123917 -0.0583015 -0.0436477 -0.0546294 -0.0482751 -0.0376597 -0.0442041 -0.00860536 -0.0361177 -0.0641007 -0.0717107 -0.0224082 -0.0653669 -0.0605968 -0.0628563 -0.0488985 -0.0695424 -0.079393 -0.0863138 -0.0595892 -0.0618117 -0.0379544 0.00454103 -0.0469043 -0.0777579 -0.0971481 -0.0867584 -0.0867088 -0.0960008 -0.10539 -0.103814 -0.103534 -0.103955 -0.103906 -0.103797 -0.10351 -0.103619 -0.10352 -0.103243 -0.103445 -0.1034
internal_weight=0 281.795 92.3467 86.2219 61.6166 51.4005 46.2905 189.448 55.8239 19.4894 133.624 38.9211 28.3399 10.5812 25.8396 13.9356 121.597 36.3346 24.6053 30.3275 23.2504 12.3766 11.3299 113.974 82.7568 72.8481 107.784 90.409 85.2845 29.3219 22.0733 67.5967 62.0116 14.5097 15.5276 25.1258 55.9626 41.7749 19.6013 56.9874 51.3357 20.3139 35.5758 18.1673 11.0378 10.2161 10.8738 31.2176 16.9127 17.4085 12.3992 10.4289 31.0219 26.1962 14.1877 11.4904 11.4596 17.3754 24.0833 15.6167 14.7058 10.5632 12.3593
internal_count=10171 6678 1795 1725 1196 972 889 4883 1257 333 3626 753 577 176 561 218 3493 924 529 786 473 231 232 3298 2328 2057 3065 2526 2396 802 608 1911 1778 329 435 656 1594 1191 468 1635 1494 582 1011 509 299 224 242 970 436 502 351 249 912 817 403 331 335 539 731 482 486 332 393
is_linear=0
shrinkage=0.1


Tree=4
num_leaves=65
num_cat=0
split_feature=237 509 509 443 512 0 76 118 24 25 426 349 2 76 73 115 215 512 405 508 226 51 514 127 514 509 263 229 228 199 501 396 6 294 260 359 33 449 412 71 429 37 115 5 496 476 478 50 508 1 90 493 0 509 327 28 411 28 239 426 29 387 20 74
split_gain=31.9304 31.449 34.022 19.4005 28.6485 25.1523 18.9201 27.1334 15.7585 17.4019 13.4923 13.9807 20.5424 12.1819 15.3528 24.0875 12.0447 10.057 10.6164 8.50798 8.17341 10.4759 11.8043 16.2277 8.0603 13.1995 22.1963 7.57433 7.36253 9.24469 7.30744 7.26688 6.16344 6.0357 9.98059 5.9466 5.70416 5.20398 3.54143 2.98333 2.6104 2.49669 3.15847 2.77759 1.8797 1.94874 3.90074 1.36611 1.07994 0.919444 0.173177 0.172804 0.136563 0.000601099 0.000426905 8.36411e-05 6.02396e-05 5.16117e-05 3.99644e-05 3.17634e-05 2.97656e-05 1.64094e-05 1.39231e-05 5.89007e-06
threshold=0.1425034109605523 0.73607759345180368 1223.9391772805664 16353.603792411423 40.750048167220143 30.608716840126863 3.3673309782610263 0.029746402015775223 8.5928056172149851 1.7368916175671683 83082.833333333358 73.29114897052078 0.097625915435198177 3.4008207227108636 3.4277013196742607 1.6824839794811113 2.2486710316493346 24.267676020483645 88618.055555555577 0.57057614587355809 0.67898676462444407 5.1939438484653353 4604.0000000000009 1.7064983270749623 28500.000000000004 7874.107156341187 18.638358008022163 0.22999080171971198 0.22241208143315019 1.7160574254039325 104916.94702367633 67353.300000000017 1.0000000180025095e-35 66.720850606076525 75.561177803813123 96.565379636366046 0.017583985851558143 50811.778516506158 82372.72500000002 3.4881050309810457 72788.714285714304 0.0054983645228134587 1.7160168468347392 0.0075137229369601783 77098.370815601927 18842.946690542998 17851.826391492013 5.144979933664259 0.42376400992322966 182.55979079413095 1.7431454656028704 75221.812386692938 30.608716840126863 0.49234539639300762 116.54847991978475 6.9411708776139944 63369.562500000007 6.9388247617147547 0.23574603171506014 33818.875000000007 6.9078067641667298 55582.354166666679 10.324974710217296 3.4990344120346255
decision_type=2 2 2 2 2 2 2 2 2 2 2 2 2 2 2 2 2 2 2 2 2 2 2 2 2 2 2 2 2 2 2 2 2 2 2 2 2 2 2 2 2 2 2 2 2 2 2 2 2 2 2 2 2 2 2 2 2 2 2 2 2 2 2 2
left_child=1 8 3 4 6 -6 7 10 19 -10 11 12 -3 17 15 -15 -14 18 24 30 27 22 23 -22 32 26 -26 28 37 -30 31 33 -4 38 -35 -36 47 39 40 57 44 42 43 -34 45 46 48 49 52 -19 55 53 -1 56 -49 58 59 60 -29 -47 -2 -61 -60 -57
right_child=20 2 13 -5 5 -7 -8 -9 9 -11 -12 -13 16 14 -16 -17 -18 36 -20 -21 21 -23 -24 -25 25 -27 -28 50 29 -31 -32 -33 41 34 35 -37 -38 -39 -40 -41 -42 -43 -44 -45 -46 51 -48 54 -50 -51 -52 -53 -54 -55 -56 63 -58 -59 62 61 -62 -63 -64 -65
leaf_value=-0.084248888893186935 -0.10345569276541262 -0.010089146970984463 0.057387722493014215 -0.088728406732470774 0.080723710494227899 0.36865469582457411 -0.052414631056594385 0.27151751132412788 0.20094965138778598 -0.048056452107877339 -0.061608041235626236 -0.046845820502805315 0.30013032841075471 -0.0070307638512211897 -0.024060610590267456 0.28833080766763808 0.10259577310221113 -0.085563165104391173 0.15088455390308339 0.073025453520684902 -0.026922592757392613 -0.10420306098526139 -0.055458566322498265 0.21558234555815498 0.26564850604480883 -0.054903375341973981 -0.00015458662058644493 -0.10348651707004133 -0.067919741899523531 0.10652300812847876 0.065451821166390339 0.064762167017916608 -0.053548355608884837 0.10430341828518155 -0.10395842100880957 0.023725365206986454 0.035442330522197057 0.023417702669284057 0.01117467651102644 -0.02410150708054308 -0.0049322753568174721 -0.10440605947931432 -0.090672429021602691 0.043587467405599552 -0.02920309946963566 -0.10340290594083529 0.014249337885922812 -0.10561974135485759 -0.043797571746650443 -0.024955530279200111 -0.083156136830278865 -0.083472336144386636 -0.10441560951986739 -0.1044509445058442 -0.10444092942343995 -0.10289602399279625 -0.1035744264084187 -0.10319723449553608 -0.10329697659351285 -0.10320105582042026 -0.10375555606117032 -0.10298143611443462 -0.10308182482618994 -0.10303199098980452
leaf_weight=5.1309587080031696 8.7232323326170533 6.1009248718619444 6.1359441727399853 5.1485354490578166 5.2098473794758302 7.2640279922634363 9.0019632522016746 8.0775892660021764 6.1561919972300512 5.1581398546695709 6.5670824982225886 5.0715958122164002 7.0493210498243553 5.0739690996706504 8.6227390859276039 6.0573221426457167 5.491420965641737 5.0099805500358396 5.0663436017930499 6.7092903070151797 5.1586078107357078 7.4301589187234631 8.1960610970854741 5.9331244025379419 5.3496819324791449 7.8278899919241658 7.6117533221840858 5.9926447141915622 5.5896317474544031 6.6550339050590992 5.8742474336177102 5.3027815744280806 5.750221157446509 5.7567932233214405 8.7274613324552757 6.2665143422782412 5.0030957683920851 5.5056562088429919 5.2073348667472592 6.2945015411823979 5.0473759379237881 7.143806440755724 6.4954863730818024 6.0317110978066921 6.6711798869073382 5.0765160638839104 5.0870511606335631 6.2498952578753215 5.0209048967808476 5.0022524949163198 5.0206481479108325 5.0565377790480843 9.7169799562543613 5.2407544776797286 6.0422198958694935 8.4662132356315833 5.1272037848830214 5.0670752432197324 5.171395951882003 8.3066524025052768 5.334727866575121 5.7620594576001158 7.1890731360763311 5.1085265316069117
leaf_count=154 277 108 133 95 65 85 162 103 97 104 122 105 106 121 201 102 50 118 111 131 133 204 224 149 86 166 174 187 168 194 140 120 128 158 245 178 131 164 146 197 140 187 136 132 186 162 157 148 155 121 175 173 268 145 162 310 159 171 170 280 156 206 250 180
internal_value=0 0.0125679 0.0407264 0.0975407 0.113569 0.248397 0.0780568 0.108676 -0.0251816 0.0874292 0.0652367 0.100365 0.140414 0.00538827 0.0761045 0.153696 0.213633 -0.0111005 0.0126612 -0.0362524 -0.0512127 -0.00331587 0.0355485 0.102797 -0.000716714 0.0476293 0.109553 -0.0671854 -0.0387398 0.0268907 -0.0430173 -0.0492333 -0.0325662 -0.0554522 -0.00762211 -0.0505948 -0.0610584 -0.0647259 -0.0684345 -0.0838171 -0.0742532 -0.0542785 -0.0346859 -0.00382008 -0.0795388 -0.0851801 -0.0638846 -0.0827045 -0.0838894 -0.0552827 -0.100421 -0.100553 -0.0974467 -0.10348 -0.10504 -0.103135 -0.10327 -0.103471 -0.103275 -0.103188 -0.103569 -0.103111 -0.103172 -0.102947
internal_weight=0 295.86 169.457 64.9823 59.8338 12.4739 47.3599 38.3579 126.403 11.3143 30.2803 23.7133 18.6417 104.474 19.754 11.1313 12.5407 84.7203 57.4128 115.089 106.836 26.718 19.2878 11.0917 52.3465 20.7893 12.9614 80.1184 43.1699 12.2447 108.379 102.505 31.5572 97.2023 20.7508 14.994 27.3074 30.9252 76.4515 25.4195 71.2442 25.4212 18.2774 11.7819 66.1968 59.5256 24.9559 22.3043 19.8688 10.0122 36.9485 34.5697 14.8479 29.5132 12.2921 31.9279 24.2724 19.125 18.3531 19.1452 14.058 14.0687 12.3605 13.5747
internal_count=10171 6862 3358 1001 906 150 756 594 3504 201 491 369 264 2357 424 223 156 1933 1253 3303 3309 710 506 282 1142 426 260 2599 1327 362 3172 3032 716 2912 581 423 680 965 2331 801 2185 583 396 260 2045 1859 734 549 577 239 1272 1125 422 952 310 1097 807 604 607 648 433 486 420 490
is_linear=0
shrinkage=0.1


Tree=5
num_leaves=61
num_cat=0
split_feature=239 509 509 377 55 327 407 450 384 458 458 221 26 382 510 329 19 395 263 110 383 28 204 501 513 510 385 51 27 215 396 410 246 408 217 500 19 215 20 344 66 329 504 357 410 476 56 222 511 398 1 510 229 23 229 435 511 216 86 496
split_gain=26.7086 24.5375 19.1654 17.7322 14.1585 15.8006 13.2908 16.3541 18.4898 17.4152 17.3203 13.5044 19.386 11.6493 14.4179 12.0693 16.9048 16.6847 11.0717 10.4444 8.53507 8.2824 13.2162 7.8542 6.83657 6.82164 7.87286 6.38276 8.26489 11.4125 5.63937 5.58772 8.82511 10.0837 5.10594 4.76497 3.83622 3.8006 3.63508 2.2589 1.8919 1.75355 1.73756 1.32387 0.976441 2.75373 0.646481 0.612609 0.166035 0.15162 0.111551 0.00114287 0.000227428 0.000210534 0.000198703 0.000165732 7.46927e-05 4.57498e-05 2.60738e-05 8.15339e-06
threshold=0.14479044002384675 0.57262455401168177 1223.9391772805664 18259.555555555558 5.1151085301414101 93.061513421556768 85793.250000000015 67685.20156639842 46877.736111111117 48664.007409737947 21785.187408615431 0.84125039215566988 0.0035188071631269925 52555.000000000007 2916.9751059712507 67.71162850258635 10.18801314818201 204.34601746294331 22.62313261517377 0.059277136864500458 16295.66666666667 6.9429535318939992 1.7949359083774035 76743.455958696664 4.5000000000000009 0.90045045045045058 8065.9049474847989 5.1754101891087387 6.8746020639745922 0.64823009186458369 67353.300000000017 41286.375000000007 73.383582234761903 52058.750000000007 0.59314911699391837 52831.554124244307 10.196816311608565 0.58091803355902261 10.307297808827306 80.122463837094372 5.1470026066636327 43.917679004143757 1.0000000180025095e-35 62.919660420451649 15031.777777777779 22279.594932827004 5.2315887071977647 0.70726427858428098 10.503242392847552 6113.8750000000009 1.0000000180025095e-35 1575.6323911231714 0.22780787773084429 8.5780966450269727 0.22999080171971198 60283.944444444453 30.430405276987972 0.59999325192456121 1.6877192377594441 51454.120158864112
decision_type=2 2 2 2 2 2 2 2 2 2 2 2 2 2 2 2 2 2 2 2 2 2 2 2 2 2 2 2 2 2 2 2 2 2 2 2 2 2 2 2 2 2 2 2 2 2 2 2 2 2 2 2 2 2 2 2 2 2 2 2
left_child=1 4 3 6 24 -6 7 8 10 -10 11 12 -3 14 25 16 -16 -18 41 -17 -14 22 27 -9 30 26 38 28 36 34 31 32 33 43 -30 42 -2 -29 -4 49 53 -19 -33 44 50 -46 54 52 -44 51 -1 -27 58 -38 -23 56 59 -56 -39 -50
right_child=21 2 13 -5 5 -7 -8 23 9 -11 -12 -13 20 -15 15 19 17 18 -20 -21 -22 46 -24 -25 -26 39 -28 37 29 -31 -32 35 -34 -35 -36 -37 40 47 -40 -41 -42 -43 48 -45 45 -47 -48 -49 55 -51 -52 -53 -54 -55 57 -57 -58 -59 -60 -61
leaf_value=-0.087246282035083209 0.017592984196524285 0.022387361155478416 -0.0058190311574724983 -0.070057281966916407 0.18194957367889569 -0.050072391656582484 -0.049145010708319503 -0.077910548112243266 0.12127136922039433 0.33471507754631563 -0.075518412659130341 0.018364809349329884 0.29418961080704026 0.14658377093210614 0.19476333355862066 0.074099697000485187 0.13841606020466907 -0.031230603127898923 0.093333591285886849 -0.10412677038169574 0.13890694157379829 -0.10340965608499744 0.12029759570608856 0.088071427021893398 0.061515754204054779 -0.10615125112725066 0.064086635336802686 -0.0079734300500040583 -0.086090668833104109 0.15853407406209652 0.052453540960096849 -0.043326819940843198 0.056934509648911884 0.0560593689565708 0.051496839697764668 0.01337731663565906 -0.10443634494455199 -0.10399989201877664 -0.10578069719951672 -0.030847801892249723 -0.038683914069563653 -0.10605114340797671 -0.083252604029697086 -0.026612374155054033 -0.0041708698986146937 -0.10324128652972082 -0.063481876376166438 -0.064301419742244112 -0.10283142325507628 -0.084353973715637007 -0.10456440761480856 -0.10419166165596526 -0.10314933963438702 -0.10354129533676343 -0.1026500651376407 -0.10371153030821506 -0.10330466177641751 -0.10304051160641614 -0.10367698050697485 -0.10299946187912074
leaf_weight=6.085977919399741 5.697497937828305 6.9190543182194295 8.0279296636581439 8.029640516266225 6.549998162314294 5.3180441167205572 6.5259368959814301 6.6319552510976774 8.5916165541857463 6.8866991195827714 5.6264053620398036 9.8599606808274967 8.073499843478201 5.5278629790991536 7.9452531673014155 5.0443031825125209 9.3334461431950348 5.2528497613966483 5.5045270752161732 9.444089148193596 6.303129030391573 9.7045816034078651 5.335364267230033 5.0004271529614925 6.555250070989131 5.3301439583301597 9.9543395433574897 6.2628512214869287 5.6473580375313777 5.3198660574853411 5.7057784646749488 6.6369952727109185 9.9366534203290922 7.4933828990906468 5.1632421594113111 5.1191651262342921 5.1033143196254986 5.0015888884663635 6.652424342930316 6.8035044353455296 7.6755201090127221 7.7596624325960875 5.0063705872744348 5.218763329088687 5.0397879257798177 6.3290257509797812 5.0663040224462739 5.0297013763338319 6.1078260913491302 5.0040454305708399 9.5649180579930526 6.7392975874245167 9.1890877895057184 5.4181748349219561 7.4886766225099546 5.1453072130680075 8.2442717943340522 5.0078388266265392 5.0006589498370886 5.4765180833637714
leaf_count=184 136 128 180 172 110 109 104 120 134 81 83 125 94 111 153 132 171 102 114 265 79 321 141 71 120 117 199 195 175 144 122 208 274 210 169 150 137 147 151 180 233 166 173 176 165 216 187 146 231 140 264 192 326 172 299 157 275 183 155 197
internal_value=0 0.010592 0.0333946 0.0707371 -0.0254812 0.077981 0.0867915 0.100676 0.124545 0.216238 0.0859595 0.115121 0.159919 0.0053141 -0.00259028 0.0349321 0.0661009 0.0293957 -0.0255556 -0.0420751 0.226109 -0.048447 -0.0314534 -0.00655966 -0.0373259 -0.0414836 -0.00456562 -0.0429364 -0.0166789 0.0386279 -0.043998 -0.0500188 -0.0273541 -0.0484341 -0.0203776 -0.0769909 -0.0540149 -0.077412 -0.0511168 -0.079573 -0.0764354 -0.0758478 -0.0896245 -0.0727221 -0.081628 -0.0593234 -0.0957146 -0.0953668 -0.0998739 -0.0989892 -0.0978301 -0.105057 -0.103508 -0.103975 -0.10307 -0.103206 -0.103075 -0.102807 -0.103838 -0.102911
internal_weight=0 298.306 182.772 78.4483 115.534 11.868 70.4187 63.8927 52.2604 15.4783 36.782 31.1556 21.2957 104.324 98.7958 50.2841 35.7957 27.8505 18.517 14.4884 14.3766 103.112 75.8442 11.6324 103.666 48.5117 24.6347 70.5089 40.025 16.1305 97.1107 91.405 49.6685 39.7319 10.8106 41.7365 23.8945 30.4839 14.6804 23.877 18.197 13.0125 36.6173 32.2385 27.0197 11.3688 27.2674 24.221 29.9803 17.0735 15.6509 12.0694 19.1913 10.5215 22.2011 24.9739 19.8286 12.4965 10.0022 11.5843
internal_count=10171 6905 3564 1191 3341 219 1019 915 724 215 509 426 301 2373 2262 1103 706 553 382 397 173 3266 2276 191 3122 1159 530 2135 1166 488 3002 2880 1489 1215 344 1391 678 969 331 629 542 268 1241 1005 829 381 990 774 1033 449 448 309 628 309 803 860 703 482 302 428
is_linear=0
shrinkage=0.1


Tree=6
num_leaves=58
num_cat=0
split_feature=237 509 509 443 427 449 360 52 32 510 68 311 217 223 2 404 477 316 493 403 3 28 263 261 442 513 411 476 476 262 320 67 130 33 326 201 275 500 229 404 223 66 2 121 438 89 464 113 69 476 57 226 229 207 412 229 387
split_gain=22.7073 19.9481 15.1942 14.9365 12.5286 15.9674 13.8012 14.3795 17.8774 12.8785 12.0566 9.96772 9.8536 10.2468 10.1835 8.56437 8.2184 8.20371 8.0969 7.71116 9.6402 7.476 10.7212 12.7199 7.40237 10.3582 7.48961 8.81894 6.82829 6.79885 6.76222 5.62023 7.15884 5.84919 6.86743 5.90902 8.60834 6.17596 5.11917 4.93627 4.35507 7.39334 3.58978 7.1094 8.81658 3.45489 2.47863 1.06 0.630898 0.594586 0.114406 0.000353676 9.26643e-05 8.29739e-05 5.97224e-05 4.89299e-05 3.49244e-05
threshold=0.14375575526259191 0.57262455401168177 1223.9391772805664 15065.898394057882 70302.896825396849 46069.389216290649 68.985613610566091 16.485225001662538 5.6425492814813589 0.40235666874812098 3.4601305724973739 43.866182363774058 0.84519168715194881 0.62393702983358756 0.015298531734383268 68570.527777777796 54670.029325059702 23.359695637336909 62189.639152870026 9201.8125000000018 8.7494011596937415 6.9429535318939992 23.557880241998934 73.933356241222228 13510.191397840546 2.8799883483833386 62729.916666666679 21105.834868722595 33861.062998204892 22.732765338273193 70.040576813646297 3.4609751332360625 0.0073616693054033219 0.010606076553951337 94.229373211187266 1.7016959880414448 66.209741308525921 18501.568943387105 0.28095552144441932 93280.013888888905 0.60442931228105679 5.1470026066636327 0.26295828334715782 1.7145498720535362 15281.476190476193 1.7275956328729942 39875.636032528339 1.686357971897732 3.4992281477875613 53606.652013727384 5.1569996815890153 0.68410827940429508 0.22967406365991069 0.6248918252771819 58950.705555555563 0.22999080171971198 48749.701388888898
decision_type=2 2 2 2 2 2 2 2 2 2 2 2 2 2 2 2 2 2 2 2 2 2 2 2 2 2 2 2 2 2 2 2 2 2 2 2 2 2 2 2 2 2 2 2 2 2 2 2 2 2 2 2 2 2 2 2 2
left_child=1 10 3 4 5 6 7 8 9 -3 18 -11 13 16 -15 -7 19 39 24 20 31 22 29 -24 25 26 27 30 -28 38 42 32 33 34 35 36 -4 -37 40 -17 41 50 43 44 -1 -33 -30 -21 53 56 -2 52 -42 55 -20 -23 -29
right_child=21 2 12 -5 -6 15 -8 -9 -10 11 -12 -13 -14 14 -16 17 -18 -19 54 47 -22 48 23 -25 -26 -27 28 49 46 -31 -32 45 -34 -35 -36 37 -38 -39 -40 -41 51 -43 -44 -45 -46 -47 -48 -49 -50 -51 -52 -53 -54 -55 -56 -57 -58
leaf_value=0.1137120509031368 -0.083097315965905846 -0.020141213971283458 -0.064724129182690507 -0.078078877735463056 0.17939837470253323 -0.078845054129758535 -0.051735544455026511 0.0011975601598804338 0.28888099059850297 0.22939727728118597 0.12561574059370986 0.057863217962205886 -0.10556437906957557 0.023199694701833348 0.20575453187458037 0.060770593490336457 0.089069843126123066 0.14007525858184666 -0.10268770690106598 -0.10516455883071672 0.13058335695233519 -0.10278688844378681 0.14741364676056726 -0.045811647325434773 -0.10438292368716354 0.11716395224068013 0.10183571548376087 -0.10325628215486485 0.035405813459091308 0.031769074121257672 0.067784428429633059 -0.10553427580067923 -0.088595658887464998 0.11919782193516132 -0.088106344317425617 0.17004506272623854 0.091516859006123552 0.013273812057854301 0.03067575888969036 -0.075326393526467306 -0.10327013559760856 0.025379738915322494 -0.082487438662386031 -0.091744174810441489 -0.053108571370236703 -0.010869202999241198 -0.05819284473479483 -0.04615186122882331 -0.062934368309348163 -0.069543913409749067 -0.10321645182402578 -0.10379299344369389 -0.10277299537878506 -0.10301890841758915 -0.10311899649369086 -0.10240606980902905 -0.10292082252399769
leaf_weight=6.7936957925558144 5.004432428628208 5.7597728688269916 9.5739289131015592 7.0724643506109706 9.79652460105717 9.4888591095805186 5.3650375213474026 7.8225198760628691 7.2965750508010379 8.0991268567740899 5.1242483593523493 5.8233598098158827 7.6529868301004162 7.6761257257312518 5.0765503011643887 5.1056248378008622 9.2107269335538131 5.4974891413003197 8.7529275529086572 7.7266152519732696 5.4402196388691655 5.5458931010216537 6.7091119159013015 6.9217170365154743 9.5527845118194801 5.8246559146791688 8.2425392046570796 7.6175417862832564 5.014413543045519 8.8303529005497676 8.7171134464442712 8.0726076103746873 6.2937740143388501 5.777623262256383 5.8387058209627858 5.0286876019090396 5.5826554466038933 5.0228296220302582 5.1841163448989382 5.5751390419900417 6.8602487016469267 9.3212110660970193 9.6485921274870616 6.636211158707737 5.936481885612011 7.3795561231672755 6.4924478549510241 5.0222217179834843 5.0241549853235474 8.9440451115369779 6.4940289314836264 8.8965568952262384 8.2681326400488597 5.3044796083122483 5.0707036405801764 8.6150818187743408 5.2371489927172661
leaf_count=144 180 106 203 166 112 150 100 103 61 92 80 73 191 165 91 60 197 73 350 184 97 214 140 217 272 117 215 264 140 250 230 187 164 135 140 92 129 109 142 86 233 313 337 131 184 174 176 116 199 322 224 270 322 196 180 377 196
internal_value=0 0.00884398 0.0287432 0.0608931 0.073889 0.0581884 0.097557 0.120572 0.155185 0.105621 -0.024275 0.15765 0.00374801 0.0122219 0.0958706 -0.00341958 -0.000186425 0.0408189 -0.0313553 -0.0108967 0.00324831 -0.0467587 -0.0306208 0.0492941 -0.020915 -0.0115459 -0.0210021 -0.0387054 0.032361 -0.0491278 -0.00945057 -0.00857902 0.00996494 0.0268102 0.00961746 0.0322523 -0.00717557 0.0917051 -0.0634065 -0.0102692 -0.0742826 -0.0408064 -0.0326547 -0.00782731 0.0359184 -0.0603247 -0.0174048 -0.0819174 -0.0945273 -0.0893435 -0.0944601 -0.103293 -0.102998 -0.102682 -0.102846 -0.102555 -0.10312
internal_weight=0 302.684 189.078 82.7025 75.63 65.8335 40.1664 34.8014 26.9788 19.6823 113.606 13.9225 106.376 98.7228 12.7527 25.6671 85.9702 16.1783 108.481 76.7594 64.0106 96.9795 72.4899 13.6308 94.6577 85.1049 79.2802 59.5308 19.7494 58.8591 37.7321 58.5704 43.1182 36.8244 31.0468 25.2081 15.1566 10.0515 50.0287 10.6808 44.8446 20.8197 29.015 19.3664 12.7302 15.4522 11.5069 12.7488 24.4896 21.7987 11.4985 24.0249 15.1284 19.4655 13.8236 14.161 12.8547
internal_count=10171 6894 3556 1182 1016 904 535 435 332 271 3338 165 2374 2183 256 369 1927 219 3258 1730 1430 3277 2291 357 2728 2456 2339 1808 531 1934 1026 1333 972 808 673 533 332 201 1684 146 1542 717 796 459 328 361 316 300 986 782 404 825 555 787 530 591 460
is_linear=0
shrinkage=0.1


Tree=7
num_leaves=61
num_cat=0
split_feature=119 465 502 410 197 5 230 115 443 291 442 397 397 509 392 254 16 23 386 357 391 405 329 320 70 16 310 196 25 86 230 382 458 458 512 398 508 110 217 16 343 257 12 311 108 437 513 507 98 199 102 86 227 406 397 108 509 237 509 28
split_gain=21.4866 15.0558 12.3507 10.0761 8.89733 18.5031 16.7082 13.8754 9.43644 9.28568 8.75696 8.49363 12.3579 11.6828 7.79567 6.89543 6.63281 6.11739 5.99394 6.91209 7.79146 8.95541 9.84646 9.35864 8.49976 7.75204 7.5908 8.31422 11.6872 13.9214 13.4325 8.35071 7.21379 5.57829 8.49879 6.17936 6.09373 5.35143 5.1529 5.12205 5.12109 4.70272 3.97793 7.08533 3.69985 3.1186 1.89933 1.85838 1.57952 1.16892 1.1615 1.08479 1.02115 0.863563 0.617328 0.160849 0.00795313 0.00475905 0.00433726 0.000252282
threshold=1.7526331182737496 123250.23753690501 40.629984940253131 209029.50000000003 1.7414796455249471 35.943049229479065 0.13252052329973921 1.7370731609183687 13658.677281397706 115.88790560471978 13669.477002995565 83573.652777777796 97837.03333333334 37.208584418687316 49824.476190476198 109.09863537961962 15.435919978965808 8.6698726173844651 53586.535714285717 67.793308563379398 60970.793650793661 48348.98863636364 66.315594815988547 12.796301195813234 3.5241351618895762 0.0077522390295676332 49.144741888333748 1.7095018811917568 1.7171372640323792 0.66241234672814409 0.12293906983386543 32.315789473684212 66938.826091513038 28925.531662113626 24.499498997995996 57544.500000000007 0.45534237186645116 0.050568099832953815 0.658183412629051 15.430361567473721 74.778888653915814 84.818418972332026 19.039022339786026 45.4122239518261 1.6986531708762256 45309.805555555562 421.50000000000006 24237.411889259052 1.7203745198707179 1.7440846045995275 0.010886274414459359 1.7245062366053283 0.4295369817041686 65602.000000000015 62413.597222222226 1.6888477967155253 0.73607759345180368 0.1425034109605523 0.69402946830778467 6.9854696002928973
decision_type=2 2 2 2 2 2 2 2 2 2 2 2 2 2 2 2 2 2 2 2 2 2 2 2 2 2 2 2 2 2 2 2 2 2 2 2 2 2 2 2 2 2 2 2 2 2 2 2 2 2 2 2 2 2 2 2 2 2 2 2
left_child=1 2 3 4 8 -6 7 -7 9 10 11 15 -13 -14 46 17 54 18 19 20 21 22 24 32 26 -25 27 28 29 31 -31 33 53 34 36 -35 -1 40 49 -28 -24 -21 48 -44 -30 -20 -15 -36 55 -8 -12 -39 -19 56 58 -2 -23 -57 -10 -59
right_child=42 -3 -4 -5 5 6 38 -9 16 -11 50 12 13 14 -16 -17 -18 52 45 41 -22 23 37 25 -26 -27 39 -29 44 30 -32 -33 -34 35 47 -37 -38 51 -40 -41 -42 -43 43 -45 -46 -47 -48 -49 -50 -51 -52 -53 -54 -55 -56 57 -58 59 -60 -61
leaf_value=0.13053632383433075 -0.084097469102357103 0.17070271219830013 0.1548455506180304 0.1364428144723355 0.17721867978338618 0.012157119902317005 -0.10322971647429009 0.21198391617100529 -0.10280950134350941 0.091403098953569767 -0.10506408507181349 0.15398343361860484 0.13841574756609409 -0.1105229336443157 0.070281344828092798 -0.10615265826652603 0.034564662250397754 -0.10509110327968102 -0.0049484854764450109 -0.10570421292435006 0.12934031810898242 -0.1033826150542293 0.086823380092838146 -0.031881387131146806 -0.087681463953858063 0.12892598805532032 0.034727684179913516 0.16180803843647162 0.027507957407258438 0.25417441172018423 0.057353105110020723 0.13671221794818808 0.01759743465782029 -0.0080763977861641727 -0.10644651782892776 0.14187854258686269 -0.015458414588525824 -0.10521066697766879 0.034593606493592707 -0.10488004778619189 -0.038348933448086958 0.014096206307697617 0.053107902286948505 -0.10448410429124202 -0.073524320740673096 -0.10471825709567324 -0.029845418823502546 -0.026346629698737467 -0.051910805362071072 -0.043625224994958238 -0.045436514543091319 -0.045661338115959856 -0.044624058595468023 -0.063424124034037146 -0.063565100587612555 -0.10596480990458282 -0.10783887677469434 -0.10330178350922473 -0.10632854595010427 -0.10234237188720337
leaf_weight=5.0385083630681056 5.0137429703027037 5.3153101485222569 5.1484666448086491 5.2367507480084887 7.9307924434542647 9.1287437696009857 9.5807542689144629 5.6105256471782914 9.4647901486605459 9.8197490908205491 9.1849158685654384 7.8864140585064915 5.2887036111205843 6.854021407663824 5.2257056832313529 7.2416704297065726 5.0203167814761391 6.3152536079287511 5.0078347809612742 9.4793563168495876 5.1055062506347886 8.107819266617307 5.1420805081725147 6.7858335338532907 5.4574216231703749 5.3702533673495054 5.0012583006173355 6.3135603461414567 5.8516682945191851 6.5511065945029241 7.366579607129097 6.6784418094903222 7.9706942513585082 5.0757475458085519 6.8445034548640233 5.9922730177640915 6.6091529224067926 7.8283750880509597 5.0318365376442662 5.5380825977772474 8.9703327566385251 5.0076130963861933 6.2692064680159074 5.2354283425956964 9.523958604782818 8.3685345333069545 5.0814863573759794 5.021511759608984 9.438875947147606 5.0111989527940741 5.0701243150979272 5.0212526116520166 5.0073233749717474 6.9728792421519747 5.006113849580287 8.4780210442841071 7.9143123701214781 5.3489350564777833 5.5597767457365981 5.6209806501865387
leaf_count=107 175 104 63 105 138 166 352 101 375 217 252 142 115 118 65 168 143 176 141 223 127 291 119 178 142 91 124 141 131 98 223 104 209 141 188 140 175 202 159 150 227 108 162 156 277 230 101 126 269 174 145 129 171 206 179 204 156 183 134 255
internal_value=0 0.00367701 0.00111574 -0.00120208 -0.00334584 0.0395386 0.00776289 0.0882215 -0.00951626 -0.0040474 -0.00766532 -0.00322893 0.0462977 0.0084688 -0.031578 -0.010234 -0.0682177 -0.00688227 -0.00275194 0.00198296 0.00769631 0.00388494 0.0179484 -0.0351943 0.0333945 0.0391593 0.0409541 0.0518662 0.042028 0.0635127 0.149998 0.03434 -0.0643829 0.0145698 -0.0129853 0.0731098 0.0476955 -0.0352516 -0.0526689 -0.0386317 0.00725957 -0.0642936 -0.0694169 -0.0186077 -0.0350734 -0.0673665 -0.0761749 -0.0725495 -0.0866597 -0.0827602 -0.0838562 -0.0819406 -0.07835 -0.0927996 -0.0939782 -0.100068 -0.105584 -0.104185 -0.104112 -0.10281
internal_weight=0 351.937 346.622 341.473 336.237 42.2939 34.3631 14.7393 293.943 268.892 259.072 244.817 30.3363 22.4499 17.1612 214.481 25.051 207.239 195.916 182.54 168.053 162.948 119.826 43.1218 92.8638 12.1561 87.4064 76.867 70.5535 55.1778 13.9177 41.2601 30.9657 34.5817 23.5137 11.068 11.6477 26.962 19.6238 10.5393 14.1124 14.487 45.4052 11.5046 15.3756 13.3764 11.9355 11.866 33.9006 14.592 14.255 12.8496 11.3226 22.995 20.0307 24.4617 16.0221 19.4479 15.0246 10.9699
internal_count=10171 8767 8663 8600 8495 1090 952 267 7405 6574 6357 5960 541 399 284 5419 831 5251 4904 4533 4202 4075 2944 1131 2267 269 2125 1851 1710 1302 321 981 862 877 596 281 282 677 685 274 346 331 1404 318 408 371 219 314 1086 526 397 331 347 653 688 817 447 642 509 438
is_linear=0
shrinkage=0.1


Tree=8
num_leaves=61
num_cat=0
split_feature=16 35 451 439 329 334 392 507 263 263 201 236 197 377 291 273 301 108 435 500 323 316 71 75 121 203 34 501 504 77 205 0 414 414 410 125 65 470 269 261 6 69 108 435 62 439 392 443 395 509 439 35 509 237 509 37 122 209 229 5
split_gain=25.6296 16.5803 13.6051 12.9689 12.0244 11.9437 14.9174 11.3525 10.0596 39.13 22.8209 11.6931 13.9178 12.2503 14.3129 11.2315 12.5969 10.9288 9.60873 9.0465 8.84361 8.62226 8.43098 6.37512 5.57527 4.98077 5.28343 4.90124 10.2508 4.32405 9.21479 3.67248 3.62183 7.23592 4.24542 4.27416 7.21965 4.2275 3.90375 3.12425 3.05152 2.88745 2.56287 2.1701 1.65907 1.60657 1.0165 0.904364 0.690939 0.472264 0.155508 0.133653 0.00679013 0.00595437 0.00274946 0.0026061 0.000768595 0.000289631 9.93881e-05 2.49057e-05
threshold=16.528116457034134 0.0055435445594162027 3107.9477392159029 48866.138888888898 115.86523275075865 39.524848346000724 4330.6895306859215 59082.365321510471 23.557880241998934 31.778971914418566 1.7264045873506439 0.10322919898543494 1.7421736060376911 11683.277777777779 113.83734821778302 64.832676082171687 72.899553367507494 1.7018893629095955 103327.72916666667 72997.837974330556 69.494245044164458 100.38894498720505 0.04436803296881222 3.4140027705036946 1.7704237908888811 1.7565006622373793 0.071801782850111087 48160.629892930687 21050.50930437641 3.4107734665663187 1.7465803956764236 116.3419228234652 54036.416666666679 41326.333333333336 38235.020833333336 1.7268841681803913 5.0971150863355987 12806.653672476275 65.986728606171155 74.218086356598874 0.027212869886753522 3.5093221818960818 1.7083738901570114 1.0000000180025095e-35 16.394080703301555 52651.960317460325 196.17502013915558 13658.677281397706 4757.4204529701265 2522.0801279160496 50433.062500000007 0.04403590846308527 0.65480249038465754 0.1425034109605523 0.43602351393646621 0.0026827098183434101 1.7587577868611881 0.67616295855822095 0.23054290174391354 36.174310098029274
decision_type=2 2 2 2 2 2 2 2 2 2 2 2 2 2 2 2 2 2 2 2 2 2 2 2 2 2 2 2 2 2 2 2 2 2 2 2 2 2 2 2 2 2 2 2 2 2 2 2 2 2 2 2 2 2 2 2 2 2 2 2
left_child=4 2 7 -3 5 8 -7 22 11 10 -10 12 13 14 18 55 20 -14 19 25 -17 40 31 -19 29 26 27 32 -29 30 42 44 33 34 35 36 37 38 49 -33 -18 43 -13 48 -2 -30 -36 -15 53 -1 54 -42 -49 -31 -48 -11 -6 58 59 -55
right_child=1 3 -4 -5 56 6 -8 -9 9 15 -12 24 17 47 -16 16 21 23 -20 -21 -22 -23 -24 -25 -26 -27 -28 28 45 41 -32 39 -34 -35 46 -37 -38 -39 -40 -41 51 -43 -44 -45 -46 -47 50 52 -50 -51 -52 -53 -54 57 -56 -57 -58 -59 -60 -61
leaf_value=-0.10606116133009834 -0.036439264366224251 0.2595126318689317 0.16574390222640739 0.060799667615437127 -0.10410315175725948 0.19129892438631985 -0.032202436972940555 0.1458640175034504 0.037651642703940343 -0.10719934063857506 0.25645943107498298 -0.014143888972686645 0.19993989062590306 -0.055687399743221122 0.14229409989058397 0.0072198569361989892 -0.011542868001283998 -0.05413194220642608 0.10517679870565795 0.079627040278152678 0.19265879837064728 0.06572385211109931 0.10025018799353586 0.082766888881933121 0.017467024897826384 0.069964795899957327 0.066005110351086735 0.12112480124583298 -0.086307473623796011 -0.10659760652509123 0.092729444143659717 0.046493054735172935 -0.10472455157827538 0.068016843035211369 -0.046803471059834817 -0.095284288556714059 0.09009070754979126 0.025880399345239658 -0.006359000277825432 -0.055601366070523586 -0.10575631402768443 -0.020373705410682463 -0.10371609960216013 -0.030133513258225705 -0.10986583252192464 -0.0064717033270197096 -0.1037142710327488 -0.10246320083454884 -0.063542391435174511 -0.06749431768606956 -0.083978516038485218 -0.084596977711651686 -0.10706428099061049 -0.10311049957628489 -0.10692285783465701 -0.10427334829119302 -0.10259011174960897 -0.1035834740097492 -0.10248713034090501 -0.10281563035277415
leaf_weight=8.420742088928824 5.3940935116261297 6.6309034265577775 6.4291863851249209 6.5076626297086477 6.9985828977078182 6.6368918828666192 5.4291497804224491 5.0612126626074305 9.7365527078509349 7.3018176183104497 9.3381387647241336 5.5358121301978844 5.1030903961509493 5.3445998858660486 6.3013863898813716 5.2904052156954986 6.2608647458255353 5.5689264331012955 6.5916886385530225 8.6148026678711158 5.0045129097998142 6.4445004649460307 5.14677945151925 8.7406598646193725 9.896466523408888 5.0578492172062388 5.2490231972187749 5.7016352396458378 5.0731429290026409 5.3841978888958719 5.0909483488649121 6.4375397227704507 9.5700266547501069 5.7832375653088084 5.0372975002974298 8.4559781048446876 5.4210567567497483 8.3083113301545364 8.9445646461099368 5.6089809276163578 7.3786035757511836 7.2270492557436219 7.5521292742341757 5.4444186650216571 7.1643408928066492 5.009651305153966 5.7295897565782052 8.6033752076327783 5.0187040846794835 5.096926996484398 5.0841318145394316 5.013598533347249 5.1139991600066415 5.0452753547579103 5.0023720096796751 5.2202130649238825 6.452960766851902 5.3870154563337556 8.096971567720173 6.626799326390028
leaf_count=219 134 49 124 55 210 127 132 94 244 152 209 166 72 135 129 131 158 109 139 188 116 167 81 130 345 98 122 147 131 107 174 132 263 163 122 171 83 237 197 135 197 253 253 194 126 144 192 386 190 109 186 142 110 184 141 146 278 177 355 260
internal_value=0 0.0632585 0.0320928 0.161088 -0.0107441 -0.0068778 0.0907339 0.00741032 -0.0106744 0.0236389 0.14477 -0.0201246 -0.00530056 -0.0157753 -0.00467423 -0.0245834 0.004215 0.0742964 -0.0122558 -0.0189543 0.0973645 -0.0339945 -0.0161427 0.0294894 -0.052554 -0.0268953 -0.0317036 -0.0370107 0.0139592 -0.0629887 -0.0214256 -0.0404894 -0.0469611 -0.0392063 -0.0486733 -0.0312742 -0.0163186 -0.0350655 -0.0576081 -0.00104313 -0.0684465 -0.0786546 -0.0658297 -0.0889269 -0.0783277 -0.046641 -0.0859251 -0.0905826 -0.0979287 -0.0915193 -0.098385 -0.0971957 -0.104179 -0.103579 -0.10521 -0.10598 -0.103377 -0.102933 -0.102756 -0.102943
internal_weight=0 54.3807 41.2421 13.1386 335.741 322.289 12.066 34.8129 310.223 66.9892 19.0747 243.234 166.928 147.515 128.453 47.9145 35.3925 19.4127 122.152 115.56 10.2949 25.0976 29.7517 14.3096 76.3058 106.946 101.888 96.6387 15.7844 66.4093 18.1789 24.605 80.8542 71.2842 65.501 44.6476 36.1916 30.7705 22.4622 12.0465 18.6531 48.2304 13.0879 41.0034 12.5584 10.0828 20.8534 19.062 35.559 13.5177 15.8161 12.3922 13.7174 30.5403 10.732 12.522 13.4515 25.1561 19.769 11.6721
internal_count=10120 930 826 104 9190 8702 259 702 8443 1662 453 6781 4123 3812 3181 1209 911 311 3052 2913 247 664 608 239 2658 2725 2627 2505 422 2313 593 527 2083 1820 1657 1016 845 762 525 267 497 1720 419 1467 260 275 641 631 1273 328 519 339 496 1083 333 298 488 976 799 444
is_linear=0
shrinkage=0.1


Tree=9
num_leaves=61
num_cat=0
split_feature=16 329 458 472 219 214 19 20 356 229 75 12 393 232 243 199 357 397 5 20 477 407 262 2 242 501 477 101 2 273 332 31 458 465 510 511 397 383 435 98 394 386 510 12 405 105 397 2 61 393 110 398 434 69 405 226 412 510 122 510
split_gain=20.0141 10.9245 12.1204 10.9203 11.2063 27.4388 18.4791 9.8857 9.4446 10.1572 11.6834 17.3249 15.471 15.2492 12.864 12.3592 11.3852 14.0605 10.2621 16.9984 9.77058 9.22488 8.62528 7.71891 7.2506 6.7375 10.4719 6.69313 6.68305 6.60134 11.1443 6.89404 4.97658 9.05753 7.2388 4.4543 3.60582 3.54743 6.57521 3.5244 3.38247 3.05011 2.33261 2.10252 1.7909 1.74196 1.72351 1.03175 0.487004 0.179305 0.154528 0.138442 0.11832 0.1151 0.175172 0.00219608 0.00217496 0.00166693 0.000567047 0.000515702
threshold=16.528116457034134 115.86523275075865 21785.187408615431 78774.594175903883 0.84677108114526811 0.61785667144099732 16.565135873825298 33.006517877816528 1.0000000180025095e-35 0.24454548963907149 3.3628692990827136 18.999763026777742 4075.7518796992485 0.21001641956551226 0.13135231586733881 1.6882474567908365 104.45793591598974 58024.888888888898 36.248155862665037 10.333224450566602 59821.035939418165 30085.972222222226 23.049463839444915 0.015352434326020873 0.461375645058963 78867.595036335959 55862.280413699373 1.6913680803216062 0.29921169326295266 64.832676082171687 68.389455269510165 0.98308159550616725 74849.826345355439 20783.359938508202 0.37173748029350523 10.973785620119665 41994.833333333336 39393.857142857152 56260.375000000007 1.7541338637571833 4463.8053278688531 8329.7423076923096 0.50025025025025038 19.029442261589022 46869.750000000007 1.756702984611606 49099.555555555569 0.40107983985671691 5.2076718228079129 32318.361111111113 1.7202443667689453 17467.375000000004 3050.3901408450706 3.4596608628495762 59881.822222222232 0.68896925785037288 66020.500000000015 0.37814267756128234 1.7587577868611881 0.37814267756128234
decision_type=2 2 2 2 2 2 2 2 2 2 2 2 2 2 2 2 2 2 2 2 2 2 2 2 2 2 2 2 2 2 2 2 2 2 2 2 2 2 2 2 2 2 2 2 2 2 2 2 2 2 2 2 2 2 2 2 2 2 2 2
left_child=1 2 8 4 5 28 -7 -6 9 10 16 12 13 14 18 -14 17 22 19 -12 21 -19 36 -24 43 32 -27 -13 -2 -25 -31 42 37 -34 -35 -18 45 38 40 48 51 -17 -32 50 -39 47 -9 53 -29 56 55 -4 -44 54 57 -11 59 -1 -3 -46
right_child=3 58 25 -5 7 6 -8 46 -10 24 11 27 15 -15 -16 41 35 20 -20 -21 -22 -23 23 29 -26 26 -28 39 -30 30 31 -33 33 34 -36 -37 -38 44 -40 -41 -42 -43 52 -45 49 -47 -48 -49 -50 -51 -52 -53 -54 -55 -56 -57 -58 -59 -60 -61
leaf_value=-0.10436025615584262 -0.066368220091461566 -0.10370260136604664 -0.1056773174412764 0.17888716727103124 0.060883361188012269 0.33333664194308349 0.093958032211305623 -0.03573104248938154 0.10650809812562179 -0.10253846342354345 0.3210232214912197 0.062658413196526833 0.12811388563682977 0.25769874977181911 -0.034522024454988497 -0.0057786888185232897 0.15796624925162561 0.065234729535437949 0.028948701723422478 0.081884975911238278 0.12470456483834583 -0.090117801949667592 0.10924009349059929 -0.094533437495441019 0.051381757823830969 -0.053308062280070727 0.12358836139199654 -0.065528839289466539 0.067137476108201102 0.12157697321635255 -0.015833035286841629 0.042390831883635238 -0.10465402605395116 -0.029203942449731464 0.13595080780774632 0.026334789846191795 -0.0018757354555984662 -0.037767660432223724 0.060746121522916745 0.009801815032267288 -0.016045387383012436 -0.10733348881230359 -0.10580507545576133 -0.024297894873558278 -0.10267784526973062 -0.026366769160399501 -0.11286479784825652 -0.048407808015029419 -0.10580403827573799 -0.082775232595745041 -0.082974665605971332 -0.084092425920573755 -0.084521030053806415 -0.083848960467025155 -0.084210767839903916 -0.10524201531331245 -0.10577995192562449 -0.10636857776325584 -0.10233839153643814 -0.10388215827160385
leaf_weight=7.1857309974730113 9.3909255210310238 6.3557924423366767 7.299387522041803 6.2395368665456763 9.0320384409278649 5.0193952228873959 9.0200467519462091 5.2441638465970737 8.8483049273490888 6.1433830820024102 5.0066351592540794 5.8240171987563398 5.0258813649415996 6.0644091479480258 6.9872561767697325 5.6424996890127641 5.0779566597193462 8.7833804562687892 7.2259896304458371 7.3157695066183805 9.9042841270565969 6.7672038674354544 5.0987975299358359 9.4424517974257451 5.0989543721079817 7.4415967576205713 6.0811456050723791 5.0322394948452729 6.2415938451886168 6.1434726342558887 5.6366901304572883 8.7954796589910966 5.5964186955243376 5.3606621585786325 5.2559652775526047 5.2066634185612202 6.7929061818867913 5.7731742784380939 5.3921900242567053 5.0011492334306231 8.9284828025847656 6.2148403208702803 5.4607955198734981 5.0596029553562394 6.2129762228578391 5.0198702942579976 6.4718472510576248 5.0835718344897023 7.4428776912391186 5.0047053564339867 5.0218716505914918 5.0115687530487776 5.0063642133027315 5.0068728774785987 5.0004096310585728 5.8805359844118357 5.0291026197373858 9.7277127932757121 5.8525107875466347 8.3133426215499622
leaf_count=229 226 210 205 72 92 49 147 105 185 272 54 123 103 201 212 125 92 234 122 126 209 185 130 257 132 167 135 142 136 139 149 225 167 186 105 123 193 179 154 103 227 157 133 194 277 138 103 152 198 218 205 165 136 172 162 152 139 241 278 273
internal_value=0 -0.0102033 -0.00666866 0.0540896 0.0386457 0.0780683 0.179541 -0.0177329 0.00516582 0.00118273 0.00905757 0.0409155 0.0743943 0.114633 0.0819376 -0.00330396 -0.00947146 -0.0184973 0.123564 0.179048 0.0470733 -0.00237059 -0.037167 -0.00671399 -0.0561103 -0.0386061 0.0262418 -0.0301842 -0.0130634 -0.0213175 0.000952996 -0.0288089 -0.0505895 -0.00170773 0.0525591 0.0913269 -0.0688481 -0.0645019 -0.0378693 -0.0611242 -0.0629054 -0.0590071 -0.0676962 -0.0809051 -0.0878845 -0.0811356 -0.0783392 -0.0897261 -0.0895577 -0.0996651 -0.0977074 -0.0968905 -0.0956251 -0.0975285 -0.100654 -0.103861 -0.103988 -0.105515 -0.103049 -0.103367
internal_weight=0 332.886 320.678 56.6595 50.42 29.672 14.0394 20.748 233.977 225.129 197.924 72.7836 49.4833 32.6001 26.5357 16.8832 125.141 114.856 19.5484 12.3224 25.4549 15.5506 89.4011 45.5841 27.2043 86.7007 13.5227 23.3003 15.6325 40.4853 31.0428 24.8993 73.178 16.213 10.6166 10.2846 43.8171 56.9649 26.6316 17.4763 21.2394 11.8573 16.1038 22.1054 30.3333 37.0242 11.716 32.0043 12.4751 24.5601 17.0458 12.311 10.4672 26.9207 21.9139 12.0239 19.5554 16.9134 12.2083 14.5263
internal_count=10120 9190 8702 930 858 558 196 300 6105 5920 4965 1666 1100 715 514 385 3299 3084 302 180 628 419 2456 1169 955 2597 302 566 362 1039 782 643 2295 458 291 215 1287 1837 751 443 597 282 418 823 1086 1094 208 956 340 907 629 370 269 804 632 424 689 470 488 550
is_linear=0
shrinkage=0.1


Tree=10
num_leaves=61
num_cat=0
split_feature=16 35 329 458 221 211 19 232 219 240 386 228 81 245 263 329 211 20 410 340 23 136 114 501 430 386 397 433 477 508 404 357 68 1 392 430 411 500 386 51 261 471 403 2 405 464 67 510 0 99 134 511 67 237 510 412 226 122 229 121
split_gain=15.7059 10.4547 9.92329 10.2332 9.91991 16.4551 14.607 9.06512 16.468 14.1481 13.367 11.0421 14.0774 11.4101 16.7227 17.612 9.517 8.87441 8.78926 8.57885 8.45048 8.20433 7.20514 6.90371 7.14248 6.75429 12.6217 7.29664 7.00678 12.2839 9.3029 7.54891 7.20658 6.47258 5.98591 6.38795 5.51868 4.97824 6.72934 4.91099 4.50599 3.99857 3.66825 3.37458 2.31446 5.52296 2.04484 1.42081 2.24468 1.32159 1.12409 0.187449 0.00629667 0.00301884 0.00125598 0.000759787 0.000723496 0.000418542 0.000182114 4.35959e-05
threshold=16.528116457034134 0.0055435445594162027 115.86523275075865 22654.636546697951 0.85693102316840675 0.59369488559009143 16.553584310694163 0.23542021629094836 0.77465117851789489 0.21722339888966738 394.30145245614875 0.10204756555718782 3.4007502039544355 18.247423727828998 23.813486665741582 58.051012285161036 0.59369488559009143 10.357684063918953 67453.562500000015 69.952761250525512 8.6016989208133854 0.031002637362761803 1.7261860464237637 43798.2356814167 62262.236111111117 101130.00000000001 91237.916666666672 3147.2005813953497 20576.650887030679 0.70702221618186967 26049.152777777781 301.06159865301396 3.4519593566954812 59.597005484600935 77482.541666666672 89234.222222222234 61653.875000000007 18672.543938156963 8392.1821705426373 16.469575107110703 69.982088446697105 81240.977019130762 54287.333333333343 0.015251458442883956 46869.750000000007 30684.111689105579 3.5069197243741996 0.50517443721327226 6.1397561733322794 0.0035140159473438376 0.10293153413367349 25.650651302605212 0.03656667139535099 0.14136630242818879 0.36650165016501651 29577.400000000005 0.68184867280293693 1.7587577868611881 0.23758886059018769 1.727042969041763
decision_type=2 2 2 2 2 2 2 2 2 2 2 2 2 2 2 2 2 2 2 2 2 2 2 2 2 2 2 2 2 2 2 2 2 2 2 2 2 2 2 2 2 2 2 2 2 2 2 2 2 2 2 2 2 2 2 2 2 2 2 2
left_child=2 4 3 7 5 19 -7 9 43 11 -11 12 21 14 15 20 53 22 -3 -2 -14 25 -18 41 42 26 27 28 31 30 -30 32 37 -28 35 -26 -32 46 -39 -6 -8 44 -25 56 45 -5 47 48 -1 -50 51 52 -49 -13 -46 -56 58 -4 -9 -55
right_child=1 18 57 23 39 6 40 8 -10 10 -12 16 13 -15 -16 -17 17 -19 -20 -21 -22 -23 -24 24 34 -27 33 -29 29 -31 36 -33 -34 -35 -36 -37 -38 38 -40 -41 -42 -43 -44 -45 54 -47 -48 50 49 -51 -52 -53 -54 59 55 -57 -58 -59 -60 -61
leaf_value=-0.0084280506986675243 -0.094550642804605567 0.042659774972629266 -0.10334207572731749 -0.1050496188254698 0.019309885786189973 0.25375130410597996 0.11699380221291029 -0.10304953224043162 0.076246308056607356 0.18700126665858066 -0.00074579073230490907 -0.10574073793720039 0.22624604219366584 -0.035616991531282192 0.26719919607114351 -0.075976437610063605 -0.022133146095129917 -0.10398807366592898 0.19683076574749056 0.072906001674531803 0.056640222666477717 0.11137115735279944 0.14021846558668821 0.00067122519028507395 0.066610914236364588 -0.10552595734781381 0.18679429093954744 0.10703427908622874 0.10091082612422918 0.16825562813296735 -0.10382465554469029 0.073532245277445646 0.068187028407431863 0.02762210677778176 0.1222201670078257 -0.059597042611257527 0.012568242177988654 0.087933098380596944 -0.055844529678968281 -0.096812711413846161 -0.013099274623216237 0.014804105932996386 -0.10446318828059425 -0.023993351942423032 -0.10258573915414332 0.020196290809837945 -0.011651803259981384 -0.10547545389261535 -0.10469502004934601 -0.042656822111872328 -0.047911776362234634 -0.084618318929193304 -0.10992327387714194 -0.10265264994775206 -0.10342977457904301 -0.10511273975497207 -0.10395775599056188 -0.10211159826345838 -0.10231241960156928 -0.10306040982065766
leaf_weight=7.2809473555535105 7.7957557905465382 7.4517874196171743 5.7699995730072242 8.0667324690148217 6.5850230529904357 5.5806844476610449 5.5039547737687808 5.1439870707690778 8.76619237475097 8.5479576550424081 6.8160059247165909 5.588507208973172 5.4471182543784469 6.9727610591799012 5.2505755331367245 5.9658396877348414 5.7018206827342528 5.1007235106080762 7.3403712809085846 5.0353555250912905 6.3765317238867283 6.3589410353451958 5.2509940629824996 5.4850117349997154 7.4917495120316806 6.3528520390391341 5.0676443763077241 5.1035668943077317 6.142187422141439 5.0763398744165888 7.8566036662086871 6.3196263741701832 5.5984232928603879 5.1519235614687204 5.224287897348403 8.6302625089883787 8.4602863350883108 5.5828235652297717 7.8081569513306022 8.1488020308315736 5.1571482475847006 5.0280140042304984 8.4028754029422981 7.4575468776747575 8.439274796284737 6.2477218005806199 6.4045177176594725 7.3185135144740396 7.6850354429334384 6.2074465621262789 5.1128981523215762 5.0024266932159653 5.6324088983237743 5.0624848008155805 5.751644619740544 5.0271077025681734 5.0314333261921993 5.3067334527149796 9.6202120529487711 5.4391169976443052
leaf_count=221 214 59 210 253 89 56 75 196 198 275 259 128 63 136 70 103 131 175 45 118 84 131 138 167 198 150 97 89 152 98 286 123 89 98 115 210 210 117 173 171 103 173 286 243 397 179 172 183 229 134 133 147 95 213 210 140 165 278 462 208
internal_value=0 0.046476 -0.00970465 -0.00647228 0.0219314 0.0558078 0.122676 0.00335835 -0.0429755 0.0113419 0.10371 0.00401468 0.0146658 0.0764638 0.110384 0.0640993 -0.049512 0.00496294 0.119165 -0.0288351 0.134777 0.000563883 0.0557014 -0.0391186 -0.00712098 -0.00506564 0.000305963 -0.00969279 -0.0154492 0.0277663 -0.00398792 -0.0311162 -0.0406136 0.106552 0.0291951 -0.000949375 -0.0434751 -0.0501258 0.00409769 -0.0449138 0.0540632 -0.0683561 -0.0629404 -0.0813241 -0.0808255 -0.0503845 -0.0644632 -0.0721086 -0.0534037 -0.0769751 -0.0892786 -0.101059 -0.10741 -0.103863 -0.103499 -0.104215 -0.102922 -0.102753 -0.102569 -0.102864
internal_weight=0 58.5989 329.935 318.858 43.8067 29.0729 16.2418 245.063 36.0194 209.044 15.364 193.68 161.536 30.0128 23.0401 17.7895 32.1436 16.0535 14.7922 12.8311 11.8236 131.524 10.9528 73.7947 35.2342 125.165 118.812 108.592 103.489 27.5354 22.4591 75.9532 69.6336 10.2196 21.3463 16.122 16.3169 64.0352 13.391 14.7338 10.6611 38.5605 13.8879 27.2532 33.5325 14.3145 50.6442 44.2397 21.1734 13.8925 23.0662 17.9533 12.9509 16.0901 19.218 10.7788 19.7956 11.0767 14.7642 10.5016
internal_count=10120 930 9190 8702 826 566 234 6374 1264 5110 534 4576 3583 456 320 250 993 444 104 332 147 3127 269 2328 976 2996 2846 2651 2562 746 648 1816 1693 195 523 408 496 1604 290 260 178 1352 453 1066 1179 432 1314 1142 584 363 558 425 278 549 747 350 823 488 658 421
is_linear=0
shrinkage=0.1


Tree=11
num_leaves=58
num_cat=0
split_feature=329 16 512 465 504 76 197 58 1 56 500 458 6 290 23 435 54 99 76 239 263 327 100 382 283 291 477 501 443 239 81 60 465 376 23 349 246 361 37 508 240 501 463 463 477 231 469 434 118 72 262 234 509 509 509 383 72
split_gain=13.1081 14.352 11.161 10.8314 9.18401 8.55769 8.74878 14.3056 11.8297 9.08987 8.7703 8.49736 7.19244 7.16446 7.6383 7.56213 7.57038 10.1057 19.693 6.65711 7.72276 11.5073 8.26538 6.42289 5.7264 6.29997 5.5646 5.4841 5.83793 5.28356 6.23242 5.09888 4.56508 4.50058 4.39218 5.13869 10.7252 5.31301 5.48984 4.34305 4.67187 6.53315 3.32809 7.08147 3.53497 3.06982 1.80794 2.65275 1.3476 1.29552 0.476028 0.457398 0.00892803 0.00727218 0.00236722 0.00223197 0.00076092
threshold=115.86523275075865 16.707341347128029 41.489621661466337 123250.23753690501 50204.455976111865 3.5053315212291847 1.7403659717324313 5.11621813154962 183.50674194271042 5.2256851815288696 78770.786685902349 2341.1591090825982 16.675907957006476 1.0000000180025095e-35 8.6875107933228168 105241.49305555558 5.1377299806481265 1.6953053103742828 3.4083515116626848 0.24426525571801785 23.717922093713234 92.555777501049036 1.7173530901656398 34.342105263157897 101.84283333333335 2474.1190476190482 98870.742267557187 69717.803598951883 2290.6892950229189 0.077965706920297154 3.4007502039544355 5.0625880409306285 73919.247087109339 3660.4791666666674 8.60741857441508 84.66877202470323 74.175738654359549 62.624433969598385 0.009074616072343859 0.70702221618186967 0.23395595085405588 36023.132155844978 39262.547572164469 46524.276156737564 54670.029325059702 0.22493200029192456 1.0000000180025095e-35 3121.0403458213264 1.6908667560396744 3.390873113610358 68.208366131558662 0.15222316407864203 0.65480249038465754 0.9751050763827831 0.69402946830778467 44225.960317460325 3.4295925876178477
decision_type=2 2 2 2 2 2 2 2 2 2 2 2 2 2 2 2 2 2 2 2 2 2 2 2 2 2 2 2 2 2 2 2 2 2 2 2 2 2 2 2 2 2 2 2 2 2 2 2 2 2 2 2 2 2 2 2 2
left_child=1 3 11 4 5 6 10 8 -8 29 13 12 -3 14 15 16 24 18 19 20 21 22 -18 -13 25 27 32 28 33 30 -9 -15 42 34 35 36 37 38 39 40 41 46 54 -44 53 51 47 -1 -7 -23 -39 -31 -30 -45 -6 -48 -2
right_child=56 2 -4 -5 26 48 7 9 -10 -11 -12 23 -14 31 -16 -17 17 -19 -20 -21 -22 49 -24 -25 -26 -27 -28 -29 52 45 -32 -33 -34 -35 -36 -37 -38 50 -40 -41 -42 -43 43 44 -46 -47 55 -49 -50 -51 -52 -53 -54 -55 -56 -57 -58
leaf_value=-0.09032313718614185 -0.10355928895028617 -0.075055925652255356 0.19653123525025842 0.13241403220129422 -0.10356399457224284 -0.041103241526128625 0.20763456618841303 -0.037629610445403264 0.022183781706229665 0.11266389981016023 0.10520769586656249 0.033782647652928939 0.053419378021112213 0.14266864737182419 -0.10432937197940238 0.08642657039636488 0.0009000468666073776 -0.081911436750648103 0.22444164616186196 -0.085395185489343314 0.14489883543306567 -0.034067522888302469 0.14603994944460355 0.15940638841863641 0.060289215037610401 0.064027253438922932 0.030107473321613367 0.061599364281372332 -0.10251653488714574 -0.10719323667347667 0.11233188729388131 0.0032975471343969862 0.026388294312535556 -0.10387925223554789 -0.10662967631430487 -0.092964313660419018 0.089578986049054801 -0.10612151415443589 0.0873324908139919 0.054481841470410013 0.053245024295277069 0.026993377426739143 0.055808063600802572 -0.10363107612432239 -0.025297415535762119 -0.0025950941511014357 -0.10572974947237615 0.0040296775316955927 -0.10515004013265575 -0.10444145052899363 -0.064842048262153465 -0.064559676841831476 -0.10778231705077033 -0.10840647397408901 -0.10603701422193781 -0.10298185851123143 -0.10198168880910084
leaf_weight=6.8723538247868436 5.4563440755009633 8.6458520600572246 5.137210074812173 5.6486051082611075 8.5026026172563416 5.7804576018825156 7.9828161774203164 5.4568593241274375 6.0438876859843731 6.8029162017628542 7.0400425549596539 9.1160909682512301 8.7852439954876882 5.1828789953142387 8.6941122272983176 8.0407396107912046 9.0224207565188461 8.1717768488451821 5.0707393838092676 5.6689852010458699 5.1058387700468293 5.0080267656594497 6.9429854666814199 7.3524977210909119 7.2345289196819058 6.5322862658649674 8.7264527184888703 5.3618184085935345 6.9353836448863131 5.0318820560351032 5.631438460201025 5.3188839703798294 5.8432464720681301 8.2130953725427371 6.2963443100452414 8.5370451910421234 9.2338565327227098 6.3212267002090794 5.008573565632104 6.1663866294547907 5.0535606695339075 8.1763830007985216 5.3983119009062674 6.0992411496117729 9.3813855638727528 7.9010855685919514 5.9279039641842228 5.260848524980247 7.6106587154790759 5.4765021316707134 5.0059176776558161 5.0339818624779582 6.0099915005266666 6.6831646868959069 7.1051255632191888 5.8957836255431175 6.9537205705419183
leaf_count=204 196 179 56 92 314 125 122 88 144 178 141 153 106 115 298 150 213 247 98 236 106 118 156 66 174 124 199 129 336 119 72 99 166 282 177 230 237 160 97 124 147 256 170 221 250 307 180 98 239 175 134 190 146 148 189 250 394
internal_value=0 0.00178773 0.0591749 -0.00489048 -0.00724212 0.000445476 0.00448079 0.0421049 0.127727 0.00861209 -0.00450863 0.0383597 -0.0103046 -0.00833722 -0.0127532 -0.0083918 -0.0127606 0.0198929 0.0395621 0.0143779 0.0323021 0.0105667 0.064018 0.0898681 -0.0260458 -0.0313929 -0.0434654 -0.0370452 -0.0420866 -0.0157503 0.0385317 0.0720806 -0.0565645 -0.0332365 -0.0263093 -0.0197804 -0.0107156 -0.0262311 -0.0117923 -0.0232441 -0.0361327 -0.0501891 -0.0677926 -0.0468986 -0.0719143 -0.0492504 -0.0765311 -0.0494126 -0.0775034 -0.0708267 -0.0878785 -0.085872 -0.104961 -0.106128 -0.10469 -0.10436 -0.102675
internal_weight=0 374.488 39.0369 335.451 329.803 272.063 258.672 49.8849 14.0267 35.8582 208.787 33.8997 17.4311 201.747 191.245 182.551 174.511 50.4673 42.2955 37.2248 31.5558 26.4499 15.9654 16.4686 124.043 116.809 57.7395 110.276 104.915 29.0552 11.0883 10.5018 49.0131 91.9693 83.7562 77.4598 68.9228 59.6889 48.3618 43.3532 37.1868 32.1333 43.1698 27.5621 22.1638 17.9669 23.9569 12.1332 13.3911 10.4845 11.3271 10.0659 12.9454 12.7824 15.6077 11.8237 12.4101
internal_count=10120 9530 560 8970 8878 7221 6857 1220 266 954 5637 504 285 5496 5282 4984 4834 1349 1102 1004 768 662 369 219 3485 3311 1657 3187 3058 776 160 214 1458 2576 2294 2117 1887 1650 1356 1259 1135 988 1292 789 619 616 732 302 364 293 294 309 482 369 503 430 590
is_linear=0
shrinkage=0.1


Tree=12
num_leaves=62
num_cat=0
split_feature=239 215 224 16 220 217 20 221 216 98 395 443 211 470 107 72 509 500 329 3 101 204 469 57 98 510 504 450 510 514 504 464 459 451 66 216 457 113 500 201 504 32 260 60 510 410 509 134 471 105 386 405 474 471 244 510 10 509 509 226 234
split_gain=12.6502 11.0769 12.165 12.5586 9.55475 8.89971 10.1204 8.43055 8.25131 8.71021 15.2244 10.7627 10.3975 8.93843 8.48216 7.88828 7.74152 9.66991 7.57551 7.96277 7.42561 10.5913 7.62695 6.40597 6.01529 5.53745 10.0303 13.0857 9.49225 12.2266 10.2354 8.46401 6.53127 5.58304 7.59976 5.36388 4.6281 4.56881 4.39507 4.00587 3.73457 3.3378 3.2194 3.21724 3.00023 2.94804 3.66131 2.38025 1.24627 0.958772 0.752506 0.570421 0.558262 0.520974 0.49599 0.401814 0.168081 0.0019289 0.00179289 0.000549488 0.00019641
threshold=0.23883511942680699 0.63912876060533785 0.90058771884388433 16.707341347128029 0.69041584708699866 2.2987496107093555 33.006517877816528 0.63263168748883947 0.62482595279454134 1.7145166136313024 204.34601746294331 14756.437909527058 0.59194182806721507 33466.075314527108 1.7015280131030652 3.3971439632829061 0.33714734054725565 69090.791957773399 65.617954822578241 8.5534386277955416 1.6967736209330291 1.7185607821960069 45599.764380214656 5.2060570515811184 1.7751344442720052 0.30830200501253135 11762.261523019157 67685.20156639842 37.033958077026348 2.5000000000000004 38867.500298369137 72509.20884563915 22477.955712117608 29468.743344232487 3.3909249825305472 0.83049838695171008 24174.373524055169 1.7374330621631635 18627.013536187631 1.6479329151296471 8508.2425582976448 5.1404531826764783 76.201717523256079 5.1429774251639069 10.457398250285282 44615.750000000007 7643.8844585115776 1.903358357552579 65558.29945891758 1.6826785183725221 8389.189922480622 25488.000000000004 55219.741243110206 62846.735155769144 0.10439375080070178 0.8675958188153311 19.086093482967641 0.69402946830778467 0.46919524804301799 0.64921411564317133 0.24514967545812702
decision_type=2 2 2 2 2 2 2 2 2 2 2 2 2 2 2 2 2 2 2 2 2 2 2 2 2 2 2 2 2 2 2 2 2 2 2 2 2 2 2 2 2 2 2 2 2 2 2 2 2 2 2 2 2 2 2 2 2 2 2 2 2
left_child=1 7 3 20 56 39 -7 8 9 11 12 16 13 24 -10 -6 36 23 19 -12 22 -22 43 25 -11 31 32 28 29 30 -28 40 33 37 -35 -5 42 45 -21 -4 51 -17 44 -3 -1 46 47 50 58 -25 55 -18 57 -38 -9 -27 59 -13 -42 60 -2
right_child=4 2 5 35 15 6 -8 54 14 10 18 52 -14 -15 -16 41 17 -19 -20 38 21 -23 -24 49 -26 26 27 -29 -30 -31 -32 -33 -34 34 -36 -37 53 -39 -40 -41 48 -43 -44 -45 -46 -47 -48 -49 -50 -51 -52 -53 -54 -55 -56 -57 -58 -59 -60 -61 -62
leaf_value=0.048347044714299292 -0.10284676437811546 0.0034232583123095582 -0.1035550449648607 0.23651750633812921 0.084666914173090788 0.13419250914986808 -0.030783015932504439 -0.11087195554311342 0.16428511462281181 0.086484568526603023 0.092078456512115547 -0.10218242895198577 0.22090818765906631 0.16882680835016414 -0.010478022426368059 -0.0011828091076635534 -0.03221198981765782 0.12221597970823737 -0.10420910067792498 -0.089689943707125241 0.18636482859527029 -0.0004295322327175393 0.092151394572935863 -0.044654292284079238 -0.057675335105099035 -0.078796570227564644 0.1466367982803212 -0.05440197193956068 -0.02004409770024115 0.22282874633381142 -0.044309543008273833 0.061797324420459335 0.10226393558842828 0.12524188035149283 -0.030573313616376496 0.096139248343138486 -0.10390019970762648 0.036172298449084539 0.029815270910425996 0.0072484777506206105 -0.10286368744042099 -0.10484934256520576 -0.068605685845815792 -0.10670974121662664 -0.047665922940087535 0.017767761493825061 0.015518870084056086 -0.012075511107653231 -0.044484849019654042 -0.10455343446973263 -0.055198047841543141 0.014455557240425354 -0.063410992257485393 -0.064578943810420522 -0.068072309016933882 -0.11039152466089815 -0.081984862403730471 -0.10477949987693863 -0.10536238044262647 -0.10361628981945099 -0.10203779969838277
