tree
version=v4
num_class=1
num_tree_per_iteration=1
label_index=0
max_feature_idx=514
objective=binary sigmoid:1
feature_names=Column_0 Column_1 Column_2 Column_3 Column_4 Column_5 Column_6 Column_7 Column_8 Column_9 Column_10 Column_11 Column_12 Column_13 Column_14 Column_15 Column_16 Column_17 Column_18 Column_19 Column_20 Column_21 Column_22 Column_23 Column_24 Column_25 Column_26 Column_27 Column_28 Column_29 Column_30 Column_31 Column_32 Column_33 Column_34 Column_35 Column_36 Column_37 Column_38 Column_39 Column_40 Column_41 Column_42 Column_43 Column_44 Column_45 Column_46 Column_47 Column_48 Column_49 Column_50 Column_51 Column_52 Column_53 Column_54 Column_55 Column_56 Column_57 Column_58 Column_59 Column_60 Column_61 Column_62 Column_63 Column_64 Column_65 Column_66 Column_67 Column_68 Column_69 Column_70 Column_71 Column_72 Column_73 Column_74 Column_75 Column_76 Column_77 Column_78 Column_79 Column_80 Column_81 Column_82 Column_83 Column_84 Column_85 Column_86 Column_87 Column_88 Column_89 Column_90 Column_91 Column_92 Column_93 Column_94 Column_95 Column_96 Column_97 Column_98 Column_99 Column_100 Column_101 Column_102 Column_103 Column_104 Column_105 Column_106 Column_107 Column_108 Column_109 Column_110 Column_111 Column_112 Column_113 Column_114 Column_115 Column_116 Column_117 Column_118 Column_119 Column_120 Column_121 Column_122 Column_123 Column_124 Column_125 Column_126 Column_127 Column_128 Column_129 Column_130 Column_131 Column_132 Column_133 Column_134 Column_135 Column_136 Column_137 Column_138 Column_139 Column_140 Column_141 Column_142 Column_143 Column_144 Column_145 Column_146 Column_147 Column_148 Column_149 Column_150 Column_151 Column_152 Column_153 Column_154 Column_155 Column_156 Column_157 Column_158 Column_159 Column_160 Column_161 Column_162 Column_163 Column_164 Column_165 Column_166 Column_167 Column_168 Column_169 Column_170 Column_171 Column_172 Column_173 Column_174 Column_175 Column_176 Column_177 Column_178 Column_179 Column_180 Column_181 Column_182 Column_183 Column_184 Column_185 Column_186 Column_187 Column_188 Column_189 Column_190 Column_191 Column_192 Column_193 Column_194 Column_195 Column_196 Column_197 Column_198 Column_199 Column_200 Column_201 Column_202 Column_203 Column_204 Column_205 Column_206 Column_207 Column_208 Column_209 Column_210 Column_211 Column_212 Column_213 Column_214 Column_215 Column_216 Column_217 Column_218 Column_219 Column_220 Column_221 Column_222 Column_223 Column_224 Column_225 Column_226 Column_227 Column_228 Column_229 Column_230 Column_231 Column_232 Column_233 Column_234 Column_235 Column_236 Column_237 Column_238 Column_239 Column_240 Column_241 Column_242 Column_243 Column_244 Column_245 Column_246 Column_247 Column_248 Column_249 Column_250 Column_251 Column_252 Column_253 Column_254 Column_255 Column_256 Column_257 Column_258 Column_259 Column_260 Column_261 Column_262 Column_263 Column_264 Column_265 Column_266 Column_267 Column_268 Column_269 Column_270 Column_271 Column_272 Column_273 Column_274 Column_275 Column_276 Column_277 Column_278 Column_279 Column_280 Column_281 Column_282 Column_283 Column_284 Column_285 Column_286 Column_287 Column_288 Column_289 Column_290 Column_291 Column_292 Column_293 Column_294 Column_295 Column_296 Column_297 Column_298 Column_299 Column_300 Column_301 Column_302 Column_303 Column_304 Column_305 Column_306 Column_307 Column_308 Column_309 Column_310 Column_311 Column_312 Column_313 Column_314 Column_315 Column_316 Column_317 Column_318 Column_319 Column_320 Column_321 Column_322 Column_323 Column_324 Column_325 Column_326 Column_327 Column_328 Column_329 Column_330 Column_331 Column_332 Column_333 Column_334 Column_335 Column_336 Column_337 Column_338 Column_339 Column_340 Column_341 Column_342 Column_343 Column_344 Column_345 Column_346 Column_347 Column_348 Column_349 Column_350 Column_351 Column_352 Column_353 Column_354 Column_355 Column_356 Column_357 Column_358 Column_359 Column_360 Column_361 Column_362 Column_363 Column_364 Column_365 Column_366 Column_367 Column_368 Column_369 Column_370 Column_371 Column_372 Column_373 Column_374 Column_375 Column_376 Column_377 Column_378 Column_379 Column_380 Column_381 Column_382 Column_383 Column_384 Column_385 Column_386 Column_387 Column_388 Column_389 Column_390 Column_391 Column_392 Column_393 Column_394 Column_395 Column_396 Column_397 Column_398 Column_399 Column_400 Column_401 Column_402 Column_403 Column_404 Column_405 Column_406 Column_407 Column_408 Column_409 Column_410 Column_411 Column_412 Column_413 Column_414 Column_415 Column_416 Column_417 Column_418 Column_419 Column_420 Column_421 Column_422 Column_423 Column_424 Column_425 Column_426 Column_427 Column_428 Column_429 Column_430 Column_431 Column_432 Column_433 Column_434 Column_435 Column_436 Column_437 Column_438 Column_439 Column_440 Column_441 Column_442 Column_443 Column_444 Column_445 Column_446 Column_447 Column_448 Column_449 Column_450 Column_451 Column_452 Column_453 Column_454 Column_455 Column_456 Column_457 Column_458 Column_459 Column_460 Column_461 Column_462 Column_463 Column_464 Column_465 Column_466 Column_467 Column_468 Column_469 Column_470 Column_471 Column_472 Column_473 Column_474 Column_475 Column_476 Column_477 Column_478 Column_479 Column_480 Column_481 Column_482 Column_483 Column_484 Column_485 Column_486 Column_487 Column_488 Column_489 Column_490 Column_491 Column_492 Column_493 Column_494 Column_495 Column_496 Column_497 Column_498 Column_499 Column_500 Column_501 Column_502 Column_503 Column_504 Column_505 Column_506 Column_507 Column_508 Column_509 Column_510 Column_511 Column_512 Column_513 Column_514
feature_infos=[0:7347.5018542547159] [0:1877.6238823190079] [0:100] [0:24.757281553398059] [0:0.11621150493898896] [0:65.167237001876586] [0:63.965607087024495] [0:5.7692307692307692] [0:54.265536723163841] [0:40.070765148164533] [0:40.070765148164533] [0:53.944795427196148] [0:49.514563106796118] [0:0.8928571428571429] [0:49.553602566785237] [0:28.50504646747277] [0:58.757847533632287] [0:24.352777322628214] [0:21.117633605245103] [0:17.765273311897108] [0:34.417040358744394] [0:46.483904933814678] none [0:20.302648171500632] [0:27.375724574038294] [0:49.9972285350036] [0:24.757281553398059] [0:34.417040358744394] [0:20.445934129991254] [0:20.445934129991254] [0:11.744628871164764] [0:64.332138988417626] [0:30.312693772699088] [0:16.760664071808723] [0:17.280843384936841] [0:17.386134991768795] [0:36.454986925663057] [0:49.996661324786331] [0:16.445711746407937] [0:10.398981324278438] [0:10.821297693468422] [0:10.810519508514767] [0:10.810519508514767] [0:10.810519508514767] [0:10.806926780196882] [0:22.338438550616363] [0:49.896501068376068] [0:10.806926780196882] [0:10.806926780196882] [0:49.997346072186836] [0:49.997451320216129] [0:18.089887640449437] [0:18.089887640449437] [0:18.089887640449437] [0:18.089887640449437] [0:17.765273311897108] [0:17.488789237668161] [0:30.648769574944073] [0:30.325149303251493] [0:16.564201651150537] [0:17.857142857142854] [0:24.757281553398059] [0:24.757281553398059] [0:24.757281553398059] [0:30.600972160848432] [0:31.082762912258872] [0:74.83700274024379] [0:75.082731648616118] [0:10.162423178226515] [0:10.818505338078293] [0:11.300427425493297] [0:20.281346920691181] [0:20.563873845173621] [0:11.399964869137538] [0:11.092569822589144] [0:17.044250132485427] [0:20.080029101491451] [0:22.368421052631579] [0:20.916696980720264] [0:21.530802738021158] [0:10.361496427070199] [0:10.178884986830553] [0:5.4968196664947566] [0:6.7652643149795146] [0:6.6553412611172185] [0:9.3210625674217908] [0:10.790262955988002] [0:5.3762366343559513] [0:48.856887153201534] [0:49.73267230485078] [0:5.4946619217081851] [0:5.6531412846185374] [0:4.4901906604034263] [0:4.6767262915958829] [0:4.6567402818027386] [0:4.6567402818027386] [0:4.6567402818027386] [0:68.55670103092784] [0:62.340707513508001] [0:50.006658232904989] [0:50.008278145695364] [0:5.133016889281377] [0:38.965153115100314] [0:41.757859996525966] [0:5.5096902628959548] [0:14.754098360655737] [0:15.573770491803279] [0:5.5096902628959548] [0:5.4921248316646176] [0:23.55881372875708] [0:23.45315631262525] [0:4.0027605244996547] [0:24.416239524855587] [0:24.919801691455234] [0:9.8360655737704921] [0:24.062322024245383] [0:25.255588286258881] [0:5.4687042566895023] [0:10.512913786831575] [0:12.5] [0:5.6531412846185374] [0:10.458348490360132] [0:10.765401369010579] [0:10.765401369010579] [0:10.765401369010579] [0:10.765401369010579] [0:10.765401369010579] [0:12.5] [0:10.765401369010579] [0:48.912023210171519] [0:48.918650793650798] [0:7.3249422448817016] [0:33.537946428571423] [0:49.997346072186836] [0:49.997451320216129] [0:2.579578932241144] [0:5.1056338028169019] [0:5.0347222222222223] [0:2.0927041244186935] [0:2.0908689898544335] [0:2.0908689898544335] [0:2.0888922771975302] [0:2.082046757829731] [0:2.082046757829731] [0:2.082046757829731] [0:2.082046757829731] [0:2.082046757829731] [0:2.082046757829731] [0:2.8079710144927534] [0:2.7290192996244866] [0:2.1482134980149978] [0:2.1468574984443061] [0:1.8211250505868071] [0:1.8211250505868071] [0:2.3080839508966453] [0:2.3323881825665422] [0:2.2334365943839316] [0:2.2334365943839316] [0:2.2065356896041068] [0:2.0679146713104051] [0:2.0679146713104051] [0:2.0679146713104051] [0:2.3210831721470022] [0:3.0715532286212914] [0:3.3106710020691694] [0:1.8076352353972749] [0:1.8076352353972749] [0:1.8076352353972749] [0:1.6716196136701336] [0:1.6623328380386329] [0:1.6499504705299652] [0:3.4657246515180447] [0:17.977528089887642] [0:17.934782608695652] [0:2.1598968407479049] [0:3.3034179873973653] [0:3.2546326780171198] [0:1.3498014997794443] [0:1.355245384961729] [0:3.0647317166316594] [0:22.338438550616363] [0:49.896501068376068] [0:3.0647317166316594] [0:3.1996224634261443] [0:3.0194713573511427] [0:1.2192910887498867] [0:1.7857142857142856] [0:1.7040476607674786] [0:1.158283756985758] [0:1.1518686968558434] [0:1.1513008793400417] [0:1.1377028374580727] [0:6.0830860534124627] [0:13.498062931115941] [0:13.511659807956105] [0:2.8182860888087826] [0:5.1148504273504276] [0:5.2432389813135698] [0:5.199249365272105] [0:5.0528401585204756] [0:5.7692307692307692] [0:5.475427350427351] [0:5.199249365272105] [0:5.1968155683325961] [0:5.2174868189806674] [0:5.4945054945054945] [0:5.0279942913601934] [0:2.5729178218919819] [0:2.6689625484287562] [0:2.5604078918199957] [0:2.6061883109681712] [0:2.6403004860804242] [0:2.5886917960088689] [0:2.5974025974025974] [0:2.6190476190476191] [0:2.6213268032056991] [0:2.6051385101191329] [0:2.5746310065475528] [0:2.6689625484287562] [0:2.6207433785889163] [0:2.569060773480663] [0:2.5729178218919819] [0:2.6053215077605323] [0:2.650548963069757] [0:2.6289180990899896] [0:2.6067665002773155] [0:2.615179167594035] [0:2.6943556975505856] [0:2.8846153846153846] [0:2.7035623409669212] [0:2.8846153846153846] [0:2.7035623409669212] [0:2.7009783071033597] [0:2.8305785123966944] [0:2.7884615384615388] [0:2.761782896139902] [0:2.6611535199321459] [0:2.6778154106689245] [0:2.6753357493071843] [0:2.7141645462256152] [0:2.7113578138343293] [0:2.7754237288135593] [0:2.6915113871635614] [0:2.7647809442790301] [0:1376.8] [0:3336.3333333333335] [0:140.27461139896374] [0:265119] [0:602.84210526315792] [0:25202.363636363636] [0:307861] [0:144.98412698412699] [0:136.83937823834196] [0:214781.66666666666] [0:249589.66666666666] [0:138.5241935483871] [0:140.93181818181819] [0:142.77358490566039] [0:134.86772486772486] [0:1288] [0:2704.0746606334842] [0:2837] [0:1285] [0:16728] [0:7044] [0:136.17676767676767] [0:24370.277777777777] [0:32007] [0:763660] [0:5804.5333333333338] [0:133.03664921465969] [0:137.05789473684212] [0:158.38020833333334] [0:139.1356783919598] [0:141.83854166666666] [0:137.19999999999999] [0:139.74489795918367] [0:138.59895833333334] [0:141.83419689119171] [0:143.76616915422886] [0:149.13903743315507] [0:144.75916230366491] [0:348.66666666666669] [0:738.66666666666663] [0:809404] [0:85007] [0:4164] [0:104528.75] [0:928399] [0:122281.71428571429] [0:995672] [0:5003.333333333333] [0:134.25853658536585] [0:152.77248677248679] [0:523.33333333333337] [0:507.33333333333331] [0:146.47979797979798] [0:139.5612244897959] [0:146433] [0:372514] [0:747.79999999999995] [0:27551] [0:183084] [0:134.96938775510205] [0:1332.6666666666667] [0:1624] [0:760] [0:140.44162436548223] [0:631.75] [0:1314.5] [0:1810.5542521559523] [0:4708.3273392292231] [0:153.84950109596852] [0:1031.006364351517] none [0:83548.644298124578] [0:533209.24303972826] [0:147.00723325728677] [0:148.08006338992109] [0:372011.89317592164] [0:432301.98371084692] [0:159.37189282310436] [0:144.70988103067461] [0:145.71972913749983] [0:151.23779800621455] [0:1851.1991094577434] [0:11196.406260902404] [0:13038.332756949998] [0:3569.5733316268643] [0:4985.4259931658135] [0:8927.2559747155919] [0:146.98224044072509] [0:103371.87128535473] [0:178615.1604373286] [0:7511.0384768019931] [0:7053.3901423358111] [0:147.87147517003748] [0:148.54589912222011] [0:168.99132919904204] [0:142.37956630169606] [0:145.8499171253932] [0:151.56396134341915] [0:153.05399206127206] [0:146.83078660206075] [0:156.96812797342608] [0:162.46440097079301] [0:148.27066298338184] [0:154.45869693982021] [0:653.82580078930641] [0:831.12233355465389] [0:103651.95462701126] [0:103650.54041344888] [0:3266.5819238386412] none [0:910.58734361115933] [0:155608.24697266132] [0:4729.6969194158255] [0:4862.2852517086449] [0:148.23170163679887] [0:153.84001805086163] [0:885.96403237753771] [0:817.66330828421405] [0:151.32041505173052] [0:159.46498422110426] [0:151.75870535624543] [0:8827.0436103490647] [0:1403.7684994328661] [0:18669.740343668414] [0:20180.827535064065] [0:150.12960853712332] [0:1334.7917815150047] [0:1451.9528229250425] [0:1031.5501511248565] [0:145.24684440494005] [0:987.98764331004327] [0:2908.4636615496443] [0:376648] [0:376648] none none none [0:20146.153846153848] [0:1183629] [0:1195138] [0:1164823] [0:11346.760869565218] [0:1122863] [0:1160487] none none none [0:1165815] [0:1167054] [0:1165668] [0:8954.1641791044767] [0:8256.1908396946565] [0:1165754] [0:1187563] [0:1150125] [0:1138301] none none [0:1181926] [0:1197391] [0:1195859] [0:1168534] [0:1190284] [0:1162298] [0:1188775] [0:1130567] [0:1198597] [0:1178843] [0:1172221] none [0:1097707] [0:1135067] none none none none none none none none none [0:1187503] [0:1161059] [0:1181081] none [0:1182718] [0:1165355] none [0:27082.206896551725] [0:32485.18181818182] [0:1174205] [0:1176263] [0:13310.644067796609] [0:1145151] [0:1169594] [0:1168538] [0:1156593] [0:1150907] [0:251729.88150696133] [0:339147.84902531817] none none none [0:125529.46260572047] [0:675216.26535503427] [0:823467.56599182461] [0:782367.6914421377] [0:37529.628826376822] [0:790930.7545623068] [0:816651.05662118632] none none none [0:705421.03862019884] [0:815110.27094498079] [0:717656.81436185085] [0:31073.589726875707] [0:31776.817465700486] [0:832430.85155014531] [0:791718.47151654866] [0:840286.10078234668] [0:784052.01979492407] none none [0:832271.04541759717] [0:819874.04932983452] [0:831348.27106814866] [0:837544.64779168635] [0:806051.52597119997] [0:806942.48051549494] [0:813206.73949002661] [0:732060.57949462079] [0:803749.89339843777] [0:836026.48953247885] [0:836444.38964016014] none [0:640486.71579705691] [0:790609.02097686694] none none none none none none none none none [0:789421.78869125468] [0:812957.83790304896] [0:801929.80054366356] none [0:796403.05394190946] [0:812271.94432529795] none [0:145617.7129770618] [0:152211.77341161302] [0:791277.23688508826] [0:787422.09071405919] [0:102101.15670943994] [0:746279.08265071991] [0:793431.79124736367] [0:808812.77795173344] [0:781173.38808871363] [0:781188.23733111855] [0:688849.64750593679] [0:1209451.3897518471] [0:517000.1568181818] [0:66.666666666666671] [0:50.000000000000007] [0:6347150] [0:6347150]
tree_sizes=3358 3986 4311 4315 4313 4415 3990 4282 4301 4083 4288 4416 3983 4064 3883 3877 3985 3842 3882 3749 3951 3842 3875 3652 3540 3536 3648 3655 3756 3559 3550 3653 3327 3455 3234 3338 3347 3245 2928 3234 3028 3134 3033 3020 2926 3009 2923 2913 2595 2812 2926 2597 2594 2803 2710 2707 2703 2496 2494 2705 2587 2699 2489 2495 2585 2581 2481 2393 2599 2486 2384 2490 2578 2376 2464 2274 2258 2375 2377 2580 2167 2263

Tree=0
num_leaves=31
num_cat=0
split_feature=509 405 57 290 510 224 16 68 278 465 25 219 371 201 24 328 220 16 429 203 405 492 453 1 24 244 1 1 0 383
split_gain=118.937 40.2912 33.8335 42.5319 36.3654 47.6811 17.839 18.1175 15.4171 18.0793 11.4755 18.415 21.778 8.47209 12.893 7.62096 5.43996 5.1908 3.9415 3.68385 1.86709 3.19995 3.6173 1.51752 1.22797 0.668073 0.133161 7.10543e-15 1.77636e-15 1.77636e-15
threshold=11954.998559368269 51011.137500000004 5.1498400937090958 0.71008403361344552 0.060080059234578188 0.57901108208081487 15.55363348849956 3.445642797149612 93.090687206796005 43035.537889084117 0.14990606354984173 1.0000000180025095e-35 65.430773139445094 1.6909152020267271 8.6643050799214922 86.389787360606093 0.67094175120134758 15.510858239068062 35763.944444444453 1.6742075261328264 71242.000000000015 47494.446547370622 22218.77169899752 60.018327402912163 8.4635778327778244 0.090341155741969173 120.91190710190067 183.68792973564885 116.37996390148795 43383.821428571435
decision_type=2 2 2 2 2 2 2 2 2 2 2 2 2 2 2 2 2 2 2 2 2 2 2 2 2 2 2 2 2 2
left_child=1 2 3 4 5 -1 7 8 9 10 18 12 -12 14 17 20 19 -4 23 -15 21 22 -3 29 28 -21 -23 -22 -8 -6
right_child=-2 15 13 -5 6 -7 24 -9 -10 -11 11 -13 -14 16 -16 -17 -18 -19 -20 25 27 26 -24 -25 -26 -27 -28 -29 -30 -31
leaf_value=-3.3686484538364767 -3.3146664989371835 -3.6825508870811081 -3.6953352347766968 -3.3854098061094371 -3.822155963916936 -3.7512091215905317 -3.822155963916936 -3.5429458102452802 -3.5423440642244359 -3.5649116440131552 -3.4657524148184105 -3.7892869205100199 -3.7458959219449421 -3.7237978416007844 -3.5743108275079551 -3.6889941983196848 -3.6964534673469167 -3.822155963916936 -3.7024944694862265 -3.7822687991066997 -3.822155963916936 -3.822155963916936 -3.8023945146844675 -3.770014308713193 -3.7623252167015813 -3.822155963916936 -3.8022123815118181 -3.822155963916936 -3.822155963916936 -3.822155963916936
leaf_weight=7.7176228053867799 7.0937431175261727 5.014144157990815 6.3081168439239281 5.0372508130967608 7.1861697379499727 5.6380238458514214 5.3838506396859866 7.8793693911284199 5.3607439845800391 6.6085033603012553 5.8921970520168561 9.1271287668496353 5.2452107090502977 5.0834641233086577 5.2452107090502968 6.0077303275465956 5.5687038805335751 6.6085033603012562 5.0141441579908124 5.0141441579908159 22.390348797664046 10.074501626193522 5.0603574682027102 9.5892618689686042 5.0141441579908124 25.833240408450365 5.0141441579908124 12.362060481682418 5.4762772601097822 6.1694769132882357
leaf_count=334 307 217 273 218 311 244 233 341 232 286 255 395 227 220 227 260 241 286 217 217 969 436 219 415 217 1118 217 535 237 267
internal_value=-3.71973 -3.73046 -3.70364 -3.66874 -3.68341 -3.53014 -3.7078 -3.68554 -3.7042 -3.72003 -3.74128 -3.68398 -3.59769 -3.76349 -3.70653 -3.79637 -3.78842 -3.76022 -3.78281 -3.80267 -3.80713 -3.78639 -3.74275 -3.80036 -3.80326 -3.81567 -3.81553 -3.82216 -3.82216 -3.82216
internal_weight=0 227.924 162.001 102.339 97.3021 13.3556 83.9465 68.0722 60.1928 54.8321 48.2236 20.2645 11.1374 59.6614 18.1618 65.9233 41.4996 12.9166 27.9591 35.9308 59.9156 25.1631 10.0745 22.9449 15.8743 30.8474 15.0886 34.7524 10.8601 13.3556
internal_count=10171 9864 7011 4429 4211 578 3633 2946 2605 2373 2087 877 482 2582 786 2853 1796 559 1210 1555 2593 1089 436 993 687 1335 653 1504 470 578
is_linear=0
shrinkage=1


Tree=1
num_leaves=36
num_cat=0
split_feature=327 508 405 16 10 25 435 309 215 202 215 200 32 122 281 0 402 452 76 97 458 459 405 397 204 3 37 311 509 507 405 453 3 437 0
split_gain=88.8774 35.4362 29.5677 22.5246 21.8213 27.6279 19.2872 18.893 14.6864 32.22 15.1219 13.7192 13.2926 8.76444 8.03527 6.96878 5.27843 3.79553 6.00296 2.65988 1.68232 2.0826 1.47355 0.740473 0.654581 0.134872 1.778e-05 1.66484e-05 6.99481e-06 6.16101e-06 3.03556e-06 3.55366e-06 1.69693e-06 9.99402e-08 1.77636e-15
threshold=189.0047009537611 8632.8808149012639 51011.137500000004 15.542312147464179 18.923661185394845 0.11837929710542404 64377.742857142868 79.344592377587091 0.65589689654025507 1.7115008458984671 0.78710994458275751 1.7682421910286721 0.057031776593851911 1.6925900123688957 74.608222996515693 76.98091053967083 48577.041666666679 276.30047928796722 3.4040556944394083 1.7082269835347812 12076.972304701225 12337.852015832157 56812.138888888898 30011.600000000002 1.746424748378326 8.5294097394394282 0.0018909668520272593 43.21321966446849 3482.0505012900444 1.0000000180025095e-35 71242.000000000015 24428.675728523631 16.488611906010235 15.389655172413795 3.5651082786994341
decision_type=2 2 2 2 2 2 2 2 2 2 2 2 2 2 2 2 2 2 2 2 2 2 2 2 2 2 2 2 2 2 2 2 2 2 2
left_child=1 2 3 4 5 6 7 16 9 12 -10 19 -7 -6 22 -14 20 18 -15 24 21 -1 -4 -24 26 -19 27 32 30 -22 31 -25 -5 34 -32
right_child=-2 -3 14 11 13 8 -8 -9 10 -11 -12 -13 15 17 -16 -17 -18 25 -20 -21 29 -23 23 28 -26 -27 -28 -29 -30 -31 33 -33 -34 -35 -36
leaf_value=-0.022019769468725373 0.34997179483463159 0.25091498056248729 -0.04734594096160797 -0.10227198035575367 0.057024134281256481 0.20088698388747883 0.15749756351711694 0.14789363536023745 -0.10252064778058499 0.35902266724657866 0.13707277612606469 0.093664609996440037 0.10945817172364949 0.035266909395506765 0.015674127423335901 -0.017951831086756808 0.035215694736618966 -0.082378764208798028 -0.089127836484561115 -0.023519552528053839 -0.10251541478516107 -0.10237152888319122 -0.071042897016311488 -0.10232089959789492 -0.062487905681989114 -0.10251211039418935 -0.10251243645925423 -0.10242986229164619 -0.10234382838876835 -0.10237495549794731 -0.10218805064175124 -0.10221101338978061 -0.10219544877229435 -0.10220385986871537 -0.10218805064175128
leaf_weight=8.667014887556439 7.0630092751234761 5.0846954695880404 7.2777231093496075 5.1674765069037765 8.1379912924021465 8.5545947365462833 6.536116672679781 5.1865088101476422 5.5622692946344596 5.8483815733343354 5.0041792001575232 5.0992726851254693 8.951043529435994 7.9842296615242976 8.4659473802894336 8.2491667922586185 5.0851617064326993 5.0013239551335564 7.5456339716911316 6.3334438297897568 6.9090736918151361 5.1377820111811152 9.6065457388758642 5.0108114182949084 5.0133391544222823 9.9404113329946977 5.0077674333006135 6.3634583801031104 5.0553059969097367 5.6985522955656052 8.7586014196276682 7.1315687354654074 6.594565786421299 5.6286790855228892 5.0498156510293475
leaf_count=340 253 182 332 239 323 303 269 203 236 239 199 223 346 341 366 319 220 225 336 276 294 230 446 227 223 423 216 280 231 254 418 337 314 267 241
internal_value=0 -0.0101511 -0.0160361 0.00625106 0.0272158 0.055424 -0.000761965 -0.0289595 0.11301 0.147133 0.0109487 -0.05943 0.0990178 -0.03517 -0.0748519 0.0483527 -0.0580808 -0.0597921 -0.0251739 -0.0820713 -0.0760432 -0.0519246 -0.0891718 -0.0957546 -0.0952464 -0.095773 -0.102346 -0.1023 -0.102235 -0.102452 -0.102217 -0.102256 -0.102229 -0.102193 -0.102188
internal_weight=0 230.648 225.564 163.579 123.999 85.3898 43.2202 36.6841 42.1696 31.6032 10.5664 39.5793 25.7548 38.6096 61.985 17.2002 31.4976 30.4716 15.5299 34.4801 26.4124 13.8048 53.5191 46.2413 28.1466 14.9417 23.1333 18.1255 36.6348 12.6076 31.5795 12.1424 11.762 19.4371 13.8084
internal_count=10171 9918 9736 6871 5100 3452 1810 1541 1642 1207 435 1771 968 1648 2865 665 1338 1325 677 1548 1118 570 2499 2167 1272 648 1049 833 1721 548 1490 564 553 926 659
is_linear=0
shrinkage=0.1


Tree=2
num_leaves=39
num_cat=0
split_feature=395 405 57 514 513 68 509 26 225 465 272 263 263 201 197 402 321 461 3 426 398 261 410 405 80 116 222 261 384 25 509 28 405 10 260 127 405 492
split_gain=80.2679 34.1211 37.2737 31.9474 34.0728 21.8808 18.0887 16.7083 48.6838 16.9996 20.3262 10.3151 8.80671 8.6174 9.24601 8.0752 6.99936 5.89653 3.48665 2.55305 4.13955 1.98035 1.90718 2.75763 1.89153 1.4585 0.64612 0.589751 0.315856 0.000247316 0.00020221 7.41151e-05 6.20614e-05 3.85165e-05 7.19196e-06 4.27834e-06 3.43844e-06 7.13863e-07
threshold=5378.4775784753374 44218.222222222226 5.1656453789142214 61647.500000000007 41104.000000000007 3.5040793062163496 0.62530595602755645 1.6623687603610244 0.57858823468204101 43035.537889084117 66.717781458649966 7.4953461081402262 21.819180015217281 1.6909152020267271 1.7283809710845948 89463.388888888905 90.274483713624647 20821.427511994643 8.6757640148803112 16700.444444444449 4917.3333333333348 76.358778432886481 36973.166666666679 78859.075000000012 3.4307478722347771 1.6456084360576182 0.65245030088533973 81.538846317581957 83357.500000000015 0.11837929710542404 3455.2276116344183 6.8323928661590942 51301.92857142858 18.923661185394845 14.708333333333334 1.7632284437327612 60355.944444444453 46783.445618454527
decision_type=2 2 2 2 2 2 2 2 2 2 2 2 2 2 2 2 2 2 2 2 2 2 2 2 2 2 2 2 2 2 2 2 2 2 2 2 2 2
left_child=1 2 3 4 5 6 7 9 -9 10 19 24 -13 14 18 16 22 25 -4 20 -1 26 23 -3 27 -14 31 29 30 -8 32 -15 -24 -33 36 -35 -34 -38
right_child=-2 15 13 -5 -6 -7 11 8 -10 -11 -12 12 17 21 -16 -17 -18 -19 -20 -21 -22 -23 28 -25 -26 -27 -28 -29 -30 -31 -32 33 34 35 -36 -37 37 -39
leaf_value=-0.086298659861741678 0.3955899154472004 -0.017034258724479681 0.0007931539500649204 0.29464719325557559 0.25514967720675319 0.21243707565822173 -0.10217955882320223 0.39333156003984027 -0.032835404919198778 0.19101843495718232 0.123212796175244 0.091821773105046037 -0.035202369578853691 -0.10264621029949701 0.11645854317028202 0.052613619862560759 0.035395460813687947 0.058412765994365116 -0.1028558709980876 -0.10245858596166629 0.03666315127980365 -0.02917530231606574 -0.10244476675393813 -0.10213541882954309 -0.022810546552015767 -0.10274404321024654 -0.062810125123265489 -0.062581529960248447 -0.081959750281400845 -0.10302461607450773 -0.10281020180984457 -0.10244087709354309 -0.10209939553409408 -0.10217320072954748 -0.10216074495448631 -0.10205540769957931 -0.10203096296741272 -0.10198368495035477
leaf_weight=6.0172684229910427 5.0130994748324147 8.1847556568682176 7.7122885100543517 5.0206484459340563 6.6933066733181468 5.7071015723049632 6.8700360581278854 5.0299761574715358 5.7389136590063572 5.0993958283215752 8.3866139575839025 9.254199896007778 7.3966745436191577 5.1879263930022779 5.0175415240228167 5.1660533491522065 5.0717816185206166 5.5859164632856837 5.603538678959012 8.842715146020053 5.0236396081745625 5.4190027434378853 5.0508013628423241 7.1201931256800881 5.0034787226468316 5.6311853118240833 5.0487041268497697 5.0139268245548001 9.9446734841912967 6.9837453681975603 5.0902637690305701 5.3614483848214176 5.040492366999394 6.871985783800481 5.3526414912194005 5.5930097196251154 5.2953091990202656 8.0471028406172973
leaf_count=234 193 363 294 158 225 215 336 152 245 175 278 382 290 221 200 245 206 226 232 390 209 207 222 357 202 229 223 223 504 259 216 237 251 333 261 284 272 422
internal_value=0 -0.00881039 0.0159146 0.0480457 0.0366113 0.022212 0.0108889 0.0579157 0.16622 0.0229641 -0.00734956 -0.0292295 0.0120954 -0.0543428 0.000768858 -0.0676656 -0.0773446 -0.0275421 -0.0428242 -0.0624188 -0.0303507 -0.0845196 -0.0870153 -0.0566252 -0.0774736 -0.0643967 -0.0952067 -0.0919695 -0.0976293 -0.102606 -0.102229 -0.102314 -0.102126 -0.102217 -0.102059 -0.10212 -0.102029 -0.102002
internal_weight=0 234.478 165.114 113.299 108.278 101.585 95.8777 44.1385 10.7689 33.3696 28.2702 51.7392 27.868 51.8154 18.3334 69.3641 64.198 18.6138 13.3158 19.8836 11.0409 33.4821 59.1262 15.3049 23.8712 13.0279 28.0631 18.8677 43.8213 13.8538 33.8766 23.0144 28.7863 17.8264 23.7355 12.465 18.3829 13.3424
internal_count=10171 9978 6659 4428 4270 4045 3830 1683 397 1286 1111 2147 1127 2231 726 3319 3074 745 526 833 443 1505 2868 720 1020 519 1298 818 2148 595 1644 1075 1428 854 1206 617 945 694
is_linear=0
shrinkage=0.1


Tree=3
num_leaves=39
num_cat=0
split_feature=357 326 405 16 207 57 327 439 415 25 103 104 21 100 201 200 247 98 398 14 312 79 1 103 480 11 207 510 398 197 261 261 426 57 57 512 405 410
split_gain=50.288 39.0065 22.5696 24.1013 18.2136 13.98 15.491 13.7741 19.7615 12.6661 12.3068 19.9543 13.8776 9.47555 8.66344 7.97697 7.82375 7.19466 5.85151 5.46541 6.06395 4.03139 3.1566 2.04554 1.43451 0.972145 0.813763 0.434667 0.17394 0.147131 0.000160657 0.000107543 6.90318e-05 6.52198e-05 9.48465e-05 1.1041e-05 9.70277e-06 1.39299e-06
threshold=1106.9718846572052 198.27766259929692 56812.138888888898 15.542312147464179 1.102406884044131 5.1656453789142214 108.89217695010633 49102.753968253972 40324.583333333336 0.01344132135808665 1.7544462796258948 1.7253186587197031 10.185220407565206 0.53189817283673424 1.6593355110454797 1.7708433086586064 69.719567901234583 1.6833450965206371 62352.888888888898 0.0069718009789014211 77.146158782032785 3.4519443783756105 88.804752066115711 1.7776087396877605 47119.415763746809 18.941977016902474 0.22481183432325177 0.30078244391466474 118657.87500000001 1.8010176986903643 75.222948068268082 74.981492247069397 3304.2500000000005 1.0000000180025095e-35 5.1564430102661287 27.133444470905776 76496.125000000015 42865.100000000006
decision_type=2 2 2 2 2 2 2 2 2 2 2 2 2 2 2 2 2 2 2 2 2 2 2 2 2 2 2 2 2 2 2 2 2 2 2 2 2 2
left_child=1 2 3 4 5 6 7 8 9 18 11 12 13 19 -7 23 24 25 22 -11 -21 -16 32 26 28 -14 -5 -9 30 31 35 -23 -1 -28 -35 36 -4 -37
right_child=-2 -3 16 15 -6 14 -8 27 -10 10 -12 -13 17 -15 21 -17 -18 -19 -20 20 -22 29 -24 -25 -26 -27 33 -29 -30 -31 -32 -33 -34 34 -36 37 -38 -39
leaf_value=-0.10266863847199728 0.25248713991241828 0.26159664227605639 -0.10206665479149463 -0.065256826151758943 0.18858285127691893 0.057257279929042088 0.18393090051685246 -0.062746719117159525 0.19001878351814505 0.13979914963230672 -0.075544967060575785 0.25287496382710384 -0.10325893016718815 0.21503280993958193 -0.014806921255855128 0.048276230264647356 0.029039811919197439 0.055160649918352914 0.04738876705208582 0.099647611302719125 -0.043012072629299992 -0.10229249998092634 -0.0093595011118368567 -0.024251207926064645 -0.042149548193839377 -0.043041679106268077 -0.10196269666174076 -0.10282243866550614 -0.081927739914764985 -0.082324549138601211 -0.1025082986778269 -0.10288975422544283 -0.10217688678424552 -0.10260121017164135 -0.10213361405357312 -0.10187462271730836 -0.10188509391591211 -0.10180939420807514
leaf_weight=5.517411191016441 7.5675628483295432 5.1918365042656651 5.0894937217235601 8.0022439211606997 6.1593554336577645 6.8469816315919152 6.2494857106357804 5.0153664834797365 7.5012480877339831 5.7404479868710103 7.1517875324934712 5.0558116026222697 5.7790175564587134 5.0247060135006896 9.110906073823573 5.2944309320300809 6.0863877031952134 6.9500194340944281 5.3461209107190362 5.4197655878961069 6.6177137829363346 7.549747399985792 5.3518824558705083 5.0713637378066769 5.004362490028142 5.000953197479248 5.6925279051065472 5.8786947038024664 5.0085318814963093 5.0518640633672467 5.0147012677043667 5.019119756296277 5.9151491839438677 8.1581450458616036 9.2635915316641313 5.0174991339445123 6.9803898148238659 9.4216994475573284
leaf_count=236 234 147 263 354 200 235 180 220 267 168 238 185 209 172 393 208 275 257 252 189 219 360 220 205 255 190 308 239 277 261 236 202 290 355 464 279 389 540
internal_value=0 -0.00943878 -0.0156009 0.000536733 0.0204676 0.0126875 0.0315136 0.0213005 0.0352763 0.0197727 0.0464162 0.0655491 0.0421832 0.0937791 -0.0431065 -0.0663699 -0.0768453 -0.0241747 -0.0437224 0.0595083 0.0212192 -0.0688134 -0.0727428 -0.0831431 -0.0923607 -0.0753235 -0.0927413 -0.0843725 -0.0992388 -0.0967378 -0.101989 -0.102531 -0.102414 -0.102257 -0.102353 -0.101891 -0.101962 -0.101832
internal_weight=0 233.551 228.359 180.736 139.254 133.094 99.5156 93.2661 82.372 74.8708 52.7402 45.5884 40.5326 22.8026 33.5786 41.4823 47.6231 17.73 22.1306 17.7779 12.0375 26.7316 16.7844 36.1879 41.5367 10.78 31.1165 10.8941 36.5323 17.6207 31.5238 12.5689 11.4326 23.1143 17.4217 26.5091 12.0699 14.4392
internal_count=10171 9937 9790 7276 5382 5182 3731 3551 3092 2825 1827 1589 1404 748 1451 1894 2514 656 998 576 408 1216 746 1686 2239 399 1481 459 1984 823 1707 562 526 1127 819 1471 652 819
is_linear=0
shrinkage=0.1


Tree=4
num_leaves=39
num_cat=0
split_feature=395 514 326 405 60 197 205 478 35 25 1 511 512 100 321 27 68 200 510 506 435 323 405 470 16 450 512 463 69 28 237 510 245 2 2 386 3 405
split_gain=44.3018 61.7637 30.3128 21.6778 18.5841 16.4016 17.1307 13.3802 12.1145 12.3828 10.9379 9.78481 15.2178 6.98208 6.69472 5.96417 6.97038 8.46269 5.89625 5.11158 3.51921 2.56168 1.81725 2.20861 1.28011 0.834113 0.491641 0.420635 0.169556 0.161013 0.000586133 0.000127829 8.82415e-05 8.46341e-05 6.23892e-05 8.02558e-06 1.53928e-06 3.99607e-07
threshold=5166.1745689655181 37049.000000000007 259.62230756762148 51011.137500000004 5.1263997730751045 1.7208394214678691 1.7046735379403561 89129.563563342497 0.048479023694978467 0.11837929710542404 182.89934839993711 23.69869739478958 23.945158951542261 1.7008113020356277 90.452922863906579 6.783059450222205 3.4463705884019826 1.6885928266615327 0.69965034965034978 15821.913783672777 75162.666666666672 74.23729926083405 64729.895833333336 39763.833296593199 15.61253428975081 10694.787785294395 23.910752212389387 43961.359357051326 3.4252339790607005 6.9180647255461505 1.0000000180025095e-35 0.34323942418087083 22.002804851175259 0.014676924576964635 0.122079796169708 457.09410424199842 8.5616611781274425 81795.000000000015
decision_type=2 2 2 2 2 2 2 2 2 2 2 2 2 2 2 2 2 2 2 2 2 2 2 2 2 2 2 2 2 2 2 2 2 2 2 2 2 2
left_child=2 -2 3 4 5 7 -7 8 9 19 11 12 -11 -12 22 -6 24 -18 -19 20 21 25 23 -5 29 31 -20 -25 32 30 -17 -1 35 -32 -33 36 37 -24
right_child=1 -3 -4 14 15 6 -8 -9 -10 10 13 -13 -14 -15 -16 16 17 18 26 -21 -22 -23 28 27 -26 -27 -28 -29 -30 -31 33 34 -34 -35 -36 -37 -38 -39
leaf_value=-0.10286960875690501 -0.020970454676643997 0.45379293948369653 0.22040531365524307 -0.0021780206969602366 0.034474666455632727 0.26675774379625422 0.03580253925918566 0.1674787082847165 0.11384575174840615 0.26092561859418623 0.034674220598077218 -0.019781672434964908 0.049133913415609159 -0.091626020136143682 0.036351706766606755 -0.10379328649621672 0.090516493141446552 0.020319421477466043 -0.063408877486969439 0.041359685527054497 0.016267974721927519 -0.022671456138207553 -0.10167679189318374 -0.061992093635022429 -0.043285172064763441 -0.062231491434612374 -0.10306216179555934 -0.10210946410664833 -0.081744923561670638 -0.082701567828717432 -0.10234093877867267 -0.10203489056627468 -0.10215907515417361 -0.10285806529895858 -0.10251308154247335 -0.10181993484392443 -0.10172290469037021 -0.10163833865889356
leaf_weight=5.5298516033217409 6.0599243063479644 5.0019770730286837 5.5183607768267384 5.0006666379049411 8.7368425913155061 5.3980801803991181 7.9288099426776171 5.163418808951973 8.7402528915554267 5.2047885200008777 8.6970540490001458 7.0877921748906365 9.7440484743565303 8.8116906248033029 5.0347793977707616 5.1833975184708931 5.6794333830475834 8.112421973608436 5.0560498228296629 5.5671549709513775 5.0133953308686605 7.4316603485494843 5.0109475757926791 5.0017118109390122 5.0895889289677134 7.4963782308623186 8.1939992867410165 5.4740212401375175 5.0007153088226906 5.0198189429938784 8.203692300245164 5.333790807053445 5.5965630486607543 5.1526365559548131 5.5855796616524458 5.236874107271432 5.0402121581137171 5.8663637703284621
leaf_count=225 211 119 120 255 376 187 330 172 287 147 319 197 254 362 200 173 225 327 203 257 184 255 310 277 272 369 329 292 301 225 388 292 287 210 252 306 306 370
internal_value=0 0.193708 -0.0111508 -0.0168192 0.000217174 0.0254345 0.129351 0.0109189 0.0019611 -0.0100372 0.0301123 0.0769908 0.122874 -0.0288894 -0.0732657 -0.0423417 -0.0543927 -0.0179783 -0.0468228 -0.0478782 -0.0615301 -0.0739605 -0.0849515 -0.0568548 -0.0887642 -0.0898784 -0.087931 -0.0829551 -0.0986465 -0.098589 -0.102891 -0.102478 -0.101806 -0.10254 -0.102279 -0.101713 -0.101677 -0.101656
internal_weight=0 11.0619 230.943 225.424 173.162 108.734 13.3269 95.4069 90.2434 81.5032 39.5454 22.0366 14.9488 17.5087 52.2629 64.4279 55.691 27.0419 21.3625 41.9578 36.3907 31.3773 47.2281 15.4764 28.6491 23.9456 13.25 10.4757 31.7517 23.5595 18.5397 16.4492 26.751 13.3563 10.9194 21.1544 15.9175 10.8773
internal_count=10171 330 9841 9721 6817 4089 517 3572 3400 3113 1279 598 401 681 2904 2728 2352 1084 859 1834 1577 1393 2704 824 1268 1138 532 569 1880 996 771 769 1579 598 544 1292 986 680
is_linear=0
shrinkage=0.1


Tree=5
num_leaves=40
num_cat=0
split_feature=327 311 290 513 405 72 386 326 11 12 461 459 261 435 472 103 24 107 26 247 458 500 440 6 317 500 122 514 491 2 403 441 237 16 21 311 260 386 405
split_gain=33.6387 71.0679 22.9605 14.6986 14.3304 15.8951 11.5215 12.4649 10.8448 9.48195 8.52517 13.0112 8.95796 7.5518 8.58738 9.42795 9.21821 8.96721 10.4276 7.20732 5.37349 5.04694 4.07685 3.11454 2.94307 2.47221 2.35154 2.26609 1.34586 0.552948 0.440033 0.167396 0.000957762 0.000240054 0.000144921 0.000116957 9.25638e-05 7.09834e-06 2.91565e-06
threshold=189.0047009537611 74.436483634090905 0.76623376623376638 14203.500000000002 56812.138888888898 3.5007215614705371 221.62698255270968 106.45906775548822 19.058915372266906 18.94713530294398 17970.984989487606 20843.434128163542 75.12923390716827 76099.000000000015 15796.719706618469 1.7820900884614412 8.5478063396803634 1.6854714963543518 0.41194688388273731 69.719567901234583 20017.489647521947 1540.1374487168373 53071.000000000007 29.333672663674943 70.551379995064266 18669.024801040116 1.6920232123480978 23554.500000000004 49414.798186224936 0.013352160671592865 65351.250000000007 79356.107142857159 0.1425034109605523 15.542312147464179 10.512180657740169 69.786574692418057 57.130113370159428 403.54311417919104 72750.571428571435
decision_type=2 2 2 2 2 2 2 2 2 2 2 2 2 2 2 2 2 2 2 2 2 2 2 2 2 2 2 2 2 2 2 2 2 2 2 2 2 2 2
left_child=2 -2 4 -4 5 6 7 8 13 10 21 -12 25 14 15 16 17 18 20 28 24 -8 29 -18 -1 -13 -7 33 31 -23 -16 36 -28 -11 -34 -31 37 38 -6
right_child=1 -3 3 -5 19 26 9 -9 -10 27 11 12 -14 -15 30 -17 23 -19 -20 -21 -22 22 -24 -25 -26 -27 32 -29 -30 35 -32 -33 34 -35 -36 -37 -38 -39 -40
leaf_value=0.036086484358037997 0.44724254002983238 -0.047372052344535176 0.031847908808664907 0.25395088318674908 -0.10159226599430182 -0.024996670829364909 0.038565186305811149 0.16160879610927772 0.14287508844469687 -0.10291709509231516 0.18200327336286587 -0.010968854246199186 0.079159231541984759 0.10451885106830042 -0.10267636643895475 0.13255280898203842 -0.10265309721959744 0.15026884277415442 -0.1035755452461788 0.027663558262101491 -0.025596666013319488 -0.062733023510624958 0.012758450629464757 -0.0054546855337770997 0.14311809957854124 -0.10325700212473839 -0.10380122965858439 -0.038316053514459991 -0.042242715983002666 -0.10294091402989594 -0.062377882468447415 -0.081579848179904449 -0.10259649991676004 -0.10207535869530747 -0.1018750866036327 -0.10362117254440834 -0.10205009037664843 -0.10166932739014663 -0.10149728522073881
leaf_weight=5.0263888956979006 5.0306140594184381 6.8749052714556456 7.3554906267672759 5.0086473897099495 5.0049916487187245 5.0209323531016734 6.3494804725050953 6.7627263357862821 6.5127465017139903 7.2222533384338039 5.2364286873489645 6.4943261947482842 9.3009329345077258 7.1845070142298928 5.9041916886344534 5.8930669287219635 9.1834497721865755 5.1329346597194663 6.4727071933448306 6.1433590911328784 6.4585566762834778 5.0403477409854558 5.2098686294630161 5.1428402056917539 5.2550025638192892 5.2484340919181705 6.0497281746938851 9.2240398740395886 5.0371800027787677 5.0864835167303664 5.0078968564048409 5.0085238991305223 5.606996229849754 6.3820727569982409 5.5319020096212626 5.0236236900091171 5.0083934804424635 5.0240040598437181 9.1232093051075918
leaf_count=196 88 165 242 133 327 157 248 212 275 299 168 239 322 199 272 160 406 214 231 275 274 246 238 226 147 197 210 378 302 209 251 338 251 361 320 165 282 319 629
internal_value=0 0.161625 -0.0107498 0.121821 -0.0182579 -0.0060584 0.00522688 0.0317147 0.01971 -0.0226999 0.000511615 0.0409484 0.00584887 0.00767689 -0.0040211 0.0139903 -0.00238337 0.0306594 0.00421059 -0.0720644 0.0458874 -0.0392747 -0.0635495 -0.0677609 0.0907923 -0.0522171 -0.0852019 -0.076579 -0.0899753 -0.0897899 -0.0841821 -0.0982182 -0.102788 -0.102522 -0.102238 -0.103279 -0.101667 -0.101567 -0.101531
internal_weight=0 11.9055 230.679 12.3641 218.315 177.965 155.755 79.937 73.1743 75.8183 52.9899 26.2801 21.0437 66.6615 59.477 48.5649 42.6719 28.3456 23.2127 40.3497 16.7399 26.7098 20.3603 14.3263 10.2814 11.7428 22.2096 22.8284 34.2063 15.1505 10.9121 29.1691 17.1886 13.6043 11.1389 10.1101 24.1606 19.1522 14.1282
internal_count=10171 253 9918 375 9543 7071 6133 3063 2851 3070 2032 926 758 2576 2377 1854 1694 1062 848 2472 617 1106 858 632 343 436 938 1038 2197 620 523 1895 781 660 571 374 1557 1275 956
is_linear=0
shrinkage=0.1


Tree=6
num_leaves=36
num_cat=0
split_feature=514 461 326 471 16 21 197 434 471 439 369 290 449 480 108 108 35 134 263 68 375 510 1 64 509 109 504 411 383 117 261 115 471 412 327
split_gain=25.8879 61.5986 18.5743 14.7472 16.543 10.4456 10.6389 13.2689 12.0009 10.2367 10.0755 9.17108 6.79146 5.50278 4.9457 4.8721 4.77439 5.6424 6.87636 7.01846 3.50357 2.97361 2.96775 4.49136 3.78601 2.05041 1.18403 0.352894 0.154095 0.000420824 0.000293322 0.000255225 0.000122378 3.6261e-05 5.63968e-06
threshold=75252.000000000015 17970.984989487606 259.62230756762148 41728.228201086 15.542312147464179 10.428972153994765 1.7553219706779586 2998.9252077562328 23334.256237726255 41072.000000000007 97.147565985300304 67.019531250000014 15989.035018778364 51326.040586363633 1.7373071962606323 1.667587975369007 0.060780294048617699 7.5619950879613409 22.34080543399045 3.473749883730997 75.317524865006675 0.060080059234578188 183.92933099877408 5.1260142392878123 0.59885693057750633 1.735361518835697 42712.137835054331 41875.775000000009 15333.215277777779 1.7330500018732677 75.823168851314563 1.7155737200293111 53461.832591662118 36124.888888888898 60.663169209515623
decision_type=2 2 2 2 2 2 2 2 2 2 2 2 2 2 2 2 2 2 2 2 2 2 2 2 2 2 2 2 2 2 2 2 2 2 2
left_child=2 -2 3 4 5 6 8 -8 10 -10 11 12 14 20 16 -7 17 18 19 22 27 -6 23 24 -1 28 -14 -5 31 -17 -20 -23 -29 -34 -35
right_child=1 -3 -4 13 21 15 7 -9 9 -11 -12 -13 26 -15 -16 29 -18 -19 30 -21 -22 25 -24 -25 -26 -27 -28 32 -30 -31 -32 -33 33 34 -36
leaf_value=-0.0020014052398882494 -0.067799614711091805 0.33030679355784465 0.14902391469099527 -0.077724077326857224 -0.013953548997093177 0.016785889798480225 0.16813043588194507 -0.027941909559804613 0.16053684742727858 -0.0012214493710170538 0.10810441394696153 0.11209791092326715 -0.10307595472667075 0.023495365192438025 0.060954657559846782 -0.10197037832377219 0.074755607846171843 0.072998172640784356 -0.10311625813349545 0.092905473992995202 -0.0072433108921011154 -0.10200117976423473 -0.10299392883097598 0.052121708615699119 -0.092214874088885582 -0.035798660302211148 -0.043140104153500426 -0.102098855543531 -0.082028276456031224 -0.10321885723565638 -0.10411807101618271 -0.10286826576049386 -0.10177242120370081 -0.10140552216780403 -0.10154933917800019
leaf_weight=9.8247169656679123 8.1528536500409228 7.4274266278371206 7.0067177787423125 8.2776226568967122 8.9732784703373891 5.0026103863492599 9.913007455877958 5.2950671119615427 9.080655260011552 6.8736087381839743 7.5195086020976296 5.5254723466932765 9.6666102269664389 5.5767353270202866 9.116637201048432 5.5163347739726287 5.0275651747360817 5.0700402995571485 6.8830188540741783 5.0826074285432687 5.2379696741700164 9.5102932397276216 5.1806176276877514 6.4429786764085284 8.8356954194605333 7.5062097040936342 5.0013040080666533 6.2625573808327344 5.0163889387622467 5.2878615455701947 5.0793753759935498 5.2790117850527158 6.3915014062076834 5.8377815941348654 5.1164325904101133
leaf_count=381 244 96 120 514 373 184 335 192 346 306 193 141 432 306 340 316 144 139 270 179 217 533 212 258 333 374 216 358 306 216 162 246 403 432 354
internal_value=0 0.121986 -0.0112628 -0.0163628 -0.00367057 0.0118035 0.0214584 0.099863 0.0106393 0.0908462 -0.00293694 -0.0125635 -0.0210453 -0.0691259 -0.00746821 -0.0648035 -0.0183305 -0.0272619 -0.0380021 -0.0158341 -0.0830394 -0.0638969 -0.034084 -0.0198629 -0.0447174 -0.0803057 -0.0826397 -0.0954906 -0.0971736 -0.102581 -0.103542 -0.102311 -0.10172 -0.101583 -0.101473
internal_weight=0 15.5803 227.218 220.211 177.51 141.225 125.418 15.2081 110.21 15.9543 94.2561 86.7366 81.2112 42.7006 66.5433 15.8068 57.4266 52.3991 47.329 35.3666 37.1239 36.2852 30.284 25.1034 18.6604 27.3119 14.6679 31.8859 19.8057 10.8042 11.9624 14.7893 23.6083 17.3457 10.9542
internal_count=10171 340 9831 9711 7127 5295 4579 527 4052 652 3400 3207 3066 2584 2418 716 2078 1934 1795 1363 2278 1832 1184 972 714 1459 648 2061 1085 532 432 779 1547 1189 786
is_linear=0
shrinkage=0.1


Tree=7
num_leaves=39
num_cat=0
split_feature=357 25 439 21 326 505 386 16 392 404 9 197 212 117 197 75 480 321 361 320 372 202 28 398 81 134 509 5 415 2 254 476 411 57 509 209 405 2
split_gain=20.5786 16.9629 15.5072 19.1543 26.1053 16.3957 12.797 10.963 10.2151 10.2689 9.41582 16.2304 25.5083 9.10691 8.11832 8.18714 8.54649 13.3893 15.3591 6.65008 12.158 5.81425 10.4777 5.33686 4.27495 4.21584 2.313 3.67754 0.890315 0.686945 0.52137 0.140431 0.126843 0.12057 0.00603971 0.000728079 0.000620365 9.84299e-05
threshold=1106.9718846572052 0.70824616341787194 49102.753968253972 10.4308209744846 221.93795776052113 42704.074525633834 59392.21428571429 15.540548892733126 10771.250000000002 79789.888888888905 24.14718839479681 1.7208394214678691 0.58034480919872544 1.7099465942940169 1.6942195860171292 3.3454841456254827 2472.3988604187639 63.172285811151831 70.906193832555715 82.111727439680337 93.584357021849641 1.6966856200100169 6.870396508754836 60054.222222222226 3.4581435942647087 0.097197475416423415 3418.9600690419643 36.218127303829583 61740.000000000007 0.015298531734383268 0.29166666666666669 36564.138405304002 67238.188888888908 5.1470871745186129 8948.0604536794035 0.62158054265317331 44218.222222222226 0.011471178667800657
decision_type=2 2 2 2 2 2 2 2 2 2 2 2 2 2 2 2 2 2 2 2 2 2 2 2 2 2 2 2 2 2 2 2 2 2 2 2 2 2
left_child=2 -2 3 4 5 6 7 8 10 23 11 14 -13 -12 15 16 17 29 -19 -20 -21 30 -23 31 33 28 27 -5 36 -1 35 -10 -8 -15 -28 -9 -4 -38
right_child=1 -3 25 26 -6 -7 32 21 9 -11 13 12 -14 24 -16 -17 -18 18 19 20 -22 22 -24 -25 -26 -27 34 -29 -30 -31 -32 -33 -34 -35 -36 -37 37 -39
leaf_value=-0.043581632478012319 -0.0067078608815817412 0.24041472717867102 -0.10279036970357576 0.0078825500502374638 0.2237536475091981 0.16490115562257321 -0.10225247601282615 -0.10357715765106611 -0.10341531510108753 0.093793304578884851 0.077850804462489431 0.31488900212107407 0.043323154317315316 -0.10378485414816521 -0.073862841386128794 0.14332999830584031 0.14777551357240079 0.2086712540338026 -0.084460666810446838 0.17098819133640494 -0.028082629369641201 0.11206543215017967 -0.074680962483840541 0.015713860688555906 0.010189070931740644 0.0052553251516519114 -0.1023197614449371 -0.10229624351309111 -0.0609548425853636 -0.091183947062110471 -0.063551482362799255 -0.082974502755078616 -0.082042039024769309 -0.082684497337594226 -0.1065690114692967 -0.10188569733173794 -0.10134615646817058 -0.10190868446430788
leaf_weight=5.0209503946825844 5.0480793323367816 6.1757825128734112 5.9556479072198334 6.3197316713631171 5.6979658734053364 6.2554344544187179 8.156119763851164 5.0016369922086614 9.9566584024578386 5.0660203993320456 7.1664996510371592 5.6863289270550004 8.8297463431954366 5.8940443107858318 6.5323863057419649 7.1933599086478344 5.1729403426870695 5.1058037895709303 5.103844488970938 5.0678523639217001 7.7743083462119102 5.1225800365209562 7.2658925000578165 5.9005652181804171 6.1478351783007374 5.5511554777622214 9.7711954964324814 5.8186684623360634 7.3282687487080684 7.6512274211272597 5.1021175347268573 5.0736385984346262 5.0146635826677075 5.0098964599892497 5.0860783439129582 5.1807403676211834 8.1568757742643339 5.0279216114431611
leaf_count=218 153 81 278 273 81 229 437 215 406 221 270 144 290 209 233 210 203 152 167 136 182 254 378 268 216 253 529 322 477 253 251 267 292 226 126 313 635 323
internal_value=0 0.129268 -0.0093856 0.000999882 0.013281 0.00607618 -0.000125649 0.00833363 0.0214821 -0.0339569 0.0369201 0.0557161 0.149703 -0.0167392 0.030739 0.0449477 0.0276432 0.0102477 0.055639 0.0121 0.0504759 -0.0483759 0.00253787 -0.0648771 -0.0564934 -0.0739778 -0.0773167 -0.0449328 -0.090595 -0.072323 -0.0896429 -0.0965153 -0.0945575 -0.0940901 -0.103774 -0.102717 -0.101943 -0.101561
internal_weight=0 11.2239 231.167 199.147 172.151 166.453 160.198 147.027 119.354 25.9969 93.357 69.1387 14.5161 24.2183 54.6227 48.0903 40.8969 35.724 23.0518 17.946 12.8422 27.673 12.3885 20.9309 17.0518 32.0199 26.9957 12.1384 26.4687 12.6722 15.2845 15.0303 13.1708 10.9039 14.8573 10.1824 19.1404 13.1848
internal_count=10171 234 9937 7971 6721 6640 6411 5682 4271 1162 3109 2188 434 921 1754 1521 1311 1108 637 485 318 1411 632 941 651 1966 1250 595 1713 471 779 673 729 435 655 528 1236 958
is_linear=0
shrinkage=0.1


Tree=8
num_leaves=39
num_cat=0
split_feature=394 302 7 510 405 200 3 27 478 392 6 26 73 375 318 269 197 197 505 398 211 217 404 326 500 2 101 100 246 410 115 11 1 2 2 11 310 439
split_gain=16.255 15.196 13.9488 19.8132 12.2455 10.8602 7.44386 14.4219 9.09259 8.05201 8.07254 11.7089 7.99156 8.26885 28.2481 10.4586 7.43906 5.4404 5.26579 6.74517 3.74012 9.5121 3.73333 2.93312 2.19475 2.60733 1.93713 2.89843 1.26762 0.535747 0.148827 0.00701397 0.00199822 0.000871617 0.000678395 0.000667695 0.000156523 1.42071e-05
threshold=5145.7017167381982 120.83386243386245 1.759150601098759 6823.488412656312 64729.895833333336 1.7823215805307326 10.718035120173157 7.0379761560685941 89129.563563342497 150.89718759117918 28.94726887556978 1.9960159362549803 3.4806855340362213 76.07758918388366 90.56920784906724 40.031504065040657 1.7592345217331304 1.6531044411172708 1.0000000180025095e-35 62352.888888888898 0.60444759816313087 0.46969970008921597 18814.833333333339 86.949047466354315 2158.352694898997 0.32709545558382264 1.710761142133032 1.6948781125946992 65.775699626865688 49472.500000000007 0.012714028459422702 17.938071182641753 183.42821420996486 0.016146399631403251 0.015168464898088258 18.894697593108212 46.546031744350472 49701.638888888898
decision_type=2 2 2 2 2 2 2 2 2 2 2 2 2 2 2 2 2 2 2 2 2 2 2 2 2 2 2 2 2 2 2 2 2 2 2 2 2 2
left_child=1 2 3 4 5 6 7 8 9 12 11 18 13 15 -15 16 20 -17 19 24 21 22 28 30 25 -11 31 -28 34 -20 37 -4 -22 36 -1 -33 -12 -6
right_child=-2 -3 26 -5 23 -7 -8 -9 -10 10 33 -13 -14 14 -16 17 -18 -19 29 -21 32 -23 -24 -25 -26 -27 27 -29 -30 -31 -32 35 -34 -35 -36 -37 -38 -39
leaf_value=-0.10265109665153847 0.16879709510528257 0.15755111069150152 -0.10773137964904025 0.15561411778635828 -0.1014622982861358 0.11183175988153767 -0.102664644846843 0.15182003898436358 0.10439986443782728 -0.064600195180847225 -0.10222384842701844 0.11941598070639184 0.10650989197096222 0.25123901810492905 -0.060866658574996374 0.10305513592065028 0.05449956721024253 -0.026362506954793453 -0.10292053469632267 0.072713042345570286 -0.10497671102975391 0.082210788986666145 0.0079137242186248478 -0.014601577299355465 -0.088279397328004064 0.036307181397388054 0.0010604991576303954 -0.091564763738196775 -0.044323164282166622 -0.062154735790049237 -0.081327666061216219 -0.10402600668018368 -0.10238245912651447 -0.10418552653727034 -0.10411861430775285 -0.10240459061510288 -0.10298887609640191 -0.10126249150221443
leaf_weight=5.3812988698482602 5.0839428855106226 5.1742014652118078 5.1869922429323223 7.2793918885290614 6.4753825683146768 7.8856044104322782 7.9569096518680444 5.7562957704067221 6.6874731713905922 5.2475404627621227 5.0156737817451376 5.2636265959590665 7.1482720253989092 5.058855156414209 6.7951336344704032 9.0848035141825658 6.9646953139454117 5.055921114049851 9.0252385046333057 6.8397677149623624 5.0146682010963541 5.3900983948260537 5.3828467614948741 5.7043386343866578 6.911086816340684 5.0010064300149679 5.7638371335342518 8.1627465449273569 5.0175367454066864 5.0152208320796481 5.0031476160511366 5.0578440157696587 7.2784625822678208 5.4374651079997411 7.5971844159066677 5.101296553388238 5.7292455676943064 7.9004488568753004
leaf_count=261 167 111 105 95 483 299 523 147 194 247 269 96 293 149 172 238 273 150 432 301 163 235 224 308 327 190 300 326 165 302 405 181 360 191 255 267 246 670
internal_value=0 -0.011931 -0.0157342 -0.00635503 -0.0124317 -0.00275159 -0.0083618 -0.00346067 -0.00952707 -0.0149437 -0.0428926 -0.0203731 0.0055388 -0.004212 0.0723288 -0.0188067 -0.0410628 0.0567827 -0.0397159 -0.011258 -0.0572714 -0.0375431 -0.0651528 -0.0776298 -0.0447286 -0.0153602 -0.0802335 -0.0532297 -0.087008 -0.0883591 -0.0961826 -0.104739 -0.103441 -0.103154 -0.10351 -0.103212 -0.102632 -0.101352
internal_weight=0 235.752 230.577 201.305 194.025 168.942 161.056 153.099 147.343 140.656 59.4859 43.3035 81.1698 74.0215 11.854 62.1675 48.0268 14.1407 38.0399 23.9994 41.0621 28.769 23.3789 25.0833 17.1596 10.2485 29.2727 13.9266 17.996 14.0405 19.379 15.3461 12.2931 16.1824 12.9785 10.1591 10.7449 14.3758
internal_count=10120 9953 9842 8663 8568 6702 6403 5880 5733 5539 2601 1895 2938 2645 321 2324 1936 388 1799 1065 1663 1140 905 1866 764 437 1179 626 681 734 1558 553 523 706 516 448 515 1153
is_linear=0
shrinkage=0.1


Tree=9
num_leaves=37
num_cat=0
split_feature=394 7 510 471 471 464 511 61 207 11 6 12 52 28 201 70 254 210 375 319 434 115 25 403 20 57 199 98 383 224 357 438 405 29 57 405
split_gain=15.8033 11.9632 23.9176 10.6873 11.3568 11.7162 8.57306 26.7421 12.8666 13.9958 7.90839 7.69035 8.86405 14.4374 11.3095 6.89725 6.04665 5.5666 4.81598 11.025 4.54798 3.4975 5.18075 4.86053 2.54301 2.37466 4.1452 2.06253 1.31241 0.596143 0.485709 0.164869 0.00218907 0.00214483 0.000354724 8.54276e-05
threshold=5189.3896103896113 1.759150601098759 6823.488412656312 34998.246216498133 23334.256237726255 33741.680367188957 0.060175015087507548 5.2514485274149267 0.59358609532277484 0.51047796583916694 29.249762780683302 18.951212034105918 5.0733188593336154 6.8807337807470867 1.6960377550342638 3.442483934434319 80.78194750455026 0.29946235273486704 76.07758918388366 95.307390997633561 59679.638888888898 0.0026571012546499598 0.4300558311714846 70453.611111111124 10.34682266152385 5.1897775982639374 1.7497574872556958 0.025153045653636154 13258.722222222224 0.7129772819090765 68.850780287081008 79372.388888888905 50725.404761904771 6.7676478713436587 5.1824031887393351 63792.416666666679
decision_type=2 2 2 2 2 2 2 2 2 2 2 2 2 2 2 2 2 2 2 2 2 2 2 2 2 2 2 2 2 2 2 2 2 2 2 2
left_child=1 2 3 4 6 -6 7 8 9 16 20 12 18 14 -14 -16 -1 -13 21 -20 27 22 23 28 -15 26 -3 31 -8 34 -23 32 -5 -27 -19 -34
right_child=-2 25 -4 10 5 -7 11 -9 -10 -11 -12 17 13 24 15 -17 -18 29 19 -21 -22 30 -24 -25 -26 33 -28 -29 -30 -31 -32 -33 35 -35 -36 -37
leaf_value=0.059224986931873794 0.16614566058826577 -0.092415194836606041 0.15270485096266678 -0.10370996802235977 0.20951662273124608 0.013581650178638872 -0.048377196142536487 0.25099400913009534 -0.092541977016176322 0.17275597809312579 0.05366614441381648 0.020946592512860882 0.18899984150342078 -0.0033886942440796916 0.1119124726990314 -0.050282186205541417 -0.088519581826238536 -0.10322501598446815 0.10839096231206849 -0.08459116205809103 0.015463190050388584 -0.10425400772979734 0.043238883182324862 0.036896897860268112 -0.10313581322012687 -0.10440829368732174 0.013156721749742487 -0.031609085487994071 -0.10272111026479672 -0.063077068732187686 -0.064182830935447382 -0.081989259740287229 -0.10176667268962331 -0.10185689705936905 -0.10220302305248562 -0.10127456929655683
leaf_weight=5.4687289027497261 5.1088410504162303 8.2990754675120133 9.3871452845633012 6.1990519119426706 5.0939126322045905 7.6127874217927456 9.189001753926286 5.0156915336847296 9.7100149635225517 6.1241721315309396 5.7796609494835129 5.495415071956816 7.4224426932632985 5.0000054435804469 5.0519459405913931 5.4504481451585889 5.6134599894285202 9.5689309909939784 7.0378696098923665 5.1096377540379763 5.0994412833824745 7.6103524295613152 8.0276961838826519 5.0040181456133714 5.2288072928786278 5.797015621326862 6.7394551439210764 5.6610660040751091 8.6058942247182113 5.047861833125352 5.0203568022698164 5.0415123729035249 5.8527105171233407 7.6335453353822231 5.2647939017042509 8.8798979595303518
leaf_count=137 147 320 103 272 190 262 467 132 421 198 370 189 213 205 160 213 110 424 205 149 284 271 207 235 229 188 217 318 459 315 178 370 404 489 295 774
internal_value=0 -0.0116414 -0.00323174 -0.0106892 0.00157983 0.0921288 -0.0065764 0.0389983 -0.000505728 0.0514328 -0.0550671 -0.0199112 -0.00529962 0.0404187 0.0945144 0.027738 -0.0156121 -0.0681375 -0.0284476 0.0272164 -0.0721752 -0.0440072 -0.0258479 -0.050174 -0.0543778 -0.072397 -0.0451036 -0.0863025 -0.0746588 -0.092761 -0.0883268 -0.0982234 -0.102133 -0.102958 -0.102862 -0.10147
internal_weight=0 234.144 205.675 196.288 153.774 12.7067 141.068 31.9321 26.9164 17.2064 42.5133 109.135 83.7585 28.1536 17.9248 10.5024 11.0822 25.377 55.6048 12.1475 36.7337 43.4573 30.8266 22.7989 10.2288 28.4691 15.0385 31.6342 17.7949 19.8816 12.6307 25.9732 20.9317 13.4306 14.8337 14.7326
internal_count=10120 9973 8759 8656 5864 452 5412 998 866 445 2792 4414 3191 1020 586 373 247 1223 2171 354 2422 1817 1368 1161 434 1214 537 2138 926 1034 449 1820 1450 677 719 1178
is_linear=0
shrinkage=0.1


Tree=10
num_leaves=39
num_cat=0
split_feature=7 326 510 386 405 3 64 450 458 412 375 260 263 263 60 404 437 2 197 20 99 76 259 6 392 56 23 119 510 510 262 404 452 2 110 1 16 439
split_gain=12.2332 20.2248 18.054 10.3639 9.41807 6.99834 9.55864 7.96529 15.1532 6.42927 6.29777 23.5385 8.95072 8.74229 15.4477 5.51185 12.4685 5.04574 5.4312 5.00862 4.13138 5.02888 3.8988 3.40004 5.49214 3.36804 2.91497 5.28866 2.9109 2.68446 1.45249 1.34031 1.14346 0.168068 0.154487 0.00424644 0.00254704 1.51596e-05
threshold=1.759150601098759 282.35633246525953 6823.488412656312 8747.0026241679479 71900.000000000015 10.718035120173157 5.2962561903869743 64172.733519628717 42134.329798303195 52563.657142857148 76.07758918388366 84.387525372366298 22.454045866144252 20.025488693848487 5.1571253607494887 52801.500000000007 47392.414285714294 0.44675472500249086 1.7553219706779586 10.365340049845761 1.7119231290550958 3.4142987184899884 102.22163985469643 29.245077530413763 111.47585477058367 5.1145647404028862 8.6439765902841987 1.73642968832179 0.37173748029350523 0.32401117318435763 19.64046141268572 2185.2500000000005 29790.883067246363 0.011908322372183007 0.005491936129769062 183.43758251724697 15.222686574498022 49102.753968253972
decision_type=2 2 2 2 2 2 2 2 2 2 2 2 2 2 2 2 2 2 2 2 2 2 2 2 2 2 2 2 2 2 2 2 2 2 2 2 2 2
left_child=1 2 4 -4 5 6 7 9 -9 10 12 -12 13 15 -15 16 17 18 20 32 23 -22 -13 24 25 28 33 -28 -1 -17 37 -26 34 -2 -14 -36 -35 -6
right_child=26 -3 3 -5 30 -7 -8 8 -10 -11 11 22 19 14 -16 29 -18 -19 -20 -21 21 -23 -24 -25 31 -27 27 -29 -30 -31 -32 -33 -34 36 35 -37 -38 -39
leaf_value=0.031937643945121739 -0.082712730345159358 0.18837694949814832 0.021184515664135723 0.22167915568905877 -0.10121405285520023 -0.10147143454180184 0.13021477062603212 -0.03669292283866752 0.19058942995838835 -0.091854509084887889 0.22154596113402061 -0.08765815961370528 -0.083878119687666369 0.21387719650396733 -0.029589914327493767 -0.012954055865340975 0.14409146815337764 0.063329927775284386 0.048131982987055399 0.02014070156397748 0.085012511934853152 -0.048555635581734147 0.031793107307437139 -0.10262116659924095 -0.10437518327136319 0.07605667997977493 0.036442629528825571 -0.10224547097238901 -0.071705395300530481 -0.10234339844852036 -0.042733107378915787 -0.04382894103600133 -0.04421850056527022 -0.10631840880754589 -0.10706619916620504 -0.10318992120395674 -0.10327230393311748 -0.10098466529129778
leaf_weight=5.105408241972329 5.1002601003274384 5.5804443061351767 5.0125261750072223 5.3087608255445957 5.3595344405621308 7.1142289871349922 5.4373354446142903 5.9793863669037801 5.7583997547626495 9.1708111474290472 5.4989677220582989 5.8558932747691852 5.0371053889393904 5.0186600703746063 5.4210425047203898 5.5763956895098081 5.6677034338936201 8.2158042071387154 9.7648606924340111 5.6338659934699526 5.7990223774686438 5.4849472232162952 5.1227882420644164 8.9771567070856673 7.9770453972741944 5.0033891685307017 5.6517023704946023 5.3546553365886211 5.7752842605113983 8.4510321449488384 6.748404965735971 6.7500639772042632 5.0764318071305743 5.0063927238807064 5.0147970402613264 6.4754765387624502 6.0771372942253947 6.2300091879442334
leaf_count=155 282 58 67 36 479 577 146 267 238 511 137 162 184 174 222 288 260 182 327 232 185 237 134 439 293 197 204 356 209 465 403 350 211 124 130 274 269 656
internal_value=0 0.000544497 -0.00457305 0.124309 -0.0114122 -0.00431257 -0.000223757 -0.00455864 0.0748087 -0.0106927 -0.0054768 0.0526669 -0.013067 0.000901543 0.0874516 -0.00930259 0.00152196 -0.0102138 -0.0201783 -0.0638316 -0.0332904 0.0200873 -0.0319207 -0.0485048 -0.0326344 0.00815136 -0.0707335 -0.0310299 -0.0230743 -0.066808 -0.079615 -0.0766243 -0.08573 -0.0977353 -0.0984804 -0.104882 -0.104648 -0.101091
internal_weight=0 210.403 204.823 10.3213 194.501 176.163 169.049 163.612 11.7378 151.874 142.703 16.4776 126.225 98.9878 10.4397 88.5481 74.5207 68.853 60.6372 27.2377 50.8723 11.284 10.9787 39.5883 30.6112 15.8841 27.1901 11.0064 10.8807 14.0274 18.3379 14.7271 21.6038 16.1838 16.5274 11.4903 11.0835 11.5895
internal_count=10120 8885 8827 103 8724 7186 6609 6463 505 5958 5447 433 5014 3983 396 3587 2834 2574 2392 1031 2065 422 296 1643 1204 561 1235 560 364 753 1538 643 799 675 588 404 393 1135
is_linear=0
shrinkage=0.1


Tree=11
num_leaves=40
num_cat=0
split_feature=327 311 394 8 19 342 405 477 125 395 309 375 311 311 244 430 103 290 67 224 5 70 209 463 514 97 0 510 509 265 16 100 5 210 16 326 2 25 1
split_gain=17.5507 20.2553 11.7057 9.37339 9.52169 6.91929 8.10914 6.84198 6.74149 6.72923 5.39292 25.086 5.46494 12.4207 11.9514 8.24516 5.66769 6.00162 6.76346 5.0868 5.15626 10.4161 4.70483 3.24216 3.36213 3.01741 2.2969 0.542979 2.16049 0.495841 0.472815 0.420115 0.139284 0.0145529 0.000879765 0.00070032 0.000186111 0.000137057 4.65641e-05
threshold=262.47214753482081 72.731361979854327 5189.3896103896113 27.958104356942616 10.472400613523961 111.93378613056848 64729.895833333336 86704.310687729318 1.7877210596311561 5198.3350853548973 87.404324900593579 79.036461509828527 49.269939623746438 46.766189534838425 0.21025477480637594 80832.812500000015 1.8072403757250213 39.714285714285722 3.4925481289628162 0.53914140182035875 0.22923291389435194 3.3870473363776621 0.67852448519628317 46524.276156737564 21151.500000000004 0.21498793025088639 76.813092311534817 0.329153235317242 0.46482939866187939 69.069618398886703 16.74984851705392 0.037551621676384733 36.243703360935747 0.45766186811567694 15.486342979947993 43.474440524110086 0.011518746764597821 0.18021239045764367 94.59335558936219
decision_type=2 2 2 2 2 2 2 2 2 2 2 2 2 2 2 2 2 2 2 2 2 2 2 2 2 2 2 2 2 2 2 2 2 2 2 2 2 2 2
left_child=2 -2 3 4 5 6 7 8 9 10 11 12 13 15 -15 16 17 18 22 20 25 -22 23 24 27 29 36 28 38 -14 33 -12 -10 -5 -21 37 -8 -29 -1
right_child=1 -3 -4 30 -6 -7 26 -9 32 -11 31 -13 19 14 -16 -17 -18 -19 -20 34 21 -23 -24 -25 -26 -27 -28 35 -30 -31 -32 -33 -34 -35 -36 -37 -38 -39 -40
leaf_value=-0.10282910578422631 0.23656128108753516 -0.032065475592600812 0.12497112290216938 -0.10955934937826289 0.12110592658798108 0.095495284962801907 -0.10097371056658372 0.092644167608826669 -0.10490581425418602 0.07784939053642774 -0.10510857553611036 0.2082103378473141 -0.06370004357897957 -0.0081678483602073606 0.20676146919267674 0.088473100682948086 0.069626318322112302 0.048008018046528329 0.043552568580545736 -0.10412368206804688 0.099768428574686957 -0.086946701197146911 0.023083654718747793 -0.0082782024345828733 -0.0037701936738610562 -0.00024749575049822723 -0.022300642862619301 -0.10203070429860846 -0.023537159099668591 -0.10440418811327493 -0.068373184372293325 -0.064516682540268142 -0.081664381741407305 -0.10194750338428477 -0.10238164958853198 -0.10358994961013407 -0.10173334097102563 -0.1027050644808276 -0.10324674286963359
leaf_weight=5.5341329872608167 6.1586408689618093 5.1578064328059554 5.9423448815941802 5.0067676892504078 5.2649592570960513 5.4950119769200674 8.8940457385033387 6.0842162901535621 5.299219183623789 8.2312614889815432 5.1991176195442659 5.0814124746248117 5.035991491749888 5.199709724634884 5.1492905085906386 6.7221755348145953 5.5911830309778443 7.7156368289142838 7.4641465460881582 6.8324007224291545 7.3206297736614925 5.0479833241552114 6.3005532305687657 7.424788072705268 5.0177130773663512 5.7474408065900198 5.0075550209730855 7.2554274993017334 5.0261298883706322 7.3760436726734042 5.1074710525572291 5.003445029258728 5.0223976839333773 5.040193478576839 5.0357499564997852 6.53362560737878 5.0603329529985777 5.1552333300933242 5.1576951649039984
leaf_count=311 49 135 147 96 215 160 961 269 195 181 132 118 208 206 210 233 110 175 317 244 240 168 245 425 242 182 367 446 262 246 271 151 405 429 263 285 358 251 212
internal_value=0 0.114127 -0.0135104 -0.0172776 -0.0116217 -0.0151507 -0.0183087 -0.0115252 -0.0153095 -0.0101678 -0.0150326 -0.00987197 -0.0181639 -0.00438002 0.0987733 -0.017576 -0.0271866 -0.035079 -0.0456109 -0.0478303 -0.026233 0.0235647 -0.0580727 -0.0689279 -0.0802765 -0.0601507 -0.0804001 -0.0913515 -0.077611 -0.0878891 -0.0931468 -0.0852019 -0.0935968 -0.105741 -0.103385 -0.102752 -0.101249 -0.102311 -0.103031
internal_weight=0 11.3164 224.383 218.441 203.287 198.022 192.527 173.565 167.481 157.159 148.928 138.725 133.644 91.2474 10.349 80.8984 74.1763 68.5851 60.8694 42.3962 30.5281 12.3686 53.4053 47.1047 39.68 18.1595 18.9619 34.6622 15.718 12.412 15.1544 10.2026 10.3216 10.047 11.8682 18.9443 13.9544 12.4107 10.6918
internal_count=10120 184 9936 9789 8993 8778 8618 6932 6663 6063 5882 5599 5481 3930 416 3514 3281 3171 2996 1551 1044 408 2679 2434 2009 636 1686 1767 785 454 796 283 600 525 507 982 1319 697 523
is_linear=0
shrinkage=0.1


Tree=12
num_leaves=36
num_cat=0
split_feature=327 245 356 8 326 7 113 403 411 492 426 463 222 236 240 242 6 86 34 327 295 357 81 60 347 11 470 464 64 21 16 237 25 405 57
split_gain=13.5787 15.083 10.3482 10.1393 9.16322 5.91887 8.93791 6.32721 10.1414 9.69513 8.18489 9.1674 6.52279 10.9004 17.8876 10.7437 9.80675 8.62795 6.95946 6.71331 10.5596 6.07544 4.62208 3.49214 3.37946 2.01866 1.38831 0.557003 0.148102 0.14602 0.142987 0.136809 0.0019679 0.00085415 0.000428631
threshold=262.47214753482081 16.821426973907318 1536.7320312701906 27.958104356942616 221.93795776052113 1.7466280958945142 1.7418814372130209 70453.611111111124 47998.000000000007 80111.230814977418 50032.152777777788 29899.097016710315 1.1176921930983863 0.24305000699557641 0.22684530226272867 0.12598197923185875 0.029235672426448849 1.6934725183061792 0.053408780657303236 62.238509876109049 71.974210186976151 99.247746299066719 3.4476691631032472 5.1017234820357507 87.22151257023468 19.054532403481065 24798.769845981609 26438.386922515892 8.1976519039693496 10.360916800493627 15.51986632378607 0.21001532750685808 0.059572729582929425 52050.597222222226 5.1515498852016348
decision_type=2 2 2 2 2 2 2 2 2 2 2 2 2 2 2 2 2 2 2 2 2 2 2 2 2 2 2 2 2 2 2 2 2 2 2
left_child=2 -2 3 4 5 6 7 8 12 10 11 -9 13 14 15 16 21 18 19 -18 -21 24 -19 -7 26 30 32 -10 -5 -15 34 -17 -1 -29 -25
right_child=1 -3 -4 28 -6 23 -8 9 27 -11 -12 -13 -14 29 -16 31 17 22 -20 20 -22 -23 -24 25 -26 -27 -28 33 -30 -31 -32 -33 -34 -35 -36
leaf_value=-0.10215357579067603 0.22511896135654458 -0.0019520230248762538 0.12206233119506803 -0.10664571668230256 0.12308842436284893 0.0073700504818813885 0.097034165393290531 -0.033170285313587108 -0.063061015914111715 0.14226384619303825 -0.071134847754952199 0.12600133237349548 0.099011205971259619 -0.1033577371111488 0.1318658687749692 -0.10340410090392282 -0.0066488893061430994 -0.091403354714603882 -0.045526474134937898 0.19985503500727972 0.04342001689682029 0.040525494517472296 0.033978169210515413 -0.1034572705296786 0.0016062210027514253 -0.022835282397799916 -0.041818525873544621 -0.10302859185741192 -0.085492034124237434 -0.082307437503594705 -0.082189697287658153 -0.082942492655912484 -0.10454554763310658 -0.10140231060334853 -0.10216405339123842
leaf_weight=7.5970359505154281 5.182528689503668 6.7161632115021348 5.5551347788423291 8.6081891227513534 5.0095734093338242 6.2803675616160062 7.8722702814266077 7.0797793371602946 5.0650940453633693 6.0697251106612375 9.5352505249902588 7.4008820690214634 5.193472488783299 9.5807739794254285 8.8738031596876663 9.3204535036347789 6.0584546821191969 7.1260243430733663 5.0423817792907348 8.0125379506498593 9.3504579411819559 6.7311145458370438 5.005331571213901 5.0116139193996805 5.5823974404484025 5.0020564980804911 5.0081638046540311 6.119025251362471 5.3771363296546033 5.0229711458086959 5.0133018316701046 5.0317361541092387 6.2848737584426999 6.8392337961122394 5.2455256362445652
leaf_count=501 37 147 104 359 76 292 281 308 342 278 595 350 126 385 363 412 199 235 152 203 254 176 163 208 154 320 390 282 450 315 304 242 198 614 305
internal_value=0 0.0969498 -0.0127035 -0.0161639 -0.0104728 -0.0138631 -0.00703493 -0.0120632 -0.0214412 0.0293461 0.000807552 0.0481803 -0.0104946 -0.0156822 -0.00332064 -0.0172452 -0.00145653 0.0309453 0.0610424 0.0839855 0.11561 -0.0436106 -0.0396716 -0.0577855 -0.066752 -0.0779705 -0.0869533 -0.0911794 -0.0985125 -0.0961175 -0.0960309 -0.0962305 -0.103237 -0.10217 -0.102796
internal_weight=0 11.8987 221.906 216.351 202.366 197.356 170.803 162.931 132.845 30.0856 24.0159 14.4807 114.822 109.629 95.0248 86.151 71.7988 40.5952 28.4638 23.4215 17.363 31.2036 12.1314 26.5529 24.4725 20.2725 18.8901 18.0234 13.9853 14.6037 15.2704 14.3522 13.8819 12.9583 10.2571
internal_count=10120 184 9936 9832 9023 8947 7518 7237 5706 1531 1253 658 4468 4342 3642 3279 2625 1206 808 656 457 1419 398 1429 1243 1137 1089 1238 809 700 817 654 699 896 513
is_linear=0
shrinkage=0.1


Tree=13
num_leaves=37
num_cat=0
split_feature=327 7 108 245 55 16 27 78 430 474 439 9 20 208 357 35 404 506 500 393 98 29 58 63 509 338 258 271 262 25 100 449 0 219 405 29
split_gain=10.8732 8.65793 8.2812 10.3193 10.9093 7.24678 11.8302 8.06268 8.32754 8.12803 7.70918 5.60943 6.92969 11.6074 4.85669 5.10586 3.7676 11.3192 4.48786 6.33369 2.9633 2.69725 2.58928 2.5054 2.28555 2.06632 5.26858 1.83796 4.89772 1.39466 3.52661 1.07621 0.244618 0.136856 0.00429606 0.00261612
threshold=337.36034609052376 1.759150601098759 1.7497059967029085 15.74589804293287 5.177718301583381 15.548279938585557 7.0150075543992108 3.5144708578868289 80832.812500000015 16232.851242357379 34647.660714285717 24.105087608174056 10.257470135881624 0.62498801809746574 105.70171835009155 7.8673080721561623 49049.277777777788 29412.374482132727 18612.951039594318 4108.4510948526367 1.8173932119697782 6.8939849723278597 5.1867619021058458 5.146150116435769 0.55267724779701599 91.854430108533734 79.987578435138957 64.599228896103909 22.194541767157155 1.6982694526189843 1.7121899601516863 51118.251133852893 31.6173990363739 0.78141723850171163 40894.30000000001 6.7798706755517575
decision_type=2 2 2 2 2 2 2 2 2 2 2 2 2 2 2 2 2 2 2 2 2 2 2 2 2 2 2 2 2 2 2 2 2 2 2 2
left_child=1 2 5 4 -4 6 7 8 9 11 -10 12 14 -14 15 16 17 18 25 -20 29 -13 23 -3 34 26 27 28 32 33 -31 -18 -1 -7 -11 -24
right_child=-2 22 3 -5 -6 20 -8 -9 10 24 -12 21 13 -15 -16 -17 31 -19 19 -21 -22 -23 35 -25 -26 -27 -28 -29 -30 30 -32 -33 -34 -35 -36 -37
leaf_value=-0.062324634884913105 0.10232020385769575 0.016210695344977832 0.031423364472965974 -0.036478914183448764 0.22573813292800168 -0.10364080098360196 0.13399471131768831 0.10943895047306834 0.15855518751299449 -0.10516248425821986 0.0047927871928348346 -0.10267959021869061 0.16759019562728469 -0.027398149409449232 0.057597493928340515 0.071032026856393288 -0.10252026604066322 0.12188651760784697 0.093062802897109193 -0.05293729027014913 0.01149098637766756 -0.019639951176010622 -0.10485701738305685 -0.083429636855474776 -0.032733922778444467 -0.10543189042638251 0.045804994749674997 -0.10469555723102134 0.034300907304903656 0.014298973220132745 -0.10236860050057206 -0.042337190424865979 -0.091296296442938629 -0.082440168915909884 -0.10152462493601284 -0.10183335714394633
leaf_weight=5.0402307617478161 8.7725467355921847 5.0095968651585299 6.645399031229319 7.1442402750253668 5.111675045453012 7.6834611948579603 6.0806054747663429 5.5943745239637783 5.0726634142920366 5.5187113331630844 9.1282883053645474 8.6422217390499991 6.0734575595706684 6.1386073636822402 9.0677635632455331 5.652972560375928 7.2657318506389839 5.3198180664330712 6.0432417923584563 5.8453653645701706 5.0521575491875401 7.1458387705497435 5.0110391778871399 5.0850279699079692 7.0647570178844026 5.6016177544370285 5.8588599199429146 6.6407518372870973 5.5936165340244761 5.0262959226965886 5.3473827322013676 5.0271709416992962 6.9096312159672379 5.0435434943065047 7.883428568020463 6.6706983731128275
leaf_count=343 118 225 281 296 198 534 93 227 150 207 397 430 158 184 221 151 458 238 211 197 207 295 173 264 424 141 136 213 141 228 311 369 190 488 716 507
internal_value=0 -0.0111788 -0.00469808 0.0583085 0.115906 -0.0112285 -0.00271106 -0.00832274 -0.0129448 -0.0209854 0.0597176 -0.010023 -0.000580212 0.0695759 -0.0113075 -0.0201326 -0.0280434 -0.0164454 -0.0319272 0.0212778 -0.0578837 -0.065095 -0.0710759 -0.0339817 -0.0787604 -0.0496727 -0.0392763 -0.059888 -0.042927 -0.073056 -0.0458404 -0.0779085 -0.0790766 -0.0952393 -0.103023 -0.10313
internal_weight=0 223.04 201.264 18.9013 11.7571 182.363 154.21 148.129 142.535 128.334 14.201 107.867 92.0788 12.2121 79.8668 70.799 65.146 52.8531 47.5333 11.8886 28.1528 15.7881 21.7764 10.0946 20.4669 35.6447 30.0431 24.1842 17.5435 23.1007 10.3737 12.2929 11.9499 12.727 13.4021 11.6817
internal_count=10120 10002 8833 775 479 8058 6290 6197 5970 5423 547 4076 3351 342 3009 2788 2637 1810 1572 408 1768 725 1169 489 1347 1164 1023 887 674 1561 539 827 533 1022 923 680
is_linear=0
shrinkage=0.1


Tree=14
num_leaves=35
num_cat=0
split_feature=72 508 327 215 243 201 202 6 229 228 231 357 267 254 362 403 509 411 408 290 510 244 366 2 509 476 19 510 0 226 210 244 0 406
split_gain=9.89104 15.6833 14.1509 7.44318 10.9024 7.3328 6.8566 16.5185 21.8254 7.96874 12.6626 6.23347 8.33942 21.6403 5.70327 5.41561 8.50359 9.63425 11.8375 5.89969 4.42224 4.87342 3.8112 3.38106 3.16395 1.14195 0.948315 0.600793 1.25596 0.142045 0.00515499 0.00198041 0.00123055 0.00024676
threshold=3.5695223656103372 10176.417006917707 262.47214753482081 0.68072414387122204 0.4326399086651615 1.6146861734763032 1.7007987044893522 29.112161722160447 0.074281399745966301 0.21418836029888136 0.24000000034829935 101.80311978592324 75.131508752431245 80.78194750455026 106.02138899956144 72825.714285714304 0.62530595602755645 54807.777777777788 55281.833333333336 51.401483453784714 0.087537927832149573 0.22024337128590341 87.367583342823139 0.47352417271254332 7013.1888873632133 53793.109863700483 10.223801905412595 12.058519548095086 76.474067436498743 0.58983745330505022 0.68364203857911099 0.24752853459718741 31.112627690876959 754.00000000000011
decision_type=2 2 2 2 2 2 2 2 2 2 2 2 2 2 2 2 2 2 2 2 2 2 2 2 2 2 2 2 2 2 2 2 2 2
left_child=1 2 3 6 26 -4 11 -8 -9 29 -11 12 15 -14 22 19 17 -17 -19 20 21 -1 -15 -13 25 27 -5 32 -29 -10 -28 -32 33 -22
right_child=-2 -3 5 4 -6 -7 7 8 9 10 -12 23 13 14 -16 16 -18 18 -20 -21 24 -23 -24 -25 -26 -27 30 28 -30 -31 31 -33 -34 -35
leaf_value=-0.086168361513833946 -0.10404412846047369 0.15511370038578631 0.016800526124493061 -0.054640858639496394 0.069231115646237976 0.1810278833359211 0.15662075253516136 0.13760343454400753 -0.10328501057970924 0.081803635575291397 -0.090205810447315848 0.11238111453386274 0.19450386256128477 0.0039186024069259636 0.055435384745050199 -0.066638452016915817 -0.10212859364294483 0.20566389660472512 -0.0025899790365433522 0.052566512033496077 -0.10214576906614228 0.03812174348404368 -0.104269877189333 0.00029408286856201098 -0.013240169969472025 -0.048331076510458704 -0.10652869174083437 -0.04485074784164593 -0.10316033803410352 -0.082204955180390227 -0.10158030079872582 -0.10420293773697756 -0.10320133322372303 -0.10122106716555351
leaf_weight=5.0880202399566761 9.9680448258295637 6.1598931457847348 5.1110982578247768 5.1107548498548629 5.1597665306180707 5.8087061885744333 8.1567609305493516 9.0149541385471803 8.8281685146503168 9.7198702609166521 7.6465820386074475 5.2979970946907979 5.8918445198796716 5.4786102939397123 6.2056548837572327 5.5316076339222553 5.5532841994427136 5.1482084444724006 5.8094490538351238 5.001159607898443 5.5054961973801273 8.3025311594828946 8.0265329061076027 5.4694371074438095 7.3858204847201696 7.4114238768815985 5.0069899507798281 6.9008400361053628 7.9491814239881933 5.0109411566518238 6.755879139993338 5.0176968071609735 9.4015075545757991 6.0648764627985656
leaf_count=149 614 90 66 163 140 60 169 343 460 478 385 167 159 168 169 321 400 234 217 141 347 256 258 98 243 564 189 419 398 295 654 194 454 658
internal_value=0 -0.00219876 -0.00673177 -0.0127012 -0.0615336 0.10416 -0.00518722 0.0268643 0.00054951 -0.0390439 0.00606656 -0.0173558 -0.0240754 0.0263466 -0.0239181 -0.0382532 0.00489904 0.040944 0.0952534 -0.0520363 -0.0602091 -0.00910488 -0.0603812 0.0554453 -0.0737279 -0.0840614 -0.0923547 -0.0914539 -0.0760637 -0.0956522 -0.103841 -0.102698 -0.102352 -0.101661
internal_weight=0 219.932 213.772 202.852 27.0511 10.9198 175.801 48.3773 40.2205 31.2056 17.3665 127.423 116.656 25.6026 19.7108 91.0534 22.0425 16.4893 10.9577 69.0109 64.0097 13.3906 13.5051 10.7674 50.6191 43.2333 21.8913 35.8219 14.85 13.8391 16.7806 11.7736 20.9719 11.5704
internal_count=10120 9506 9416 9290 1340 126 7950 2130 1961 1618 863 5820 5555 754 595 4801 1172 772 451 3629 3488 405 426 265 3083 2840 1200 2276 817 755 1037 848 1459 1005
is_linear=0
shrinkage=0.1


Tree=15
num_leaves=35
num_cat=0
split_feature=58 508 327 204 19 360 260 395 405 403 11 237 510 477 426 426 10 72 395 3 232 198 375 357 26 254 300 508 1 477 218 2 214 512
split_gain=9.33087 12.2613 11.0068 7.15995 6.0418 6.37284 11.4731 6.7974 5.97867 5.56785 7.36497 9.79854 6.46703 7.41331 8.29867 4.9805 4.68966 5.5866 5.86249 4.70752 7.30529 8.86005 5.39003 5.07339 3.37111 2.88819 5.12388 3.61461 2.11797 1.44508 1.19479 0.504996 0.000527261 1.55831e-05
threshold=5.313106441103959 10176.417006917707 262.47214753482081 1.6068406593964519 10.707840047650853 111.47061357992646 105.05467102129687 5198.3350853548973 64729.895833333336 72825.714285714304 19.058915372266906 0.0717829850164525 0.2680194805194806 20576.650887030679 50032.152777777788 27934.500000000004 18.932164911105009 3.4939552211891152 4777.5099601593638 8.6611994926407956 0.22108190076512421 1.7046441903119345 79.549730867875169 101.80311978592324 8.6496728091340191 72.404219769562431 62.640651957468485 0.4648091906103467 183.66157392102568 34648.990632974674 0.62652517945755726 0.015564808063451206 0.55293252169445128 38.752808394354233
decision_type=2 2 2 2 2 2 2 2 2 2 2 2 2 2 2 2 2 2 2 2 2 2 2 2 2 2 2 2 2 2 2 2 2 2
left_child=1 2 4 -4 5 6 7 8 9 10 15 -12 -11 -14 -15 16 17 18 19 20 22 -22 23 25 30 26 27 31 33 -17 32 -1 -18 -10
right_child=-2 -3 3 -5 -6 -7 -8 -9 28 12 11 -13 13 14 -16 29 24 -19 -20 -21 21 -23 -24 -25 -26 -27 -28 -29 -30 -31 -32 -33 -34 -35
leaf_value=-0.063354794253585464 -0.10394695207444885 0.13139495059449774 -0.00043652113977657442 0.1589808168794852 -0.093176220570759222 -0.10595376815946141 0.10732611074900328 0.07318847926287024 -0.10116260411272944 -0.053365098155878726 0.15993112432876028 -0.015815524047681051 -0.028653731162272829 0.20956015184228641 0.037726311072344441 -0.040851244441434002 -0.1035765957318132 0.092237849017858253 -0.10506423380856555 -0.087463990480016254 0.15385926699587621 -0.016817441225490722 0.064712236158858724 0.045357126446563152 -0.0033481745480666808 -0.10429188536306476 0.054088860386253823 0.00076093823795177228 -0.021583845134986731 -0.1023131348722755 -0.043399350930935915 -0.10473403192569959 -0.10214870631839615 -0.10091485624904369
leaf_weight=5.0288257892243653 9.4110553874634189 6.6555588496848932 5.0240621101111156 6.4142385479062796 8.746275552082805 6.4432206107303491 8.6992414640262705 9.2389129567891342 5.0041530039161426 5.8789037088863578 5.2445218274369827 8.0292851226404292 5.3383420403115478 5.0633216975256783 6.316983693279326 6.4768670708872369 5.064098243601622 5.4993896493688217 6.2270224341191343 6.0603286460973314 6.497935433406381 5.7178775714710355 7.5312505671754471 7.6803225241601458 7.9897453822195521 6.5641811517998567 5.6481942767277351 7.4690308435820034 5.0098022460006169 9.3446004791185242 5.0210440666414788 7.1323164529167116 5.28480169409886 5.1533387303352356
leaf_count=270 606 90 66 60 724 167 199 195 517 240 161 411 227 176 286 370 225 210 213 265 178 209 174 174 397 227 196 271 430 618 255 302 315 696
internal_value=0 -0.00225209 -0.00645094 0.0889597 -0.0118966 -0.00818744 -0.00478636 -0.0103116 -0.0149234 -0.00895362 -0.0169454 0.0536225 0.0368489 0.0685715 0.114179 -0.0250039 -0.0167875 -0.00488882 -0.0123533 -0.00351646 0.00506715 0.0739703 -0.0128209 -0.0275952 -0.0560375 -0.0451911 -0.029844 -0.0539941 -0.0747933 -0.0771524 -0.083427 -0.0876231 -0.102847 -0.101037
internal_weight=0 218.498 211.842 11.4383 200.404 191.658 185.215 176.515 167.276 152.109 129.512 13.2738 22.5976 16.7186 11.3803 116.238 100.416 77.0567 71.5573 65.3303 59.2699 12.2158 47.0541 39.5229 23.3597 31.8425 25.2784 19.6302 15.1673 15.8215 15.3699 12.1611 10.3489 10.1575
internal_count=10120 9514 9424 126 9298 8574 8407 8208 8013 6370 5441 572 929 689 462 4869 3881 2689 2479 2266 2001 387 1614 1440 1192 1266 1039 843 1643 988 795 572 540 1213
is_linear=0
shrinkage=0.1


Tree=16
num_leaves=36
num_cat=0
split_feature=21 126 219 452 26 72 220 235 101 110 37 19 471 458 272 369 477 469 134 470 342 24 223 239 510 386 16 199 477 28 458 25 2 74 439
split_gain=12.1375 16.7155 24.1707 16.3601 14.1154 12.9488 10.4424 47.192 9.12652 7.71925 6.78123 5.44768 5.08918 9.29636 5.99992 16.578 6.47124 13.8225 7.24598 5.49591 4.88403 4.87245 4.65361 7.00073 2.73598 2.59277 1.61281 0.949111 0.514848 0.184099 0.144939 0.0060894 0.0049411 0.000645637 0.000459169
threshold=10.445818449604682 0.0094073497118802255 0.35881877565432529 29319.304490635343 8.6008331250867638 3.4435129218813083 0.59892103794904872 0.22499800009805329 1.6744341629715926 1.6611396422870721 0.00096973634557604587 1.0000000180025095e-35 34998.246216498133 65414.06743446544 105.01148124869057 95.371015734581704 21545.271089535639 28577.414466471113 8.4778359734287196 41673.157053037285 64.042411997117085 8.5398687820177894 0.61370343678115336 0.24625351503412862 0.080418364550920815 8327.3884615384632 15.449642358532147 1.7189371014362003 41288.864816527341 6.9116570082971425 15847.481167494943 0.066735324062066975 0.018006527391510287 3.4251884675980375 41441.271428571439
decision_type=2 2 2 2 2 2 2 2 2 2 2 2 2 2 2 2 2 2 2 2 2 2 2 2 2 2 2 2 2 2 2 2 2 2 2
left_child=1 11 3 5 6 10 7 -4 -8 -10 21 12 13 14 15 16 18 -18 24 -14 29 -3 26 -24 -1 30 -6 -11 -21 32 31 -26 -2 -28 -30
right_child=20 2 4 -5 22 -7 8 -9 9 27 -12 -13 19 -15 -16 -17 17 -19 -20 28 -22 -23 23 -25 25 -27 33 -29 34 -31 -32 -33 -34 -35 -36
leaf_value=0.0019685090904233665 -0.10226026339340313 0.18030395913198813 -0.070605490588870723 -0.007638145449668449 -0.039377055035766571 0.034808096511666227 0.1265215535228984 0.33109810654643579 0.047021127494275894 -0.10386573920322369 0.11890227348334144 -0.096194096099027113 0.0086056268187238421 0.13050814936776031 -0.10544473827493722 0.1726498494645676 0.15395917309407281 -0.044463904317870714 0.047317954121204819 -0.063263259057200677 0.015094370874543232 0.31936591867289849 0.046720828171867561 -0.087282923244692015 -0.10258518095320364 -0.028686646184122422 -0.10375979779917566 -0.045134182475200513 -0.10279870208623867 -0.081574539193546791 -0.084321095661823137 -0.10720865908375719 -0.10637292079951105 -0.10223681427854221 -0.10147907317418654
leaf_weight=5.5068925702944425 5.6104299281723851 5.0263671912252956 6.0616042222827655 9.0100237512961012 6.2037333557382253 6.8011197950690976 5.250643600709739 5.650934393517673 9.0598266460001486 6.0942901773378235 6.4821414877660564 8.992375473957507 8.9892323594540375 5.0108632044866672 6.0790045922622076 5.0176133271306744 6.0777429137378922 8.3122986797243339 7.6540730325505129 5.0375477564521125 5.0005253893323234 5.0520845060236752 9.9169317996129411 6.4240888990461817 6.4288216461427563 7.8455471824854603 5.1908687176182848 5.0163943665102124 5.1083471016027016 5.0604096455499521 5.04914921009913 5.1152040218003094 6.094896677415818 6.00210120389238 5.4496952937915921
leaf_count=130 363 71 337 204 300 183 125 187 289 266 91 726 639 174 151 127 182 362 195 417 162 100 446 334 391 317 255 231 354 527 252 129 211 371 557
internal_value=0 0.00689845 0.0352414 0.106834 0.00254045 0.150983 0.0450791 0.123204 0.00908393 -0.0214866 0.198693 -0.0218819 -0.0146718 -0.000592038 -0.0110051 -0.000934539 -0.0176875 0.0393416 -0.0395134 -0.0536711 -0.0716419 0.250012 -0.0442801 -0.0059596 -0.0617075 -0.0760559 -0.0802752 -0.0773489 -0.0895672 -0.0975118 -0.0984529 -0.104634 -0.104402 -0.102943 -0.102118
internal_weight=0 204.918 103.243 32.3717 70.8714 23.3617 37.1337 11.7125 25.4212 20.1705 16.5606 101.674 92.682 68.0972 63.0863 57.0073 51.9897 14.39 37.5997 24.5848 21.7663 10.0785 33.7377 16.341 29.9456 24.4387 17.3967 11.1107 15.5956 16.7657 16.5932 11.544 11.7053 11.193 10.558
internal_count=10156 8893 3790 649 3141 445 1435 524 911 786 262 5103 4377 2410 2236 2085 1958 544 1414 1967 1263 171 1706 780 1219 1089 926 497 1328 1101 772 520 574 626 911
is_linear=0
shrinkage=0.1


Tree=17
num_leaves=35
num_cat=0
split_feature=72 126 237 8 214 244 57 500 458 211 77 197 235 20 377 449 449 449 477 412 300 373 321 514 24 267 8 61 222 469 404 26 9 57
split_gain=10.8354 12.6133 17.7285 15.7236 19.5457 16.1644 14.9793 9.59241 7.39856 7.64754 6.70629 6.52946 8.03282 5.02016 5.04133 5.11157 14.3034 9.21971 11.8133 11.3731 8.52889 8.61494 7.63553 4.9445 6.98093 4.28488 3.9068 3.23573 2.276 1.11766 0.497193 0.0144603 0.00117159 0.00029816
threshold=3.5114643304230087 0.0094073497118802255 0.0717829850164525 25.691056192264089 0.60802988637071054 0.47203743791973668 5.13961385303194 18387.56822533577 19806.308171045537 0.65210944205373511 3.4953542282619172 1.6912510236654679 0.22854289508900177 0.77322446911544851 15268.444444444447 53214.005354583729 66047.442583175784 25677.286750456322 21255.778440038641 1.0000000180025095e-35 62.640651957468485 69.770843287920428 103.80336899178137 50094.000000000007 8.627538820503057 76.243505398110671 25.906717367666765 5.199396184436786 0.58804133631554356 16727.739197702973 71461.833333333358 8.5629181973505712 24.031828036056069 5.1506797347646245
decision_type=2 2 2 2 2 2 2 2 2 2 2 2 2 2 2 2 2 2 2 2 2 2 2 2 2 2 2 2 2 2 2 2 2 2
left_child=1 13 6 4 -4 -6 7 8 9 26 11 12 -5 14 15 17 -17 18 20 -20 29 -22 25 24 -8 -23 -3 32 31 -1 -19 -2 -13 -34
right_child=28 2 3 10 5 -7 23 -9 -10 -11 -12 27 -14 -15 -16 16 -18 30 19 -21 21 22 -24 -25 -26 -27 -28 -29 -30 -31 -32 -33 33 -35
leaf_value=-0.10448457358213925 -0.1021895448651976 0.29366862651303455 0.2400778667654791 -0.06973516550292741 -0.091184832437480379 0.12546769903073907 -0.022675745304363393 0.0016642393236373416 0.048353751790806559 0.088874296260145882 0.060460321452643177 -0.10424846763343504 0.10079651018289011 -0.094531681279388866 -0.082386997142982213 0.16971542184691543 -0.038027247492342035 -0.1043498575898219 0.20201729565239837 -0.0029079367582434579 0.11210315589406997 -0.10465343458746371 0.079830413493459332 -0.074218092288337187 0.13121427266627503 -0.0063635986223738259 0.17529074589755414 -0.03170927929204765 -0.024202690190256865 -0.046594876450431214 -0.064881847264114112 -0.10944703471902212 -0.1030237915858828 -0.10205785520616771
leaf_weight=9.4568907166831178 6.0767624047584849 5.4129063179716557 5.0416058585979071 5.7144997394643706 7.3675709003582579 6.4661434474401176 7.1794290854595619 5.211173419840633 5.1899454472586504 5.5281854462809852 6.0887758973985902 5.0504277739673915 5.3466113423928618 8.3957133735530061 9.598794477991758 5.7665804354473931 7.7934821043163538 8.7766522099263948 5.1824636426754278 5.6726009324193001 6.3898598961532143 8.165351030416792 5.9125978173688045 5.4317329432815304 5.0011591920629144 9.7091067517176253 5.7488910472020507 9.8033821238204819 5.001301070675253 5.1519685979001215 5.0159228770062319 5.0078864698298275 5.4473604899831098 7.7306318250484765
leaf_count=461 544 63 161 344 272 168 240 121 96 61 327 214 253 739 688 270 583 479 193 269 201 283 140 129 151 227 51 527 302 279 326 208 273 513
internal_value=0 0.0049597 0.0285897 -0.00513808 0.0715145 0.0100827 0.0769194 0.123593 0.152633 0.18506 -0.0371608 -0.0523655 0.0126948 -0.020489 -0.0137752 -0.00583977 0.0503178 -0.0168071 0.00133551 0.0949282 -0.0213493 0.0090139 -0.0186787 0.00512662 0.0405091 -0.051264 0.232698 -0.0780377 -0.080202 -0.0840692 -0.0899966 -0.105468 -0.102953 -0.102457
internal_weight=0 209.748 108.76 64.057 18.8753 13.8337 44.7034 27.0911 21.8799 16.69 45.1817 39.0929 11.0611 100.988 92.5923 82.9935 13.5601 69.4334 55.6408 10.8551 44.7858 30.1769 23.7871 17.6123 12.1806 17.8745 11.1618 28.0318 16.0859 14.6089 13.7926 11.0846 18.2284 13.178
internal_count=10156 9102 3964 3052 601 440 912 392 271 175 2451 2124 597 5138 4399 3711 853 2858 2053 462 1591 851 650 520 391 510 114 1527 1054 740 805 752 1000 786
is_linear=0
shrinkage=0.1


Tree=18
num_leaves=35
num_cat=0
split_feature=21 29 32 8 68 230 203 108 12 510 51 215 89 392 244 329 267 247 430 402 26 172 78 80 405 0 230 512 364 209 230 397 75 513
split_gain=9.53412 11.5076 23.2339 11.9687 10.212 10.0286 10.0833 12.0436 7.12498 7.02409 6.16319 7.59805 5.80863 5.62636 5.52376 5.41443 8.77358 13.8936 6.43546 7.13234 8.14407 4.66662 4.65324 3.0241 1.47559 1.57622 1.24128 0.795503 0.482658 0.172192 0.167734 0.140323 0.123774 0.00137805
threshold=10.445818449604682 4.6760064401069714 5.3146417579078813 25.687332113462833 3.4875119961612291 0.24289949396215246 1.6938219146602767 1.7266389363200105 1.0000000180025095e-35 0.060080059234578188 5.1571252313584237 0.63424354789780935 1.6123801557652715 71247.300000000003 0.11174916925553033 108.08169103890206 82.679306857878302 69.774823943661985 80832.812500000015 77991.187500000015 1.1951410432856635 0.0033215970824845924 0.4511085593621485 3.4083037136917897 33503.200000000004 8.8018504007142031 0.22130490355577101 1.0000000180025095e-35 95.059700568118856 0.19726944575210595 0.20930143277537536 57359.611111111117 3.4195969809537075 16399.500000000004
decision_type=2 2 2 2 2 2 2 2 2 2 2 2 2 2 2 2 2 2 2 2 2 2 2 2 2 2 2 2 2 2 2 2 2 2
left_child=1 8 3 4 10 6 7 -5 13 -8 11 -3 -4 15 -11 16 17 18 19 20 21 24 -2 -13 25 -1 33 -27 -18 -10 -24 -26 -7 -16
right_child=22 2 12 5 -6 32 9 -9 29 14 -12 23 -14 -15 26 -17 28 -19 -20 -21 -22 -23 30 -25 31 27 -28 -29 -30 -31 -32 -33 -34 -35
leaf_value=-0.017788290867127882 0.015005564161496083 0.076007412742161218 0.24381662536987508 -0.0048507326498050422 0.19097162246838725 -0.10312972580000071 0.055416553134102597 0.16903355603571454 -0.10987128877785544 0.020710641387868066 0.12024283607701072 0.0043216628745969586 0.094486906061017034 -0.10277692949043685 -0.10221769088719737 0.092507702467298336 -0.10611197727378957 0.11909483500228552 0.076241585889180355 0.076484052598307761 0.055689174497169092 0.033936199356404941 -0.10418172855193455 -0.10488257964141348 -0.10263283779339315 -0.053699644640503842 -0.043512910208358783 -0.10343555669937493 -0.065350770692288396 -0.084033562733683217 -0.081639669852550389 -0.081617769414972827 -0.082604558761320696 -0.1044298965168292
leaf_weight=8.0047337040305155 5.0324941519647863 8.8617939078249126 5.2937362478114647 9.0849346746690589 5.2048051208257666 7.1145159718580526 7.9647452710196402 7.0932140899822107 5.2994366683997196 7.0661772303283241 6.6449717297218731 5.0295684821903688 5.1282587284222245 6.0802726815454653 6.4235875899903494 5.5265532862395039 6.9285784494131786 9.0876053245738131 7.0713299252092829 6.1123827798292032 7.7353250249288967 5.0038263523019841 9.626095107290892 5.1143928435631096 8.6713472171686572 7.9064888311550003 5.0137286810204378 5.4207280571572483 5.0023877630010247 5.025131662376225 5.0235420539975157 5.0149426260031751 5.0048542693257332 5.0137285976670682
leaf_count=400 241 166 60 342 119 356 301 265 113 272 144 137 65 489 456 145 192 258 260 329 122 150 517 171 808 303 282 315 147 668 505 519 314 225
internal_value=0 0.00491114 0.0289369 0.0126775 0.0632583 -0.0134301 0.00722401 0.0713878 -0.0184592 -0.0257489 0.0373439 0.00835996 0.170337 -0.00976004 -0.0532378 -0.00329539 -0.00975541 0.00374939 -0.013451 -0.0252247 -0.0382423 -0.056397 -0.0679534 -0.050737 -0.0693049 -0.0528626 -0.0850006 -0.0739293 -0.0890217 -0.0972957 -0.0964518 -0.0949325 -0.0946536 -0.103187
internal_weight=0 204.948 101.057 90.635 30.8555 59.7795 47.6601 16.1781 103.891 31.482 25.6507 19.0058 10.422 93.5665 23.5172 87.4862 81.9597 70.0287 60.9411 53.8698 47.7574 40.0221 19.6821 10.144 35.0182 21.332 16.451 13.3272 11.931 10.3246 14.6496 13.6863 12.1194 11.4373
internal_count=10156 8893 3675 3550 737 2813 2143 607 5218 1536 618 474 125 4437 1235 3948 3803 3464 3206 2946 2617 2495 1263 308 2345 1018 963 618 339 781 1022 1327 670 681
is_linear=0
shrinkage=0.1


Tree=19
num_leaves=34
num_cat=0
split_feature=72 116 86 76 207 469 500 212 201 10 3 263 206 115 6 405 477 6 405 7 500 26 244 430 97 226 347 468 204 204 492 26 6
split_gain=8.86771 9.05223 9.4748 11.3015 10.9267 10.1506 10.2852 7.96229 7.05638 9.14901 6.09196 7.25278 7.46672 6.0806 6.00106 7.19567 5.27696 7.41858 5.682 5.251 5.24966 4.89247 4.75394 4.24759 3.95541 3.62528 2.82142 2.87824 2.30629 2.28785 0.46112 0.0116423 0.00549244
threshold=3.5056895222271485 0.016381363399582256 1.7019596051853247 3.4239185266735364 0.63478630593515806 28965.718814697229 18011.359514959629 0.58034480919872544 1.6854791234190729 13.605801761870309 8.6220095840158137 22.454045866144252 1.6916751657664053 1.7071973963715006 0.38559491361267068 64527.414285714294 56428.854558554238 0.029235672426448849 35670.134920634926 1.7048528156546294 17453.331675088233 1.6623687603610244 16.347473855828081 82151.500000000015 0.16836899733867791 0.60017480842298299 87.22151257023468 16067.836105013546 1.6961550260638647 1.6928996958257783 7285.4663991558136 8.5763713338653655 16.341913946137414
decision_type=2 2 2 2 2 2 2 2 2 2 2 2 2 2 2 2 2 2 2 2 2 2 2 2 2 2 2 2 2 2 2 2 2
left_child=1 14 3 4 5 6 7 8 9 -3 11 12 -4 -6 15 16 17 21 -18 -8 -14 23 -5 26 32 31 27 30 -13 -12 -1 -2 -16
right_child=25 2 10 22 13 -7 19 -9 -10 -11 29 28 20 -15 24 -17 18 -19 -20 -21 -22 -23 -24 -25 -26 -27 -28 -29 -30 -31 -32 -33 -34
leaf_value=-0.072089648841626275 -0.10191952561807199 0.072090194408117869 0.15194375079015673 0.016763516679869375 0.064288803221396643 -0.045665109426757687 -0.033913720135517439 0.25241220709448703 0.029521108776408692 0.22465137443765762 -0.019517753389489859 -0.0062843544326069076 0.075665089548120748 -0.059631369182891247 -0.10683181464773864 -0.10099162896851188 0.14406300045684864 0.078965625818595689 -0.0050564046155959401 0.098708971714190297 -0.066993728987669518 0.05396086588298965 -0.090616627326045668 0.04190182846866871 -0.0054960745568629335 -0.0076046816301104563 0.0053904397311067935 -0.0025584869269244075 -0.090119762630534672 -0.10488978365863277 -0.10300174907540359 -0.10842880681939325 -0.10257166520583294
leaf_weight=9.6347933625802487 6.053271993063392 7.6663661240600112 5.3043800652958479 9.4031280246563274 6.8098690439946976 5.0473022824153295 6.4403365636244398 5.0143809602595857 6.9823005767539135 8.0672382689081115 5.070283983834087 7.0741386786103231 5.2796899951063079 9.4608763870783132 6.2204744662158209 7.286650566617026 5.1241519493050856 8.0422740047797543 5.0969146909192204 5.565157740842551 5.0436628307215869 6.511684972792863 7.342230800073593 5.3549026981927446 6.0039258599281302 5.8557943073101333 6.2303324723616234 5.0176591281779102 6.1204188014380634 8.2412118013016862 9.6679165391251427 5.031737326644361 5.8936478812247515
leaf_count=536 598 180 157 415 189 246 174 148 168 82 205 233 255 300 180 1057 138 221 324 167 201 73 373 156 203 321 166 324 255 475 668 229 739
internal_value=0 0.00401411 0.0217732 0.0424576 0.0624181 0.0879178 0.104886 0.138361 0.113186 0.150314 -0.0164202 0.009421 0.0555142 -0.0077665 -0.0207276 -0.00709572 0.00417948 -0.00909273 0.069702 0.0275636 0.00596651 -0.0257885 -0.0303188 -0.0402515 -0.0718656 -0.0712518 -0.0546513 -0.0700326 -0.0451722 -0.072372 -0.0875722 -0.104874 -0.104759
internal_weight=0 206.018 119.933 77.7992 61.0538 44.7831 39.7358 27.7303 22.7159 15.7336 42.1338 28.8223 15.6277 16.2707 86.0853 67.9673 60.6806 50.4596 10.2211 12.0055 10.3234 42.4173 16.7454 35.9056 18.118 16.9408 30.5507 24.3204 13.1946 13.3115 19.3027 11.085 12.1141
internal_count=10156 9008 4223 2442 1654 1165 919 578 430 262 1781 1101 613 489 4785 3663 2606 2144 462 341 456 1923 788 1850 1122 1148 1694 1528 488 680 1204 827 919
is_linear=0
shrinkage=0.1


Tree=20
num_leaves=36
num_cat=0
split_feature=72 469 514 514 511 439 507 477 101 213 236 237 67 8 477 345 326 211 426 3 31 1 70 69 114 321 361 512 463 463 2 125 60 25 57
split_gain=7.65328 7.71008 7.1347 13.2896 9.1073 6.43606 12.8642 14.2202 8.83953 10.3914 16.153 15.3984 8.58897 8.38937 7.47488 5.32643 5.9691 4.38075 3.6471 4.66286 7.20771 7.72496 5.6549 4.21712 6.42597 3.0776 9.72242 2.29109 2.21943 5.93493 1.17715 0.970706 0.564575 0.00869184 0.00159601
threshold=3.5056895222271485 93760.393299679869 68298.500000000015 95634.000000000015 0.91277984354990538 41072.000000000007 18851.825150612389 25672.93592917698 1.7155558854707447 0.60838853072926191 0.22867906568026761 0.0717829850164525 3.4708277995173797 25.683648124792462 83609.970157461517 105.72164259473165 259.62230756762148 0.61384227630669563 16700.444444444449 8.4978966909498492 0.004543404374342668 91.268072666364034 3.3425104300253778 3.3859059985500441 1.7024391105316057 63.172285811151831 72.292584497583888 0.58061657319523474 46747.095331078955 32458.839664877614 0.27155466888759339 1.7217914585920975 5.1884662444752374 1.7460741335967123 5.137323008065418
decision_type=2 2 2 2 2 2 2 2 2 2 2 2 2 2 2 2 2 2 2 2 2 2 2 2 2 2 2 2 2 2 2 2 2 2 2
left_child=1 2 5 -4 -5 6 8 -8 14 10 11 12 -10 -11 15 16 18 33 19 20 21 -1 -23 24 -21 -22 -27 -28 29 -7 -20 -15 34 -2 -25
right_child=17 -3 3 4 -6 28 7 -9 9 13 -12 -13 -14 31 -16 -17 -18 -19 30 23 25 22 -24 32 -26 26 27 -29 -30 -31 -32 -33 -34 -35 -36
leaf_value=-0.050281473341286666 -0.10756273812289985 -0.083611026659593232 0.17183875057287068 -0.08884328838881006 0.0955842256782439 -0.088453896119143172 -0.0074981987797681964 0.22252221280869244 0.036704689189973126 0.070321594432265891 0.2225716273019879 -0.061697755588013325 0.20940915292385395 -0.10351166785152391 0.10331912532535958 0.06213443972134966 0.073261485232469864 0.0084199812641943591 -0.053130408812012801 -0.08838772788593352 -0.10590712993431284 0.15131900588095334 0.01140135191422758 -0.10521249890397787 0.066460187547296934 0.08347835206924914 -0.025529764189469145 -0.10504109196912458 -0.10183375957922668 0.054036456982968897 -0.10620288697101495 -0.043539210821894603 -0.063227807661757382 -0.10188543833232751 -0.10274386194038972
