tree
version=v4
num_class=1
num_tree_per_iteration=1
label_index=0
max_feature_idx=514
objective=binary sigmoid:1
feature_names=Column_0 Column_1 Column_2 Column_3 Column_4 Column_5 Column_6 Column_7 Column_8 Column_9 Column_10 Column_11 Column_12 Column_13 Column_14 Column_15 Column_16 Column_17 Column_18 Column_19 Column_20 Column_21 Column_22 Column_23 Column_24 Column_25 Column_26 Column_27 Column_28 Column_29 Column_30 Column_31 Column_32 Column_33 Column_34 Column_35 Column_36 Column_37 Column_38 Column_39 Column_40 Column_41 Column_42 Column_43 Column_44 Column_45 Column_46 Column_47 Column_48 Column_49 Column_50 Column_51 Column_52 Column_53 Column_54 Column_55 Column_56 Column_57 Column_58 Column_59 Column_60 Column_61 Column_62 Column_63 Column_64 Column_65 Column_66 Column_67 Column_68 Column_69 Column_70 Column_71 Column_72 Column_73 Column_74 Column_75 Column_76 Column_77 Column_78 Column_79 Column_80 Column_81 Column_82 Column_83 Column_84 Column_85 Column_86 Column_87 Column_88 Column_89 Column_90 Column_91 Column_92 Column_93 Column_94 Column_95 Column_96 Column_97 Column_98 Column_99 Column_100 Column_101 Column_102 Column_103 Column_104 Column_105 Column_106 Column_107 Column_108 Column_109 Column_110 Column_111 Column_112 Column_113 Column_114 Column_115 Column_116 Column_117 Column_118 Column_119 Column_120 Column_121 Column_122 Column_123 Column_124 Column_125 Column_126 Column_127 Column_128 Column_129 Column_130 Column_131 Column_132 Column_133 Column_134 Column_135 Column_136 Column_137 Column_138 Column_139 Column_140 Column_141 Column_142 Column_143 Column_144 Column_145 Column_146 Column_147 Column_148 Column_149 Column_150 Column_151 Column_152 Column_153 Column_154 Column_155 Column_156 Column_157 Column_158 Column_159 Column_160 Column_161 Column_162 Column_163 Column_164 Column_165 Column_166 Column_167 Column_168 Column_169 Column_170 Column_171 Column_172 Column_173 Column_174 Column_175 Column_176 Column_177 Column_178 Column_179 Column_180 Column_181 Column_182 Column_183 Column_184 Column_185 Column_186 Column_187 Column_188 Column_189 Column_190 Column_191 Column_192 Column_193 Column_194 Column_195 Column_196 Column_197 Column_198 Column_199 Column_200 Column_201 Column_202 Column_203 Column_204 Column_205 Column_206 Column_207 Column_208 Column_209 Column_210 Column_211 Column_212 Column_213 Column_214 Column_215 Column_216 Column_217 Column_218 Column_219 Column_220 Column_221 Column_222 Column_223 Column_224 Column_225 Column_226 Column_227 Column_228 Column_229 Column_230 Column_231 Column_232 Column_233 Column_234 Column_235 Column_236 Column_237 Column_238 Column_239 Column_240 Column_241 Column_242 Column_243 Column_244 Column_245 Column_246 Column_247 Column_248 Column_249 Column_250 Column_251 Column_252 Column_253 Column_254 Column_255 Column_256 Column_257 Column_258 Column_259 Column_260 Column_261 Column_262 Column_263 Column_264 Column_265 Column_266 Column_267 Column_268 Column_269 Column_270 Column_271 Column_272 Column_273 Column_274 Column_275 Column_276 Column_277 Column_278 Column_279 Column_280 Column_281 Column_282 Column_283 Column_284 Column_285 Column_286 Column_287 Column_288 Column_289 Column_290 Column_291 Column_292 Column_293 Column_294 Column_295 Column_296 Column_297 Column_298 Column_299 Column_300 Column_301 Column_302 Column_303 Column_304 Column_305 Column_306 Column_307 Column_308 Column_309 Column_310 Column_311 Column_312 Column_313 Column_314 Column_315 Column_316 Column_317 Column_318 Column_319 Column_320 Column_321 Column_322 Column_323 Column_324 Column_325 Column_326 Column_327 Column_328 Column_329 Column_330 Column_331 Column_332 Column_333 Column_334 Column_335 Column_336 Column_337 Column_338 Column_339 Column_340 Column_341 Column_342 Column_343 Column_344 Column_345 Column_346 Column_347 Column_348 Column_349 Column_350 Column_351 Column_352 Column_353 Column_354 Column_355 Column_356 Column_357 Column_358 Column_359 Column_360 Column_361 Column_362 Column_363 Column_364 Column_365 Column_366 Column_367 Column_368 Column_369 Column_370 Column_371 Column_372 Column_373 Column_374 Column_375 Column_376 Column_377 Column_378 Column_379 Column_380 Column_381 Column_382 Column_383 Column_384 Column_385 Column_386 Column_387 Column_388 Column_389 Column_390 Column_391 Column_392 Column_393 Column_394 Column_395 Column_396 Column_397 Column_398 Column_399 Column_400 Column_401 Column_402 Column_403 Column_404 Column_405 Column_406 Column_407 Column_408 Column_409 Column_410 Column_411 Column_412 Column_413 Column_414 Column_415 Column_416 Column_417 Column_418 Column_419 Column_420 Column_421 Column_422 Column_423 Column_424 Column_425 Column_426 Column_427 Column_428 Column_429 Column_430 Column_431 Column_432 Column_433 Column_434 Column_435 Column_436 Column_437 Column_438 Column_439 Column_440 Column_441 Column_442 Column_443 Column_444 Column_445 Column_446 Column_447 Column_448 Column_449 Column_450 Column_451 Column_452 Column_453 Column_454 Column_455 Column_456 Column_457 Column_458 Column_459 Column_460 Column_461 Column_462 Column_463 Column_464 Column_465 Column_466 Column_467 Column_468 Column_469 Column_470 Column_471 Column_472 Column_473 Column_474 Column_475 Column_476 Column_477 Column_478 Column_479 Column_480 Column_481 Column_482 Column_483 Column_484 Column_485 Column_486 Column_487 Column_488 Column_489 Column_490 Column_491 Column_492 Column_493 Column_494 Column_495 Column_496 Column_497 Column_498 Column_499 Column_500 Column_501 Column_502 Column_503 Column_504 Column_505 Column_506 Column_507 Column_508 Column_509 Column_510 Column_511 Column_512 Column_513 Column_514
feature_infos=[0:7347.5018542547159] [0:1877.6238823190079] [0:100] [0:24.757281553398059] [0:0.11621150493898896] [0:65.167237001876586] [0:63.965607087024495] [0:5.7692307692307692] [0:54.265536723163841] [0:40.070765148164533] [0:40.070765148164533] [0:53.944795427196148] [0:49.514563106796118] [0:0.8928571428571429] [0:49.553602566785237] [0:28.50504646747277] [0:58.757847533632287] [0:24.352777322628214] [0:21.117633605245103] [0:17.765273311897108] [0:34.417040358744394] [0:46.483904933814678] none [0:20.302648171500632] [0:27.375724574038294] [0:49.9972285350036] [0:24.757281553398059] [0:34.417040358744394] [0:20.445934129991254] [0:20.445934129991254] [0:11.744628871164764] [0:64.332138988417626] [0:30.312693772699088] [0:16.760664071808723] [0:17.280843384936841] [0:17.386134991768795] [0:36.454986925663057] [0:49.996661324786331] [0:16.445711746407937] [0:10.398981324278438] [0:10.821297693468422] [0:10.810519508514767] [0:10.810519508514767] [0:10.810519508514767] [0:10.806926780196882] [0:22.338438550616363] [0:49.896501068376068] [0:10.806926780196882] [0:10.806926780196882] [0:49.997346072186836] [0:49.997451320216129] [0:18.089887640449437] [0:18.089887640449437] [0:18.089887640449437] [0:18.089887640449437] [0:17.765273311897108] [0:17.488789237668161] [0:30.648769574944073] [0:30.325149303251493] [0:16.564201651150537] [0:17.857142857142854] [0:24.757281553398059] [0:24.757281553398059] [0:24.757281553398059] [0:30.600972160848432] [0:31.082762912258872] [0:74.83700274024379] [0:75.082731648616118] [0:10.162423178226515] [0:10.818505338078293] [0:11.300427425493297] [0:20.281346920691181] [0:20.563873845173621] [0:11.399964869137538] [0:11.092569822589144] [0:17.044250132485427] [0:20.080029101491451] [0:22.368421052631579] [0:20.916696980720264] [0:21.530802738021158] [0:10.361496427070199] [0:10.178884986830553] [0:5.4968196664947566] [0:6.7652643149795146] [0:6.6553412611172185] [0:9.3210625674217908] [0:10.790262955988002] [0:5.3762366343559513] [0:48.856887153201534] [0:49.73267230485078] [0:5.4946619217081851] [0:5.6531412846185374] [0:4.4901906604034263] [0:4.6767262915958829] [0:4.6567402818027386] [0:4.6567402818027386] [0:4.6567402818027386] [0:68.55670103092784] [0:62.340707513508001] [0:50.006658232904989] [0:50.008278145695364] [0:5.133016889281377] [0:38.965153115100314] [0:41.757859996525966] [0:5.5096902628959548] [0:14.754098360655737] [0:15.573770491803279] [0:5.5096902628959548] [0:5.4921248316646176] [0:23.55881372875708] [0:23.45315631262525] [0:4.0027605244996547] [0:24.416239524855587] [0:24.919801691455234] [0:9.8360655737704921] [0:24.062322024245383] [0:25.255588286258881] [0:5.4687042566895023] [0:10.512913786831575] [0:12.5] [0:5.6531412846185374] [0:10.458348490360132] [0:10.765401369010579] [0:10.765401369010579] [0:10.765401369010579] [0:10.765401369010579] [0:10.765401369010579] [0:12.5] [0:10.765401369010579] [0:48.912023210171519] [0:48.918650793650798] [0:7.3249422448817016] [0:33.537946428571423] [0:49.997346072186836] [0:49.997451320216129] [0:2.579578932241144] [0:5.1056338028169019] [0:5.0347222222222223] [0:2.0927041244186935] [0:2.0908689898544335] [0:2.0908689898544335] [0:2.0888922771975302] [0:2.082046757829731] [0:2.082046757829731] [0:2.082046757829731] [0:2.082046757829731] [0:2.082046757829731] [0:2.082046757829731] [0:2.8079710144927534] [0:2.7290192996244866] [0:2.1482134980149978] [0:2.1468574984443061] [0:1.8211250505868071] [0:1.8211250505868071] [0:2.3080839508966453] [0:2.3323881825665422] [0:2.2334365943839316] [0:2.2334365943839316] [0:2.2065356896041068] [0:2.0679146713104051] [0:2.0679146713104051] [0:2.0679146713104051] [0:2.3210831721470022] [0:3.0715532286212914] [0:3.3106710020691694] [0:1.8076352353972749] [0:1.8076352353972749] [0:1.8076352353972749] [0:1.6716196136701336] [0:1.6623328380386329] [0:1.6499504705299652] [0:3.4657246515180447] [0:17.977528089887642] [0:17.934782608695652] [0:2.1598968407479049] [0:3.3034179873973653] [0:3.2546326780171198] [0:1.3498014997794443] [0:1.355245384961729] [0:3.0647317166316594] [0:22.338438550616363] [0:49.896501068376068] [0:3.0647317166316594] [0:3.1996224634261443] [0:3.0194713573511427] [0:1.2192910887498867] [0:1.7857142857142856] [0:1.7040476607674786] [0:1.158283756985758] [0:1.1518686968558434] [0:1.1513008793400417] [0:1.1377028374580727] [0:6.0830860534124627] [0:13.498062931115941] [0:13.511659807956105] [0:2.8182860888087826] [0:5.1148504273504276] [0:5.2432389813135698] [0:5.199249365272105] [0:5.0528401585204756] [0:5.7692307692307692] [0:5.475427350427351] [0:5.199249365272105] [0:5.1968155683325961] [0:5.2174868189806674] [0:5.4945054945054945] [0:5.0279942913601934] [0:2.5729178218919819] [0:2.6689625484287562] [0:2.5604078918199957] [0:2.6061883109681712] [0:2.6403004860804242] [0:2.5886917960088689] [0:2.5974025974025974] [0:2.6190476190476191] [0:2.6213268032056991] [0:2.6051385101191329] [0:2.5746310065475528] [0:2.6689625484287562] [0:2.6207433785889163] [0:2.569060773480663] [0:2.5729178218919819] [0:2.6053215077605323] [0:2.650548963069757] [0:2.6289180990899896] [0:2.6067665002773155] [0:2.615179167594035] [0:2.6943556975505856] [0:2.8846153846153846] [0:2.7035623409669212] [0:2.8846153846153846] [0:2.7035623409669212] [0:2.7009783071033597] [0:2.8305785123966944] [0:2.7884615384615388] [0:2.761782896139902] [0:2.6611535199321459] [0:2.6778154106689245] [0:2.6753357493071843] [0:2.7141645462256152] [0:2.7113578138343293] [0:2.7754237288135593] [0:2.6915113871635614] [0:2.7647809442790301] [0:1376.8] [0:3336.3333333333335] [0:140.27461139896374] [0:265119] [0:602.84210526315792] [0:25202.363636363636] [0:307861] [0:144.98412698412699] [0:136.83937823834196] [0:214781.66666666666] [0:249589.66666666666] [0:138.5241935483871] [0:140.93181818181819] [0:142.77358490566039] [0:134.86772486772486] [0:1288] [0:2704.0746606334842] [0:2837] [0:1285] [0:16728] [0:7044] [0:136.17676767676767] [0:24370.277777777777] [0:32007] [0:763660] [0:5804.5333333333338] [0:133.03664921465969] [0:137.05789473684212] [0:158.38020833333334] [0:139.1356783919598] [0:141.83854166666666] [0:137.19999999999999] [0:139.74489795918367] [0:138.59895833333334] [0:141.83419689119171] [0:143.76616915422886] [0:149.13903743315507] [0:144.75916230366491] [0:348.66666666666669] [0:738.66666666666663] [0:809404] [0:85007] [0:4164] [0:104528.75] [0:928399] [0:122281.71428571429] [0:995672] [0:5003.333333333333] [0:134.25853658536585] [0:152.77248677248679] [0:523.33333333333337] [0:507.33333333333331] [0:146.47979797979798] [0:139.5612244897959] [0:146433] [0:372514] [0:747.79999999999995] [0:27551] [0:183084] [0:134.96938775510205] [0:1332.6666666666667] [0:1624] [0:760] [0:140.44162436548223] [0:631.75] [0:1314.5] [0:1810.5542521559523] [0:4708.3273392292231] [0:153.84950109596852] [0:1031.006364351517] none [0:83548.644298124578] [0:533209.24303972826] [0:147.00723325728677] [0:148.08006338992109] [0:372011.89317592164] [0:432301.98371084692] [0:159.37189282310436] [0:144.70988103067461] [0:145.71972913749983] [0:151.23779800621455] [0:1851.1991094577434] [0:11196.406260902404] [0:13038.332756949998] [0:3569.5733316268643] [0:4985.4259931658135] [0:8927.2559747155919] [0:146.98224044072509] [0:103371.87128535473] [0:178615.1604373286] [0:7511.0384768019931] [0:7053.3901423358111] [0:147.87147517003748] [0:148.54589912222011] [0:168.99132919904204] [0:142.37956630169606] [0:145.8499171253932] [0:151.56396134341915] [0:153.05399206127206] [0:146.83078660206075] [0:156.96812797342608] [0:162.46440097079301] [0:148.27066298338184] [0:154.45869693982021] [0:653.82580078930641] [0:831.12233355465389] [0:103651.95462701126] [0:103650.54041344888] [0:3266.5819238386412] none [0:910.58734361115933] [0:155608.24697266132] [0:4729.6969194158255] [0:4862.2852517086449] [0:148.23170163679887] [0:153.84001805086163] [0:885.96403237753771] [0:817.66330828421405] [0:151.32041505173052] [0:159.46498422110426] [0:151.75870535624543] [0:8827.0436103490647] [0:1403.7684994328661] [0:18669.740343668414] [0:20180.827535064065] [0:150.12960853712332] [0:1334.7917815150047] [0:1451.9528229250425] [0:1031.5501511248565] [0:145.24684440494005] [0:987.98764331004327] [0:2908.4636615496443] [0:376648] [0:376648] none none none [0:20146.153846153848] [0:1183629] [0:1195138] [0:1164823] [0:11346.760869565218] [0:1122863] [0:1160487] none none none [0:1165815] [0:1167054] [0:1165668] [0:8954.1641791044767] [0:8256.1908396946565] [0:1165754] [0:1187563] [0:1150125] [0:1138301] none none [0:1181926] [0:1197391] [0:1195859] [0:1168534] [0:1190284] [0:1162298] [0:1188775] [0:1130567] [0:1198597] [0:1178843] [0:1172221] none [0:1097707] [0:1135067] none none none none none none none none none [0:1187503] [0:1161059] [0:1181081] none [0:1182718] [0:1165355] none [0:27082.206896551725] [0:32485.18181818182] [0:1174205] [0:1176263] [0:13310.644067796609] [0:1145151] [0:1169594] [0:1168538] [0:1156593] [0:1150907] [0:251729.88150696133] [0:339147.84902531817] none none none [0:125529.46260572047] [0:675216.26535503427] [0:823467.56599182461] [0:782367.6914421377] [0:37529.628826376822] [0:790930.7545623068] [0:816651.05662118632] none none none [0:705421.03862019884] [0:815110.27094498079] [0:717656.81436185085] [0:31073.589726875707] [0:31776.817465700486] [0:832430.85155014531] [0:791718.47151654866] [0:840286.10078234668] [0:784052.01979492407] none none [0:832271.04541759717] [0:819874.04932983452] [0:831348.27106814866] [0:837544.64779168635] [0:806051.52597119997] [0:806942.48051549494] [0:813206.73949002661] [0:732060.57949462079] [0:803749.89339843777] [0:836026.48953247885] [0:836444.38964016014] none [0:640486.71579705691] [0:790609.02097686694] none none none none none none none none none [0:789421.78869125468] [0:812957.83790304896] [0:801929.80054366356] none [0:796403.05394190946] [0:812271.94432529795] none [0:145617.7129770618] [0:152211.77341161302] [0:791277.23688508826] [0:787422.09071405919] [0:102101.15670943994] [0:746279.08265071991] [0:793431.79124736367] [0:808812.77795173344] [0:781173.38808871363] [0:781188.23733111855] [0:688849.64750593679] [0:1209451.3897518471] [0:517000.1568181818] [0:66.666666666666671] [0:50.000000000000007] [0:6347150] [0:6347150]
tree_sizes=7363 7538 7513 7553 7538 7568 7573 7591 7555 7569 7538 7572 7597 7575 7557 7590 7567 7573 7580 7585 7592 7556 7568 7586 7594 7573 7568 7574 7584 7583 7586 7557 7581 7589 7597 7581 7584 7560 7573 7590 7575 7576 7578 7595 7610 7628 7560 7618 7578 7580 7569 7593 7593 7552 7658 7628 7582 7542 7581 7577 7552 7543 7617 7606 7568 7624 7586 7619 7637 7577 7599 7582 7618 7555 7571 7565 7531 7580 7591 7601 7586 7606

Tree=0
num_leaves=70
num_cat=0
split_feature=357 356 327 404 261 357 328 225 261 263 207 244 8 327 511 509 509 513 510 326 514 23 405 403 16 395 451 236 507 21 326 442 34 24 311 403 101 214 126 2 510 261 509 101 405 366 326 262 472 435 199 439 2 119 383 511 430 212 513 509 385 28 356 239 227 203 509 478 384
split_gain=288.62 212.151 123.391 87.8327 79.8019 75.7417 64.6103 46.9934 45.4315 55.8125 40.3693 38.5015 31.1979 30.9769 30.6857 27.4553 80.4609 37.9825 30.8394 25.6798 25.6623 25.0128 22.9317 22.6738 21.8039 20.8702 22.1794 20.4874 20.3283 19.4862 19.1546 17.9717 15.9137 17.4058 15.4638 14.7825 14.6028 13.7619 13.4597 13.3068 16.7386 27.7292 12.9744 12.7 12.6275 12.4756 15.9036 16.5725 12.3191 12.1435 13.1654 11.9807 11.9766 18.4293 11.2189 10.8912 10.8548 10.5748 10.5561 12.3156 11.1732 10.1687 10.3624 9.86807 10.5457 9.80186 10.3046 9.76304 9.53083
threshold=176.08292222982791 55.273976961277761 129.71719588997138 1.0000000180025095e-35 134.03733755867299 1.0000000180025095e-35 64.288616577602426 0.61269507597271933 74.54766523086198 22.71269579534798 1.0000000180025095e-35 0.18439059273481143 49.711559792323158 133.42295475429293 0.071532679809107616 0.49633310133067737 36.449789988486735 2.8799883483833386 0.42826876513317197 126.85173587277571 24502.000000000004 8.5780966450269727 65031.750000000007 49518.333333333336 15.404534390466559 314.1144746683463 3585.8624635858555 0.24117311658767196 45317.59089182243 11.745899568187733 93.640105309080553 8603.1160350003684 0.015923014982986001 8.7587074840364334 48.23926706471331 1.0000000180025095e-35 1.6824319697762389 1.1403870459399064 1.7554306760131142 0.0114927117095435 36.588203125814381 76.183107130202231 0.30322305466953497 1.7007122390997986 2430.0000000000005 92.012031333112574 96.256703232956113 27.300201152497696 42712.515118789779 36304.714285714297 1.720080771883471 26574.166666666672 0.011908322372183007 1.7207191486878257 57729.000000000007 0.69965034965034978 65293.708333333336 1.0000000180025095e-35 43245.500000000007 2624.8735000000006 7852.1327791986369 6.7597937181509709 3739.5264963074728 0.16004036224988036 0.42594679616004999 1.7391140328432437 3769.7626472354782 38598.396006398783 52286.166666666679
decision_type=2 2 2 2 2 2 2 2 2 2 2 2 2 2 2 2 2 2 2 2 2 2 2 2 2 2 2 2 2 2 2 2 2 2 2 2 2 2 2 2 2 2 2 2 2 2 2 2 2 2 2 2 2 2 2 2 2 2 2 2 2 2 2 2 2 2 2 2 2
left_child=1 2 3 5 11 6 7 14 9 20 58 38 15 -2 27 17 18 22 23 29 35 49 28 51 -11 26 32 36 31 44 61 -5 33 37 -26 -9 -1 65 -4 -10 41 -41 -19 -12 45 46 47 -8 -25 50 -16 -17 53 -38 -35 -47 67 -21 59 60 -7 62 -3 64 -23 -18 -67 -30 -24
right_child=13 30 4 12 -6 10 19 8 39 24 43 -13 -14 -15 21 16 25 42 -20 57 -22 63 68 48 34 -27 -28 -29 56 -31 -32 -33 -34 54 -36 -37 52 -39 -40 40 -42 -43 -44 -45 -46 55 -48 -49 -50 -51 -52 -53 -54 -55 -56 -57 -58 -59 -60 -61 -62 -63 -64 -65 -66 66 -68 -69 -70
leaf_value=0.95048242293510921 0.74664653223973343 0.86965094903866713 0.72889962633341965 0.98827151765448273 0.97117351599638757 0.89334577602645693 0.93298904425602847 0.9048809208295614 1.0159945390621365 0.65156047848906262 0.81316880534662583 0.86348832355805893 1.0283311856176605 0.57352832752782068 0.91444933264661021 0.86705246308103179 1.0047722188357047 0.94659500545086905 0.71786776590517054 0.71334995639645904 0.76487471017062525 0.98235924630587856 0.9880789151078655 0.77103421584002274 0.90757413560906208 0.84276003843761194 0.82389397358467031 0.99964103137505766 0.82686254693627181 0.97025754665928743 0.62005193677469495 0.90170526486643143 0.89083286940644046 0.95309337497676305 0.75096334718991786 1.0134585861798 0.80237181678555891 0.92098378437822792 0.60379546365878145 0.99013408127435887 0.99317812682981477 0.78705113171410823 0.81977717846499643 0.70008700262669843 0.97860903179167047 0.97380692784055023 0.75646495031257721 0.8399242696833189 0.87480184850788045 1.0204559376514322 0.98546918029327069 1.0045528661249952 0.78093121419940337 0.97810354716523673 0.81533749745358342 0.84415012116030463 0.96010965146990535 0.84681795668870474 0.78652487374686209 0.95394957906970179 0.77135022526132224 0.70557512142797862 0.73216505702018142 1.0135095687041833 0.87732829391349876 0.98505017721113708 0.88803770410598548 0.92295185976803129 1.041036383156233
leaf_weight=17.149345278739929 56.347848773002625 11.841214597225191 18.986775130033493 168.22691082954407 18.986775130033493 28.378083258867264 26.132335662841797 102.28359505534172 30.419671982526779 11.637055724859236 18.986775130033493 15.107756555080412 55.327054411172867 12.657850086688994 109.22499671578407 10.616261363029482 153.93578976392746 12.862008959054945 15.107756555080412 12.862008959054949 12.045373469591139 64.310044795274734 87.58415624499321 18.986775130033493 10.820420235395433 15.516074299812315 11.228737980127333 16.128550916910172 18.374298512935638 23.478270322084427 12.862008959054945 27.969765514135361 24.907382428646088 13.678644448518755 15.107756555080412 14.291121065616606 12.249532341957094 31.236307471990585 15.720233172178267 12.249532341957094 24.090746939182281 14.903597682714461 21.640840470790863 20.824204981327057 10.412102490663527 17.149345278739933 15.720233172178267 71.455605328083038 28.786401003599167 17.149345278739929 34.298690557479858 15.720233172178267 18.57845738530159 11.637055724859236 10.412102490663527 10.412102490663527 30.419671982526779 11.024579107761381 10.412102490663527 22.661634832620621 10.207943618297575 18.57845738530159 10.207943618297575 112.08322092890739 11.228737980127333 34.094531685113907 16.128550916910172 24.907382428646088 55.531213283538818
leaf_count=84 276 58 93 824 93 139 128 501 149 57 93 74 271 62 535 52 754 63 74 63 59 315 429 93 53 76 55 79 90 115 63 137 122 67 74 70 60 153 77 60 118 73 106 102 51 84 77 350 141 84 168 77 91 57 51 51 149 54 51 111 50 91 50 549 55 167 79 122 272
internal_value=0.915407 0.922889 0.928268 0.933069 0.796728 0.912368 0.922306 0.937119 0.902527 0.872514 0.834757 0.730238 0.955575 0.714891 0.957338 0.950828 0.931803 0.967848 0.848084 0.872203 0.903833 0.969883 0.976269 0.87463 0.765281 0.955808 0.961742 0.899653 0.95911 0.885495 0.726407 0.975931 0.967185 0.974513 0.816321 0.918192 0.872601 0.982799 0.672235 0.963602 0.932501 0.878667 0.867052 0.754018 0.872341 0.864486 0.849809 0.864845 0.833561 0.940924 0.931421 0.949126 0.841149 0.887985 0.893555 0.924825 0.914333 0.774951 0.879612 0.895437 0.861072 0.760077 0.806 0.994682 0.966747 0.992257 0.953896 0.882159 1.00863
internal_weight=0 2007.49 1954 1885.2 68.8015 982.004 870.533 671.887 247.849 166.185 111.471 49.8148 903.199 69.0057 424.038 847.872 400.356 447.516 89.2174 198.647 128.62 348.295 413.013 74.1097 37.5652 311.138 295.622 75.7429 269.898 174.76 53.4896 196.197 284.393 259.486 25.9282 116.575 59.6144 235.395 34.707 81.6635 51.2439 27.1531 34.5028 39.811 151.282 140.87 113.308 97.5879 47.7732 160.673 143.524 26.3365 42.465 23.8866 24.0907 27.5614 73.7014 23.8866 71.6598 61.2477 38.586 40.6276 22.0492 187.622 75.5388 204.159 50.2231 43.2817 143.115
internal_count=10171 9833 9571 9234 337 4810 4264 3291 1214 814 546 244 4424 338 2077 4153 1961 2192 437 973 630 1706 2023 363 184 1524 1448 371 1322 856 262 961 1393 1271 127 571 292 1153 170 400 251 133 169 195 741 690 555 478 234 787 703 129 208 117 118 135 361 117 351 300 189 199 108 919 370 1000 246 212 701
is_linear=0
shrinkage=1


Tree=1
num_leaves=70
num_cat=0
split_feature=357 356 327 471 261 210 1 328 511 231 443 402 8 514 199 229 260 476 307 327 514 514 510 31 397 442 441 25 9 393 240 469 260 238 214 295 343 435 66 202 201 73 24 510 227 508 11 438 335 459 415 393 1 382 121 295 320 126 501 430 0 435 77 65 203 201 509 459 1
split_gain=215.64 159.976 95.9306 76.355 58.3704 47.4219 67.2437 45.7816 27.0959 26.4121 26.109 28.8808 23.989 32.6248 23.2989 22.1017 19.8987 19.7793 22.1331 19.5877 18.5936 35.7779 17.3474 15.6511 15.407 15.221 20.4796 20.1636 15.8239 14.9632 14.6238 14.0853 14.0326 13.9 31.2265 13.3074 14.6281 13.1345 12.7721 13.64 12.155 16.8033 11.9197 11.7805 11.6532 10.8045 10.7246 10.6616 12.747 10.6365 10.4755 10.8947 10.4543 10.3868 10.0653 10.0039 9.86511 9.65548 9.1897 13.4356 9.16741 8.70677 8.70507 8.66088 9.95246 10.1203 8.60699 8.59875 8.51919
threshold=176.08292222982791 55.273976961277761 129.71719588997138 41728.228201086 134.03733755867299 0.64358440660709204 183.3099859652788 68.628466855899958 0.071532679809107616 0.099121550015955628 3082.6085989810322 53527.583333333336 49.711559792323158 24902.000000000004 1.6865273974361312 0.24084457247170413 66.496988607775563 30070.81572233175 98.099117108112623 125.479859590027 2.5000000000000004 6.5000000000000009 1006.1646043959404 0.0086485465255900455 83573.652777777796 8955.3478271824715 64281.767857142862 1.0000000180025095e-35 24.143744547093931 4507.5210839599013 0.24097307785627078 52566.743859940507 59.100480812972854 0.27828251463843479 0.7198716658281169 98.973564874093057 74.323400030346747 38108.119318181831 5.1805012831066017 1.6863374311774666 1.7494866960955748 3.4680068481549271 8.6180707464463211 0.11828268142624983 0.61804031104981771 1221.838205632145 18.841242701606728 67973.500000000015 71.306210035821692 20920.110710834728 60235.305555555562 216.97750980242014 48.784635343655495 68497.250000000015 1.7225105787139954 7.5277777777777786 78.268404628635579 1.7657910470089373 35152.730958490771 52369.677777777782 76.36389167812402 47136.000000000007 3.4264707863752979 5.0679611586291538 1.7543353251102836 1.6810173300571716 0.55267724779701599 21618.770527219796 48.784635343655495
decision_type=2 2 2 2 2 2 2 2 2 2 2 2 2 2 2 2 2 2 2 2 2 2 2 2 2 2 2 2 2 2 2 2 2 2 2 2 2 2 2 2 2 2 2 2 2 2 2 2 2 2 2 2 2 2 2 2 2 2 2 2 2 2 2 2 2 2 2 2 2
left_child=1 2 3 5 9 7 33 8 30 57 11 24 13 15 20 22 -9 18 29 67 25 -22 42 63 50 26 27 52 32 35 38 -12 -29 34 46 36 43 40 39 -1 41 -23 -8 -18 -32 -3 -7 48 -13 56 53 -52 -10 -5 62 -26 -38 -4 59 -33 66 -28 -17 -16 65 -65 -60 -2 -27
right_child=19 45 4 10 -6 6 12 16 14 -11 31 47 -14 -15 23 54 17 -19 -20 -21 21 37 -24 -25 55 68 61 28 -30 -31 44 58 -34 -35 -36 -37 49 -39 -40 -41 -42 -43 -44 -45 -46 -47 -48 -49 -50 -51 51 -53 -54 -55 -56 -57 -58 -59 60 -61 -62 -63 -64 64 -66 -67 -68 -69 -70
leaf_value=-0.014736749687297268 -0.15961707827629423 -0.11602603158175116 -0.15613616113920767 0.10324602324051287 0.051503754016700765 -0.17500586205376559 -0.026316665122283995 0.058172363768510406 0.057980151045078004 -0.042469363914485768 0.055140194748221572 0.011430395620398888 0.063891855212529977 -0.18552781548076455 -0.0020650367810192949 -0.069896395154507795 -0.160124834072915 0.036647410510239335 0.010880649765807094 -0.26682851788270939 -0.12677008705449611 -0.0042346914255672599 0.064266403459369001 -0.063167631979496361 0.055805905865317709 -0.089844092141879883 -0.097989314722706861 -0.11885418553125777 0.11004057920112183 -0.15250218841896521 0.089721946669091238 -0.1173576181471776 0.0097030625981029545 -0.17153423468922063 0.03993020283149918 -0.15792803840873204 0.037351855657163271 0.075470326384332959 0.01781750691161825 -0.10706094093597265 0.069270741647674258 -0.13146393342065063 -0.10957511090968136 -0.053089174191489369 -0.042535899588158753 -0.20281399528461261 -0.053506942863889018 0.067484005801741978 -0.10565918026005804 0.064943724625821833 0.073956529277352467 -0.036329675828905665 0.12120077574341709 0.022021589038680345 0.086116263679329008 -0.036241706808861296 -0.064994838164831148 -0.25790031540019576 0.024144591629961427 0.023192113987597962 0.063765482484701652 0.0045053788652534696 0.044804453620119748 -0.0016537920459365992 0.091384564131568827 0.060252351450820855 -0.081656827103303783 -0.065427011012344258 0.019115798348073001
leaf_weight=30.199450716376305 46.903641447424889 30.075021967291832 22.349664136767387 186.28440867364407 18.527076289057732 22.405934929847717 43.075941383838654 25.768256202340126 109.98113586008549 15.1049447953701 40.809914648532867 60.306014269590378 42.125444605946541 11.219667941331862 22.621128544211388 10.896091073751451 14.446838870644568 33.02223251760006 48.455523237586021 15.382915809750555 23.054568842053413 70.531943827867508 13.435704082250593 11.198656022548674 41.285372048616409 14.756158113479616 11.304336950182913 11.983293324708937 10.450406968593596 18.066360846161842 18.565057426691059 17.426568210124973 29.132108330726624 27.187842831015587 14.594037830829619 11.358940854668615 13.442072302103041 23.917118653655052 27.466451451182365 34.039243817329407 17.273640155792236 12.17195677757263 28.619679525494576 35.673816129565239 10.390579566359518 27.425212681293488 10.75096610188484 26.678559139370918 10.992381289601324 14.198264211416243 31.47007729113102 12.521038457751272 34.318183124065399 17.197086721658707 26.279286608099937 16.536210805177689 31.458923295140266 15.997147262096403 16.618586048483852 11.155018180608748 18.781893998384476 31.062122583389282 16.847042366862297 31.98917344212532 81.872277915477753 151.33894628286362 14.309687018394468 12.216762423515318 13.968296453356741
leaf_count=147 215 139 102 940 93 104 210 127 552 72 204 299 213 53 112 53 68 163 236 67 111 345 67 54 207 72 55 59 52 88 93 85 143 128 70 55 65 120 133 163 86 60 138 170 51 123 52 133 54 68 159 62 171 86 130 82 152 70 83 55 94 153 83 159 412 758 69 56 68
internal_value=0 0.00696176 0.0118308 0.0161929 -0.101454 0.00360651 -0.0340912 0.012946 0.024131 -0.154471 0.0486463 0.060796 -0.00280492 -0.0214893 0.0315481 -0.00826321 -0.0249717 -0.0347048 -0.0472981 -0.166308 0.0161827 -0.0123845 -0.0400106 0.0528171 0.0759563 0.0319078 0.0401992 0.0538355 0.000162413 -0.0676312 -0.0196933 0.00750818 -0.0277656 -0.114458 -0.0819602 -0.0549149 -0.0442015 0.0089006 -0.0392555 -0.0636581 -0.00702454 -0.0229597 -0.059552 -0.0839413 0.0422619 -0.15742 -0.13561 0.0135568 -0.00662181 -0.0104992 0.0868151 0.0425661 0.0730157 0.0963814 0.041766 0.0294815 -0.0343552 -0.198589 -0.0173202 -0.0625029 0.00865823 -0.0228425 -0.000244203 0.0573299 0.0623962 0.0494503 -0.0248069 -0.140153 -0.0368584
internal_weight=0 1998.77 1941.27 1869.29 71.9788 1346.92 267.438 1079.48 833.586 53.4518 522.373 403.271 192.499 150.373 712.925 139.154 245.891 220.123 187.101 74.5033 413.905 146.949 85.1313 299.02 305.294 266.956 238.232 195.865 51.5658 138.645 120.661 119.102 41.1154 74.9388 47.7509 120.579 109.22 123.895 91.7051 64.2387 99.9775 82.7039 71.6956 50.1207 28.9556 57.5002 33.1569 97.977 71.2984 59.0993 247.473 43.9911 144.299 203.481 54.0224 57.8216 44.901 38.3468 78.2918 28.5816 49.7102 42.3665 27.7431 287.822 265.2 183.328 30.9283 59.1204 28.7245
internal_count=10171 9833 9571 9234 337 6622 1301 5321 4129 244 2612 2022 947 734 3542 681 1192 1065 902 338 2047 722 415 1495 1536 1325 1185 977 254 666 587 590 202 354 226 578 523 611 443 310 491 405 348 238 144 262 156 486 353 285 1247 221 723 1026 266 289 217 172 386 140 246 208 136 1441 1329 917 152 271 140
is_linear=0
shrinkage=0.1


Tree=2
num_leaves=70
num_cat=0
split_feature=357 356 410 2 80 25 5 80 239 461 8 215 220 415 440 471 214 263 8 392 283 32 330 509 402 320 263 395 36 53 12 261 245 231 509 514 245 204 128 383 437 2 57 261 200 55 316 0 6 205 201 513 356 459 450 64 228 70 453 477 510 514 449 438 70 5 69 499 377
split_gain=166.182 123.878 81.3814 58.8821 37.7303 29.43 35.3484 42.9605 30.1366 32.2509 23.933 23.6024 21.4524 20.9316 21.8026 19.9836 20.6674 19.4664 18.216 18.1428 16.8874 16.5941 16.559 14.2192 19.7084 14.4123 14.0646 13.9048 13.5561 13.3008 12.8658 12.5525 17.3181 12.4616 22.3585 19.0699 12.2248 11.9688 11.3714 11.1828 11.1736 10.813 10.8081 10.7711 10.7505 10.7025 10.696 10.4095 10.2443 10.0256 10.1777 10.0151 10.4752 9.95654 13.7529 9.79896 11.0866 9.81371 9.76088 12.6921 11.2861 11.9198 9.76065 9.75468 9.60721 12.3779 9.25327 9.00156 8.78098
threshold=176.08292222982791 55.273976961277761 777.00000000000011 0.011618450116183001 3.9330871040207191 0.14990606354984173 35.901469660686651 0.074300740641203969 0.19264538911412757 18084.357314528592 49.711559792323158 0.61367340299439133 0.65430126972900349 55922.312500000007 72571.833333333343 42135.616844547556 1.1535909039531775 24.673737221018289 26.012612869682354 191.00607965061002 65.939602598521773 4.3629928022347881 82.242650633269662 0.48960751726065527 57994.250000000007 97.207530957030457 117.60782872743738 345.16896654373772 0.0013620823517516746 5.1422799170530675 18.9075474508432 74.316871708393265 9.4753536366653197 0.15926020106395786 0.49234539639300762 6.5000000000000009 16.339632272652882 1.7338948294011312 1.7078630301466922 78815.888888888891 46002.638888888898 0.015079544619184261 5.2188090882387312 77.2010889498453 1.7376949103497685 5.1103412536595769 72.458449252712683 31.369207632344445 0.13901648472419942 1.7007620124740697 1.733118874580015 4601.0000000000009 292.84041894925741 2633.1137058017803 59315.827846443812 5.2415073355298203 0.1474401328845831 3.492023330976425 10941.552371464848 62821.751122215566 2691.0584880538877 2.5000000000000004 43380.040586097137 79873.194444444453 3.4561773484193998 36.022652293845951 3.4621962239350776 2162.9633285310069 26572.951388888894
decision_type=2 2 2 2 2 2 2 2 2 2 2 2 2 2 2 2 2 2 2 2 2 2 2 2 2 2 2 2 2 2 2 2 2 2 2 2 2 2 2 2 2 2 2 2 2 2 2 2 2 2 2 2 2 2 2 2 2 2 2 2 2 2 2 2 2 2 2 2 2
left_child=1 2 3 12 5 20 7 21 9 19 13 45 30 14 15 16 22 36 31 55 27 48 26 24 68 53 58 -5 -21 38 37 32 44 34 -15 -36 -9 -1 -13 40 -16 -31 49 -2 -14 -10 -22 -23 -7 -39 -51 52 -3 -25 -55 56 57 -8 67 60 61 -60 -37 -64 65 -32 -11 -4 -17
right_child=43 51 10 4 -6 6 8 17 11 66 -12 29 18 33 39 23 -18 -19 -20 28 46 47 -24 25 -26 -27 -28 -29 -30 41 64 -33 -34 -35 35 62 -38 42 -40 -41 -42 -43 -44 -45 -46 -47 -48 -49 -50 50 -52 -53 -54 54 -56 -57 -58 -59 59 -61 -62 -63 63 -65 -66 -67 -68 -69 -70
leaf_value=0.029546209163881773 -0.12374068939502472 -0.019128252315015415 0.067095481592989295 0.069359881341467464 0.072166219050349367 -0.11693747945639599 -0.16891361949832748 -0.12466528977626248 -0.021219975353326235 -0.0038999270016787098 0.10036124700089913 -0.025269856656817011 -0.094533075168720809 0.028831448896462931 -0.12669653414856566 0.11146165028258651 -0.10048506418305957 -0.19873166651365973 0.051224806951367587 -0.082017264691059744 -0.092513764113994243 -0.027091292046371979 -0.067056426544256462 0.062464604234673107 0.015643820942969195 -0.07179527848425872 -0.072436680388157981 -0.039427011573712901 0.057753574413658415 -0.07792536533291744 -0.046658944938784863 0.028295819437630196 -0.18535239882600793 0.0769547277099214 -0.12229515598916921 0.043636992980651101 -0.023546299357727864 0.021095894032362544 -0.15839386068143446 0.065904275738326829 -0.013075422794839959 0.039644723489285258 0.05370455896337685 -0.21689385779705794 0.016992062464961037 0.08339780509437919 -0.0058500117818583381 0.09154980722831664 -0.037870565746715303 -0.14866086639436737 -0.023552749838730888 -0.17391285561813727 -0.14165555440279243 -0.077944577610455174 0.073925198556405822 -0.1950428930533307 -0.022985304641869795 -0.070765201032105485 0.011756487337706359 0.080334820153260419 0.088498611918740575 -0.077522282480759042 -0.10291524244867922 0.018313557157519769 0.077429029300418173 0.046005320963348889 0.11879424911106717 -0.01470366708808171 0.016521237177861799
leaf_weight=115.36777080595493 62.712729558348656 11.67519122362137 131.58279013633728 49.790516406297684 36.334116101264954 22.273699566721916 20.864970505237579 44.329039514064789 12.453792020678518 16.04259163141251 50.854247137904167 15.14429058134556 18.881470263004303 63.549470394849777 10.566234752535818 107.2769505828619 12.460757419466971 27.562811210751534 23.093418583273888 14.324564352631571 17.8841602653265 15.887468576431276 16.204931229352951 100.83860732614994 33.21896068751812 10.788739904761313 11.240285187959669 15.378130048513411 13.458700999617575 10.524315327405928 17.242201805114746 14.43006671965122 11.427820622920988 16.901766493916512 25.384390339255333 17.814097017049789 16.371128603816032 11.844835862517355 11.13391552865505 13.992429822683333 47.852965265512466 30.472165629267693 11.991002231836317 15.475680857896803 15.940333008766173 45.52087177336216 69.913997918367386 13.835557490587233 62.000317350029945 13.828395694494249 12.274029508233069 31.295045837759972 17.341006755828857 13.158759936690332 10.903887182474135 11.342226400971411 16.0999396443367 19.907418191432953 49.938021808862686 25.981735900044441 12.369107663631437 21.347221672534943 15.678948625922205 11.510080218315123 76.275185853242874 87.923640042543411 9.9648318737745267 14.98510394990444 10.714851692318915
leaf_count=578 274 52 665 252 189 106 97 204 62 80 270 71 90 322 53 569 61 121 117 70 86 76 78 515 165 53 55 74 67 52 86 72 53 87 119 89 76 59 52 71 237 149 61 64 77 229 335 67 297 68 61 133 77 64 55 52 76 89 252 131 63 103 78 57 386 443 50 75 54
internal_value=0 0.00645034 0.0108685 -0.00753267 -0.0267965 -0.0327647 -0.0456576 -0.0766625 -0.0202949 -0.055668 0.0338258 0.014162 0.0210515 0.0296292 0.0373588 0.0437866 0.0255628 -0.129039 -0.0243631 -0.0824288 0.00512282 -0.0361096 0.0311001 0.0625953 0.0836843 0.0390941 0.0370476 0.043689 -0.0143098 -0.026136 0.0320235 -0.0531303 -0.0785355 -0.00395755 -0.014168 -0.0529902 -0.097393 0.0118429 -0.0816737 -0.0143933 -0.033626 0.00946299 -0.0290555 -0.142178 -0.0434804 0.0609244 -0.0235031 0.0281341 -0.058768 -0.0552069 -0.0898318 -0.134675 -0.0923545 0.0486725 -0.00912543 -0.110173 -0.0932473 -0.120992 0.0418509 0.0192829 0.000321074 -0.0149791 -0.0138981 -0.0515948 0.0504096 0.0308128 0.0431108 0.0587323 0.10284
internal_weight=0 1986.76 1926.45 1069.34 638.816 602.481 449.515 202.26 247.255 122.005 857.115 125.249 430.52 806.261 655.422 583.011 296.11 88.263 83.7731 95.9978 152.967 113.997 283.649 286.901 151.211 135.69 267.444 65.1686 27.7833 67.2747 346.747 60.6797 46.2496 150.839 133.937 70.3875 60.7002 165.306 26.2782 72.4116 58.4192 40.9965 49.9383 78.1884 34.8218 57.9747 87.7982 29.723 84.274 37.9473 26.1024 60.3112 29.0162 124.901 24.0626 68.2146 56.8723 40.7724 256.204 109.636 83.6544 71.2852 45.0031 27.189 181.441 105.166 26.0074 146.568 117.992
internal_count=10171 9833 9571 5230 3079 2890 2143 947 1196 581 4341 615 2151 4071 3319 2958 1483 401 409 451 747 546 1422 1475 788 687 1344 326 137 324 1742 292 220 752 665 343 280 827 123 361 290 201 249 338 167 291 421 143 403 188 129 262 129 634 119 314 262 186 1289 549 418 355 224 135 915 529 130 740 623
is_linear=0
shrinkage=0.1


Tree=3
num_leaves=70
num_cat=0
split_feature=357 356 327 471 261 2 25 29 210 322 261 263 236 443 440 263 500 323 435 214 210 263 452 117 267 117 262 58 514 514 12 215 213 258 442 441 229 327 198 263 438 222 108 51 320 332 257 284 2 403 126 233 433 415 8 219 29 347 360 459 14 65 326 203 2 261 327 397 472
split_gain=130.552 97.5955 68.4536 54.9269 38.7158 33.9471 32.8359 37.5138 27.5331 24.0129 22.8729 23.5373 22.4184 21.7575 23.7802 21.1603 19.2691 24.0354 17.0978 16.6333 18.8957 16.6083 15.9807 15.7769 15.2802 14.6578 14.5463 17.3841 16.2817 14.2828 14.1012 14.0347 16.792 13.746 13.5251 13.9868 12.9339 12.4299 12.0596 12.0236 11.7653 11.6886 12.6586 12.6169 11.4933 14.3152 13.8813 14.5572 11.4201 11.1871 11.3163 10.7824 10.7568 10.5742 12.8255 10.5638 11.25 10.5252 10.0965 9.8568 9.4041 9.19239 9.18853 8.94983 8.83613 14.1802 10.0859 8.62977 7.88943
threshold=176.08292222982791 55.273976961277761 128.52765007493119 42135.616844547556 134.03733755867299 0.011618450116183001 0.010321352837120582 7.0322019746660862 0.64358440660709204 61.418039103323082 73.933356241222228 22.11192587075595 0.16591446110694127 3082.6085989810322 45835.214285714297 31.778971914418566 18423.694573476936 62.734282139028942 52847.158730158735 0.41959575239573904 0.63412957853181362 27.966015451161315 8235.4459698156625 1.7260516572977067 71.606291739545256 1.746603567210925 24.370966555209304 5.1383019519575113 30401.500000000004 12057.500000000002 18.800049210025573 0.63539259475736587 0.65440531536927249 69.303723476145436 7592.5559932055921 62993.49107142858 0.2449151408202018 133.42295475429293 1.6654013712162168 23.557880241998934 49819.888888888898 0.68886888309463046 1.700955196557784 16.469575107110703 102.20461020993663 99.388840675266849 81.169429584999179 72.373797717265859 0.015287130530057163 51480.600000000006 1.7504462061930159 0.17007058314823345 143.73316704340337 60963.750000000007 49.661768781882223 0.59751016652496081 6.8799334090696158 84.03361551356997 71.944028409940827 17049.538452253935 0.052605570071301948 5.1441392382838034 93.959526337304126 1.6814193214898954 0.011425742201313567 75.703246184336805 95.345174220031609 80098.416666666672 60339.320188793994
decision_type=2 2 2 2 2 2 2 2 2 2 2 2 2 2 2 2 2 2 2 2 2 2 2 2 2 2 2 2 2 2 2 2 2 2 2 2 2 2 2 2 2 2 2 2 2 2 2 2 2 2 2 2 2 2 2 2 2 2 2 2 2 2 2 2 2 2 2 2 2
left_child=1 2 3 5 19 10 9 8 12 59 11 26 16 14 53 39 17 18 23 -4 -21 30 33 52 -18 -25 27 28 34 64 63 -29 -33 -19 35 36 -1 -2 -14 -13 -16 51 43 -43 45 46 47 -35 55 -15 -51 -32 -8 -5 -55 -40 -57 -48 -11 -7 -26 -27 -3 -10 -12 -66 -67 -42 -37
right_child=37 62 4 13 -6 6 7 -9 21 58 29 15 38 49 40 -17 24 22 -20 20 -22 -23 -24 25 60 61 -28 31 -30 -31 41 32 -34 44 -36 68 -38 -39 48 -41 67 42 -44 -45 -46 -47 57 -49 -50 50 -52 -53 -54 54 -56 56 -58 -59 -60 -61 -62 -63 -64 -65 65 66 -68 -69 -70
leaf_value=0.040562729314733113 -0.10472022015335401 -0.096103417389195644 -0.16070744477545629 0.079414570166729259 0.047109714104012573 0.090679605292359189 -0.13780274246283059 0.060606453520938436 -0.17760260542425371 -0.098916873747457223 0.08844414982837738 -0.040524050769427077 -0.064327772118213555 0.060926519976608522 -0.035429084993168429 0.040132762908506613 0.034722194082547335 0.065253934594154545 0.052156958713353734 0.037884103027232489 -0.14246632416856284 -0.17784241677242438 -0.1037964912918221 0.065751896649825628 -0.11862502676858085 -0.008013327718834189 -0.058856153962908248 0.069569339780682402 -0.10586167259519144 0.090323138839611045 -0.14909548303578571 -0.095702100675264468 0.047460458918416631 -0.014809623667096717 -0.072902069559766428 -0.055839721102204247 -0.052747132208289665 -0.20446762713332542 0.065008323098224172 -0.18069622748445668 0.062320021162061735 -0.089725629503515272 0.058091959212293515 0.045862246089986673 0.045306603714819357 -0.14211346414015871 0.10747072776602846 -0.14793399349548736 0.0954807097809907 -0.025128520926328137 0.087167941814038627 -0.026032513095724061 -0.036979480457461293 0.0048907159490516579 0.12275145708355738 0.033983913166795637 -0.10950036069905603 -0.011987817632295221 0.0098980558806980434 -0.0083292628218181106 -0.0076264114450345453 -0.12581802706207909 -0.1869629520044582 -0.074219305264233884 0.080913169451313535 -0.089267855360824391 0.034915839561038574 -0.0093056726515442657 0.025826943133161442
leaf_weight=164.0310917198658 65.191997870802879 47.654325783252716 37.499119743704796 218.36330479383469 18.101383060216904 59.564415693283081 51.640229821205139 53.499391451478004 11.385355740785597 12.019748017191885 14.918489277362822 10.989681378006937 11.252983614802359 27.052706614136696 33.328359737992287 12.704665407538412 75.143589049577713 24.8792754560709 9.6059034466743451 11.523565649986269 11.715515866875647 12.177037388086317 17.32275678217411 10.33084876835346 11.734729900956152 11.76051999628544 23.365987032651901 103.3320849686861 12.163252919912336 67.946223005652428 12.984880387783052 12.654646798968313 23.237949460744858 23.402823060750961 17.213006049394608 33.36872623860836 16.334289059042931 15.454595640301703 20.933154135942459 13.808317720890043 46.334660112857819 19.952567681670192 20.835968554019928 10.461224511265753 22.635876312851906 10.864275276660917 11.113384217023848 12.656388714909552 28.989118307828903 79.475655049085617 10.115918621420859 15.762227103114126 13.309033542871473 42.923123598098755 11.763145282864569 11.476936474442484 10.430633574724196 21.929101303219795 29.343938186764717 12.097282797098158 21.835540801286697 15.164875477552412 14.522052913904188 31.655308276414871 13.998696133494375 17.352264985442165 10.496075496077536 26.408879235386848 18.325656339526176
leaf_count=848 276 203 158 1180 94 316 241 281 50 58 78 54 56 142 167 62 368 121 50 53 55 51 82 50 55 56 113 533 60 358 59 62 113 112 83 162 79 62 108 66 241 94 100 51 109 52 53 60 149 392 52 75 64 218 65 58 52 105 141 60 104 69 59 142 71 85 52 133 90
internal_value=0 0.00597137 0.00998294 0.013909 -0.0812554 0.00336315 -0.0107264 -0.0195385 -0.0268851 0.0389471 0.0213921 0.0111243 -0.0149581 0.0423366 0.0539567 -0.064811 -0.025621 -0.0405692 -0.0753974 -0.119511 -0.0530359 -0.0664388 -0.0136764 -0.0873858 0.00966382 -0.0355104 0.0178404 0.0223132 0.00711253 0.0593908 -0.0554132 0.050857 -0.00301434 -0.00143041 0.0126251 0.0189691 0.0321124 -0.123835 0.0319287 -0.118576 0.013774 -0.0305812 -0.00195277 -0.0430884 -0.0176003 -0.0354073 -0.0186307 -0.0615348 0.0470084 0.00456864 -0.012449 -0.0816193 -0.117143 0.0695665 0.0302428 0.0142085 -0.0343318 0.0281904 -0.0217221 0.0739658 -0.0464268 -0.0743631 -0.117325 -0.101567 0.0223659 -0.00119104 -0.0424629 0.036317 -0.0268889
internal_weight=0 1973.17 1911 1832.16 78.8396 1336.39 750.151 637.126 583.627 113.025 586.241 461.529 448.412 495.766 379.121 37.5027 365.329 256.615 111.811 60.7382 23.2391 135.215 144.804 102.206 108.714 37.2562 424.027 400.661 261.436 124.712 123.038 139.225 35.8926 127.481 249.273 232.06 180.365 80.6466 83.0828 24.798 106.072 79.9969 51.2498 30.4138 102.602 79.966 69.1017 36.0592 71.8298 116.644 89.5916 28.7471 64.9493 273.05 54.6863 42.8407 21.9076 33.0425 41.3637 71.6617 33.5703 26.9254 62.1764 43.0407 56.7655 41.847 27.8483 72.7435 51.6944
internal_count=10171 9833 9571 9211 360 6621 3652 3077 2796 575 2969 2325 2174 2590 2004 182 1751 1224 530 266 108 622 694 480 527 175 2143 2030 1322 644 571 708 175 612 1262 1179 927 338 423 120 541 379 245 145 491 382 330 172 367 586 444 134 305 1463 283 218 110 158 199 376 159 125 262 192 286 208 137 374 252
is_linear=0
shrinkage=0.1


Tree=4
num_leaves=70
num_cat=0
split_feature=291 290 340 511 264 263 386 512 76 326 260 228 469 35 441 376 3 205 471 480 8 327 327 261 260 2 73 472 470 500 493 452 24 261 514 227 237 5 514 425 236 6 225 211 2 21 124 7 384 130 40 406 262 66 384 426 442 468 403 98 459 59 459 24 68 21 260 201 514
split_gain=107.526 84.8176 66.2756 46.0041 44.6028 35.31 35.5625 33.3221 23.6438 22.1695 20.704 20.6731 19.1612 19.0928 19.0107 21.9232 20.7168 18.103 17.0623 15.8576 14.2296 13.6043 13.2959 13.1533 24.8277 12.8548 12.0055 14.4549 11.6933 11.4018 10.9696 10.9266 10.6214 10.5698 16.0226 18.8196 13.6707 11.5248 10.3804 10.2822 14.7326 9.97671 11.4468 11.3833 18.8525 15.56 12.29 10.7748 9.58563 9.18813 10.2286 12.7647 9.04908 11.9543 8.48628 9.39742 8.0225 7.96487 7.66655 7.62899 9.12068 7.62799 8.81306 7.5732 7.48298 11.1198 7.31822 7.2903 12.1874
threshold=1.0000000180025095e-35 1.0000000180025095e-35 57.660625975149166 0.043507287259050308 8.9469696969696972 23.717922093713234 8459.5039062500018 23.998464575339295 1.6559998742848043 129.14404676630812 110.13355652476606 0.24901727378378827 26341.724377925093 0.0071237782130416849 72088.194444444453 23637.916666666668 8.5742243308044142 1.7409809080079841 62490.09247525414 25787.937002482395 2.3064120644276538 126.35841791096207 202.5383493428991 74.377170602942357 74.85340245677709 0.122079796169708 4.2147034635362717 43406.236487568975 55837.179924981938 1993.6050435492382 87889.121002285086 30312.247407802275 8.5872338721145898 73.094636985498752 26450.000000000004 0.41856147081295697 0.26316800530602674 36.119258830247311 1.5000000000000002 51947.277777777788 0.15494793840166418 0.38559491361267068 0.70248594716623491 0.64979271713979492 0.015231422429982967 10.321096586290274 1.7254434604178652 1.7256685615585157 282321.50000000006 2.8853271247528922 0.039646539598992052 55719.81746031747 24.370966555209304 3.3466680325102458 44433.277777777788 52585.76666666667 30653.137681821809 47649.550342115508 71870.354166666672 1.6881718303857911 21618.770527219796 5.2202426559786135 22221.549194875897 8.584836603525277 3.4028128801392152 10.398755360720477 71.256884365034935 1.7184452970539736 2.5000000000000004
decision_type=2 2 2 2 2 2 2 2 2 2 2 2 2 2 2 2 2 2 2 2 2 2 2 2 2 2 2 2 2 2 2 2 2 2 2 2 2 2 2 2 2 2 2 2 2 2 2 2 2 2 2 2 2 2 2 2 2 2 2 2 2 2 2 2 2 2 2 2 2
left_child=1 3 21 11 5 9 8 -3 26 13 -11 22 -4 14 15 18 38 20 25 56 31 32 41 24 -13 33 27 49 -21 -20 58 -8 59 34 48 37 64 -36 54 40 -31 -1 43 44 46 -45 47 -43 52 50 51 61 67 -54 -16 -56 -17 -14 -29 60 -2 62 -7 -37 65 -35 -55 68 -5
right_child=2 7 12 4 -6 6 17 -9 -10 10 -12 23 57 -15 16 19 -18 -19 29 28 -22 -23 -24 -25 -26 -27 -28 30 -30 39 -32 -33 -34 36 35 63 -38 -39 -40 -41 -42 42 -44 45 -46 -47 -48 -49 -50 -51 -52 -53 53 66 55 -57 -58 -59 -60 -61 -62 -63 -64 -65 -66 -67 -68 -69 -70
leaf_value=0.025293620492796542 -0.10685588631381092 -0.11059153230835575 -0.0329848052399919 0.044984477736669651 -0.14976046030518292 0.018606528811696998 -0.1345005010062528 0.062968150536000828 -0.11065084330287045 -0.1616102406601144 0.030942046822483554 -0.094150742753798922 0.10496962033110076 -0.08112848567944192 0.066160919460614892 -0.024391224511723982 0.067395196622895504 0.032672621871432127 0.10025587071605453 -0.12759154826811861 -0.18953193308063745 -0.17031178802621894 -0.14352116849577459 0.085123449407535676 0.095704312610240372 0.096755588976049189 0.083245706764989477 0.095050012189834596 -0.0046926890172183091 -0.026062697649446451 -0.021099265399914691 -0.012604490935773078 -0.024985379856654458 0.064444046278685593 -0.05409922033819009 -0.023863537191658804 -0.03180922756914719 0.075613630691253375 -0.053592518468559294 0.10296789034234233 0.091482727057259072 -0.10458186975187136 0.051252023248026517 -0.021322310840600021 -0.092209997220439571 -0.15684998178498341 0.045139907555702394 0.010711635333151837 -0.061105208942992179 0.061238976130281633 -0.10661601056940373 -0.1020265637274618 0.090632197233229239 -0.086010445268889901 0.029541927373953877 -0.082894644796267458 0.096084682109327843 0.016198160496446314 0.021484682450880171 -0.15423375706128928 -0.023128597955244478 -0.070110924224028856 -0.064476449100976149 -0.13797641441614067 0.092963214450223486 -0.052387325786768538 0.012365313130546103 0.065233402436632185 -0.0011931251368424432
leaf_weight=23.610844448208809 58.471315830945969 75.898364171385765 84.356852933764458 242.73493385314941 15.030767694115637 118.14476230740547 13.383678212761881 12.949361622333525 15.481896847486494 11.24938376247883 11.088352486491202 16.775163993239406 15.941951498389242 14.051581412553785 17.701100006699562 9.8338816016912478 34.810393407940865 11.819992020726202 84.441266998648643 15.714889347553255 14.094837129116057 25.495273008942604 12.097337156534193 23.304649814963341 11.686547741293905 36.237396433949471 24.444878444075584 36.975673496723175 15.258926704525946 28.340496256947517 18.568197682499886 16.321812719106674 20.843406394124031 45.589631736278534 10.568842783570291 10.165997609496118 14.484037503600119 19.464509695768356 51.172023639082909 20.860700443387032 17.094132542610168 15.47113363444805 11.431308165192602 14.252312272787092 36.843961805105209 20.885207965970039 29.293331280350685 17.026666447520256 10.15177561342716 18.827724441885948 10.788936540484427 12.726795896887777 9.3016337901353818 15.813735187053682 16.492727115750316 13.533025264739988 12.621078953146933 27.615514114499092 22.964366346597672 22.823218524456024 16.733949705958366 13.191650673747061 14.314290434122084 13.591030046343802 68.530643105506897 9.9190905243158323 14.491442263126372 98.657891020178795 74.756154388189316
leaf_count=113 246 316 403 1291 66 581 61 67 69 52 56 81 83 71 88 50 189 61 474 78 66 103 53 121 59 198 134 195 76 147 93 76 92 244 51 50 72 101 247 115 93 72 54 67 165 96 142 81 53 93 52 64 50 78 83 68 66 138 116 98 71 64 69 64 367 51 70 519 378
internal_value=0 0.00992247 -0.0575868 0.0149627 0.0216041 0.0234044 -0.0035862 -0.0852956 0.00976633 0.0325479 -0.0660281 -0.0263056 -0.00517341 0.0346523 0.0362283 0.0414628 0.00104816 -0.0771493 0.0453899 -0.0206604 -0.106786 -0.104027 -0.0422502 0.0294174 -0.0161951 0.0387704 0.016174 0.0100218 -0.0670467 0.0758867 0.0460607 -0.0675242 -0.0898104 0.0355781 0.0290358 -0.0226401 0.060123 0.0299672 -0.0223047 0.0448474 0.0181621 -0.0349931 -0.044796 -0.0530036 -0.0355928 -0.101878 -0.00183389 -0.0441758 0.0350019 -0.00502837 -0.0124037 -0.00598583 0.0371426 -0.00853206 0.0112417 -0.0211348 0.0433237 0.0486883 0.0668655 -0.103594 -0.0882257 0.0024061 0.0096281 -0.0891458 0.0708579 0.0435669 -0.0389688 0.0414897 0.0341115
internal_weight=0 1767.33 272.281 1678.48 1445.8 1430.77 362.049 88.8477 306.429 1068.72 22.3377 232.678 127.914 1046.38 1032.33 898.624 133.709 55.6203 845.195 53.4288 43.8003 144.367 180.912 51.7664 28.4617 694.459 290.947 266.502 30.9738 150.737 78.5082 29.7055 118.872 658.221 519.698 53.7904 138.523 30.0334 98.8989 66.2953 45.4346 168.815 145.204 133.773 98.6351 35.1375 61.7911 32.4978 465.908 187.994 169.166 158.377 455.756 39.6068 47.7269 30.0258 22.455 43.5575 59.94 98.0285 75.2053 145.651 132.459 23.757 124.039 55.5087 30.3052 416.149 317.491
internal_count=10171 8937 1234 8554 7450 7384 1794 383 1530 5590 108 1104 624 5482 5411 4736 675 264 4466 270 203 610 843 261 140 3637 1461 1327 154 829 404 137 507 3439 2705 266 734 152 486 355 240 790 677 623 460 163 295 153 2439 923 830 778 2386 198 239 151 116 221 311 415 317 714 650 114 662 295 148 2188 1669
is_linear=0
shrinkage=0.1


Tree=5
num_leaves=70
num_cat=0
split_feature=357 290 276 327 264 328 261 505 510 511 229 403 376 441 510 263 126 213 430 230 237 235 464 435 75 383 308 510 440 212 327 199 102 60 459 457 385 16 386 35 261 260 75 510 326 472 98 415 476 509 329 228 5 74 19 218 508 118 514 20 510 500 58 509 474 458 476 398 463
split_gain=87.2017 68.4812 53.3347 38.0824 33.735 32.2055 27.1173 25.4204 24.3496 19.4274 18.366 17.3976 15.8297 16.5291 22.9637 19.4095 22.8054 16.3706 15.9769 14.5365 14.1886 14.084 12.9282 12.5506 12.184 12.0926 11.6529 12.7517 12.3146 12.4923 11.6404 11.5076 11.6796 11.4641 12.9923 11.4226 10.9771 15.2985 13.4578 10.5155 10.4128 21.3836 10.208 10.101 9.77893 9.5199 9.15825 9.06969 10.8928 8.69946 8.63306 9.87174 9.36381 8.51109 8.37048 13.7908 8.36278 8.30393 10.5044 8.2463 8.15348 9.06794 8.11753 8.07433 8.7486 7.92838 7.70577 10.0413 7.683
threshold=1.0000000180025095e-35 1.0000000180025095e-35 60.486661655519427 129.71719588997138 8.9469696969696972 64.288616577602426 140.38203194921667 38244.137310972881 13.032155797101451 0.043507287259050308 0.24223514028628076 49971.525000000009 22610.472222222226 66226.178571428594 37.033958077026348 23.64180335577365 1.8443720782007114 0.63184908206322843 15755.722222222224 0.072300120470835436 0.4302464404592517 0.087161429815548211 9193.7669294267689 44874.055555555562 1.1599957971130486 149733.41666666672 8.3666666666666689 2733.6121500000004 64467.083333333336 0.58937118090360263 126.35841791096207 1.6976472524664914 1.6820178213642309 5.2398559187732774 196.77896177875559 39072.280100874435 334.50787942966241 15.406323597376305 8459.5039062500018 0.0055435445594162027 74.377170602942357 74.85340245677709 3.4416652176668787 0.060080059234578188 103.87937121692285 69197.705630719574 1.7181067884706256 36198.232142857152 58105.085530442178 0.46919524804301799 65.964847865185689 0.16834202583104951 36.135273026809649 3.4487378347263382 10.37039857080212 0.63662607322482578 0.48894146474673267 1.7085196475361297 13301.500000000002 10.169139636307095 0.30323508894314616 2033.1070424265999 10.015505521725759 0.48035990014510183 58455.476094726713 22125.267968773082 37784.355609492282 66989.569444444453 37067.887299745802
decision_type=2 2 2 2 2 2 2 2 2 2 2 2 2 2 2 2 2 2 2 2 2 2 2 2 2 2 2 2 2 2 2 2 2 2 2 2 2 2 2 2 2 2 2 2 2 2 2 2 2 2 2 2 2 2 2 2 2 2 2 2 2 2 2 2 2 2 2 2 2
left_child=1 3 30 4 5 9 21 24 65 10 19 -4 13 15 23 20 17 18 31 -1 25 -5 -14 -15 36 26 27 28 39 -30 42 32 -17 34 -29 -24 37 38 -7 43 41 -12 49 -11 -38 63 -16 56 -49 -2 51 52 -21 -39 55 -53 57 -45 -59 -58 -27 -62 -18 64 -25 -3 67 -9 -50
right_child=2 8 11 6 -6 7 -8 66 -10 12 40 -13 22 14 46 16 62 -19 -20 50 -22 -23 35 45 -26 60 -28 33 29 -31 -32 -33 -34 -35 -36 -37 44 53 -40 -41 -42 -43 -44 47 -46 -47 -48 48 68 -51 -52 54 -54 -55 -56 -57 59 58 -60 -61 61 -63 -64 -65 -66 -67 -68 -69 -70
leaf_value=0.036649655800531873 -0.021423213755640422 -0.12058048092562319 -0.028889556299731323 -0.13953856230685371 -0.12953943332890461 -0.0031295428766737461 0.051694899127443454 0.060980231381953715 0.022300631307653297 -0.033168466299915565 -0.071164412072951364 0.051075941037113798 0.072878961725240582 -0.078989660377387458 0.082211553390518666 -0.021226605463559561 0.10824081257345464 -0.10898503735065071 0.080136575110055328 -0.00041703163686820596 -0.053484165313948631 -0.026157575013735525 -0.10675182443202647 -0.022983538076313072 -0.10888097129220652 0.057159800593224674 -0.060095370009539954 -0.072821470270449398 -0.017131223199988166 0.098354097646441457 -0.15394331159094757 0.02226779402265977 -0.14482424438334049 0.10257022057069363 0.024612739240359754 -0.0006227241991916706 0.044584349230852804 -0.055886372523817632 -0.091612728538642052 -0.018654644815573475 0.0940289469437144 0.11577141060975804 -0.016003531153373246 0.09464617710313622 -0.042473157267747794 0.060899882941416905 0.0012621892233313037 0.061228659628673424 -0.046056582667585722 -0.10472337907219179 -0.130070998466122 0.037550473855195804 -0.11220663035485171 -0.15911159760510968 0.055850426663428744 -0.11671258109308791 0.0062011704599692951 -0.018897962693821931 0.077486567249491142 0.066791943623298475 -0.11524142589507975 0.016583124389294986 -0.0049970680431486092 -0.062243438191625228 0.083871344848398699 -0.036874079399286767 0.085221707017044915 -0.067010752109409835 0.050084852518964877
leaf_weight=25.114387482404709 14.657576933503149 55.79574117064476 86.888488337397575 31.006480500102043 15.604856491088865 128.69265469908714 15.768298819661139 15.650096729397776 19.679363638162613 10.466590300202368 15.896752133965494 39.610461756587029 10.89207875728607 29.244381472468376 39.503174543380737 20.579361215233803 22.28647488355637 17.811588257551193 17.902213901281357 11.057734459638594 14.527988582849501 16.942116752266884 18.883078053593636 24.756893292069435 15.535600036382673 10.58048425614834 9.6563514769077283 15.97750587761402 39.388929516077042 12.289068475365637 25.388145968317986 25.684942200779915 12.165019273757933 15.444776326417921 95.402692764997482 21.906284525990486 43.691777363419533 28.303664728999138 19.838819324970245 15.860290706157683 22.325815886259079 9.9488591998815519 20.957591891288757 188.91387118399143 18.309697866439819 18.296431347727776 21.62800532579422 85.101900592446327 19.7777169495821 86.666434705257416 11.618671700358389 11.534262239933016 23.242154538631439 11.127957582473753 15.033186644315718 11.646980494260786 29.049208894371986 15.583915963768957 41.202542513608932 99.053890720009804 10.640581488609316 10.239690974354742 8.8421803414821607 27.097609981894493 11.096427351236342 14.19381646811962 30.388322815299034 10.076057955622671 14.337977424263952
leaf_count=121 62 228 411 128 66 622 84 81 97 53 74 205 57 143 217 99 126 80 94 50 69 78 92 125 70 58 50 77 207 69 103 131 56 83 511 108 229 132 90 80 120 52 91 1069 85 94 114 475 104 361 53 57 104 50 74 54 157 83 224 542 55 55 50 127 56 58 163 50 78
internal_value=0 0.00914958 -0.051504 0.0137465 0.0167718 0.0182158 -0.0620655 -0.0100274 -0.0759728 0.0254278 -0.00743363 -0.00385006 0.0301217 0.0327801 0.00439443 0.0383238 0.00187492 -0.0226596 -0.00251601 -0.0301149 0.0443836 -0.0994766 -0.0239088 -0.0228137 -0.0229523 0.0463076 0.0490052 0.0505148 0.0568854 0.0103313 -0.0923259 -0.02784 -0.0671449 0.0218316 0.0106358 -0.0497543 -0.0176118 -0.0296474 -0.0149479 0.0615178 0.044005 0.000793576 -0.0795329 0.0640433 0.0188753 -0.00259364 0.0535719 0.066107 0.0420902 -0.0926731 -0.0500447 -0.0372224 -0.0761675 -0.0850175 -0.00226674 -0.0399561 0.0737667 0.0845669 0.0510357 0.0530521 -0.014356 -0.0505946 0.0760753 -0.0210478 0.0100875 -0.103605 0.0511256 0.0108505 -0.00565073
internal_weight=0 1750.1 274.169 1660.43 1596.71 1581.11 63.7169 321.615 89.6689 1259.49 157.419 126.499 1102.07 1050.39 171.623 878.768 125.272 94.1431 76.3315 109.247 753.496 47.9486 51.6814 110.492 265.5 738.968 707.507 697.851 571.026 51.678 147.67 58.4293 32.7444 126.825 111.38 40.7894 249.965 187.963 148.531 519.348 48.1714 25.8456 122.282 503.488 62.0015 81.2474 61.1312 493.021 119.218 101.324 84.133 72.5143 34.2999 39.4316 38.2144 23.1812 373.803 245.7 56.7865 128.103 31.4608 20.8803 31.1287 62.9509 35.8533 69.9896 56.1145 25.7262 34.1157
internal_count=10171 8938 1233 8555 8265 8199 290 1572 383 6627 759 616 5868 5611 876 4735 636 460 380 513 4099 206 257 545 1278 4030 3862 3812 3141 276 617 286 155 671 588 200 1208 894 712 2865 246 126 514 2785 314 402 331 2732 657 423 392 339 154 182 185 111 2075 1376 307 699 168 110 176 308 181 286 294 131 182
is_linear=0
shrinkage=0.1


Tree=6
num_leaves=70
num_cat=0
split_feature=357 290 340 327 326 260 264 263 261 58 439 392 8 211 441 229 262 492 514 500 440 73 326 233 261 327 469 239 238 3 360 319 253 471 2 452 0 222 112 327 443 102 470 492 404 3 58 217 241 7 462 429 407 473 492 404 514 384 393 173 393 362 110 476 510 231 512 65 218
split_gain=70.7119 56.7519 42.6512 30.6465 26.9769 28.2697 27.6188 21.8551 21.7068 19.7378 21.2005 15.7752 15.3979 16.4676 19.0562 17.8102 17.7374 17.0853 15.2949 19.5503 15.1912 17.1786 17.4867 13.5141 33.0558 16.8145 13.44 12.5935 12.2503 11.9838 13.4496 12.5084 11.6582 10.7165 11.789 10.4182 10.4175 10.1356 12.4012 10.1288 9.88071 9.82319 10.0392 9.48773 8.93988 8.89336 8.46662 8.20373 9.06492 8.05023 9.66497 10.3478 9.99386 11.7029 7.95081 12.9378 7.88644 9.2386 7.83122 9.43279 9.57725 8.26348 7.81034 11.3903 19.5011 11.3785 14.5605 10.7998 7.92289
threshold=1.0000000180025095e-35 39.714285714285722 57.660625975149166 129.71719588997138 129.14404676630812 128.29925951953737 8.9469696969696972 22.881820490396056 140.38203194921667 5.2822317771201952 53296.92857142858 12359.555555555557 49.711559792323158 0.62976398785727794 69546.450000000026 0.23214401368228746 22.594256183262072 50858.078743445978 57800.500000000007 2212.4256835862575 52246.375000000007 6.6013639511029281 96.256703232956113 0.21302925092420485 73.771258371533804 93.941111183355048 26341.724377925093 0.27847206555141085 0.095787275653461582 0.026087202700280344 58.691709608221338 64.745775228929119 107.55378874741015 52766.807816089371 0.01527854701575204 29739.650406729084 116.66544540087453 0.59911175442377074 1.7208269053212251 126.35841791096207 33527.470477896859 1.7507047190889051 73601.154833277906 101086.00859112489 114416.10000000002 8.5816581722789866 10.015505521725759 0.67426873830495138 0.24964573150765892 1.7215659688994782 33597.102125136757 75906.322222222239 50533.583333333336 55712.49132337419 3486.7593189831191 1.0000000180025095e-35 1.5000000000000002 44433.277777777788 4244.5137254901974 0.010653045415951549 109.97950815834081 78.343158582350512 1.6957086983100698 59944.805827852877 0.27732733718487401 0.23130816567562426 24.449448897795595 5.1540771884354255 0.60443022531030444
decision_type=2 2 2 2 2 2 2 2 2 2 2 2 2 2 2 2 2 2 2 2 2 2 2 2 2 2 2 2 2 2 2 2 2 2 2 2 2 2 2 2 2 2 2 2 2 2 2 2 2 2 2 2 2 2 2 2 2 2 2 2 2 2 2 2 2 2 2 2 2
left_child=1 3 39 4 6 -6 7 12 28 10 18 -3 13 14 20 17 27 37 23 -20 21 22 33 29 -25 -26 -4 47 -5 30 -9 -32 58 34 35 41 -14 -15 54 -2 44 42 62 -35 -12 56 -11 48 -17 50 -22 52 -52 -54 55 -39 57 -16 59 60 -33 -60 63 -1 -65 66 67 -64 -67
right_child=2 11 26 8 5 -7 -8 9 -10 46 40 -13 36 15 45 16 -18 -19 19 -21 49 -23 -24 24 25 -27 -28 -29 -30 -31 31 32 -34 43 -36 -37 -38 38 -40 -41 -42 -43 -44 -45 -46 -47 -48 -49 -50 -51 51 -53 53 -55 -56 -57 -58 -59 61 -61 -62 -63 65 64 -66 68 -68 -69 -70
leaf_value=0.033153754096433945 -0.070998044275116842 -0.097848953087893889 -0.026528575840818826 -0.12412178032629445 -0.11992461599212434 0.052949032888943919 -0.11366092660484017 -0.12547729614361733 0.04781792799242051 0.095503792088136974 0.071740329460783514 0.030458496290313782 0.093452936588040464 0.037659392810244011 0.067002081333628546 0.088043022578763175 -0.058800205320455212 0.043375180504031899 -0.0089972584803027257 -0.17597133305826465 -0.059214541863475134 -0.095383449298608231 -0.04613934065894558 -0.1384395323189537 0.08735941121926559 -0.061267947049572197 0.042507734383587369 -0.048207614203468384 -0.017362928660880707 0.027372719873039658 0.060541536274018586 -0.097976721466223327 0.055097854342385615 0.082009111340000371 0.074228994521588598 0.064878082474463819 -0.0084596523652094493 -0.058619256808513147 -0.16260723032402297 -0.1408729458586058 -0.040504182972398231 0.068174700735969845 0.085118558849508752 -0.013075039517249327 -0.029856021700696879 0.06709370779332853 -0.0087271030498812414 0.10333944969526757 -0.021186585640220065 0.07460709575457837 0.060152310747351313 0.083865378836725388 -0.12430397762167092 0.010078762322159956 -0.11960832918450588 0.065855655618644676 -0.044481310608711203 -0.021469902269690769 -0.13709784908060396 0.053899827634608335 -0.0027573018019097281 -0.036467922815718583 -0.15326321932982637 0.068061575748985373 -0.091790010452628412 0.095947226220975887 0.046322408624593144 -0.033918574727385291 -0.027052133207363202
leaf_weight=156.96662633121014 122.16293027997017 61.605451971292496 86.231220364570618 32.310014858841896 28.854637622833252 14.072932720184324 15.983686462044714 10.998437538743017 15.363897949457167 28.562347173690796 54.331945061683655 11.347292259335516 51.470188662409782 10.689564645290373 18.399611875414848 14.548720061779024 18.379074111580849 23.754820063710213 14.605147406458856 13.488196536898611 29.444519266486168 9.1181145459413511 21.303733512759209 26.051220491528511 15.630857720971109 14.836972236633299 41.903121739625931 10.899522602558134 16.106255516409874 89.921100407838821 20.922879412770271 16.768390595912933 16.027616545557976 108.25131158530712 80.509366899728775 78.496572092175484 12.457793191075323 35.701275393366814 11.343931525945662 24.988597214221954 12.837590038776396 43.787688180804253 20.142403349280357 11.620650991797445 10.303680613636969 13.965898290276526 10.717491716146467 32.312759920954704 15.90231132507324 11.929510727524756 12.099345013499258 14.610453665256498 11.673740819096567 14.567268073558806 12.399234712123869 10.899528503417967 54.064597174525261 32.921959966421127 13.247171491384504 14.824868902564047 28.54405677318573 21.251285061240196 13.027456164360048 12.211814671754835 20.348598971962929 11.843107596039774 11.876023784279822 18.141317650675774 9.3884588032960874
leaf_count=850 506 255 403 132 125 69 66 49 84 166 295 52 314 55 94 78 89 124 73 60 150 49 104 114 87 76 221 49 74 441 103 79 78 647 453 434 74 166 51 103 66 232 115 64 55 78 60 168 80 65 65 81 58 72 63 55 254 165 61 73 137 100 63 66 104 68 67 92 52
internal_value=0 0.00842992 -0.0461336 0.012228 0.0149473 -0.0632515 0.0171112 0.0184726 -0.055744 -0.000537272 -0.00726672 -0.0778916 0.0259607 0.0230258 0.0291217 -0.00301104 0.0290849 -0.031203 -0.0187235 -0.089165 0.0352457 0.0408741 0.0428848 -0.0118766 -0.0557343 0.0149821 -0.00395198 0.0510124 -0.0886072 -0.00121539 -0.0192445 -0.0103652 -0.0237714 0.0460636 0.0393432 0.0322548 0.073593 -0.0530655 -0.0668521 -0.0828639 0.039629 0.0241951 0.0171654 0.0727914 0.0555447 -0.00789144 0.0670644 0.0682429 0.0310005 -0.0021699 -0.013286 0.0122537 -0.0150356 -0.0497036 -0.0484413 -0.0295056 -0.0178286 0.0102487 -0.0371287 -0.0153409 -0.0379943 -0.0751091 0.0117725 0.0219884 -0.0318375 -0.0183504 -0.0478997 -0.0838005 0.0415577
internal_weight=0 1730.98 275.286 1658.03 1594.25 42.9276 1551.32 1535.34 63.7802 433.871 394.591 72.9527 1101.47 1037.54 840.71 196.831 92.0424 104.788 317.118 28.0933 721.358 627.033 617.915 289.025 56.5191 30.4678 128.134 73.6633 48.4163 232.506 142.585 131.586 110.663 596.611 476.739 396.23 63.928 81.0335 70.344 147.152 77.4732 317.733 273.946 119.872 64.6356 119.352 39.2798 62.7638 30.451 94.3248 82.3953 52.9508 38.3404 26.241 59 46.6008 105.386 51.3216 94.6358 60.1373 45.3124 34.4985 253.803 189.527 32.5604 64.2764 43.0448 31.1688 21.2316
internal_count=10171 8938 1233 8631 8341 194 8147 8081 290 2173 1947 307 5908 5520 4542 978 464 514 1531 133 3951 3460 3411 1398 277 163 624 375 206 1121 680 631 528 3307 2596 2143 388 390 335 609 416 1709 1477 711 350 591 226 326 158 491 426 276 195 130 284 221 513 259 450 289 216 161 1362 1020 170 342 222 155 120
is_linear=0
shrinkage=0.1


Tree=7
num_leaves=70
num_cat=0
split_feature=476 357 290 310 329 29 12 500 240 443 209 508 510 509 264 6 435 212 230 225 512 57 231 510 514 509 477 470 414 440 476 403 500 226 219 231 32 501 507 509 371 476 461 434 473 411 311 247 372 31 337 320 372 133 438 326 2 221 458 89 458 230 327 75 230 480 263 371 20
split_gain=59.3353 50.7085 39.9378 21.4763 21.3149 20.0979 21.3159 22.9759 21.8552 17.8496 16.9969 16.1297 26.2657 18.974 14.8074 14.7733 14.7601 14.5601 13.4041 13.5808 12.8532 12.5543 12.2242 11.9878 11.7087 21.9093 18.0067 15.4002 11.5624 11.232 12.7485 11.1386 11.0862 11.0499 14.7538 15.4847 11.0359 11.0222 10.5912 10.108 9.65948 16.0677 9.6011 9.5437 9.98395 9.14342 9.02444 14.0894 10.6008 9.48983 8.39668 17.0173 12.3159 9.09705 8.24447 8.22607 12.948 11.1725 8.40505 8.27806 8.13862 8.89197 7.90279 9.22289 7.84359 7.6388 7.60005 11.4007 8.52173
threshold=26680.522684477775 1.0000000180025095e-35 39.714285714285722 56.823887354653131 256.63654928192346 7.8322189536932552 18.9075474508432 133.30077107828819 0.29458090446009094 8151.3666877698679 0.42532679739420148 0.49252563837233482 0.13129830987261334 0.50033407614714365 67.660788734791126 29.285351572117225 12593.972222222224 0.63903655567287088 0.23831721306405088 0.68279909221647905 41.771502734899691 5.1506797347646245 0.13954190063696056 0.33174020166993662 5383.0000000000009 0.48035990014510183 67194.661889467927 66884.355398293948 52028.055555555569 67239.325000000012 92429.367348985863 23294.215277777781 2165.251583280959 0.73341937798748313 0.65144415376242859 0.24895047851520177 0.0035297130047180622 115916.9563997705 1400.8120603678703 8496.9001920982028 8.761091679575161 66665.624488860485 765.27859351604695 31176.400000000005 53117.434349194569 20657.642857142859 69.476786731106856 79.756363996827929 74.835825816281101 0.0067086494057493106 75.935027046661048 98.928950041587385 71.180206520928337 0.28849466992670941 92046.333333333358 95.304402624271475 0.011388116501457437 0.58263626521824963 22016.953297517368 1.7967062943423155 22125.267968773082 0.072300120470835436 126.35841791096207 3.4416652176668787 0.15312603690165497 36183.496208347111 23.333451569616251 64.17195431951545 10.384348491906186
decision_type=2 2 2 2 2 2 2 2 2 2 2 2 2 2 2 2 2 2 2 2 2 2 2 2 2 2 2 2 2 2 2 2 2 2 2 2 2 2 2 2 2 2 2 2 2 2 2 2 2 2 2 2 2 2 2 2 2 2 2 2 2 2 2 2 2 2 2 2 2
left_child=1 2 4 62 5 6 8 10 14 11 15 13 54 29 16 -8 33 -12 21 -20 32 -19 -17 -22 25 -11 -27 -26 43 30 37 36 40 34 39 -36 -18 -2 -34 46 -15 -42 -6 -14 -45 -33 55 48 -48 -49 52 53 -5 -52 64 56 57 -1 59 66 61 -4 63 -3 -13 -31 -58 68 -68
right_child=9 3 60 50 42 -7 7 -9 -10 24 17 12 28 20 -16 22 31 18 19 -21 23 -23 -24 -25 27 26 -28 -29 -30 65 -32 45 38 -35 35 -37 -38 -39 -40 -41 41 -43 -44 44 -46 -47 47 49 -50 -51 51 -53 -54 -55 -56 -57 58 -59 -60 -61 -62 -63 -64 -65 -66 -67 67 -69 -70
leaf_value=-0.0053955736671975462 0.093682688450924159 -0.079613722628013223 -0.054456930808991846 -0.020770764089775323 -0.14353832178189901 0.083430147545518127 -0.10631013046738105 0.04427134990572934 -0.12474458086008225 0.027795283900331355 0.043385426845087893 -0.00097148993873489003 -0.088022529543863193 0.080512039004321356 -0.11833007702240257 0.03765824170579616 0.10569045071382076 0.0042756382451684949 -0.017539434714862648 0.10723678578456919 0.037724346519257101 -0.098019779409027563 -0.093840525620590504 -0.087542766038303882 0.093499881944051372 -0.11508904354566148 0.0058831660514666638 -0.035394909168026581 -0.10342499852159304 0.072598852496369867 -0.0090935796383176289 0.05810615975065711 -0.093864390051024538 0.078057603371541801 -0.11779905503100373 0.0031020893602672194 9.8113918979046032e-05 -0.019841887049833477 0.040426711507732076 -0.065904775207035471 0.072670270864935549 -0.062106199975935229 -0.022408729350929565 0.085090981941142882 -0.046955296258318187 -0.019291569279526008 -0.040870612940910434 0.081803725854747766 -0.15945600035063986 -0.02050957617474318 -0.15918393512780249 0.02936420728946379 0.099073222392396201 -0.047989833007727169 0.10404628041887293 -0.047822533096090941 0.03233476697323142 -0.10449038711699454 0.11411595295530519 0.099417352376450552 -0.0065011932477233364 -0.136826100128285 -0.12952136231131162 -0.0070658839130795167 0.095769086891957275 -0.028477792688128407 -0.080376919771571964 0.052292163187866447 0.02355973887330487
leaf_weight=75.414997935295105 142.92430402338505 96.949563175439835 26.491163700819016 24.512081354856491 13.832614898681642 31.682023748755455 25.274525940418243 201.25246261060238 16.007424458861351 45.253077074885368 84.029290989041328 31.134807109832764 10.548174783587454 51.078650861978531 11.574250370264052 22.114062055945396 27.788626551628113 22.591066226363182 22.900717690587044 14.089770525693892 12.94033992290497 25.58382523059845 10.391084387898443 18.64953601360321 23.248616114258766 31.306195110082626 20.272252187132835 15.415981039404867 21.164558663964272 12.598047211766245 15.223663613200186 21.810705691576004 11.421294823288919 13.223648488521574 26.558414623141289 17.623045712709427 15.373857542872427 9.0967691093683225 12.089158207178114 28.754272356629372 19.906668782234192 15.919285938143728 12.418210774660109 12.946665972471239 10.266670390963553 50.846535116434097 20.573431685566902 10.789397209882734 11.897815719246863 56.740661531686783 11.059942975640295 21.33254374563694 13.188737034797667 21.979368701577187 19.163739874958992 26.84106382727623 87.901432693004608 13.398977816104887 10.388886481523512 12.427429869771002 12.884711816906927 25.938498958945274 23.920510858297348 21.389495477080345 11.468066334724424 18.393401369452477 24.683328300714493 16.894583091139793 11.593550294637678
leaf_count=401 851 394 110 113 58 191 119 1119 68 238 444 171 52 305 47 113 171 116 115 72 69 115 51 94 129 150 97 82 104 66 82 116 60 65 120 85 78 49 69 132 109 83 64 69 53 272 95 51 54 264 51 100 63 102 110 123 476 68 59 64 53 105 101 91 65 92 116 79 58
internal_value=0 -0.0103111 -0.00174375 -0.0527426 0.00278626 0.00497231 0.00257607 0.0196724 -0.00944335 0.0274636 -0.00213889 0.0369158 0.00483409 0.0479189 -0.00633143 -0.0489665 -0.00410229 0.0138526 -0.0152862 0.0299881 0.0200175 -0.0500495 -0.00437863 -0.0362289 -0.00441206 -0.0229875 -0.0675425 0.0421082 -0.0454766 0.0679059 0.0781525 0.0278444 0.0361097 -0.0120473 -0.0146806 -0.0695742 0.06808 0.0868895 -0.0248114 -0.0087407 0.0525908 0.0127823 -0.0862368 -0.00914968 0.0266903 0.00394217 -0.00440996 -0.030191 -0.0843216 -0.0041628 -0.0151122 -0.0402587 0.0211538 -0.0852122 0.049573 0.00481268 0.0104034 -0.0203456 0.0270667 0.0211752 -0.0777081 -0.0952074 -0.0770976 -0.0665009 0.0250696 0.0126099 0.0142827 -0.0155605 -0.0471603
internal_weight=0 1394.91 1160.58 234.332 1095.27 1069.02 1037.33 428.227 609.106 592.43 226.974 456.934 116.693 340.241 593.099 57.7797 581.525 169.195 85.1654 36.9905 142.005 48.1749 32.5051 31.5899 135.496 96.8315 51.5784 38.6646 54.9261 198.236 167.245 115.82 110.415 465.705 452.481 44.1815 43.1625 152.021 23.5105 408.3 86.9046 35.826 26.2508 33.7615 23.2133 72.6572 379.546 100.001 32.4712 67.5301 92.0727 54.3719 37.7008 33.0393 61.7666 279.544 252.703 88.814 163.889 153.5 65.3144 52.4297 142.26 118.339 42.6029 30.9914 141.073 53.1715 36.2769
internal_count=10171 6922 5907 1015 5639 5517 5326 2264 3062 3249 1145 2553 624 1929 2994 283 2947 862 418 187 789 231 164 163 696 485 247 211 278 1140 982 637 626 2310 2245 205 249 900 129 2040 497 192 122 174 122 388 1908 464 149 315 429 253 176 153 346 1444 1321 469 852 793 268 215 586 485 236 158 729 253 174
is_linear=0
shrinkage=0.1


Tree=8
num_leaves=70
num_cat=0
split_feature=291 383 2 109 5 29 509 451 263 211 230 237 235 6 439 443 442 398 36 2 8 412 415 199 476 200 441 505 441 100 262 261 477 475 221 209 100 405 509 509 513 411 406 100 9 435 70 406 393 338 253 294 356 464 110 204 443 510 377 492 27 222 28 261 11 116 59 224 261
split_gain=46.9015 34.902 24.4958 28.3255 27.187 22.037 17.8568 17.326 14.8116 15.6167 13.7424 13.3955 25.6282 13.0318 12.7724 12.7385 14.3968 12.2131 12.0102 11.7892 11.6044 11.2384 11.997 11.0773 11.0142 10.3344 10.3275 10.3015 11.6536 11.9105 10.1692 10.2557 10.164 10.0446 9.53103 17.224 9.26117 11.9047 17.4714 15.0774 15.3159 11.4933 13.7248 10.6867 9.24289 8.61397 8.59815 8.35801 9.59786 9.26354 18.0108 8.89851 8.62549 8.32691 8.2521 8.2516 8.24496 8.84573 10.4961 7.91898 7.68191 11.3483 10.6703 8.22699 7.58405 7.38169 12.477 7.46126 7.26326
threshold=114.66403846153848 19342.658730158735 0.015896355785547645 2.5274058196663667 33.603984004081035 6.6480302069335382 0.46633763836292602 4068.7962021930985 23.271432075436341 0.67461506861780696 0.47031271429382476 0.17513585136497226 0.16161323018077797 39.714511109180982 25479.500000000004 11984.972190105243 9844.6054365023392 33329.177777777782 0.0019025513220105596 0.011372682881250448 25.816825531132299 17313.923611111113 12368.222222222224 1.7324628401554787 48179.952643978351 1.7346040734135779 65256.500000000007 69068.435428030789 90783.211111111115 1.0000000180025095e-35 27.7202593622713 76.141696601439847 94242.039975237261 78558.507335287999 1.1165699491436063 0.67235756093321275 0.061007739189091983 64527.414285714294 36.449789988486735 0.57262455401168177 2.8799883483833386 64881.555555555562 50400.214285714297 1.6636873686581073 24.169427628494898 91869.875000000015 3.3533294580471611 6368.5000000000009 4492.5112359550576 99.636870886164914 97.636683277962348 74.293840117598748 2851.215986146628 68538.523736991221 1.7012614004872206 1.6917879621615322 49211.885816960355 2684.3073820745221 26978.722222222223 44857.302192797382 6.8682160354361468 0.58463307696773148 6.9247138334762823 40.114825926340515 19.069031775847712 1.6968018249448256 5.1410369287731124 0.64408863065079947 74.377170602942357
decision_type=2 2 2 2 2 2 2 2 2 2 2 2 2 2 2 2 2 2 2 2 2 2 2 2 2 2 2 2 2 2 2 2 2 2 2 2 2 2 2 2 2 2 2 2 2 2 2 2 2 2 2 2 2 2 2 2 2 2 2 2 2 2 2 2 2 2 2 2 2
left_child=1 2 8 4 21 -6 -2 13 10 23 11 12 14 15 34 16 26 -17 -18 60 65 22 47 25 -23 -10 33 28 29 -28 31 46 56 36 35 44 37 38 39 40 41 -3 -43 53 -1 -45 -21 48 49 50 52 -50 -4 -38 -14 -46 57 58 59 -19 -13 -62 63 -63 -57 66 -7 -67 -27
right_child=6 7 3 -5 5 20 -8 -9 9 -11 -12 19 54 -15 -16 17 18 32 -20 30 -22 24 -24 -25 -26 68 27 -29 -30 -31 -32 -33 -34 -35 -36 -37 43 -39 -40 -41 -42 42 -44 45 55 -47 -48 -49 51 -51 -52 -53 -54 -55 -56 64 -58 -59 -60 -61 61 62 -64 -65 -66 67 -68 -69 -70
leaf_value=-0.0078192103241004687 0.036648472993116896 0.068951054531953757 -0.0058425790454268321 0.066759102965921649 -0.14188103893663018 -0.07272040207769058 -0.094271597794295128 -0.11254102264924196 0.00036920736805840692 -0.10788793953561654 -0.06903148320037529 0.039045890052872415 -0.04430595426812714 -0.094286126678256435 0.085391486356120885 0.052732116729291269 -0.030673362288671638 -0.12729340345597129 0.065245099995757561 -0.011801122345494738 0.0072070853211426786 0.079048103874907766 -0.10100524590756162 0.02967879795031271 -0.047192856681022285 -0.14916759739839552 -0.013741040605115036 0.059112194104629368 0.034825351533330065 -0.13669357629118803 -0.053223964309899563 -0.013412944385447826 0.044687471870936045 -0.01531589504102788 0.1000070085034845 -0.08843590981185187 -0.065548237848687393 0.08640584731042221 0.10063841004323455 -0.074284827322632543 -0.088281554445728522 -0.06971508861697831 0.072295236162778165 0.061256170693275797 -0.0356554825414577 -0.041339444671712633 0.064663112536789968 0.069002959152515309 -0.0196577465216651 0.042807510598037661 -0.13762738857240697 -0.13934691119256315 -0.085069887167634195 0.045314588927197322 -0.16910116636868555 0.079835870666347855 -0.11583929252218024 0.048294296910322776 -0.0040533736516532694 -0.023231943505271073 0.061354674761908312 -0.077692373793262784 -0.14437271328731391 0.04938549788976087 -0.018784196562679815 -0.03517469577772718 0.037140715377674986 -0.12488619831398795 -0.032473029895385523
leaf_weight=132.3534976541996 12.296665295958517 71.366995587944984 177.58497983217239 32.300414353609085 29.994576871395111 31.976836293935776 68.197248101234436 9.6165082603692991 25.460135757923126 20.145843908190727 20.051540449261665 23.947058364748955 10.694748744368555 9.4168906658887845 19.852923929691315 33.451940760016441 58.611468702554703 16.217202842235569 16.794555857777596 16.30372416973114 30.512054324150085 23.293725878000259 17.160773321986198 38.570091620087624 9.8268058449029905 11.264706507325174 28.051118493080139 28.578656643629074 29.743298396468163 10.95588970184326 10.378123119473456 23.493911057710648 23.006055414676666 25.606485664844513 9.4326844215393049 21.108265459537506 19.415871739387516 99.569401502609253 39.034982681274414 13.894729167222975 9.0310037136077863 15.419790685176851 12.182321339845656 53.940710172057152 11.537770837545393 9.6472609490156156 150.0429740101099 11.405941292643545 12.850943416357042 27.090219721198082 12.125822752714155 12.023247316479681 14.893987998366354 10.406220600008963 10.501783311367033 36.596850290894508 9.8556467592716199 15.873954534530638 46.231064155697823 13.318814888596533 9.8246531337499601 11.260072380304342 10.429748997092245 9.3039827197790128 9.9091407358646375 13.917028069496153 15.276169866323469 27.768953278660774 10.130331709980963
leaf_count=679 51 418 843 184 125 134 283 44 124 91 84 128 51 49 118 184 291 81 88 84 147 130 83 202 53 50 150 164 161 59 50 128 118 142 51 107 99 641 225 70 45 88 71 307 60 53 814 63 60 128 56 53 60 59 50 190 52 86 225 67 55 61 53 51 51 63 68 116 51
internal_value=0 0.00367678 -0.00715575 -0.0238107 -0.0300656 -0.0652495 -0.0742716 0.0207981 0.00560486 -0.0286884 0.0122232 0.015315 -0.000719525 0.02258 0.00856011 0.0241295 0.0312921 -0.000912491 -0.00931024 0.0311681 -0.046007 -0.0135441 -0.0199486 -0.0100108 0.0415926 -0.0426824 0.0377127 0.00865227 -0.0123233 -0.0482747 0.0431646 0.0484339 -0.015326 0.0451654 0.00165624 -0.00272999 0.0495415 0.0592283 0.0424132 0.0237674 0.0363823 0.0477579 -0.00703817 0.0225272 0.00677174 0.0456909 0.0571688 -0.0147579 -0.0184815 -0.0121443 -0.01942 -0.077511 -0.0119732 -0.0268634 -0.106136 0.0400426 -0.0289291 -0.0195822 -0.033803 -0.0803685 -0.0059181 -0.0322972 -0.0619837 -0.0201974 0.0588227 -0.064263 -0.037204 -0.0949357 -0.0939139
internal_weight=0 1881.84 1152.6 500.002 467.702 149.446 80.4939 729.239 652.595 105.571 547.023 526.972 261.988 719.622 240.791 710.205 552.251 157.955 75.406 264.984 119.451 318.256 285.136 85.4253 33.1205 46.8552 476.845 97.329 68.7503 39.007 200.219 189.841 124.503 379.516 220.938 211.506 353.909 260.499 160.93 121.895 108 98.9691 27.6021 93.4101 190.397 63.588 166.347 267.975 256.569 231.695 204.605 24.8742 192.479 29.8221 21.1965 58.0438 101.497 91.641 75.7671 29.536 64.7655 40.8185 30.9938 20.5641 46.506 88.939 47.253 41.686 21.395
internal_count=10120 9786 5749 2366 2182 653 334 4037 3383 518 2865 2781 1357 3993 1256 3944 3131 813 379 1424 528 1529 1346 427 183 225 2752 534 370 209 1076 1026 629 2218 1138 1087 2076 1558 917 692 622 577 159 518 980 360 898 1263 1200 1087 959 113 903 158 101 301 511 459 373 148 348 220 165 112 241 381 202 179 101
is_linear=0
shrinkage=0.1


Tree=9
num_leaves=70
num_cat=0
split_feature=357 397 290 263 101 25 403 510 508 500 507 198 468 492 476 396 9 221 216 224 73 70 501 383 491 121 76 196 394 264 32 329 101 404 508 393 411 61 204 343 269 508 415 478 481 106 500 77 239 214 311 216 328 200 202 198 510 102 261 426 398 464 492 387 411 397 383 51 214
split_gain=44.7622 34.1412 21.9093 16.0146 18.3243 19.7427 15.7148 26.6619 28.5146 14.3908 12.4218 15.726 13.0683 11.7066 15.4681 11.5123 12.267 15.7272 15.4498 11.5399 10.3528 10.6073 10.3112 10.057 11.2704 9.96141 10.9685 13.2111 13.1519 10.6279 9.84562 9.72166 9.65065 9.6177 9.55702 9.30698 8.99095 8.98415 8.68807 8.67017 10.1058 8.91662 8.62489 8.47691 9.77283 8.43887 8.27823 8.0761 11.464 7.88566 12.0153 13.4609 7.82787 9.98678 8.0433 9.14916 8.36344 7.82761 7.81144 7.67458 10.9054 7.60948 7.58419 7.56329 7.85084 7.43331 8.29618 7.29849 7.22591
threshold=102.98624354047116 17931.944444444449 59.43468468468469 23.271432075436341 1.76750173716824 0.20093031295634547 56811.11250000001 0.36650165016501651 0.53500811067709975 18669.024801040116 41730.322616587226 1.7710919625984618 69588.670358245872 53133.836675353392 87744.706931885506 20965.888888888894 24.066456028239934 1.1698970594769171 0.81129811673549834 1.1315588930904137 3.4791750714899812 3.3567229606463749 34485.382530282783 83466.083333333358 49414.798186224936 1.7886694361153046 3.4852214523270608 1.7064681737421312 4174.7091809441199 1.0000000180025095e-35 6.1388720848784217 311.05122866134087 0.30282865408835041 29158.625000000004 7596.0244814376911 22455.097222222226 53894.206349206353 5.165799055384972 1.787798388679793 83.503380250005208 78.021304537321654 3368.9848580178432 57413.250000000007 14464.472757319259 17405.410001075787 1.68743513180978 591.74903042135099 3.4516324930198032 0.15350839763513249 0.64911542958304469 49.513802861821766 0.57892965979381217 65.060027045918886 1.7814382143934104 1.7099770617229668 1.7504612702784861 2883.7461371294044 1.6693542884872585 73.66654281404935 33818.875000000007 103847.08333333334 87109.187784605441 6453.67638553915 81912.486111111124 70852.493055555577 56513.437500000007 69546.571428571435 5.1411727617294076 0.62198939690458299
decision_type=2 2 2 2 2 2 2 2 2 2 2 2 2 2 2 2 2 2 2 2 2 2 2 2 2 2 2 2 2 2 2 2 2 2 2 2 2 2 2 2 2 2 2 2 2 2 2 2 2 2 2 2 2 2 2 2 2 2 2 2 2 2 2 2 2 2 2 2 2
left_child=1 2 3 15 5 9 7 34 65 46 11 12 35 14 22 16 17 18 25 -20 21 -18 61 24 -14 26 27 29 -29 37 31 49 -22 -2 42 59 -37 43 45 40 41 57 -3 44 -1 68 -5 48 -39 50 51 -7 53 54 55 -34 -56 -31 -51 60 -8 -12 -17 64 -24 -9 -67 -55 -23
right_child=33 6 -4 4 -6 30 10 8 -10 -11 13 -13 23 -15 -16 62 20 -19 19 -21 32 38 63 -25 -26 -27 -28 28 -30 39 -32 -33 52 -35 -36 36 -38 47 -40 -41 -42 -43 -44 -45 -46 -47 -48 -49 -50 58 -52 -53 -54 67 56 -57 -58 -59 -60 -61 -62 -63 -64 -65 -66 66 -68 -69 -70
leaf_value=0.027326597765186825 -0.07464809928747633 0.087206650224301505 -0.065799601548097872 -0.0064366159545825603 0.045878384999749201 -0.057423687335347917 0.040808443380505426 0.053836268897242058 -0.093975736078693112 -0.059535593844011005 -0.094873398299886516 -0.083617820750352068 -0.12072302695328596 0.015827382500401495 -0.15841888268210952 0.117374839100559 -0.061797692847634561 0.088129487245055704 -0.11453063175547576 -0.0029082817359225416 0.078926398895974983 0.034597415906156184 0.077452887814996929 0.061346638092779841 -0.0031099334963223444 -0.088188961992890849 0.060001891866597469 -0.16000517576234896 -0.0035260591547080044 -0.10833310171066871 0.015195218654986574 -0.13941045524691018 -0.085159289131004179 0.020202454583064577 -0.031652361896672844 0.045228877057820464 -0.068114445366477538 -0.054855573763678681 -0.027103953802677369 0.027699748060584891 -0.098276049797900639 0.039121679275487452 0.0094538675225573528 0.10745535146459689 -0.061425605782879589 0.053917216556166873 0.064245340821142652 -0.07897100640320491 0.084621376900247777 -0.14005761431999164 -0.056346287120256161 0.057003310941273089 -0.070100736455766879 -0.12180174888196751 0.061499917472617453 0.043063263594515178 -0.042310284947683498 -0.00017767262774414486 -0.049224987065204076 0.061745615389630248 -0.085445052762670129 -0.0018203496479358471 0.0080212812815962358 -0.058809332891461098 -0.035477859829087036 0.032277856708571272 -0.032859246264693255 -0.011244426007462144 -0.063392557269714531
leaf_weight=105.87669479846954 91.224915727972984 113.93776992708445 59.448105409741402 29.76929546892643 36.033132806420326 17.98847895860672 27.703761264681816 62.077412702143192 22.228611543774605 22.478504776954651 23.867018267512321 13.247555851936339 12.69209150969982 73.656129658222198 9.5605698376893979 14.751367330551149 11.722821235656737 15.695570856332777 24.906034514307976 14.74523915350437 12.174318343400953 19.528053730726246 18.706326439976696 11.804404482245443 22.75489416718483 14.391355633735655 25.306586585938931 11.066808268427851 10.436685264110563 13.358909100294115 23.157434970140457 12.420145362615584 13.417044028639795 12.109402373433111 8.5528120249509794 13.654346570372583 14.357879385352133 12.704356119036676 19.476489663124084 19.67618502676487 24.994800075888634 16.605694636702538 16.308725118637085 11.319645434617994 14.053713530302046 140.13311156630516 37.371068611741066 18.029993310570717 10.991168975830076 16.402581796050072 94.250054731965065 23.9925507158041 20.883478507399559 10.250015407800676 37.7277842015028 9.5086168795824033 9.7706372141838056 13.407743588089941 22.393596008419991 121.82481776177883 9.0851927995681745 13.90980915725231 11.125648885965346 10.640616819262503 9.1753326356410962 52.881211489439011 31.025248229503632 14.303864061832426 12.243642926216124
leaf_count=568 381 719 246 145 211 88 160 346 104 101 119 73 65 388 49 86 61 84 119 65 72 108 101 70 117 68 137 52 51 61 109 53 72 58 43 72 75 63 102 90 105 77 93 75 75 769 180 91 60 67 433 122 93 55 210 52 51 58 105 727 49 71 61 56 48 281 171 72 61
internal_value=0 0.00410245 -0.00670975 -0.00342936 -0.0215045 -0.0295918 0.0212269 0.038305 0.011536 0.0097193 0.00833303 0.0223751 0.0283788 -0.0134212 -0.0385125 0.00484454 0.00245241 -0.00986855 -0.014119 -0.0730213 0.0165008 0.0305396 -0.0234878 -0.0185991 -0.0452223 -0.00687075 -0.00306903 -0.00871852 -0.0840583 -0.00251182 -0.0463199 -0.0539195 -0.00576899 -0.0635329 0.0707467 0.0402731 -0.0128661 0.0118842 0.0361956 -0.0307953 -0.0476302 -0.0184438 0.0774709 0.0247341 0.0169264 0.0433673 0.0329057 -0.0285356 0.00984081 -0.047853 -0.0365258 0.00797241 -0.0146685 -0.00248021 0.0166668 -0.0319779 0.0401457 -0.0541567 -0.087628 0.0496578 0.00962959 -0.0606103 0.070359 0.0129164 0.0402895 0.027602 0.00819276 -0.0573966 -0.00316431
internal_weight=0 1843.94 1130.29 1070.84 336.257 300.224 713.653 307.012 168.212 89.6189 406.641 247.125 233.877 159.516 85.8597 734.584 708.707 377.567 361.872 39.6513 331.14 203.104 76.2991 47.2514 35.447 322.22 307.829 282.522 21.5035 261.019 210.605 187.447 128.036 103.334 138.799 186.626 28.0122 172.976 191.381 88.0433 68.3671 43.3723 130.246 131.25 119.93 171.905 67.1404 41.7255 23.6955 175.027 136.231 41.981 115.861 94.978 70.4241 22.9257 47.4984 26.7667 38.7962 158.614 36.789 37.7768 25.877 38.5223 27.8817 145.984 83.9065 24.5539 31.7717
internal_count=10120 9681 5684 5438 1614 1403 3997 1757 902 426 2240 1408 1335 832 444 3824 3677 1899 1815 184 1778 1101 395 252 182 1631 1563 1426 103 1323 977 868 677 439 855 1083 147 932 1040 391 301 196 812 718 643 938 325 214 123 815 643 210 605 512 385 124 261 119 172 936 209 190 147 205 149 798 452 127 169
is_linear=0
shrinkage=0.1


Tree=10
num_leaves=70
num_cat=0
split_feature=397 2 7 5 100 441 376 403 510 387 206 513 100 408 505 26 500 19 70 263 110 115 0 3 461 438 508 392 245 100 213 68 399 382 217 59 6 64 201 2 225 100 504 403 1 450 511 457 492 197 414 410 231 223 512 397 415 397 398 396 476 501 441 412 464 387 59 3 439
split_gain=36.4686 27.8212 26.0967 26.0942 16.5352 14.0926 13.9838 17.2476 20.4824 12.1657 12.1354 16.0908 11.4319 10.4967 10.271 10.1387 12.6325 13.6972 9.90103 12.4491 11.5124 14.15 10.2007 10.1061 9.86931 9.71483 11.2239 18.8678 9.57632 9.96523 9.11906 9.05598 9.00844 8.9436 8.84893 8.77642 8.63099 9.75854 8.62872 8.18779 8.05728 10.8071 7.81495 10.9889 9.99978 8.07236 7.75175 10.9815 9.29171 7.51085 7.44597 7.43514 7.21207 11.237 7.20143 7.26802 10.2424 7.15602 7.12391 7.07775 7.04212 7.78214 8.1664 8.79642 7.97875 7.49899 6.85583 9.46938 6.84199
threshold=19672.277777777781 0.015896355785547645 2.4988502298344346 25.756357799038472 1.6807142573857934 74077.477777777793 8831.1111111111131 63022.388888888898 0.36650165016501651 25826.625000000004 0.61178760142856159 23599.500000000004 1.7854404001234447 9852.0555555555566 96823.461349431629 8.6414019741075769 128.65422397928808 10.225689814811487 3.5970125375840767 23.813486665741582 1.7329664979069117 1.7022575548881402 76.574867777802908 8.5436044607467903 302.24225480756348 85119.666666666672 0.52774520755634502 212.10352597578131 16.369124820577927 1.7026921985111378 0.89248427695181276 3.436669555623749 130707.25000000001 43965.500000000007 0.60045415400651547 5.1091568995631187 29.291423999020097 5.1871750703091895 1.7362611655475468 0.022942796096250617 0.6796092429323809 1.704751518332049 56267.20245209922 113461.9523809524 209.59724919918054 99620.207708478847 2.375728703065255 42282.222656161473 37313.026154493717 1.7467792332262146 54406.142857142862 41480.500000000007 0.099121550015955628 0.6878902056522801 39.685337924338477 43306.166666666679 53093.211111111115 61645.238095238099 88678.276785714304 16477.388888888894 81579.955128428104 36023.132155844978 82025.000000000015 63893.523809523816 61883.415884127513 79009.966666666689 5.2064649070307931 8.6237685625036864 58283.305555555562
decision_type=2 2 2 2 2 2 2 2 2 2 2 2 2 2 2 2 2 2 2 2 2 2 2 2 2 2 2 2 2 2 2 2 2 2 2 2 2 2 2 2 2 2 2 2 2 2 2 2 2 2 2 2 2 2 2 2 2 2 2 2 2 2 2 2 2 2 2 2 2
left_child=1 10 3 9 -5 6 7 8 58 13 33 15 42 30 32 18 24 -18 19 20 28 -22 -23 -21 40 26 -8 -28 29 35 -3 34 60 59 46 -12 37 -31 52 -40 41 -17 43 44 45 -9 -10 48 -48 -30 -29 -11 -6 -54 -44 -56 -57 -50 -2 68 61 62 -7 64 -64 -63 67 -25 -1
right_child=5 2 -4 4 38 14 25 12 31 51 11 -13 -14 -15 -16 16 17 -19 -20 23 21 22 -24 66 -26 -27 27 50 49 36 -32 -33 -34 -35 -36 -37 -38 -39 39 -41 -42 -43 54 -45 -46 -47 47 -49 57 -51 -52 -53 53 -55 55 56 -58 -59 -60 -61 -62 65 63 -65 -66 -67 -68 -69 -70
leaf_value=0.021138893910199887 0.091720690961483678 -0.016752477005103163 0.072975576786041371 -0.092875600567675853 -0.056847435260464867 -0.12014323249398813 0.017683917686348253 0.0092147216610894197 0.066175074115753171 0.10059994584241137 0.03438069635772479 -0.11138419336468 -0.067092727256099563 -0.066503827987266159 0.080535321004327962 -0.083572256644781864 -0.053983693702247239 0.066064866498705258 0.059331140193019542 -0.12629868614984335 0.035328774497217101 -0.0051548274459104803 -0.093999706471185718 0.061881258357328398 -0.10076824079155491 0.088599281056282481 0.036708952138606601 -0.056432435143999898 0.084553996375156815 0.017558124175553209 0.07718208805640725 0.088246189581458398 0.070552436684164568 -0.069079760371208956 -0.052262483900629791 -0.068235828841986465 0.064731743841967157 -0.084323417225011299 -0.11473456894951083 -0.016426597890143047 0.066242091486730145 0.01835580795195536 0.073809169843433706 0.046853502072814565 -0.1008762273478747 -0.085347967174071893 0.025090553201629125 0.076254418816777914 -0.016700994171878768 -0.01473408475627727 -0.15840956730983624 -0.015522781193239174 0.077427504965593003 -0.031581436759045477 0.090641131695878396 0.04343821635240136 -0.06968078199149888 -0.13361380665458567 0.016023734808972418 0.11546446171519467 -0.10360359111191308 0.035420315808612352 -0.1294146040052738 0.033496363601097333 -0.014713325707554476 -0.044534327583931221 -0.094799059327381405 -0.062796879258499638 0.10525854765814591
leaf_weight=151.68256441503763 99.109487943351269 288.45050971955061 25.434746339917183 87.655253171920776 20.650200590491295 11.52955476939678 39.260004267096519 79.936593651771545 29.995231032371521 14.031762823462488 11.155672356486319 13.617812022566794 16.339523017406464 42.487477160990238 11.444730594754217 15.626504093408583 11.118395358324049 65.466803073883057 18.534567609429359 16.07404063642025 19.537106275558472 19.758982256054878 37.35341702401638 12.100265458226206 10.192438840866087 8.9526138007640821 14.561501696705816 15.709728837013246 25.081083372235298 40.738226637244225 10.718768104910849 18.236655190587044 10.443458050489424 9.3386246711015684 17.837613306939602 32.957837551832199 25.636171340942383 12.221965402364729 19.557621717453003 14.946783348917959 16.133360385894775 31.113824352622032 40.991240158677101 44.753987580537796 11.398333579301832 10.176622927188872 20.191241972148418 15.093880996108053 11.530432350933554 10.943183869123457 13.156330764293669 9.0830850005149824 16.904601395130157 21.462357640266418 9.7341728508472425 17.624770484864712 14.664431020617483 9.5894223749637586 14.215871162712572 9.4652727246284467 10.726300835609434 34.995540976524353 10.273471474647524 15.833829544484614 14.802809521555899 17.645070463418961 11.414719939231871 12.267827689647673 10.32745987176895
leaf_count=828 664 1351 161 377 92 54 192 461 168 75 50 65 86 194 65 77 59 376 106 71 101 106 187 60 47 50 79 76 135 201 55 107 57 51 101 161 139 60 84 69 85 158 255 264 62 53 105 91 64 59 60 50 83 90 56 101 76 51 86 59 57 185 51 83 71 89 51 57 70
internal_value=0 -0.00994055 -0.0260371 -0.0306499 -0.0616709 0.0185501 0.0254524 0.0322679 0.0515858 -0.0152423 0.00421224 -0.00427229 0.0137222 -0.0199924 -0.010176 -0.00106951 0.0202581 0.0486366 -0.0115076 -0.0160786 -0.00630705 -0.0381326 -0.0632623 -0.0604324 -0.00948715 -0.0103516 -0.0210651 -0.0560955 0.00906085 -0.00424744 -0.0133869 0.0232355 -0.0183991 0.0262217 0.0118617 -0.0422856 0.0171021 -0.00595374 -0.0324236 -0.0721491 0.0053104 -0.0157214 0.0194814 0.00557274 -0.012627 -0.00146439 0.0251003 0.00325744 -0.0234136 0.054393 -0.102911 0.054969 -0.00919804 0.0164482 0.0439875 0.0148983 -0.00793579 -0.069785 0.082225 0.0314119 -0.0264208 -0.0185422 -0.045808 -0.0248584 -0.0617052 0.00861961 -0.0308446 -0.000886472 0.0265012
internal_weight=0 1221.24 571.383 545.948 181.177 710.754 573.06 481.42 235.8 364.772 649.858 469.044 245.62 341.657 137.695 455.426 149.651 76.5852 305.775 287.24 235.384 76.6495 57.1124 51.8569 73.0661 91.6402 82.6876 43.4276 158.734 122.71 299.169 122.474 126.25 180.814 104.238 44.1135 78.5964 52.9602 93.5216 34.5044 62.8737 46.7403 229.28 146.266 101.512 90.1132 86.4002 56.405 41.3111 36.0243 28.8661 23.1148 59.0172 38.367 83.0146 42.0234 32.2892 21.1199 113.325 171.475 115.807 105.08 52.4397 40.9101 25.0763 52.6406 35.7828 24.3681 162.01
internal_count=10120 6100 2681 2520 795 4020 3308 2851 1437 1725 3419 2411 1414 1600 712 2346 802 435 1544 1438 1199 394 293 239 367 457 407 215 805 611 1406 687 647 1008 580 211 400 261 418 153 320 235 1328 840 576 514 479 311 220 194 136 125 265 173 488 233 177 115 750 957 590 533 259 205 122 274 168 117 898
is_linear=0
shrinkage=0.1


Tree=11
num_leaves=70
num_cat=0
split_feature=357 397 290 327 198 514 514 500 510 500 452 396 72 403 510 508 509 221 434 61 513 499 513 26 499 2 16 58 240 206 198 507 402 383 501 461 239 509 261 263 327 260 492 435 461 120 513 70 511 410 500 50 426 438 103 227 459 411 21 115 441 463 411 500 426 438 500 224 59
