tree
version=v4
num_class=1
num_tree_per_iteration=1
label_index=0
max_feature_idx=514
objective=binary sigmoid:1
feature_names=Column_0 Column_1 Column_2 Column_3 Column_4 Column_5 Column_6 Column_7 Column_8 Column_9 Column_10 Column_11 Column_12 Column_13 Column_14 Column_15 Column_16 Column_17 Column_18 Column_19 Column_20 Column_21 Column_22 Column_23 Column_24 Column_25 Column_26 Column_27 Column_28 Column_29 Column_30 Column_31 Column_32 Column_33 Column_34 Column_35 Column_36 Column_37 Column_38 Column_39 Column_40 Column_41 Column_42 Column_43 Column_44 Column_45 Column_46 Column_47 Column_48 Column_49 Column_50 Column_51 Column_52 Column_53 Column_54 Column_55 Column_56 Column_57 Column_58 Column_59 Column_60 Column_61 Column_62 Column_63 Column_64 Column_65 Column_66 Column_67 Column_68 Column_69 Column_70 Column_71 Column_72 Column_73 Column_74 Column_75 Column_76 Column_77 Column_78 Column_79 Column_80 Column_81 Column_82 Column_83 Column_84 Column_85 Column_86 Column_87 Column_88 Column_89 Column_90 Column_91 Column_92 Column_93 Column_94 Column_95 Column_96 Column_97 Column_98 Column_99 Column_100 Column_101 Column_102 Column_103 Column_104 Column_105 Column_106 Column_107 Column_108 Column_109 Column_110 Column_111 Column_112 Column_113 Column_114 Column_115 Column_116 Column_117 Column_118 Column_119 Column_120 Column_121 Column_122 Column_123 Column_124 Column_125 Column_126 Column_127 Column_128 Column_129 Column_130 Column_131 Column_132 Column_133 Column_134 Column_135 Column_136 Column_137 Column_138 Column_139 Column_140 Column_141 Column_142 Column_143 Column_144 Column_145 Column_146 Column_147 Column_148 Column_149 Column_150 Column_151 Column_152 Column_153 Column_154 Column_155 Column_156 Column_157 Column_158 Column_159 Column_160 Column_161 Column_162 Column_163 Column_164 Column_165 Column_166 Column_167 Column_168 Column_169 Column_170 Column_171 Column_172 Column_173 Column_174 Column_175 Column_176 Column_177 Column_178 Column_179 Column_180 Column_181 Column_182 Column_183 Column_184 Column_185 Column_186 Column_187 Column_188 Column_189 Column_190 Column_191 Column_192 Column_193 Column_194 Column_195 Column_196 Column_197 Column_198 Column_199 Column_200 Column_201 Column_202 Column_203 Column_204 Column_205 Column_206 Column_207 Column_208 Column_209 Column_210 Column_211 Column_212 Column_213 Column_214 Column_215 Column_216 Column_217 Column_218 Column_219 Column_220 Column_221 Column_222 Column_223 Column_224 Column_225 Column_226 Column_227 Column_228 Column_229 Column_230 Column_231 Column_232 Column_233 Column_234 Column_235 Column_236 Column_237 Column_238 Column_239 Column_240 Column_241 Column_242 Column_243 Column_244 Column_245 Column_246 Column_247 Column_248 Column_249 Column_250 Column_251 Column_252 Column_253 Column_254 Column_255 Column_256 Column_257 Column_258 Column_259 Column_260 Column_261 Column_262 Column_263 Column_264 Column_265 Column_266 Column_267 Column_268 Column_269 Column_270 Column_271 Column_272 Column_273 Column_274 Column_275 Column_276 Column_277 Column_278 Column_279 Column_280 Column_281 Column_282 Column_283 Column_284 Column_285 Column_286 Column_287 Column_288 Column_289 Column_290 Column_291 Column_292 Column_293 Column_294 Column_295 Column_296 Column_297 Column_298 Column_299 Column_300 Column_301 Column_302 Column_303 Column_304 Column_305 Column_306 Column_307 Column_308 Column_309 Column_310 Column_311 Column_312 Column_313 Column_314 Column_315 Column_316 Column_317 Column_318 Column_319 Column_320 Column_321 Column_322 Column_323 Column_324 Column_325 Column_326 Column_327 Column_328 Column_329 Column_330 Column_331 Column_332 Column_333 Column_334 Column_335 Column_336 Column_337 Column_338 Column_339 Column_340 Column_341 Column_342 Column_343 Column_344 Column_345 Column_346 Column_347 Column_348 Column_349 Column_350 Column_351 Column_352 Column_353 Column_354 Column_355 Column_356 Column_357 Column_358 Column_359 Column_360 Column_361 Column_362 Column_363 Column_364 Column_365 Column_366 Column_367 Column_368 Column_369 Column_370 Column_371 Column_372 Column_373 Column_374 Column_375 Column_376 Column_377 Column_378 Column_379 Column_380 Column_381 Column_382 Column_383 Column_384 Column_385 Column_386 Column_387 Column_388 Column_389 Column_390 Column_391 Column_392 Column_393 Column_394 Column_395 Column_396 Column_397 Column_398 Column_399 Column_400 Column_401 Column_402 Column_403 Column_404 Column_405 Column_406 Column_407 Column_408 Column_409 Column_410 Column_411 Column_412 Column_413 Column_414 Column_415 Column_416 Column_417 Column_418 Column_419 Column_420 Column_421 Column_422 Column_423 Column_424 Column_425 Column_426 Column_427 Column_428 Column_429 Column_430 Column_431 Column_432 Column_433 Column_434 Column_435 Column_436 Column_437 Column_438 Column_439 Column_440 Column_441 Column_442 Column_443 Column_444 Column_445 Column_446 Column_447 Column_448 Column_449 Column_450 Column_451 Column_452 Column_453 Column_454 Column_455 Column_456 Column_457 Column_458 Column_459 Column_460 Column_461 Column_462 Column_463 Column_464 Column_465 Column_466 Column_467 Column_468 Column_469 Column_470 Column_471 Column_472 Column_473 Column_474 Column_475 Column_476 Column_477 Column_478 Column_479 Column_480 Column_481 Column_482 Column_483 Column_484 Column_485 Column_486 Column_487 Column_488 Column_489 Column_490 Column_491 Column_492 Column_493 Column_494 Column_495 Column_496 Column_497 Column_498 Column_499 Column_500 Column_501 Column_502 Column_503 Column_504 Column_505 Column_506 Column_507 Column_508 Column_509 Column_510 Column_511 Column_512 Column_513 Column_514
feature_infos=[0:7347.5018542547159] [0:1877.6238823190079] [0:100] [0:24.757281553398059] [0:0.11399723149580653] [0:65.167237001876586] [0:63.965607087024495] [0:5.7692307692307692] [0:54.265536723163841] [0:40.070765148164533] [0:40.070765148164533] [0:53.944795427196148] [0:49.514563106796118] [0:0.76452599388379205] [0:49.553602566785237] [0:26.528705899259901] [0:58.757847533632287] [0:24.089925689022667] [0:21.117633605245103] [0:17.488789237668161] [0:34.417040358744394] [0:46.483904933814678] none [0:20.302648171500632] [0:27.375724574038294] [0:49.995667995148153] [0:24.757281553398059] [0:34.417040358744394] [0:20.445934129991254] [0:20.445934129991254] [0:11.744628871164764] [0:62.856885526434297] [0:30.312693772699088] [0:16.760664071808723] [0:10.806926780196882] [0:17.386134991768795] [0:9.5305544314042905] [0:49.996661324786331] [0:16.445711746407937] none [0:10.821297693468422] [0:10.810519508514767] [0:10.810519508514767] [0:10.810519508514767] [0:10.806926780196882] [0:10.806926780196882] [0:49.896501068376068] [0:10.806926780196882] [0:10.806926780196882] [0:10.806926780196882] [0:49.997451320216129] [0:17.179003440239708] [0:17.179003440239708] [0:17.179003440239708] [0:17.179003440239708] [0:17.179003440239708] [0:17.488789237668161] [0:10.952046372738451] [0:30.325149303251493] [0:16.564201651150537] [0:15.283143834860359] [0:24.757281553398059] [0:24.757281553398059] [0:24.757281553398059] [0:24.757281553398059] [0:31.082762912258872] [0:31.082762912258872] [0:75.082731648616118] [0:10.162423178226515] [0:5.133016889281377] [0:11.300427425493297] [0:10.963756660226009] [0:20.563873845173621] [0:11.399964869137538] [0:11.092569822589144] [0:11.092569822589144] [0:17.111853088480803] [0:22.368421052631579] [0:11.124773113179929] [0:21.530802738021158] [0:10.361496427070199] [0:10.178884986830553] [0:5.1955477624456821] [0:5.5482815057283137] [0:6.2661618027336532] [0:6.1645733284078315] [0:10.790262955988002] [0:4.4752461891272093] [0:4.9732175840413744] [0:49.73267230485078] [0:4.0834486849911018] [0:5.6531412846185374] [0:4.3448464912280702] [0:4.3842736189118954] [0:4.3221278167713333] [0:4.3036571850757293] [0:4.3036571850757293] [0:4.3036571850757293] [0:62.340707513508001] [0:3.1180910269116415] [0:50.008278145695364] [0:5.133016889281377] [0:3.8127769571639587] [0:41.757859996525966] [0:5.5096902628959548] [0:5.5096902628959548] [0:15.573770491803279] [0:5.5096902628959548] [0:5.4921248316646176] [0:5.4921248316646176] [0:23.45315631262525] [0:2.9656171380651069] [0:3.9210549297004627] [0:24.919801691455234] [0:5.7692307692307692] [0:12.295081967213115] [0:25.255588286258881] [0:5.4687042566895023] [0:5.4687042566895023] [0:12.5] [0:5.6531412846185374] [0:5.4716318285613914] [0:10.765401369010579] [0:10.765401369010579] [0:10.765401369010579] [0:10.765401369010579] [0:10.765401369010579] [0:12.5] [0:10.765401369010579] [0:2.7184317329045102] [0:48.918650793650798] [0:7.3249422448817016] [0:4.7079296397328569] [0:34.100015410695022] [0:49.997451320216129] [0:2.579578932241144] [0:2.579578932241144] [0:5.0347222222222223] [0:2.0927041244186935] [0:2.0888922771975302] [0:2.0888922771975302] [0:2.0888922771975302] [0:2.0774567355340401] [0:2.0774567355340401] [0:2.0774567355340401] [0:2.0774567355340401] [0:2.0774567355340401] [0:2.0774567355340401] [0:2.0774567355340401] [0:2.7290192996244866] [0:1.9821605550049557] [0:2.1468574984443061] [0:1.8211250505868071] [0:1.8211250505868071] [0:1.8211250505868071] [0:2.3323881825665422] [0:1.8110115629068075] [0:2.2065356896041068] [0:2.2065356896041068] [0:2.0679146713104051] [0:2.0679146713104051] [0:2.0679146713104051] [0:2.0679146713104051] [0:2.2717746667784389] [0:3.3106710020691694] [0:1.8076352353972749] [0:1.8076352353972749] [0:1.8076352353972749] [0:1.6716196136701336] [0:1.6623328380386329] [0:1.6499504705299652] [0:1.5715332627636185] [0:3.414542376069984] [0:17.934782608695652] [0:1.5917295700689202] [0:2.1041160197837203] [0:3.2546326780171198] none [0:1.355245384961729] [0:1.355245384961729] [0:3.0194713573511427] [0:49.896501068376068] [0:3.0194713573511427] [0:3.1996224634261443] [0:3.0194713573511427] [0:1.2192910887498867] none [0:1.7040476607674786] [0:1.158283756985758] [0:1.1518686968558434] [0:1.1513008793400417] [0:1.1377028374580727] [0:1.1286374762034266] [0:6.952420016406891] [0:13.511659807956105] [0:1.0863764580315622] [0:2.7231680933120122] [0:5.1912568306010929] [0:5.199249365272105] [0:5.0528401585204756] [0:5.7692307692307692] [0:5.254308532997058] [0:5.199249365272105] [0:5.1968155683325961] [0:5.0921861281826164] [0:5.4945054945054945] [0:5.0279942913601934] [0:2.5729178218919819] [0:2.6689625484287562] [0:2.5604078918199957] [0:2.588125493574557] [0:2.6403004860804242] [0:2.5580849565829618] [0:2.5974025974025974] [0:2.6190476190476191] [0:2.6213268032056991] [0:2.6051385101191329] [0:2.5746310065475528] [0:2.6689625484287562] [0:2.610777109775106] [0:2.5581395348837206] [0:2.5729178218919819] [0:2.5431274346132446] [0:2.650548963069757] [0:2.6289180990899896] [0:2.6067665002773155] [0:2.615179167594035] [0:2.6380231522707032] [0:2.8846153846153846] [0:2.7035623409669212] [0:2.8846153846153846] [0:2.7035623409669212] [0:2.6981450252951102] [0:2.8305785123966944] [0:2.7884615384615388] [0:2.6255943766797603] [0:2.6611535199321459] [0:2.6611535199321459] [0:2.6753357493071843] [0:2.7141645462256152] [0:2.7038535235256549] [0:2.7754237288135593] [0:2.6602564102564106] [0:2.7647809442790301] [0:2.7748132337246529] [0:3336.3333333333335] [0:136.65128205128204] [0:137] [0:602.84210526315792] [0:2343.2105263157896] [0:307861] [0:144.28787878787878] [0:133.50724637681159] [0:146.80303030303031] [0:249589.66666666666] [0:137.03174603174602] [0:140.93181818181819] [0:142.77358490566039] [0:134.86772486772486] [0:141.00487804878048] [0:2449.3333333333335] [0:2837] [0:138.44736842105263] [0:4254.333333333333] [0:7044] [0:136.17676767676767] [0:136.04040404040404] [0:32007] [0:763660] [0:5804.5333333333338] [0:133.03664921465969] [0:133.5257731958763] [0:140.41145833333334] [0:139.1356783919598] [0:141.83854166666666] [0:137.19999999999999] [0:139.74489795918367] [0:138.59895833333334] [0:141.83419689119171] [0:143.76616915422886] [0:149.13903743315507] [0:144.75916230366491] [0:141.12562814070353] [0:738.66666666666663] [0:144.89340101522842] [0:85007] [0:4164] [0:104528.75] [0:50251] [0:122281.71428571429] [0:995672] [0:5003.333333333333] [0:134.25853658536585] [0:136.1105527638191] [0:151.11052631578949] [0:507.33333333333331] [0:146.47979797979798] [0:139.5612244897959] [0:143.69035532994923] [0:372514] [0:143.36040609137055] [0:1308.6666666666667] [0:183084] [0:134.96938775510205] [0:152.60824742268042] [0:1624] [0:760] [0:140.44162436548223] [0:139.47395833333334] [0:1314.5] [0:689.31578947368416] [0:4708.3273392292231] [0:144.5597615366998] [0:147.3141032833517] none none [0:533209.24303972826] [0:145.31818041082875] [0:148.08006338992109] [0:187.86458723766648] [0:432301.98371084692] [0:148.13611078549636] [0:144.70988103067461] [0:145.71972913749983] [0:151.23779800621455] [0:145.77781045196116] [0:4192.2090040136754] [0:13038.332756949998] [0:154.42787498692294] [0:3790.1683779659888] [0:8927.2559747155919] [0:146.98224044072509] [0:145.2965678072965] [0:178615.1604373286] none [0:7053.3901423358111] [0:147.87147517003748] [0:148.54589912222011] [0:154.04613599378612] [0:142.37956630169606] [0:145.8499171253932] [0:151.56396134341915] [0:153.05399206127206] [0:146.21972662042066] [0:156.96812797342608] [0:162.46440097079301] [0:148.27066298338184] [0:154.45869693982021] [0:148.66918579581977] [0:831.12233355465389] [0:176.30596091038879] [0:103650.54041344888] [0:3266.5819238386412] none none [0:155608.24697266132] none [0:4862.2852517086449] [0:139.00416366353272] [0:139.54031822033164] [0:155.94573535490773] [0:817.66330828421405] [0:143.41417089827362] [0:159.46498422110426] [0:151.75870535624543] none [0:146.41076870306961] [0:1243.7401925911483] [0:20180.827535064065] [0:150.12960853712332] [0:152.88185398790094] [0:1451.9528229250425] [0:1031.5501511248565] [0:145.24684440494005] [0:155.75996728987209] [0:1238.1439738576448] none [0:376648] none none none none [0:34241.952380952382] [0:1195138] [0:1164823] none [0:11827.735294117647] [0:1160487] none none none none [0:1167054] [0:1165668] none [0:8256.1908396946565] none [0:1187563] [0:1103744] [0:1138301] none none none [0:1197391] [0:1195859] [0:1146096] [0:1190284] none [0:1188775] none [0:1198597] [0:1178843] [0:1172221] none none [0:1135067] none none none none none none none none none none [0:1161059] [0:1181081] none none [0:1165355] none none [0:32485.18181818182] [0:3538.8407079646017] [0:1176263] none [0:14291.879999999999] [0:1169594] [0:1168538] none [0:1150907] none [0:339147.84902531817] none none none none [0:156887.23960777567] [0:823467.56599182461] [0:782367.6914421377] none [0:38218.134012230526] [0:816651.05662118632] none none none none [0:815110.27094498079] [0:717656.81436185085] none [0:31776.817465700486] none [0:791718.47151654866] [0:840286.10078234668] [0:784052.01979492407] none none none [0:819874.04932983452] [0:831348.27106814866] [0:790768.82710941508] [0:806051.52597119997] none [0:813206.73949002661] none [0:803749.89339843777] [0:835010.3770879138] [0:836444.38964016014] none none [0:790609.02097686694] none none none none none none none none none none [0:812957.83790304896] [0:801929.80054366356] none none [0:812271.94432529795] none none [0:152211.77341161302] [0:21847.331889417252] [0:787422.09071405919] none [0:102101.15670943994] [0:759784.82217138296] [0:808812.77795173344] none [0:781188.23733111855] none [0:1209451.3897518471] [0:517000.1568181818] [0:66.666666666666671] [0:50.000000000000007] [0:13.899253731343283] [0:6347150]
tree_sizes=4101 4729 5053 5153 5139 4932 4937 5036 5262 4922 4605 4897 4796 4806 4823 4810 4496 4273 4609 4604 4403 4518 4373 4307 4084 4294 4186 4172 4082 4071 4171 4080 4081 3855 3753 3882 3640 3863 3777 3880 3851 3661 3545 3549 3548 3559 3344 3532 3335 3240 3644 3241 3452 3436 3561 3344 3424 3316 3135 3123 2909 3211 2801 3027 2913 3022 2916 3023 2808 2905 3022 2929 2798 2800 2919 2909 2691 2482 2797 2694 3011 2486

Tree=0
num_leaves=38
num_cat=0
split_feature=230 330 443 393 459 230 2 218 8 404 230 318 438 199 439 245 214 509 470 470 426 33 197 198 65 0 481 476 243 386 50 0 3 0 2 384 384
split_gain=81.6659 63.1416 45.6717 40.551 27.1763 23.284 39.7901 56.0856 20.8078 22.2645 20.5067 13.2855 13.8218 9.95713 8.58699 8.31971 10.5148 5.25213 6.0555 7.33386 4.97963 4.28039 4.1234 2.14902 1.94284 1.73667 1.20462 0.663275 0.623932 0.424631 0.180531 1.42109e-14 7.10543e-15 3.55271e-15 3.55271e-15 3.55271e-15 3.55271e-15
threshold=0.53096884727619875 1.1040711977693529 17224.48808282895 14913.865079365081 24529.559509486342 0.12299766525962373 0.01138152778450782 0.61995750017612439 1.8829677230944661 55402.857142857152 0.16183460986588402 92.78024430621717 66606.607142857159 1.7230280609053701 53977.666666666679 15.237177923359267 0.61203413795804995 0.44636725955163542 13972.46200720134 38361.737344162211 98380.750000000015 0.20202102651168868 1.6830426459396739 1.655895372302546 5.1216896197621695 8.3304440928113106 64219.494237712868 12581.428164885378 0.27662032351588195 6520.4849397590378 16.721992611908039 90.646538722308449 8.595751027994126 116.29236389696355 0.012160457236001733 45400.215277777788 80353.200000000026
decision_type=2 2 2 2 2 2 2 2 2 2 2 2 2 2 2 2 2 2 2 2 2 2 2 2 2 2 2 2 2 2 2 2 2 2 2 2 2
left_child=1 2 5 14 -5 8 7 13 9 11 -8 12 17 -7 23 16 -12 -1 21 -20 26 25 -17 -4 -24 -19 27 -11 34 -27 31 32 -10 -33 -26 -29 -37
right_child=-2 -3 3 4 -6 6 10 -9 30 20 15 -13 -14 -15 -16 22 -18 18 19 -21 -22 -23 24 -25 28 29 -28 35 -30 -31 -32 33 -34 -35 -36 36 -38
leaf_value=-3.1774051184466097 -2.7037097361469073 -2.7681152836334553 -3.1028782984380583 -2.7281718616225423 -2.9863212184680856 -2.9697822544748465 -2.9696952926287006 -2.6754937046903837 -3.1888391449159128 -3.1496635460292839 -3.1591532873744921 -2.9575767385851686 -2.9341977521528255 -3.1689248821485432 -3.0139822035438866 -3.0866054964844962 -2.9925826422809654 -3.1022553937534361 -2.9548813725440173 -3.1153095593133173 -3.0703410524158619 -3.0450970978732448 -3.1231877291993095 -3.1888391449159128 -3.1888391449159128 -3.1888391449159128 -3.1310235433332267 -3.1888391449159128 -3.1496635460292839 -3.1490106193811735 -3.1689248821485432 -3.1888391449159128 -3.1888391449159128 -3.1888391449159128 -3.1888391449159128 -3.1888391449159128 -3.1888391449159128
leaf_weight=8.7458256073296052 5.5655253864824763 5.9421398863196364 5.8166017197072524 6.9464452192187336 9.8756691068410856 5.0215266644954664 9.5827467180788499 5.6492174975574008 15.608578715473415 5.1052187755703917 6.7372149415314189 9.0805940516293031 5.1052187755703917 5.0215266644954681 8.5784413851797563 7.825212385505437 8.6621334962546808 5.7747556641697946 5.9839859418570978 5.4399872198700905 5.0633727200329295 5.5655253864824763 7.6159821078181258 5.8166017197072506 11.633203439414507 5.7329096086323243 5.1889108866453162 5.5236793309450176 5.1052187755703917 5.0215266644954681 5.0215266644954673 9.0805940516293067 15.94334715977311 8.0762887187302095 8.3273650519549829 14.311350993812086 8.3273650519549829
leaf_count=209 133 142 139 166 236 120 229 135 373 122 161 217 122 120 205 187 207 138 143 130 121 133 182 139 278 137 124 132 122 120 120 217 381 193 199 342 199
internal_value=-3.08426 -3.09059 -3.09763 -2.99442 -2.87972 -3.11391 -3.07059 -2.92756 -3.13679 -3.10982 -3.10486 -3.06838 -3.08962 -3.06935 -3.08989 -3.12802 -3.06546 -3.10839 -3.09039 -3.03128 -3.16356 -3.12095 -3.15181 -3.14586 -3.16742 -3.14649 -3.17584 -3.18283 -3.18086 -3.17024 -3.18698 -3.18884 -3.18884 -3.18884 -3.18884 -3.18884 -3.18884
internal_weight=0 277.858 271.916 37.0338 16.8221 234.882 81.1813 15.6923 153.701 99.9702 65.4891 56.4503 47.3697 10.0431 20.2116 55.9063 15.3993 42.2645 33.5187 11.424 43.5199 22.0947 40.507 11.6332 32.6818 16.5292 38.4565 33.2676 25.0658 10.7544 53.7303 48.7088 31.5519 17.1569 19.9606 28.1624 22.6387
internal_count=6773 6640 6498 885 402 5613 1940 375 3673 2389 1565 1349 1132 240 483 1336 368 1010 801 273 1040 528 968 278 781 395 919 795 599 257 1284 1164 754 410 477 673 541
is_linear=0
shrinkage=1


Tree=1
num_leaves=43
num_cat=0
split_feature=239 443 199 509 509 261 430 320 438 291 465 465 441 237 238 301 115 222 227 377 284 449 327 2 2 341 449 450 510 108 20 492 269 470 8 242 8 214 478 426 470 8
split_gain=59.8558 41.1806 35.6599 32.8118 25.6608 39.5974 15.5917 18.5269 16.698 14.6302 12.1089 23.122 19.0677 9.59074 21.5644 12.0641 11.1722 12.7864 9.50992 6.56147 6.5267 4.62103 4.27235 3.41115 3.012 2.15811 2.28115 4.64058 0.917387 0.584301 0.18084 0.121119 0.000557465 5.23556e-05 4.20883e-05 4.18901e-05 5.80299e-05 2.79351e-05 6.87653e-06 2.44185e-06 1.44966e-06 2.70791e-08
threshold=0.25036026572931985 15429.024225597243 1.7364033077248988 56.209130712656396 3474.8813472013276 74.181738785232241 42583.666666666679 98.343470218814986 70441.625000000015 2416.5284145094643 21927.566444100026 34419.42621463017 77477.03333333334 0.13699744255901811 0.14857810216305165 74.023694457169043 1.7314068001902803 0.59299869597555721 0.58312516020452632 8948.3333333333339 85.708816425120787 50593.128781256244 61.517220295287274 0.27192386429320264 0.01138152778450782 80.30259998595308 56776.104964438688 74228.390582835986 0.32577471548059789 1.7498544092767938 20.88444724285975 54336.721962016301 12.125000000000002 39901.583048835069 0.067209553701643096 0.084942363668333021 0.048479483188280936 0.63407362010281576 31072.930786817469 66820.500000000015 60944.595666163492 25.712368038670984
decision_type=2 2 2 2 2 2 2 2 2 2 2 2 2 2 2 2 2 2 2 2 2 2 2 2 2 2 2 2 2 2 2 2 2 2 2 2 2 2 2 2 2 2
left_child=1 6 4 10 5 -2 7 8 9 13 -3 -12 -13 15 -15 22 24 -18 -4 25 -17 -5 23 28 -16 26 33 31 -1 37 32 -28 35 34 -8 36 -24 -26 -35 40 -40 -38
right_child=2 3 18 21 -6 -7 19 -9 -10 -11 11 12 -14 14 16 20 17 -19 -20 -21 -22 -23 30 -25 29 -27 27 -29 -30 -31 -32 -33 -34 38 -36 -37 41 -39 39 -41 -42 -43
leaf_value=-0.044482235238524293 0.40760365174674595 0.02892623669682309 -0.090478630257412387 -0.093324710399368072 0.049886318700255859 0.086106302507129362 -0.10461726976090691 0.11872210142442133 0.12305735045214308 0.11936785548902673 0.36083449749597124 0.014863146874992959 0.24604426538328431 0.18428137411342604 -0.0072950755717764776 0.10109043679035926 -0.074328189627403257 0.10671871992235378 0.068878884735560059 0.034808444075967081 -0.05049740674858632 0.02337575435904932 -0.10446514017496916 0.022656253040697946 -0.10441921253126714 -0.030458104335601945 -0.10439536489006727 0.0095035835256048768 -0.10439115934612078 -0.064787065762495433 -0.084165664631470058 -0.084386597804097893 -0.10537347456266283 -0.10434187299068587 -0.10426077837664256 -0.10452073821900279 -0.10413044422761251 -0.10471439891136354 -0.10422870318573192 -0.10426423511679571 -0.10416029222408188 -0.10412196546732533
leaf_weight=5.0108685493469221 8.7657263129949587 7.4491965360939529 6.9997675940394393 8.9574872851371747 8.3586064651608449 6.8051240481436244 8.6982712745666486 9.391546603292225 7.0233585610985747 5.8003823421895495 5.1443717069923904 8.3028968013823015 6.2558877281844607 5.183375045657157 5.0863482765853432 5.835395544767378 6.6407675296068218 9.4549759812653047 8.0532801039516908 5.0220020823180667 5.5338275544345379 5.4621139056980601 6.6421972475946012 5.4930442310869685 8.9068702161312121 6.749169059097766 7.6013855598866957 6.1487818658351889 5.2175098583102226 5.0403191149234763 5.0053174309432498 5.0254516713321209 5.2285556159913531 5.0798475407063988 5.3479924462735644 5.1397923193871966 5.0278150960803059 5.008853565901517 5.050040494650605 5.9043626487255088 8.0115258097648603 15.01817364245653
leaf_count=126 176 159 166 219 172 156 208 214 164 136 103 169 126 114 105 141 164 221 184 121 130 126 163 129 221 164 190 155 130 124 131 128 112 128 137 126 132 118 130 151 209 395
internal_value=0 -0.0179712 0.115366 0.0727919 0.191224 0.267096 -0.0363477 -0.0168204 -0.0268202 -0.0355723 0.137534 0.178596 0.114201 -0.043423 -0.00766908 -0.0668557 -0.0324573 0.0320225 -0.00522342 -0.0752348 0.0273069 -0.0491188 -0.0853828 -0.0409063 -0.0756248 -0.0839217 -0.0902669 -0.0617394 -0.0750419 -0.0939592 -0.102007 -0.0964319 -0.104417 -0.104328 -0.104482 -0.104259 -0.104209 -0.104525 -0.104239 -0.104211 -0.104187 -0.104124
internal_weight=0 246.9 38.9825 41.572 23.9295 15.5709 205.328 136.689 127.298 120.274 27.1524 19.7032 14.5588 114.474 45.3215 69.1525 40.1381 16.0957 15.053 68.6388 11.3692 14.4196 57.7833 15.7214 24.0424 63.6168 56.8677 18.7756 10.2284 18.956 42.0619 12.6268 37.0565 38.092 14.0463 31.828 26.6882 13.9157 24.0458 18.9659 13.0616 20.046
internal_count=6773 5919 854 902 504 332 5017 3296 3082 2918 557 398 295 2782 1067 1715 953 385 350 1721 271 345 1444 385 568 1600 1436 473 256 463 1059 318 928 963 345 816 690 339 618 490 339 527
is_linear=0
shrinkage=0.1


Tree=2
num_leaves=46
num_cat=0
split_feature=237 443 327 232 244 514 116 77 430 51 236 236 263 316 514 377 399 459 202 450 501 474 476 458 370 51 470 263 77 203 25 32 173 481 75 134 231 311 263 449 470 6 511 449 511
split_gain=41.6503 34.6444 27.8299 27.3083 22.6015 22.3073 18.2711 18.4442 15.7609 14.8341 21.4921 28.6822 16.9284 12.005 10.4274 19.2007 13.3551 8.29239 8.1038 7.29538 17.2774 6.90139 6.28428 10.9888 5.63839 4.7578 4.51517 3.87459 2.72853 1.98276 1.89425 1.53504 1.35933 0.563683 0.559524 0.000436077 0.000231496 0.000136252 7.2402e-05 2.12523e-05 2.09935e-05 1.64837e-05 1.21942e-05 9.8148e-06 1.85728e-06
threshold=0.24141427925795775 15429.024225597243 95.61339822382331 0.54040208962867531 0.25949118957019052 320.00000000000006 1.7079131803148246 3.4509919439391159 42583.666666666679 0.0087090201920451919 0.13512461485055416 0.16783791504067339 17.951315273873416 102.42355682319251 1.5000000000000002 33366.350000000006 35818.333333333336 21526.835144582441 1.6913765027761327 7753.9167292473958 35152.730958490771 13347.363956785188 59707.736491218224 46477.89165242765 85.177120221873025 5.1483422886833337 52022.211461276565 69.29493115318418 3.406530480388068 1.7056075663015033 0.010848103642452108 16.685162083374642 0.0027498643782858808 67091.029997515885 3.4115671815584139 0.0075833065355715564 0.090370219369242735 46.548505269511253 4.3505882490178385 44674.129140364101 54301.415281179179 29.041226430923036 10.537419498112373 50593.128781256244 0.22552015614266299
decision_type=2 2 2 2 2 2 2 2 2 2 2 2 2 2 2 2 2 2 2 2 2 2 2 2 2 2 2 2 2 2 2 2 2 2 2 2 2 2 2 2 2 2 2 2 2
left_child=1 8 3 4 6 14 25 -8 9 13 31 12 -12 19 16 17 -3 -16 -13 24 21 -21 32 -24 27 -2 -7 30 -20 -6 -1 35 33 38 -30 36 41 -36 40 -40 42 -11 -10 -42 -43
right_child=2 5 -4 -5 29 26 7 -9 22 10 11 18 -14 -15 15 -17 -18 -19 28 20 -22 -23 23 -25 -26 -27 -28 -29 34 -31 -32 -33 -34 -35 37 -37 -38 -39 39 -41 43 44 -44 -45 -46
leaf_value=-0.041099227876521399 0.048924076632370986 0.1731982917612801 0.27897356869539963 0.24225293155780381 -0.027296489302304633 -0.082821679643502927 0.057748900676913989 0.29265223213365865 -0.10388505950529983 -0.10392315305137001 0.27720649095027244 0.043776419241772793 0.024626036341292134 0.17352827190897863 0.17479049635873745 0.31117586608401965 -0.033899549199874396 0.00060524351124883015 -0.010666025096882983 0.05188747277859828 -0.085209016890939127 0.21226084322984137 0.088735610601631099 -0.091892201506257251 0.066148651942207107 -0.086370208644947502 0.034990887688639956 -0.10447514700685789 -0.064774798975836032 -0.10492976460288335 0.034885518491576228 -0.044879485552093736 -0.044766866316343759 -0.071260881880587365 -0.10498313683054179 -0.10487699199600252 -0.10455487944100827 -0.10429932234727268 -0.10409310416078876 -0.10437570771620526 -0.10376232367021183 -0.10379344105158471 -0.10407291861875881 -0.10394084809258826 -0.10371827962389567
leaf_weight=9.4493816830217892 5.160232827067377 5.0028480999171761 6.2409595847129813 6.5607527233660212 5.0827512405812731 9.2537795901298505 7.9479439444839937 5.7686055675148964 5.3789020553231266 7.9617655351758065 5.2245416380465013 8.0709102004766482 5.3920673653483391 5.0177148990333071 5.325252156704666 5.7440012395381919 8.2466872148215753 5.6148466616868973 5.3123035766184357 5.0957177951931936 5.2306340970098963 5.6679841987788677 5.698430571705102 8.2358616329729539 5.8425058722496024 5.2373277507722378 5.0165542140603057 7.2021434344351283 5.0133479908108738 9.3263439983129484 5.0257953889667979 5.0267433300614348 5.0389846451580516 6.0835176780819884 5.0646627470850927 6.1372910961508742 5.0787705071270457 6.861400231719017 5.4228247888386232 5.2249987423419952 7.8890593089163286 5.0169850811362258 9.6621349677443487 5.0513750910758972 9.5378733538091165
leaf_count=229 103 91 134 96 102 231 161 116 150 221 108 190 118 103 94 101 146 104 127 113 134 122 146 223 131 114 122 178 122 221 127 123 129 161 116 143 127 176 145 132 226 143 259 139 276
internal_value=0 -0.0183337 0.0810593 0.0536621 0.0215439 0.0614796 0.0807532 0.156539 -0.036717 -0.0165212 -0.0430626 0.00746556 0.148923 0.0270648 0.110529 0.163125 0.0442978 0.0853924 -0.0420619 0.0101758 0.063885 0.136337 -0.0773808 -0.0180244 -0.0210396 -0.0192247 -0.0414062 -0.0445387 -0.0731963 -0.0775449 -0.0147173 -0.0964323 -0.0940051 -0.0995541 -0.0928062 -0.104115 -0.103945 -0.10459 -0.10401 -0.104232 -0.103925 -0.103807 -0.104006 -0.103832 -0.103744
internal_weight=0 236.121 51.3249 45.084 38.5232 44.204 24.1141 13.7165 191.917 128.231 79.6987 40.9392 10.6166 48.5319 29.9336 16.6841 13.2495 10.9401 30.3226 43.5142 15.9943 10.7637 63.6861 13.9343 27.5198 10.3976 14.2703 21.6773 22.2517 14.4091 14.4752 38.7594 49.7518 44.7128 16.9394 33.7327 27.5954 11.9261 38.6293 10.6478 27.9815 22.5166 15.041 12.9404 14.5549
internal_count=6773 5726 1047 913 817 889 494 277 4837 3127 1990 957 226 1137 536 299 237 198 731 1034 369 235 1710 369 665 217 353 534 541 323 356 1033 1341 1212 414 910 767 292 1051 277 774 640 409 365 419
is_linear=0
shrinkage=0.1


Tree=3
num_leaves=47
num_cat=0
split_feature=264 285 237 377 2 509 509 245 509 512 481 86 373 319 512 406 384 237 2 2 459 71 230 3 404 470 75 254 412 345 410 322 411 2 461 239 197 137 230 254 78 430 52 449 477 511
split_gain=36.284 31.726 25.74 29.2158 24.6967 26.5469 19.0009 18.9659 18.5005 17.3716 16.8643 16.3766 15.6626 15.0027 15.2471 13.5381 9.39327 7.46781 12.3433 19.8854 6.62356 6.54626 7.55678 6.13335 7.06639 5.55864 3.85733 3.24591 3.12476 3.32203 2.53869 2.03025 0.530459 0.179179 0.147453 0.00075408 0.000556339 0.00026466 0.000248063 7.59885e-05 3.85728e-05 3.68405e-05 7.38354e-06 3.86999e-06 2.55804e-06 6.85729e-07
threshold=42.375000000000007 25.750000000000004 0.23903775374367117 11859.250000000002 0.01138152778450782 3448.3730596987239 0.71788380626823056 15.290700868398416 0.51035530490116565 24.300039204833727 13824.499781985298 1.7035098640123396 76.573657951375054 81.60643625617594 23.945158951542261 50928.319444444453 70353.611111111124 0.13800449321483307 0.011600255209950635 0.015127448777403346 21683.886675427959 3.4124983109379134 0.2638821269642268 0.0033221514387364775 55402.857142857152 27602.800250814194 3.432540023112451 2.8333333333333335 13160.111111111113 56.604168255315692 69635.678571428594 94.356843948598367 5017.2500000000009 0.0096891713966173257 20154.856266535349 0.19664334251685869 1.7489750503195911 1.0000000180025095e-35 1.0000000180025095e-35 56.009433962264161 2.8641123679965665 51165.333333333343 16.576788701893545 50593.128781256244 49185.838712621146 0.49975024975024979
decision_type=2 2 2 2 2 2 2 2 2 2 2 2 2 2 2 2 2 2 2 2 2 2 2 2 2 2 2 2 2 2 2 2 2 2 2 2 2 2 2 2 2 2 2 2 2 2
left_child=1 2 3 12 5 -4 8 9 10 11 -5 -6 17 -14 -15 -12 32 23 27 -20 -17 36 -23 24 25 28 -21 34 29 -1 41 -16 -8 -25 35 -19 -9 38 39 40 42 -26 -35 44 -43 -42
right_child=-2 -3 4 6 7 -7 16 21 -10 -11 15 -13 13 14 31 20 -18 18 19 26 -22 22 -24 33 30 -27 -28 -29 -30 -31 -32 -33 -34 37 -36 -37 -38 -39 -40 -41 45 43 -44 -45 -46 -47
leaf_value=0.048011875547258137 0.2623087070409697 0.1886753276722398 0.33706897020613857 -0.092399623949602327 -0.1075748489468587 0.031554111818196638 -0.064296573162264434 -0.10579289074831991 0.19864505280571287 0.22769688389923981 0.19198514822660973 0.13538779348679428 0.17183260862940941 0.11097556877890696 -0.02502952249812232 0.10892990385223084 0.052444593085659269 -0.105985139807558 0.16079130375502512 0.014366322713466245 -0.03932529456757853 -0.064232181464141461 0.089716713416597316 -0.083808039279030314 -0.10378703801714464 0.057574473776789571 -0.10440699724120411 -0.0064274388825404693 -0.092439164382121658 -0.058637997469910788 -0.024855042502875357 -0.10506017564924637 -0.10522231271991878 -0.10370729832842765 -0.084413099338202097 -0.1043173956226575 -0.10430404881979277 -0.10441350550577906 -0.10429614750927943 -0.10389591147862053 -0.10339969805617083 -0.10349716575687325 -0.10354015937996484 -0.10355112548956887 -0.10340328566001206 -0.10335852068875531
leaf_weight=5.2427272498607689 5.130007028579711 8.1280718035995942 5.5991124622523767 7.4079198986291912 5.3198973983526248 5.7802768349647522 5.0105854012072113 5.0365877300500888 9.4630768224596959 6.2316990233957759 7.3603899776935604 5.7975912541151047 5.4291969649493721 6.4614663161337402 5.021110560745 5.0810938253998739 6.9890169948339453 5.0058970451354998 7.524613622576001 5.0376662462949735 7.405665647238493 7.358375281095503 5.6265261135995388 5.0544104911386958 5.0005046501755777 7.4071567505598059 5.980235505849123 5.0296799428760997 7.956623811274766 6.5942645855247974 5.0534110330045214 8.5973324626684171 8.6079814247786981 5.1822887100279384 5.0467823073267928 5.9144166223704815 5.0027921721339226 5.0625499263405791 5.0196546725928775 5.0513442233204833 7.3311115279793766 5.3410145901143569 5.3942509926855564 5.0183321125805369 6.3568763583898544 9.0202992483973485
leaf_count=129 79 151 81 148 92 103 134 105 151 88 130 113 138 131 121 85 163 101 177 121 131 170 119 153 144 189 152 105 184 176 139 196 198 152 133 155 133 129 134 142 231 164 164 152 200 287
internal_value=0 -0.00603704 -0.0117876 -0.0265052 0.0517605 0.18188 0.03505 0.0150861 0.0781805 0.0940433 0.0363547 0.0191263 -0.047745 0.0243468 -0.0155304 0.0844121 -0.0417991 -0.0608223 -0.0239757 0.0354799 0.0210025 -0.0444095 0.00247587 -0.0752345 -0.0522198 -0.0163231 -0.0501008 -0.0764817 -0.0439771 -0.0114017 -0.0886938 -0.0755529 -0.0901648 -0.101598 -0.098549 -0.105082 -0.105051 -0.103735 -0.103643 -0.10354 -0.103473 -0.103549 -0.103622 -0.103478 -0.103446 -0.103377
internal_weight=0 283.342 275.214 223.461 51.7529 11.3794 57.3257 40.3735 36.7181 17.3492 27.2551 11.1175 166.135 25.5091 20.0799 19.8471 20.6076 140.626 39.5393 18.5425 12.4868 23.0243 12.9849 101.087 53.9709 27.2008 11.0179 20.9968 19.7936 11.837 26.7701 13.6184 13.6186 47.1159 15.9671 10.9203 10.0394 42.0615 36.9989 31.9793 26.928 21.7167 10.5765 16.7162 11.6979 16.3514
internal_count=6773 6694 6543 5539 1004 184 1140 820 645 293 494 205 4399 586 448 346 495 3813 944 450 216 527 289 2869 1477 678 273 494 489 305 799 317 332 1392 389 256 238 1239 1110 976 834 660 316 516 364 518
is_linear=0
shrinkage=0.1


Tree=4
num_leaves=47
num_cat=0
split_feature=239 443 481 16 205 430 200 197 2 320 298 387 438 327 403 0 408 411 435 512 6 201 195 214 2 115 408 311 476 449 426 392 5 212 29 461 476 501 395 2 404 329 393 301 426 411
split_gain=27.0449 20.9577 18.1453 17.1941 18.8513 13.5169 13.3508 15.0724 13.0054 12.7866 19.3288 12.8493 22.7274 10.8387 7.28514 9.31857 12.6747 15.0442 7.15984 13.3698 7.03841 10.8531 7.61794 9.06979 13.2409 6.23969 5.88903 5.62846 4.5666 7.34752 4.02476 3.67847 2.40232 1.24797 2.74541 1.28126 0.113483 0.000815822 0.000590089 0.00026666 0.000259515 0.000108103 5.56177e-05 3.28142e-05 5.74424e-06 1.25099e-06
threshold=0.25036026572931985 7067.3960113122057 10198.56577288926 15.269219409893365 1.7719590507311473 42583.666666666679 1.7251715844203848 1.703931076415881 0.031890297579723968 98.343470218814986 100.0535658091417 67777.944444444453 35376.958333333336 81.297408422819075 90129.250000000015 31.827725990691416 53401.750000000007 59797.777777777788 18259.666666666668 42.623991926492415 29.406350658075805 1.7349981324972166 0.0040707174802841689 0.60582685251982193 0.01138152778450782 1.7324223620366868 19755.111111111113 48.581072957447958 60502.676256356106 62646.311103901644 43837.194444444453 43926.322222222232 0.20165256265927689 0.39800621257510155 6.8705895634198653 20429.155710637369 11530.018512302982 34920.371257976214 3930.3199223230117 0.29432609790032288 55686.142857142862 59.975944618265942 199.30066700631889 11.24848484848485 65600.194444444453 63108.583333333336
decision_type=2 2 2 2 2 2 2 2 2 2 2 2 2 2 2 2 2 2 2 2 2 2 2 2 2 2 2 2 2 2 2 2 2 2 2 2 2 2 2 2 2 2 2 2 2 2
left_child=1 5 30 -2 6 9 7 8 -5 11 -11 18 -13 14 15 16 26 -18 19 20 22 -22 23 33 -25 -8 -4 -26 32 -30 36 -15 40 34 35 39 -3 -20 -35 -1 42 -40 -7 44 45 -42
right_child=3 2 13 4 -6 28 25 -9 -10 10 -12 12 -14 31 -16 -17 17 -19 37 -21 21 -23 -24 24 27 -27 -28 -29 29 -31 -32 -33 -34 38 -36 -37 -38 -39 41 -41 43 -43 -44 -45 -46 -47
leaf_value=-0.10375521400551968 -0.068471713745869897 -0.084466145386527386 0.085991365552559137 -0.043210205392790801 0.26057735450079561 -0.10360359377664835 -0.070608072856717677 0.20663162824607537 0.15792664994756456 0.23199515111218527 -0.036655952105467161 -0.06559076408417075 0.23345384734001093 0.034508195802698156 0.0011563951268167951 0.21890579130517859 0.28567094532333764 0.056871216234359125 -0.10550513805800986 0.13309828424930054 0.1130253559781686 -0.06970373343391624 0.059620302811038542 0.12729299704157579 0.0072795027727666009 0.071560910225357752 -0.05877102918707771 -0.10445284000815197 -0.089301455191042337 0.067943640781063269 0.013698602697344249 -0.085877451238050018 -0.042984884143909434 -0.10544683762389771 -0.0043444675288332093 -0.044879932106500986 -0.10534437005921611 -0.10392280291227576 -0.10454064954324777 -0.10467011914060026 -0.103143408115819 -0.10395582818056535 -0.10404778011127323 -0.10344517866033019 -0.10324156920580259 -0.10307687446572796
leaf_weight=7.9605270978063398 8.0295044519007188 5.0001727566122991 5.1704962514340931 7.6262898519635218 5.683934135362505 5.9952407442033273 8.0460454635322076 9.5328252613544446 5.5572299025952816 5.0311620496213418 5.7261824198067188 5.1444598194211704 5.0227176621556282 5.0110053829848749 7.3496017269790164 6.4280224796384564 5.058098725974558 6.6548393256962299 5.9775952789932472 5.0116998776793471 7.3458036556839925 5.8302179351449013 6.0894127469509831 5.5534591861069229 8.9039208535105008 5.0089637152850619 6.1559100616723299 9.1329845134168846 6.8904550112783891 5.2248343545943499 5.0118893459439269 5.143321193754673 8.2192683517932874 5.8707652334123877 5.0195314791053525 5.0361222140491 5.4313318263739347 7.1627025883644819 6.0296126957982761 5.3111700229346752 6.4008090496063286 6.6430617682635784 5.3206486813724041 5.0201355572789899 5.1044651959091416 5.0599933005869389
leaf_count=240 188 129 92 120 93 182 141 165 62 102 103 134 118 116 124 110 69 100 135 98 188 170 151 112 218 85 106 239 201 138 105 116 241 134 153 129 123 206 155 129 217 189 145 158 169 175
internal_value=0 -0.0157429 0.0340826 0.0654651 0.0914074 -0.0333088 0.0645269 0.11084 0.0415747 -0.0151896 0.088991 -0.0251033 0.0821412 0.0649994 0.0902269 0.112442 0.0827389 0.155676 -0.035702 -0.025607 -0.0349947 0.0321701 -0.0473631 -0.057315 -0.00772492 -0.0160605 0.0073129 -0.0492962 -0.0754461 -0.021488 -0.0599512 -0.026469 -0.0913437 -0.0852545 -0.069862 -0.0878252 -0.0953367 -0.104643 -0.104618 -0.104121 -0.103425 -0.104234 -0.103812 -0.103221 -0.103153 -0.103114
internal_weight=0 239.454 62.4147 49.4848 41.4553 177.039 35.7714 22.7163 13.1835 123.803 10.7573 113.046 10.1672 46.9713 36.817 29.4674 23.0393 11.7129 102.879 89.7383 84.7266 13.176 71.5506 65.4612 23.5904 13.055 11.3264 18.0369 53.2359 12.1153 15.4434 10.1543 41.1206 41.8708 23.3274 18.3078 10.4315 13.1403 18.5434 13.2717 32.9013 12.6727 11.3159 21.5854 16.5653 11.4608
internal_count=6773 5919 1190 854 666 4729 573 347 182 3103 205 2898 252 833 601 477 367 169 2646 2305 2207 358 1849 1698 569 226 198 457 1626 339 357 232 1287 1129 651 498 252 341 478 369 1046 344 327 719 561 392
is_linear=0
shrinkage=0.1


Tree=5
num_leaves=45
num_cat=0
split_feature=54 230 327 201 443 254 202 2 291 397 408 318 237 230 26 449 449 477 0 509 218 223 476 461 507 81 387 469 133 50 509 244 2 81 449 79 230 237 430 2 387 254 404 511
split_gain=21.5445 21.6132 20.3353 16.1727 13.1717 12.6287 12.4032 11.5373 10.9866 10.8678 13.241 10.0944 13.8784 18.8793 9.75332 8.00182 13.2838 10.889 9.19355 8.45333 7.48837 13.9405 8.12717 7.17398 7.13325 6.98788 6.98023 6.83675 6.77556 3.00373 3.37022 2.94146 2.81596 3.14374 0.66972 0.663511 0.00215349 0.00133572 0.000982637 0.00068897 0.00050853 0.000330397 0.000109888 3.09175e-05
threshold=5.2415464284340549 0.2526320608397466 95.008067536882606 1.7466090429197092 15429.024225597243 0.22500000000000003 1.6836859723020663 0.011600255209950635 31.94671135040106 18941.291666666668 12735.180555555557 92.78024430621717 0.13699744255901811 0.16286488921892198 0.040951386913801527 39184.44503212838 50810.571975721752 62352.319561175776 30.944570577120555 0.46751218474420814 0.62363336706535277 0.64218968304419366 59707.736491218224 19694.173199637702 82413.863031504894 3.4390406028134879 67777.944444444453 56572.786107819469 0.20900907849210174 0.057014991360593195 0.71788380626823056 0.25382163864951918 0.012891850555499464 3.4268213498067825 47535.645026198174 3.4941396297859817 0.077459356622583908 0.12810265204405344 40912.67857142858 0.01140380888864141 63683.611111111117 56.009433962264161 55686.142857142862 0.12305265234447359
decision_type=2 2 2 2 2 2 2 2 2 2 2 2 2 2 2 2 2 2 2 2 2 2 2 2 2 2 2 2 2 2 2 2 2 2 2 2 2 2 2 2 2 2 2 2
left_child=1 4 3 5 7 8 15 20 23 10 11 12 28 -14 -10 18 -17 19 26 -18 22 -22 24 -3 34 -15 -6 38 29 30 -9 -5 33 -2 35 37 43 40 -11 -39 42 -31 -1 -34
right_child=32 2 -4 31 6 -7 -8 9 14 27 -12 -13 13 25 -16 16 17 -19 -20 -21 21 -23 -24 -25 -26 -27 -28 -29 -30 41 -32 -33 36 -35 -36 -37 -38 39 -40 -41 -42 -43 -44 -45
leaf_value=-0.10340275031459796 -0.0044430035128659538 0.057621295664804874 0.2188838245831887 -0.0056225691510974479 -0.10716180510224485 0.22623243602029916 -0.089068804596566339 -0.089476564138747064 0.029963406857613298 -0.10543363300429072 0.13476620871981404 0.098898844344452549 0.21680517292473975 0.055048794551991222 0.22158972036662117 0.2216398149549629 0.0070683343223933784 -0.069557762086643479 0.10062806032575163 0.17503581017369405 0.14396648252999272 -0.087362605352350478 0.026059864876981621 -0.1075306806574684 0.031628219691451208 -0.087899249927484047 0.046168896645331171 0.0098693308578922043 0.055053607033008524 -0.10335647297896462 0.010850718791900216 -0.10468846386560322 -0.10307987881904901 -0.10466920120195596 -0.066882880517683985 -0.064886912777305447 -0.10563293643900694 -0.10554318411081692 -0.10368276588855679 -0.10393589001722721 -0.10426224511002205 -0.10434373157929636 -0.10287613166494861 -0.10337684160534966
leaf_weight=7.4779729824513259 7.9908930081874114 5.4325709026306921 7.6146173868328324 5.8638311773538572 7.0108954552561062 5.0378624368458977 6.5662895403802386 6.4745858758687991 5.5466468557715398 5.6689705047756451 9.103237768635152 9.7458435557782632 5.256150700151923 8.0810201764106733 5.0967193897813559 6.3139157481491592 5.2124532312154788 5.1585639789700499 7.1556027103215447 7.0470842644572258 5.1618935614824277 5.2592904213815928 8.4327594339847547 5.0988915413618088 5.1350243836641303 5.9285285379737607 5.1499185618013144 8.7352417428046447 5.0056376364082089 8.3415665458887798 6.9342357032001019 6.1308762021362782 7.4940226525068301 5.144271332770586 8.1790429558604938 5.0622001569718114 5.0095521025359622 5.5903242006897909 7.376189136877656 5.099851967766881 5.2073355764150611 5.7103262841701499 8.4284176304936391 6.5879236720502377
leaf_count=243 228 94 127 99 125 67 174 156 53 124 176 184 98 180 66 80 86 82 118 110 102 109 226 94 135 147 76 230 120 278 181 166 264 136 263 141 113 123 223 146 150 150 312 218
internal_value=0 0.00740856 0.0696601 0.0399202 -0.00610968 0.0839307 0.0389522 -0.0199622 0.0500746 0.00315273 0.022208 0.0055411 -0.0120466 0.0551912 0.121726 0.0584795 0.0973761 0.0523316 0.0106914 0.10362 -0.0508879 0.0272209 -0.0647753 -0.0223384 -0.0800402 -0.00544363 -0.0422286 -0.0585973 -0.0519459 -0.0714502 -0.0375933 -0.0562583 -0.0793332 -0.0436957 -0.0927701 -0.0985134 -0.103852 -0.103866 -0.104444 -0.104776 -0.103405 -0.103758 -0.103124 -0.103219
internal_weight=0 256.832 45.822 38.2074 211.01 26.2127 49.6147 161.396 21.1748 92.3615 70.5811 61.4779 51.7321 19.2657 10.6434 43.0484 23.732 17.4181 19.3164 12.2595 69.0341 10.4212 58.6129 10.5315 50.1802 14.0095 12.1608 21.7804 32.4664 27.4607 13.4088 11.9947 32.2267 13.1352 45.0451 36.8661 19.0915 31.8039 13.0452 10.6902 21.1137 14.0519 15.9064 14.0819
internal_count=6773 5814 766 639 5048 374 851 4197 307 2247 1670 1494 1310 425 119 677 358 278 319 196 1950 211 1739 188 1513 327 201 577 885 765 337 265 959 364 1378 1115 595 974 347 269 705 428 555 482
is_linear=0
shrinkage=0.1


Tree=6
num_leaves=45
num_cat=0
split_feature=330 285 329 52 237 118 403 397 72 435 511 510 507 206 329 504 57 137 0 474 500 512 453 443 258 226 427 500 37 393 237 511 239 104 52 392 453 223 443 231 514 430 327 510
split_gain=19.9893 16.2649 22.8984 14.6199 12.4024 19.7359 14.8749 15.5015 15.8295 13.4098 14.6928 32.7434 14.455 13.0091 11.9018 11.7143 9.55708 10.3472 9.06754 8.46132 7.40728 6.32896 6.10628 4.67053 4.30862 3.76899 3.28198 3.27849 2.88415 2.08683 1.12533 0.93916 0.905023 0.65744 0.59057 0.177076 0.124366 0.00786706 0.00478142 0.00205647 0.00129368 0.000783591 0.000145277 5.95935e-05
threshold=1.1040711977693529 5.5000000000000009 57.322016942306099 5.2423239400815289 0.23903775374367117 1.7331122529940026 53900.76666666667 18941.291666666668 3.3809696231704662 60817.791666666679 0.16402421293725644 0.36080007941234865 74931.759427481637 1.6596433713830887 62.931147817149203 55714.05960258493 0.37891976909750319 0.025311240941784167 77.190995995201618 12711.267696589899 18685.77973794124 24.449448897795595 60955.201466342936 22929.058419525743 86.873134034424382 0.67295990132379802 65600.657142857162 2028.7532227415961 0.0015425438211506073 4169.046153846155 0.22869693311244091 11.217232733074995 0.18403006497733171 1.7586456953284677 16.625240471839259 90103.833333333358 46373.472581339134 0.62546164105861501 13488.034904562923 0.13368959941919903 24502.000000000004 41690.055555555562 100.28946036111087 0.32937654103557595
decision_type=2 2 2 2 2 2 2 2 2 2 2 2 2 2 2 2 2 2 2 2 2 2 2 2 2 2 2 2 2 2 2 2 2 2 2 2 2 2 2 2 2 2 2 2
left_child=1 3 -3 4 6 13 7 8 16 10 -8 12 22 21 -7 -14 17 19 30 24 27 -6 26 28 29 -2 -12 -15 36 -1 33 -31 34 39 42 38 -11 -29 41 -10 -41 -9 -5 -43
right_child=25 2 -4 32 5 14 9 35 18 23 11 -13 15 20 -16 -17 -18 -19 -20 -21 -22 -23 -24 -25 -26 -27 -28 37 -30 31 -32 -33 -34 -35 -36 -37 -38 -39 -40 40 -42 43 -44 -45
leaf_value=-0.1042749963419605 0.18116846789240953 0.26913091363599934 -0.022546813080310056 -0.10358440982492401 0.017025801960285591 0.070721903525955879 -0.077341241938950173 -0.10441521330197366 -0.10280119513251273 -0.083370960853735257 -0.012916390203808421 0.27007608705394853 0.023034702380723082 -0.026504542177686736 0.26004920368069312 0.23382574437964532 0.11123350847404519 0.12522158785611995 0.037453309809287641 0.077984296843115683 0.059414832986622083 0.17072685486834377 0.075186920532568535 0.037119281064942146 0.012320070787404526 0.064806715811016824 -0.108886693489776 -0.10463781362036458 -0.0052582013231732248 -0.068433382509966972 -0.045146754374349451 -0.0091483634240205128 -0.052507788704374919 -0.064004425668279283 -0.063613926657172568 -0.083730085444480407 -0.10404485991797968 -0.11019595093414945 -0.10656922466662395 -0.10410848154269046 -0.10607149820843305 -0.10280406716474309 -0.10293264636788746 -0.10325730153042104
leaf_weight=9.4664176963269764 6.1198710873723012 5.0049413181841356 5.8229902572929859 5.3657417930662694 5.4634304828941804 9.4485657233744842 7.403208201751112 5.7607776112854578 7.3895623516291478 5.012408256530767 9.6040370259434038 7.1184894721955052 5.3109277933835966 9.8609473034739548 5.1193788759410372 5.2352551613003016 9.2285719215869886 5.6153984162956467 6.9906394630670539 7.027497185394167 5.9545476585626593 5.2566970996558666 5.4011986516416064 5.5424530226737252 9.2611617967486364 5.1060420945286751 5.6654032468795767 5.1359723992645723 5.053894378244876 5.5362085644155723 5.0622812658548346 5.1649887897074223 7.6028472743928424 5.0266956388950339 5.0671976730227462 5.0299008060246697 6.9363696854561567 5.0509734619408846 6.8552030585706225 8.7984735406935197 5.4285671487450591 6.9030295405536872 9.4308097679167968 5.0039902683347464
leaf_count=260 69 68 91 178 73 154 199 153 284 172 197 120 100 193 77 72 219 111 171 138 117 53 82 107 173 79 104 142 141 143 138 122 190 160 184 162 209 78 137 249 116 265 352 171
internal_value=0 -0.0078716 0.112274 -0.0127515 -0.00481475 0.0387675 -0.0167155 -0.0379834 -0.0173486 0.0205199 0.0516326 0.0765396 0.0324068 -0.000302444 0.137254 0.127674 0.019076 -0.00113905 -0.0656375 -0.0206025 -0.0385189 0.0923943 -0.0161987 -0.0426001 -0.0441447 0.128242 -0.0485241 -0.0676068 -0.0685867 -0.0700739 -0.0883675 -0.0398192 -0.0818485 -0.0965796 -0.0930786 -0.100822 -0.0953723 -0.107394 -0.104328 -0.104155 -0.104858 -0.103458 -0.103169 -0.102995
internal_weight=0 277.418 10.8279 266.59 239.124 51.2905 187.833 119.549 89.9965 68.2836 45.7385 38.3353 31.2168 36.7226 14.5679 10.5462 51.3002 42.0717 38.6962 36.4563 26.0024 10.7201 20.6706 22.5451 29.4288 11.2259 15.2694 20.0479 17.0027 20.1676 31.7056 10.7012 27.4666 26.6433 19.8637 29.5529 11.9488 10.1869 24.523 21.6166 14.227 17.6678 14.7966 11.907
internal_count=6773 6625 159 6466 5562 887 4675 3172 2284 1503 874 675 555 656 231 172 1166 947 1118 836 530 126 383 629 698 148 301 413 522 525 947 265 904 809 714 888 381 220 726 649 365 589 530 436
is_linear=0
shrinkage=0.1


Tree=7
num_leaves=46
num_cat=0
split_feature=327 330 320 327 220 116 377 481 2 327 316 329 130 225 493 453 426 507 102 500 327 2 410 377 507 204 121 75 410 507 336 221 449 510 5 19 59 2 3 230 12 219 387 29 426
split_gain=17.8035 18.9916 12.7988 19.0276 9.88704 19.3903 15.2578 16.4437 12.5904 13.0104 9.3834 8.76373 9.53535 8.07921 7.73252 14.9926 10.3438 23.6183 7.48144 10.3255 6.64656 5.55312 5.7803 5.51909 4.21913 3.20161 3.38128 3.18881 3.13153 2.21707 1.77981 1.37343 1.10877 0.968098 1.65182 0.566208 0.176595 0.113029 0.00689446 0.00370695 0.00321652 0.00135262 0.000386741 0.000351729 6.5986e-05
threshold=100.96409387066198 1.1040711977693529 97.19827191266549 87.592552466005472 0.60411335311677983 1.7299085926382569 9824.7422222222249 13824.499781985298 0.015127448777403346 93.994871728201829 109.25067716275285 277.81857821958152 2.5207800897017196 0.6487595431438864 40991.163958801742 60955.201466342936 51612.888888888898 61514.304729149371 1.7553934907629711 18685.77973794124 95.265188879229171 0.36806342753455684 88654.215277777796 33366.350000000006 87197.799132465196 1.7102269083393684 1.7311862653508994 0.51089560013738011 12739.888888888891 7641.5800970542659 74.435577918271591 0.61389838630163795 67250.728386995048 4108.1144123711347 36.218151699598657 16.566496714074528 5.2242500954518141 0.14909620149096203 8.6681359639177646 0.24507695814399386 18.658587533851144 0.36606378932821976 65474.250000000007 6.4077991100992486 41793.355555555558
decision_type=2 2 2 2 2 2 2 2 2 2 2 2 2 2 2 2 2 2 2 2 2 2 2 2 2 2 2 2 2 2 2 2 2 2 2 2 2 2 2 2 2 2 2 2 2
left_child=1 2 4 -4 6 18 11 29 9 13 35 12 20 -7 15 -9 17 -16 19 25 21 22 24 -18 30 39 -27 -3 -23 -8 31 32 33 37 -35 36 40 38 41 -6 -2 42 44 -42 -1
right_child=10 27 3 -5 5 8 7 14 -10 -11 -12 -13 -14 -15 16 -17 23 -19 -20 -21 -22 28 -24 -25 -26 26 -28 -29 -30 -31 -32 -33 -34 34 -36 -37 -38 -39 -40 -41 43 -43 -44 -45 -46
leaf_value=-0.10291813363000707 -0.10599567550212874 0.079618741924489186 0.24964212925026974 -0.018048148292273275 -0.10423637480010491 -0.0030200224548876126 -0.028159171053147237 0.037713537561437055 -0.0080225137219673316 0.26034898684847052 0.044274730000504574 0.077088945977412768 0.086970404866394235 0.16401077195278047 -0.0089729813253639507 0.25080295910675737 -0.085877668445888455 0.2599990621962775 0.088080789704394549 0.084685078723319721 0.031221101443891026 0.061994195894439975 0.03542810647622547 0.035992232083067024 0.011992164691737896 -0.071710384411202061 0.03200871278606203 0.18885898529819306 -0.047027872628427073 -0.10509360008035938 -0.024355599884684984 -0.040822660220787954 -0.046877395002207563 -0.10384832522364112 -0.026202993964057661 -0.063074463162694092 -0.083372158754773842 -0.090402252038352879 -0.10735257609199422 -0.10792994819910498 -0.10275764478885641 -0.10438036603496199 -0.10367800040796463 -0.10391457857019189 -0.10252089669894729
leaf_weight=7.6636637505143979 8.2436119113117545 5.116293363273142 5.0090879481285793 5.6508621722459793 5.8412487804889732 5.7831543404609018 7.7155854143202287 8.9172669965773803 7.9930169750004998 6.1745586004108182 5.9550420287996522 6.2172164637595406 5.2004183381795874 5.800260229036212 9.0683977659791726 5.2432368695735923 8.2889269553124887 5.1009818613529196 5.6285669170320025 5.6149833798408499 8.7827667724341136 5.3651638403534871 5.0051514711230984 6.7356165293604127 5.1404330544173709 8.4363643340766412 5.0095443408936253 5.5936566404998302 5.1769092604517937 7.280004408210516 5.0112875495105973 6.0682418197393408 5.2593866325914851 6.0157571714371425 5.0314698293805122 5.0095566865056744 5.0027427040040484 7.468653727322816 5.0108416453003874 5.0805738791823387 5.0643443316221219 9.1602823287248594 5.3380185700952998 5.4618485309183598 9.2037430945783836
leaf_count=289 180 45 80 117 176 131 185 153 145 98 117 65 122 78 157 71 121 66 113 92 236 116 139 87 144 180 101 65 130 171 138 143 164 202 145 189 181 233 117 91 203 260 178 168 391
internal_value=0 0.00635616 0.000600536 0.107739 -0.00432584 0.0300948 -0.0167159 0.0247549 0.0962004 0.143112 -0.0699873 -0.0382985 -0.0450726 0.0806187 0.0559758 0.116615 0.0265629 0.0878571 -0.017707 -0.0375662 -0.0518915 -0.0598328 -0.0686795 -0.0312425 -0.0755023 -0.0657362 -0.0330677 0.136673 0.00845659 -0.065509 -0.0818164 -0.0861648 -0.090739 -0.0949415 -0.0684847 -0.0936282 -0.100067 -0.101608 -0.103908 -0.105955 -0.104516 -0.103358 -0.102936 -0.103358 -0.102701
internal_weight=0 253.202 242.492 10.66 231.832 61.3623 170.469 58.35 25.751 17.758 34.7371 112.119 105.902 11.5834 43.3544 14.1605 29.1939 14.1694 35.6113 29.9827 100.702 91.919 81.3769 15.0245 76.3718 24.3677 13.4459 10.71 10.5421 14.9956 71.2313 66.2201 60.1518 54.8924 11.0472 28.7821 23.7725 43.8452 36.3765 10.9218 18.7698 31.3657 22.2054 10.5262 16.8674
internal_count=6773 5735 5625 197 5428 1205 4223 1011 452 307 1038 3212 3147 209 655 224 431 223 753 640 3025 2789 2543 208 2404 548 281 110 246 356 2260 2122 1979 1815 347 921 732 1468 1235 267 551 1118 858 371 680
is_linear=0
shrinkage=0.1


Tree=8
num_leaves=48
num_cat=0
split_feature=76 285 430 509 500 320 327 277 327 357 403 377 235 408 510 383 3 443 327 469 229 514 397 403 474 509 509 211 1 0 21 72 374 408 469 79 261 2 237 218 214 103 237 510 399 404 410
split_gain=15.0985 13.5815 14.1214 13.0058 22.6376 13.5467 12.1114 18.555 12.0618 13.173 12.9835 11.3621 10.1692 10.0172 8.63339 8.47295 7.27186 6.87178 9.60778 6.60013 6.45578 6.24699 5.99911 9.75965 5.3269 5.15642 5.42379 6.0788 4.45979 4.42194 6.42093 2.71639 1.65315 1.44742 1.43507 0.960966 0.677411 0.00632562 0.00485524 0.00344347 0.00189116 0.000894679 0.000855299 0.000326077 0.000240528 0.000148834 2.05716e-05
threshold=1.0000000180025095e-35 25.750000000000004 66779.666666666686 3595.8682889879151 18796.211137916074 82.941714650350193 103.6852778234833 94.367789015912777 96.46461945226568 2754.3094332690457 80079.333333333358 15127.645833333334 0.14284383566504913 49829.571428571435 2701.9604500000005 78459.250000000015 16.524307163409421 15429.024225597243 94.268740619933553 85744.771804250791 0.23471468516270319 36449.000000000007 61522.652777777788 57196.437500000007 7692.9682259190449 0.71788380626823056 3338.9988942163195 0.68713984189813071 163.27390825944335 77.445795623483761 9.9446210986241326 3.3809696231704662 64.70112675978892 47277.000000000007 91345.961544390593 3.4207130434617965 75.972538228816191 0.26971653847337601 0.099611156305073903 0.63021293168648895 0.5932074566919906 0.0074366162848402669 0.13065118615105398 2896.2705361445787 35435.444444444453 59922.750000000007 51572.875000000007
decision_type=2 2 2 2 2 2 2 2 2 2 2 2 2 2 2 2 2 2 2 2 2 2 2 2 2 2 2 2 2 2 2 2 2 2 2 2 2 2 2 2 2 2 2 2 2 2 2
left_child=1 2 3 4 6 16 7 8 9 10 14 34 -3 -13 17 19 29 18 25 -12 -20 -7 23 24 -19 32 27 28 -27 31 -31 -5 33 37 41 -28 39 40 -2 42 44 45 -33 -44 -1 -4 -47
right_child=38 12 11 5 -6 21 -8 -9 -10 -11 15 13 -14 -15 -16 -17 -18 22 20 -21 -22 -23 -24 -25 -26 26 35 -29 -30 30 -32 36 -34 -35 -36 -37 -38 -39 -40 -41 -42 -43 43 -45 -46 46 -48
leaf_value=-0.10407407416366798 -0.10263247443278606 0.023006355520868164 -0.10308323961598279 -0.031131476459710341 0.19785763995920458 -0.0082710156942213554 -0.094902416985296376 0.21141765600076351 0.1441649012382934 0.13513175268286995 0.08859128500915589 0.13278254574716178 0.2141979409050031 -0.066583854040976526 0.075610971755865383 0.16066640395717871 0.05985308615382904 0.067865874690780065 0.12939373599299431 -0.040961260959353589 -0.024265599569128132 0.14561678017419238 -0.054947771285916741 0.14635152043143262 -0.074476005713050825 -0.011394911045479988 -0.04603361454262745 -0.074306837029086206 0.11797969771297293 -0.08459153395990765 0.073870021231923322 -0.10271799920543022 -0.033622736802946196 -0.045756420539073688 -0.043696465328300231 -0.1058822936391542 -0.063803785454705358 -0.1084757890211384 -0.10654432370184033 -0.10667475323961312 -0.10589012795503037 -0.10402418833184374 -0.10378251169950814 -0.10485242888147642 -0.10310438462409513 -0.10227802787857526 -0.10256212297943024
leaf_weight=5.1358552891761153 8.6354213338345271 6.0040134564042074 5.027659295126802 8.1420318111777288 7.1074763666838399 5.0425478387624008 9.3624668605625612 5.0163245014846316 6.9490991886705151 7.8043868113309136 8.525204788893463 5.0061707366257888 5.1838632300496101 5.0753083061426878 9.7765756361186487 7.0455831009894601 5.1981224808841935 5.0227711796760612 5.0603983514010888 7.2994475010782471 5.9479746837168932 5.5317943319678307 7.13817574083805 6.8988306298851958 5.5168300215154886 5.0351379960775393 5.0196384824812394 5.2515654340386382 5.6593031361699104 5.230620399117468 5.0029002856463194 5.1069280877709486 5.5739090815186492 5.0659236628562203 5.0004219952970734 5.7630836479365826 5.0136191472411147 5.0075310207903376 5.0156918466091147 5.5372797790914765 5.5019642356783143 6.7069681975990525 6.2038175929337722 5.2668083589524031 5.0962832700461149 5.1579582057893258 5.0387715455144644
leaf_count=156 358 83 190 228 114 95 240 86 116 141 153 106 65 112 177 123 67 75 117 139 115 108 92 80 86 101 118 83 105 176 130 213 138 147 171 142 166 101 113 111 121 213 194 137 191 241 214
internal_value=0 0.00370416 -0.000922871 0.00853772 0.0233354 -0.0307242 0.0153571 0.0224223 0.015703 0.00904837 0.00125996 -0.058141 0.111594 0.0324157 -0.0138112 0.0694463 -0.0521968 -0.0231419 -0.0392907 0.0288325 0.0463695 0.0722329 0.0222745 0.0538843 -0.0066413 -0.0555181 -0.0232409 0.0138016 0.0570678 -0.0649967 -0.00712383 -0.0817882 -0.0830097 -0.0936763 -0.0920395 -0.0780212 -0.0969917 -0.10538 -0.10407 -0.104516 -0.104395 -0.103062 -0.103794 -0.104274 -0.103591 -0.102638 -0.102418
internal_weight=0 272.059 260.871 223.858 162.582 61.2765 155.474 146.112 141.095 134.146 126.342 37.0133 11.1879 10.0815 103.472 22.8702 50.7021 93.6952 69.1186 15.8247 11.0084 10.5743 24.5766 17.4384 10.5396 58.1102 26.7287 15.946 10.6944 45.504 10.2335 35.2705 31.3815 25.8076 26.9318 10.7827 27.1285 20.7416 13.6511 22.1148 15.7341 21.9314 16.5776 11.4706 10.2321 15.2244 10.1967
internal_count=6748 6277 6129 4882 3257 1625 3143 2903 2817 2701 2560 1247 148 218 2145 415 1422 1968 1635 292 232 203 333 241 161 1403 549 289 206 1355 306 1049 854 716 1029 260 821 569 471 655 468 858 544 331 347 645 455
is_linear=0
shrinkage=0.1


Tree=9
num_leaves=45
num_cat=0
split_feature=76 510 496 285 195 233 327 261 206 6 511 403 510 291 2 238 443 214 115 214 33 492 91 412 408 261 470 5 79 481 476 26 348 464 59 16 510 0 311 239 510 234 0 236
split_gain=13.4566 11.6276 11.2413 11.2536 7.88975 9.09275 20.9868 17.2178 10.9866 8.60841 10.7347 11.6524 12.7359 9.49109 8.42828 10.5618 7.73151 7.64501 10.7061 8.05603 7.08521 6.12876 5.75948 5.74836 9.65526 6.71773 4.94392 4.6518 4.62868 3.54393 3.50273 3.40688 3.20108 2.26812 1.93823 1.12714 0.607736 0.111958 0.0113751 0.00315123 0.00136071 0.000732591 0.000362294 8.05269e-05
threshold=1.0000000180025095e-35 5066.6101854990593 60008.423107988703 25.750000000000004 0.023353561279855092 0.25216471798912582 93.480403929738728 73.755142979242351 1.6687786239717881 29.278994614143588 0.13833087615398171 80079.333333333358 0.34353400222965447 4848.1099932535008 0.0097812668520453304 0.86206959045430642 24461.350075422044 0.59789042408065185 1.7450341275857244 0.63407362010281576 0.026405274859155423 69995.675756143421 1.7259753208411615 64073.355555555558 59326.493055555562 81.80867007681934 43147.685699308953 36.120007208981299 3.3893736962770062 16184.356020778556 62479.883737622287 1.1890785604884428 83.26544944203583 82276.955748939392 5.1073850101849532 15.541400061993089 4378.4511605928219 30.663868645768158 43.88567867498876 0.09500479645970826 0.36480948161276033 0.22694233868863101 77.190995995201618 0.15715222145668331
decision_type=2 2 2 2 2 2 2 2 2 2 2 2 2 2 2 2 2 2 2 2 2 2 2 2 2 2 2 2 2 2 2 2 2 2 2 2 2 2 2 2 2 2 2 2
left_child=1 2 3 4 5 8 14 -8 9 10 32 13 16 20 -7 27 -13 34 28 -20 21 23 30 24 25 26 29 -16 -19 31 33 37 42 40 -10 -30 41 -12 -29 -2 -4 43 -1 -36
right_child=39 -3 22 -5 -6 6 7 -9 17 -11 11 12 -14 -15 15 -17 -18 18 19 -21 -22 -23 -24 -25 -26 -27 -28 38 35 -31 -32 -33 -34 -35 36 -37 -38 -39 -40 -41 -42 -43 -44 -45
leaf_value=-0.10431522794516349 -0.102350150863123 -0.10427106412303228 -0.10280537436552861 0.11934319587360825 0.098069186424970062 0.11574503828339222 0.2860823826898653 0.050113567242970503 -0.025236571077596904 0.10461740227617376 -0.085150651609390435 -0.022854233197436853 0.22465091327534378 0.12631718370359254 0.0011083875678410844 0.084157580208619104 0.13215219041471793 0.02957577634775976 0.16536501174173396 -0.011869161349324555 -0.1069626741893217 -0.09148091744954405 0.050930331019718236 -0.076584775865164878 0.13362361046970028 0.089433819759112312 0.053409931796229396 -0.11093703680728129 -0.1065485899147332 0.024670991767687625 -0.002432968849947694 -0.0050974511629763861 -0.00642420573209868 -0.027468784321154318 -0.10325255012594359 -0.046115714486719535 -0.064022781170478396 -0.10549555878275241 -0.10434592010651743 -0.10559374709961145 -0.10465956118247099 -0.10500616233610044 -0.10313437378478681 -0.10380182440534412
leaf_weight=5.4066690150648338 7.3335998412221652 9.7695957329124195 9.2472057938575833 9.8327681198716146 9.7225122489035112 5.2067986056208637 5.6201576683670265 6.874571492895484 5.0429385825991657 9.4477309025824052 5.242782294750219 8.1677150130271929 5.0321465712040654 5.489059491083025 6.3174563944339814 6.412956725805997 5.3097225949168196 5.031254490837461 5.0860018450766784 5.1732916124165058 6.8317050132900468 6.4532058574259272 5.0247340034693471 6.4751382023096076 6.8505324609577647 7.6373864635825148 7.9781314004212609 5.0333767402917129 8.0333957951515895 6.6781261395663014 6.7317359019070855 6.7415971811860791 5.004488978534936 5.163232557475566 5.0460018087178486 5.011589352041482 5.0104284081608048 5.5875624995678663 5.4574091453105211 5.0630669966340065 6.9193966612219802 5.0291094183921805 5.0017810314893723 5.666250204667449
leaf_count=161 337 321 408 115 180 63 58 130 150 216 161 152 68 81 102 53 64 109 104 93 146 161 118 150 98 150 190 71 179 121 170 140 103 165 192 119 175 139 168 134 223 134 194 182
internal_value=0 0.0028533 0.00683216 0.014674 0.00999827 0.00592832 0.0482337 0.156253 -0.00428761 0.0131557 0.00499517 0.0181369 0.0888999 -6.35091e-05 0.000756857 -0.0250265 0.0382138 -0.0414542 -0.00559766 0.0759939 -0.010499 0.00055 -0.0476674 0.0117153 0.0239542 0.00510851 -0.0148748 -0.0666842 -0.0519055 -0.03734 -0.0653224 -0.060907 -0.0721474 -0.0851704 -0.0808427 -0.0833316 -0.0943557 -0.0956469 -0.107508 -0.103675 -0.103599 -0.104011 -0.103748 -0.103543
internal_weight=0 272.8 263.03 229.944 220.111 210.388 40.9227 12.4947 169.466 115.335 105.888 90.4748 18.5096 71.9652 28.428 23.2212 13.4774 54.1303 28.3355 10.2593 66.4762 59.6445 33.0863 53.1913 46.7161 39.8656 32.2282 16.8082 18.0762 24.2501 28.0616 17.5719 15.4129 21.3298 25.7947 13.045 20.7518 10.8303 10.4908 12.3967 16.1666 15.7414 10.4085 10.7123
internal_count=6748 6277 5956 4872 4757 4577 645 188 3932 2495 2279 1821 284 1537 457 394 216 1437 604 197 1456 1310 1084 1149 999 901 751 341 407 561 966 440 458 796 833 298 683 300 239 471 631 508 355 374
is_linear=0
shrinkage=0.1


Tree=10
num_leaves=42
num_cat=0
split_feature=327 327 237 254 297 291 405 474 199 443 327 57 116 254 2 266 26 383 459 393 474 471 383 309 405 404 98 72 205 397 213 264 201 26 59 222 26 404 459 237 496
split_gain=11.6433 12.9705 13.9105 10.4784 24.192 9.65022 10.4109 10.3029 11.464 9.67759 11.8463 11.1001 10.9916 8.85688 10.2884 8.41671 6.62311 6.26118 6.21383 6.04612 5.49428 6.09356 5.65889 5.40802 5.24486 11.3799 4.73381 4.24255 3.61835 3.09888 2.31857 1.79429 1.62816 0.487622 0.166911 0.0185017 0.00385893 0.00282473 0.00104712 0.000832535 0.000194096
threshold=100.96409387066198 96.46461945226568 0.2476248707982123 85.518199233716487 88.300689553990622 59.416319327731095 177670.50000000003 12711.267696589899 1.679794636044732 7408.1924293658676 94.268740619933553 5.1389021376972606 1.7360951498064214 1.5833333333333337 0.0098338086578581476 107.70835026412028 8.5896000014141105 80953.458333333358 195.51377952026687 4236.5509882950546 118827.372552694 51897.13814921341 57055.857142857152 67.330307447654391 47867.250000000007 20034.027777777781 1.6895549499033264 3.5210999247523866 1.7736230429127431 50352.777777777788 0.87996266117409006 0.86190476190476206 1.7450153173404714 8.6129599942034378 5.1977894591764509 0.66561640212003381 8.5641294537395449 56026.812500000007 215.73709958854099 0.14069612616942065 58554.027801070108
decision_type=2 2 2 2 2 2 2 2 2 2 2 2 2 2 2 2 2 2 2 2 2 2 2 2 2 2 2 2 2 2 2 2 2 2 2 2 2 2 2 2 2
left_child=1 3 26 5 -5 6 9 8 19 10 13 -12 -13 17 -15 30 20 27 -16 -7 21 24 -23 33 25 -11 -3 28 31 -26 34 32 35 -20 36 37 -2 38 -1 -40 -39
right_child=15 2 -4 4 -6 7 -8 -9 -10 16 11 12 -14 14 18 -17 -18 -19 23 -21 -22 22 -24 -25 29 -27 -28 -29 -30 -31 -32 -33 -34 -35 -36 -37 -38 40 39 -41 -42
leaf_value=-0.10512822192686239 -0.10584572774498627 0.090266948184237236 0.21622951626171416 0.22269396866914898 -0.034383824414582126 0.034188733162975708 0.11909102333137417 0.1720839657715032 0.14716920631284958 -0.027544913364809853 0.13122521648837418 -0.10545823589316031 0.082060067316264335 0.11827168897415977 0.040945383748218815 0.050055644469054188 -0.076860041066992346 0.025450980235903021 -0.10531280011113059 -0.09703323571287166 -0.063005379572079648 0.041051936063553618 0.16147831421872375 0.0059542258077089349 -0.092326364061469657 0.13019578993337497 -0.047189951411384226 0.0027944027134355655 -0.0076382479150784209 0.011749724427010874 -0.023344305181285607 -0.033947986468261686 -0.05489633770737426 -0.067053045896208835 -0.083311200297604152 -0.10905380511649372 -0.10268489296633215 -0.10273616511145403 -0.1029924720922252 -0.10458065643016246 -0.10195529791919969
leaf_weight=8.313201682642104 7.9788487888872712 5.0081529524177295 5.786807242780923 6.6268939580768338 8.1776015069335681 7.3416946921497637 5.7438736148178569 5.594277622178196 5.0419196486473075 9.7760959602892452 7.8182888869196203 6.8934530187398178 5.7194243241101503 5.6448250748217097 9.4365344997495395 5.7120569460093966 6.7526589203625909 6.8616114035248748 9.7161119934171456 6.7299551796168089 5.8341516293585292 9.7483850494027156 6.5062923002988091 9.0501063335686904 5.6896810848265869 8.5940297842025739 5.0134716015309095 6.3670200593769541 5.7614397853612891 5.7542771939188242 5.0204997789114705 5.0163077600300303 7.8479151949286452 5.0691631920635691 5.0084227994084349 7.4279041495174161 7.486623166128993 6.85194627009332 7.4207867924123985 5.9448411669582129 5.9450591374188662
leaf_count=225 186 97 52 126 146 88 148 61 81 184 155 184 115 108 233 111 167 188 286 98 68 144 85 255 91 111 119 199 139 84 218 60 226 145 207 142 332 291 293 174 326
internal_value=0 0.00508073 0.0927836 -0.000768809 0.0806912 -0.00619591 -0.0135667 0.0527231 0.0177878 -0.0175402 -0.032453 0.0376054 -0.0204264 -0.0451566 -0.00655867 -0.0596616 0.0163011 -0.0655218 -0.0277371 -0.0285699 0.0284215 0.0399999 0.0892552 -0.0549287 0.0131457 0.0462504 0.021502 -0.074853 -0.0830206 -0.0399946 -0.0842439 -0.0909507 -0.0966981 -0.0921954 -0.0991774 -0.104527 -0.104316 -0.103552 -0.104247 -0.103699 -0.102373
internal_weight=0 252.826 15.8084 237.018 14.8045 222.213 197.505 24.7078 19.1136 191.762 133.106 20.4312 12.6129 112.675 38.9167 31.2065 58.6556 73.758 33.2719 14.0716 51.9029 46.0688 16.2547 23.8354 29.8141 18.3701 10.0216 66.8964 60.5294 11.444 25.4944 54.768 49.7517 14.7853 20.4739 41.9037 15.4655 34.4758 21.6788 13.3656 12.797
internal_count=6748 5694 268 5426 272 5154 4826 328 267 4678 3744 454 299 3290 1027 1054 934 2263 919 186 767 699 229 686 470 295 216 2075 1876 175 943 1737 1677 431 725 1451 518 1309 692 467 617
is_linear=0
shrinkage=0.1


Tree=11
num_leaves=45
num_cat=0
split_feature=76 510 501 514 511 199 392 399 500 236 350 203 512 291 465 496 377 71 408 449 377 261 504 6 261 75 2 510 6 19 71 25 470 98 329 329 411 236 2 471 469 261 430 239
split_gain=11.3677 9.72092 9.46657 9.24091 18.2938 15.9682 8.62958 12.9847 11.5767 11.1451 17.1778 11.0728 9.31561 8.56799 8.43485 8.15674 7.5631 8.03066 6.8804 7.69538 6.8394 7.72213 5.7984 5.7775 4.80205 8.10809 6.01207 4.7761 5.6812 3.89745 6.6718 3.27518 3.21181 4.22884 6.37552 2.36051 1.84718 0.850371 0.561551 0.154603 0.153122 0.0228556 0.00398665 0.00180705
threshold=1.0000000180025095e-35 5066.6101854990593 43012.496198420406 1.5000000000000002 0.050867484571893141 1.7364033077248988 61506.250000000007 20343.708333333339 18652.843476540034 0.23601124415538002 80.956532159320247 1.7340402706830749 23.545108865750151 1106.6963608355743 52272.633022303518 39688.194195138676 26572.951388888894 3.4315724243152301 67149.750000000015 39030.468455827424 28284.083333333339 50.805907571070072 39488.718547703531 29.424740679157761 74.692788062285871 0.51089560013738011 0.41315748699404137 2954.8171783945572 28.56166599103727 10.337709363079798 3.4399374224647699 1.7218131440626168 18859.393971704525 1.6665374329897944 57.978625000732265 62.278617571233411 84733.333333333358 0.24459371576253622 0.40090978594808191 69860.241087738235 55571.035066483513 60.43121793876751 55988.012987012997 0.089115667017685127
decision_type=2 2 2 2 2 2 2 2 2 2 2 2 2 2 2 2 2 2 2 2 2 2 2 2 2 2 2 2 2 2 2 2 2 2 2 2 2 2 2 2 2 2 2 2
left_child=1 2 3 15 -5 6 7 8 12 10 35 -11 -6 27 20 22 17 36 19 -18 21 -9 23 24 25 26 -1 32 -29 30 37 -26 33 38 -35 -10 39 -7 41 42 -17 -14 -4 -2
right_child=43 -3 16 4 5 29 -8 14 9 11 -12 -13 13 -15 -16 40 18 -19 -20 -21 -22 -23 -24 -25 31 -27 -28 28 -30 -31 -32 -33 -34 34 -36 -37 -38 -39 -40 -41 -42 -43 -44 -45
leaf_value=0.021600234232425349 -0.10201048636702487 -0.10376372890805226 -0.10572205916010846 0.18878761408226397 0.12615961155503949 -0.10519607084317087 -0.068709673172277039 0.23185807489028321 -0.1046089623200049 0.069603625875380992 0.16505427797249789 0.25205404770807388 -0.11442194214044094 0.10843603656816084 0.01739318079788511 -0.083852520369105565 -0.015161905605841023 0.052375103513283686 -0.071829419088124236 0.15656079363142544 0.043370569478779895 0.079176603944259932 0.097418432100323582 0.08045243115484875 -0.10634012911625079 0.11580107659619719 -0.11128309352218424 0.096321331427484239 -0.037632360450350906 -0.10564575527036953 0.051742381878908894 -0.022671498774889248 0.025190584646402222 -0.092740923421752122 0.039161423269242573 -0.0097263617576344597 -0.034403845829786971 -0.046885744943014694 -0.06893284174104973 -0.084012253804179357 -0.10746069037778808 -0.10511213119290019 -0.1025534142523703 -0.10461249805238759
leaf_weight=8.5111958384513873 5.7155239377170783 8.4609731864184123 7.7487649675458767 6.6713825408369294 5.0482712537050238 5.0027165133506113 7.6147950468584886 8.6815577093511873 5.4248585375025886 9.0664340909570438 5.0930968560278407 5.2539160903543225 5.0255487244576234 5.0146547034382811 8.5807972894981486 5.0064646666869503 5.3737860992550832 5.0123984050005665 5.2801913414150468 5.0732772201299667 5.6581462137401095 5.3563555460423222 5.2536907820031038 5.6618015971034756 9.2236509434878844 5.0679106432944527 5.6748399809002867 5.82999489456415 6.9292888585478067 8.8885432789102179 6.906266262754797 9.494409757666288 5.1582191921770564 6.8098397310823184 7.9336773669347167 5.0748218642547727 5.557678203098475 5.0013752849772573 5.0245497599244109 5.0495837060734621 6.0883959960192442 5.5483401045203209 8.1436226367950422 5.007339277304709
leaf_count=210 307 321 216 112 80 148 207 142 169 103 76 47 75 76 163 205 100 114 89 57 68 131 86 108 217 76 100 114 167 257 165 215 92 148 192 135 175 142 94 198 140 152 395 164
internal_value=0 0.00174509 0.00512888 0.0139757 0.0267597 0.0195498 0.0344282 0.0411689 0.0222706 0.0728482 0.0143521 0.136542 -0.00367031 -0.015973 0.10014 -0.0193999 -0.0354314 -0.0636988 0.0212069 0.0682296 0.136189 0.1736 -0.00183248 -0.0137827 -0.0278336 0.00722967 -0.0315571 -0.0289004 0.023574 -0.0520351 -0.023856 -0.0639007 -0.0477605 -0.0601624 -0.0217626 -0.0587493 -0.0856541 -0.0760448 -0.0964576 -0.0992552 -0.0968077 -0.109537 -0.104098 -0.103226
internal_weight=0 272.28 263.819 216.58 156.597 149.926 124.127 116.512 88.2355 29.9131 15.5928 14.3204 58.3224 53.2741 28.2769 59.9824 47.2393 31.512 15.7273 10.4471 19.6961 14.0379 48.8875 43.6338 37.972 19.2539 14.186 48.2595 12.7593 25.7989 16.9104 18.7181 35.5002 30.342 14.7435 10.4997 26.4996 10.0041 15.5984 20.942 11.0949 10.5739 15.8924 10.7229
internal_count=6748 6277 5956 4612 3255 3143 2431 2224 1720 530 380 150 1190 1110 504 1357 1344 1098 246 157 341 273 1012 926 818 386 310 1034 281 712 455 432 753 661 340 304 984 290 321 809 345 227 611 471
is_linear=0
shrinkage=0.1


Tree=12
num_leaves=44
num_cat=0
split_feature=76 509 458 509 511 509 23 510 51 71 113 399 383 441 16 291 384 86 507 507 430 507 439 327 205 50 98 31 27 205 500 393 438 201 481 434 463 68 408 377 226 245 254
split_gain=10.1727 9.65761 9.76152 8.44957 20.7043 11.9291 13.2453 10.698 11.365 8.37525 8.60668 8.03732 13.2519 11.2617 12.4155 11.9117 9.40408 9.10375 7.61711 5.89799 5.56459 6.34701 8.06901 6.55077 9.0393 5.10342 7.64987 5.08961 4.8838 4.65083 3.74302 3.42393 3.12911 2.58165 1.68922 1.68376 1.46474 1.3777 0.18071 0.0201708 0.00455109 0.00120968 0.000865777
threshold=1.0000000180025095e-35 8669.4410466816516 64600.639460333747 0.47873129682027155 0.043507287259050308 3387.6222924109611 8.567446739526261 2506.0236776150468 5.1606822688749636 3.4711383274479268 1.6838716790637347 32480.250000000004 80953.458333333358 21112.388888888894 15.451839798883304 66.436579720466497 55237.330357142862 1.7191742351258783 69213.320185477627 99395.467664674579 50491.655555555561 30431.75371675807 54092.750000000007 94.268740619933553 1.7130561153892296 0.0042613818970236314 0.17143687743487504 0.10265114185387146 6.7758816862121529 1.7719590507311473 18517.036239238751 4212.6206225680935 86338.125000000015 1.711753065484221 43269.962175931105 151.17850113386405 10717.337031934881 3.4168847641262512 45971.166666666679 12900.444444444447 0.62715250328635119 14.934469557409576 0.70833333333333337
decision_type=2 2 2 2 2 2 2 2 2 2 2 2 2 2 2 2 2 2 2 2 2 2 2 2 2 2 2 2 2 2 2 2 2 2 2 2 2 2 2 2 2 2 2
left_child=1 2 3 20 -5 7 9 8 11 10 25 13 16 14 15 17 18 31 -13 32 21 23 -23 27 -25 30 -27 36 -8 37 -7 -6 38 -12 -22 -10 41 -30 -4 -40 42 -1 -39
right_child=-2 -3 19 4 5 6 28 -9 35 -11 33 12 -14 -15 -16 -17 -18 -19 -20 -21 34 22 -24 24 -26 26 -28 -29 29 -31 -32 -33 -34 -35 -36 -37 -38 40 39 -41 -42 -43 -44
leaf_value=-0.10658039521544381 -0.10291585892591266 -0.10349924919250615 -0.085478395319039224 0.2137429997072495 -0.06993988584349492 -0.073094331739989582 0.025388428524768428 0.15754478800368169 -0.026774950432377417 0.12810577428721093 -0.10659843608607865 0.19296924907758478 0.21588457314515425 -0.077666753330261143 -0.051087377463126138 0.18916960425587673 -0.047342593636934278 0.1466086608640704 0.028749524743048732 0.043279037340383825 -0.10387325548045429 0.15244655735344179 -0.016237266374256133 -0.052053508759373063 0.088272428047275781 0.15966802466110011 0.016041502412564388 0.030391095700413085 -0.046609454455368904 0.012537788039836168 0.038806623542462511 0.039591426627360003 -0.0099835166538232017 -0.011469352291683985 -0.037082791660482804 -0.1086698600860625 -0.044647267191987104 -0.10379770639872608 -0.10365410788111054 -0.11260929508133946 -0.10789332812974056 -0.10450289781041761 -0.10543790754902072
leaf_weight=5.3239619471132809 9.7301522567868215 8.5422837473452073 5.419056377373642 5.4902223087847224 5.4212602339685017 5.4184319721534866 5.8877956410869947 7.3869680669158688 5.0306029869243485 6.6347944093868128 6.6046840297058207 5.1599673861637765 6.39601807296276 9.2058195471763593 9.2930014086887223 7.5420473245903841 6.5408893544226876 5.2645029537379733 6.2403725665062666 5.0004568472504607 8.0313341999426466 5.3097873702645284 6.0862583573907614 8.687413118779661 9.7340087974444014 6.335882941260933 8.9423008179292065 5.0054213199764481 5.0545443110168042 5.0635679336264721 6.6674401555210352 6.0265956418588758 5.1148819336667648 5.0219674659892917 7.1647282009944311 5.0115494979545474 6.1066890601068726 8.2900612931698578 5.0324959522113186 5.0283365305513144 5.2887034807354203 5.9186090501025319 5.2601931812241665
leaf_count=131 471 351 234 76 138 113 166 99 168 152 153 83 101 168 128 95 163 80 82 94 313 89 84 182 167 138 198 102 136 146 116 122 132 119 220 108 113 293 226 74 100 180 144
internal_value=0 0.00114574 0.0045389 0.0108535 0.0227018 0.0163447 -0.0112125 0.0425817 0.0315717 0.0242425 0.0065688 0.0464225 0.0922973 0.0203083 0.0471939 0.08485 0.0482386 0.0377721 0.103078 -0.0541405 -0.0191296 -0.00361878 0.062358 -0.0220579 0.0220957 0.0371937 0.0756036 -0.0584427 -0.0576369 -0.0745183 -0.0113617 -0.0122784 -0.0777942 -0.0655088 -0.0723825 -0.0676447 -0.0840721 -0.0929675 -0.1002 -0.10813 -0.105405 -0.105487 -0.104434
internal_weight=0 271.986 263.444 237.848 170.48 164.99 80.4704 84.5196 77.1326 45.6255 38.9907 67.0905 24.3372 42.7532 33.5474 24.2544 17.9412 16.7124 11.4003 25.5952 67.3682 52.1721 11.396 40.7761 18.4214 27.3641 15.2782 22.3547 34.8449 28.9571 12.0859 11.4479 20.5948 11.6267 15.1961 10.0422 17.3493 23.8935 15.4799 10.0608 18.839 11.2426 13.5503
internal_count=6748 6277 5926 5166 3585 3509 1974 1535 1436 989 837 1160 429 731 563 435 328 340 165 760 1581 1048 173 875 349 565 336 526 985 819 229 260 666 272 533 276 424 673 534 300 537 311 437
is_linear=0
shrinkage=0.1


Tree=13
num_leaves=44
num_cat=0
split_feature=19 285 430 7 327 514 493 377 316 8 514 254 322 458 410 464 405 360 37 327 203 395 492 2 463 198 81 25 241 81 395 434 8 461 435 0 25 393 392 443 239 216 434
split_gain=9.12132 9.31222 8.40503 7.13251 5.89519 5.96693 8.51866 11.0204 8.45926 7.72506 9.24212 7.48492 7.85159 7.31322 9.08943 9.96545 13.5182 8.67308 6.65677 6.45949 17.1061 7.99161 10.0499 14.7382 9.67387 7.80262 6.35186 4.59264 4.16284 3.63753 3.32065 2.78758 2.33526 2.27929 1.82423 1.72452 5.67962 1.64456 0.12676 0.0111905 0.0055911 0.00449962 0.000615107
threshold=10.409768136282068 25.750000000000004 103820.37500000001 1.7194106550975656 141.47987903731254 1.5000000000000002 49743.907136789734 22833.395833333339 107.45348855988405 25.943560604183205 17202.500000000004 66.295563341827474 86.06016569755856 66087.429457101083 62248.714285714297 36335.903880146994 59688.312500000007 82.707764903183588 0.002531261489460999 93.655077107421207 1.7340402706830749 4293.3726881523535 13264.058877385216 0.27732594290496348 46808.581681876873 1.7230548538536217 3.4443750566981315 1.6876633149485034 0.24312578203402832 3.4119372466426516 124.52801742501705 3112.4396551724144 25.855300852882248 18922.579005061645 32759.200000000004 31.522589531539314 1.6823060363915963 11964.500000000002 38236.119047619053 13658.677281397706 0.12940318187769392 0.63242804608879599 2831.4463350785345
decision_type=2 2 2 2 2 2 2 2 2 2 2 2 2 2 2 2 2 2 2 2 2 2 2 2 2 2 2 2 2 2 2 2 2 2 2 2 2 2 2 2 2 2 2
left_child=1 2 4 -3 5 6 7 18 9 10 13 27 -13 14 17 -16 -17 19 26 21 -21 22 23 25 37 -7 35 33 30 31 -2 -23 41 -12 -8 38 -37 -24 -1 -36 -32 42 -29
right_child=28 3 -4 -5 -6 8 34 -9 -10 -11 11 12 -14 -15 15 16 -18 -19 -20 20 -22 29 24 -25 -26 -27 -28 32 -30 -31 40 -33 -34 -35 39 36 -38 -39 -40 -41 -42 -43 -44
leaf_value=-0.10442736278536098 -0.026140839445319055 0.0021875155586664704 -0.092927018643598258 0.16138770849098219 -0.10352975984798013 -0.052159698027134827 -0.034053149382735369 0.13312794098828837 0.12485062041306938 0.097535805994933264 -0.050970998538058948 0.081924229088013042 -0.069790998612507052 -0.072301413078673535 -0.017719395607412366 0.25970372738240127 0.046401044508564832 -0.1075100043081591 0.054516459553416455 -0.027113265998962573 0.2257062262324655 -0.05728999040016855 -0.033437680029822635 0.18936375872237526 0.064761278124893407 0.10827723974141633 0.036905925442457098 -0.10423013458825583 0.018741220998601846 -0.094652430948005808 -0.10199785141503054 0.043071171868065083 -0.027270662356401 0.042774142130294728 -0.10304872861961162 0.037022895750832334 -0.10606749744611509 -0.11020442999969449 -0.083091282162562119 -0.10942039200673748 -0.10594483650416882 -0.10708180570604893 -0.10273989299495255
leaf_weight=6.2788068726658874 8.7685121428221517 5.0061382427811605 9.4889656910672766 6.4273136332631111 5.0700522838160387 7.0780209256336111 5.1642328929156092 5.5601960383355609 6.7843820117413989 9.6347774388268572 5.2548352191224712 9.4190281024202687 5.3479035533964625 7.5792861729860297 5.3856342239305404 5.5812272131443006 6.3534221248701215 5.3778563477098933 9.8088507810607535 5.5076478552073223 5.205916166305542 5.3657889403402823 5.1074969097971934 8.2064012438058835 8.7560920976102334 5.3020346015691757 7.8919803481549016 5.4670548280701095 6.0001215105876318 7.8043041136115781 6.6183072999119741 5.7154614441096783 5.154639587737619 5.1212500613182783 5.904303456656633 5.1862751124426705 5.9637315822765231 6.1518956711515784 5.0035314364358783 5.1700188834220171 7.8408115189522505 5.029036075808107 5.6138007575646043
leaf_count=210 378 55 381 69 209 139 110 62 103 255 141 206 106 185 92 68 112 101 213 90 56 94 122 105 132 83 174 182 108 191 376 88 178 97 270 82 150 109 219 79 205 112 251
internal_value=0 0.00351131 -0.000692649 0.0916819 0.00310753 0.00550792 -0.0209221 0.00118717 0.0155313 0.0107928 0.00510305 -0.0318064 0.02698 0.0221503 0.0298562 0.0951971 0.146152 0.0148822 -0.0170924 0.0242582 0.0957363 0.0113851 0.0363826 0.0854395 -0.0140738 0.016551 -0.0402553 -0.0592425 -0.0555128 -0.0423568 -0.0746939 -0.00552594 -0.0858557 -0.00470188 -0.0831352 -0.0674016 -0.0395109 -0.0753814 -0.0949652 -0.106023 -0.104138 -0.104601 -0.103475
internal_weight=0 251.23 239.796 11.4335 230.307 225.237 61.9319 45.6934 163.305 156.521 146.886 46.4075 14.7669 100.478 92.8992 17.3203 11.9346 75.5789 40.1332 70.2011 10.7136 59.4875 40.6019 20.5865 20.0155 12.3801 30.3243 31.6406 29.2278 18.8856 23.2276 11.0813 21.2645 10.3761 16.2386 22.4323 11.15 11.2594 11.2823 11.0743 14.4591 16.1099 11.0809
internal_count=6748 5681 5557 124 5176 4967 1569 1110 3398 3295 3040 1273 312 1767 1582 272 180 1310 1048 1209 146 1063 690 327 363 222 835 961 1067 373 959 182 723 238 459 661 232 231 429 349 581 545 433
is_linear=0
shrinkage=0.1


Tree=14
num_leaves=44
num_cat=0
split_feature=76 509 496 458 285 25 507 195 443 233 72 208 216 0 443 229 465 406 403 435 271 279 311 0 408 201 357 403 384 86 283 449 329 100 269 478 311 198 14 213 220 226 404
split_gain=8.7092 8.06289 7.26146 6.07136 7.02525 6.83577 6.26886 5.61484 5.41206 7.4664 8.70447 7.81002 10.8184 7.26528 6.89776 5.61299 5.44777 7.42445 5.98835 5.37943 5.95001 14.8795 8.72657 13.1161 7.10234 5.99343 6.18824 5.28651 5.09419 4.34453 3.86156 3.37842 2.56708 2.34667 2.30504 1.63896 0.991068 0.982857 1.91464 0.178664 0.00855361 0.00438569 0.00175176
threshold=1.0000000180025095e-35 8669.4410466816516 92618.58926004477 64600.639460333747 25.750000000000004 1.7212828870732257 89458.036166593607 0.023353561279855092 17634.582880279129 0.25606625187540938 3.4244962335108311 0.67244650906580594 0.61787680279010371 76.913214201362024 19921.727705933743 0.88271219007652479 33460.49084375894 57648.984126984134 64408.000000000007 71349.625000000015 94.192929504513089 104.08997909199523 48.581072957447958 77.445795623483761 65351.722222222226 1.7725049047872901 2754.3094332690457 22524.21428571429 60352.333333333336 1.7344416220768994 81.940765924513201 57363.259587978355 59.523538233616627 1.770181016531289 156.76931818181819 40731.422096297938 30.491546038784488 1.6654013712162168 0.0062098913906422854 0.56372020921912636 0.60826275901275051 0.63670680702142957 46582.666666666679
decision_type=2 2 2 2 2 2 2 2 2 2 2 2 2 2 2 2 2 2 2 2 2 2 2 2 2 2 2 2 2 2 2 2 2 2 2 2 2 2 2 2 2 2 2
left_child=1 2 3 4 7 -6 35 8 9 19 13 12 15 -11 -10 -12 18 -18 -16 20 22 -22 23 24 25 26 29 33 -19 31 -9 32 34 37 40 -5 -4 38 -24 -39 42 -41 -1
right_child=-2 -3 36 6 5 -7 -8 30 14 10 11 -13 -14 -15 16 -17 17 28 -20 -21 21 -23 27 -25 -26 -27 -28 -29 -30 -31 -32 -33 -34 -35 -36 -37 -38 39 -40 41 -42 -43 -44
leaf_value=-0.10545830380522213 -0.10257275708262413 -0.1031191024482133 -0.044397177293737378 -0.039307433256839025 -0.0014210910913888123 0.15022752893340646 0.045550618554738742 0.13324497382034037 0.14367318009266269 0.18859703254787633 -0.058441744656140972 -0.086151332727592234 0.16092456441123307 0.026487468347816824 0.027308299934183905 0.064138198589428277 -0.017846894561410694 0.18235099550277678 -0.096635801122764833 -0.092060574806485024 0.17493688326103296 -0.055637143329278299 -0.026643473588471286 0.14980756122756639 0.10537042057459722 0.085987282881929972 0.045088525476444812 0.028212601095212165 0.042324088927503084 0.015752411445496533 0.016130468811365005 0.0068483296589901543 -0.010527093236122196 -0.015998118254822082 -0.029264173937755312 -0.10705615250042527 -0.10492695540956143 -0.083147896726956272 -0.10472090905519903 -0.10408112268429857 -0.10915289829967534 -0.10817292715546381 -0.10306019271250462
leaf_weight=7.3356411010027021 8.4791074804961664 7.3267434304580084 5.0564831336960179 6.0071370648220208 5.1962127611041051 6.9454968310892582 5.4869782757014027 5.7544943019747716 5.24028730764985 5.646899947896598 8.8336992384865933 7.0988931376487008 5.1519767763093105 5.4163787122815847 9.9648343948647398 6.4727183878421775 7.3916669394820955 5.2650371659547073 6.4028398543596259 8.6278663743287307 5.5719495173543674 5.623371746391058 7.0995715009048599 5.6939118895679703 5.0285810716450206 5.0165876140817991 9.4375993330031616 6.641166089102625 5.1290546581149101 9.4729923224076611 5.5123450569808483 6.0812184922397128 5.0240963613614431 6.7169091356918207 5.0027187364175907 8.8043065089732391 5.8166016014292836 5.0050822570919982 5.6325246756896377 5.2704570107161981 5.6343441754579535 5.2076717484742403 5.2090439405292273
leaf_count=240 471 351 259 225 61 63 89 98 52 63 210 99 61 77 164 50 108 58 95 336 79 93 204 151 104 118 131 163 74 229 81 144 135 206 115 295 180 215 161 181 105 108 246
internal_value=0 0.00035259 0.00323593 0.00668755 0.0112807 0.0853274 -0.0457545 0.00718693 0.00346862 -0.00431383 0.0343042 0.00422365 0.035583 0.109231 0.0368464 -0.00660561 0.0204556 0.0587689 -0.0211772 -0.0157572 -0.0103479 0.0591203 -0.0173855 0.00443696 -0.00865112 -0.0185004 -0.0283537 -0.0535713 0.113254 -0.0441927 0.0759462 -0.0607546 -0.0753299 -0.0691197 -0.0893744 -0.079579 -0.0767778 -0.0817658 -0.061184 -0.0986905 -0.105916 -0.106115 -0.104463
internal_weight=0 270.254 262.928 252.055 231.756 12.1417 20.2984 219.614 208.348 168.954 38.6206 27.5573 20.4584 11.0633 39.3937 15.3064 34.1534 17.7858 16.3677 130.333 121.705 11.1953 110.51 68.9367 63.2428 58.2142 53.1977 41.5734 10.3941 43.7601 11.2668 34.2871 28.2058 34.9322 23.1817 14.8114 10.8731 28.2153 12.7321 15.4832 18.179 10.4781 12.5447
internal_count=6748 6277 5926 5487 4878 124 609 4754 4575 4024 560 420 321 140 551 260 499 240 259 3464 3128 172 2956 1718 1567 1463 1345 1238 132 1214 179 985 841 1075 706 520 439 869 365 504 591 289 486
is_linear=0
shrinkage=0.1


Tree=15
num_leaves=44
num_cat=0
split_feature=76 509 493 439 514 441 6 496 403 410 469 427 399 450 0 439 285 195 209 327 218 461 71 238 320 308 65 408 57 459 493 222 204 509 384 463 103 410 261 501 239 377 120
split_gain=7.82694 7.20501 6.63754 9.29258 8.86918 10.4636 7.32922 5.4624 5.89687 10.0941 8.2411 11.3736 8.10852 7.15862 10.9271 6.1107 6.10202 6.62564 9.61064 8.90184 7.83902 7.75241 7.95541 7.6822 7.65547 18.0633 7.51812 5.44513 5.27701 5.00125 4.49432 3.668 3.08543 2.00031 1.83769 1.73609 1.60232 0.867295 0.621618 0.530805 0.0140441 0.0106574 0.000294347
threshold=1.0000000180025095e-35 8669.4410466816516 49743.907136789734 62784.805555555562 1.5000000000000002 45270.666666666679 36.875095600470722 65897.922025186737 53900.76666666667 20838.000000000004 52747.529316879925 22845.250000000004 33295.87777777778 7753.9167292473958 31.304494205588611 15823.055555555557 37.500000000000007 0.023353561279855092 0.5992808631813481 94.744949301980455 0.65111684368831713 297.2536806075463 3.4586548027905288 0.86206959045430642 89.482486865256803 95.665408805031461 5.1533578519931629 38617.736111111117 5.1145405181914212 27438.846192457182 84357.071711590426 0.59958686249153514 1.721647841678952 1176.9706470306137 55237.330357142862 1.0000000180025095e-35 0.61792032582410605 50260.250000000007 76.007839916326461 19835.865314028266 0.24486247955978688 21903.277777777781 1.6968048887463476
decision_type=2 2 2 2 2 2 2 2 2 2 2 2 2 2 2 2 2 2 2 2 2 2 2 2 2 2 2 2 2 2 2 2 2 2 2 2 2 2 2 2 2 2 2
left_child=1 2 6 4 37 -6 7 8 9 13 -10 -12 -13 16 -15 -16 17 18 23 21 -21 -20 28 24 31 -26 -22 -7 -23 -14 -29 33 -30 36 -9 -11 -1 -4 40 -5 42 -41 -35
right_child=-2 -3 3 39 5 27 -8 34 10 35 11 12 29 14 15 -17 -18 -19 19 20 26 22 -24 -25 25 -27 -28 30 32 -31 -32 -33 -34 38 -36 -37 -38 -39 -40 41 -42 -43 -44
leaf_value=-0.087319363210440606 -0.10232840170128472 -0.10282179474488527 -0.048209907723601543 -0.067195726327865843 -0.076283323959920102 0.15924201958669371 0.12430911440370195 -0.012348882766122162 0.12859662697407398 -0.034751102346886047 -0.092017744088513959 0.16540015903826452 -0.035705976959137929 -0.03709994712805887 0.21411975479551992 0.059429598011121382 0.088271542881192364 0.088651905086764182 -0.094564411123718065 0.15983019439351748 0.10151166302525033 0.051693915328885266 0.092706569721953055 0.068557651382228801 0.16613915813780991 -0.091471040038730758 -0.062199859052664702 -0.02737455170755855 -0.10955689066352386 0.087801816445379377 0.090625448162801728 -0.0013393155517125895 -0.0069112005164317994 -0.10356445443990492 -0.090485449987410052 -0.1066314618801225 -0.011579218702923345 -0.1057635231649984 -0.065441382419410707 -0.10335109032948774 -0.10910943477897939 -0.10969224028808838 -0.10263668766472805
leaf_weight=5.0741246128454787 7.6896022530272594 6.6477048946544519 5.0061730081215483 5.0193415796384206 6.5989090399816659 5.0295421462506082 5.5002069780603042 5.2390432916581613 9.4257313376292569 5.6079197879880658 6.7571640061214593 5.2037186026573208 7.5106830690056068 5.6478263130411497 5.0718247424811107 5.1433721370995045 7.9403467215597621 7.5271605644375077 7.8659753864631048 7.2316546654328731 6.1219695322215539 6.5056625334546032 9.396740432828663 6.3065329305827609 5.0165670048445445 5.9505743999034166 5.1774479281157255 5.942639881744979 6.1382305519655329 5.8185716513544321 7.0652522621676326 7.0303210271522394 5.6001385459676385 7.0764491483569198 7.0744714392349124 8.3829017672687751 6.2136085908859968 5.4893169049173594 5.0664853537455192 5.0822821147739869 5.4722449947148553 5.539056183770299 6.617552537471056
leaf_count=161 471 351 167 152 198 84 82 226 179 165 200 72 135 135 54 68 72 105 181 107 103 96 154 48 76 97 93 115 123 63 86 175 93 263 268 230 199 163 157 233 137 94 317
internal_value=0 -8.23606e-06 0.00259562 -0.0298765 -0.0013314 0.0314634 0.010383 0.0073443 0.0114457 0.00330175 0.0487886 0.0190439 0.0595372 0.0111186 0.07452 0.136233 0.00334211 -0.00221331 -0.00822019 0.0223485 0.0785303 -0.00697298 0.0179537 -0.0358321 -0.0481333 0.0263645 0.0264982 0.070882 -0.0205484 0.0182084 0.0367173 -0.0673345 -0.0605867 -0.0803965 -0.0572406 -0.0778198 -0.0456263 -0.0783114 -0.0965926 -0.0939939 -0.104827 -0.106658 -0.103116
internal_weight=0 269.133 262.486 50.7725 35.1318 24.6363 211.713 206.213 193.9 159.184 34.7159 25.2901 18.533 145.193 15.863 10.2152 129.33 121.389 113.862 54.0378 18.5311 35.5067 27.6408 59.8245 53.5179 10.9671 11.2994 18.0374 18.244 13.3293 13.0079 42.5508 11.7384 35.5205 12.3135 13.9908 11.2877 10.4955 24.2327 15.6407 19.1662 10.6213 13.694
internal_count=6748 6277 5926 1292 813 483 4634 4552 4058 3409 649 470 270 3014 257 122 2757 2685 2580 950 303 647 466 1630 1582 173 196 285 312 198 201 1409 216 1234 494 395 360 330 874 479 717 327 580
is_linear=0
shrinkage=0.1


Tree=16
num_leaves=41
num_cat=0
split_feature=205 244 235 434 232 1 0 25 272 373 507 509 476 58 510 443 237 311 206 6 103 0 199 1 327 262 411 393 512 203 28 507 81 458 195 205 217 377 320 54
split_gain=7.4668 10.6092 10.6382 14.0847 7.58761 8.35453 7.59604 11.9988 7.47356 6.42921 6.33639 7.78469 10.0374 5.86306 5.69831 7.65754 5.65431 6.52924 6.7239 4.82572 10.1775 4.4248 6.11845 4.19162 3.65087 8.20173 3.52202 3.79438 7.29965 3.43688 3.31794 2.91977 2.85296 0.576361 0.403307 0.372062 0.112678 0.0148745 0.00355734 0.000614762
threshold=1.7719590507311473 0.25522229555884163 0.23587159760465001 144.80819727498414 0.26532942677260341 138.27383463713343 31.827725990691416 0.23403432771323576 105.01148124869057 76.657665425237937 105874.3695806625 0.51035530490116565 59707.736491218224 5.1117251552585667 0.2683454756625489 18561.936651392356 0.13699744255901811 51.803792279111761 1.6610312125536566 28.453892224956491 1.6806435844719281 76.8706052612294 1.6987915770991437 209.43214459303525 79.922687169459635 84.699430199430211 66854.388888888891 17905.642857142859 24.500499001996012 1.6890460873281901 6.8397323731575304 75420.710337652432 3.4555914945670207 58840.06286841572 0.0030238887319551295 1.7045562758195603 0.61413165951288806 16528.444444444449 57.776761849575934 5.1610625499402962
decision_type=2 2 2 2 2 2 2 2 2 2 2 2 2 2 2 2 2 2 2 2 2 2 2 2 2 2 2 2 2 2 2 2 2 2 2 2 2 2 2 2
left_child=4 2 3 -2 5 6 10 -8 16 -9 11 14 26 -6 15 -1 23 18 -18 -15 -21 22 -20 38 34 -26 27 28 -13 -24 -23 33 -31 37 -25 -32 -19 -16 39 -7
right_child=1 -3 -4 -5 13 8 7 9 -10 -11 -12 12 -14 19 31 -17 17 36 21 20 -22 30 29 24 25 -27 -28 -29 -30 32 35 -33 -34 -35 -36 -37 -38 -39 -40 -41
leaf_value=-0.058383984440694495 0.15089270875051344 -0.077209666202364899 0.17032884465835901 -0.058087523283685133 0.11836582166945729 -0.10302795465234763 0.15669657117019509 -0.06791582767188499 0.070067924218117056 0.079622325516042536 0.073254995933742018 0.043045134177193911 0.10791814758539503 -0.068518109660142087 -0.10423369798292635 0.0950226472623555 0.07871578065759241 -0.086559387959872003 0.072699996378230117 0.11808838952931296 -0.042337240521161612 -0.0088574397205927243 0.040090911792531492 -0.067229347006359255 0.069707494714508697 -0.081437720334081837 -0.091695287900985079 0.058837024084375383 -0.10750854487728106 -0.014246370182559843 -0.071974223052947039 -0.011939694910391168 -0.10694618029715325 -0.06814214257598887 -0.1066018726341556 -0.10753058553976645 -0.10745575797739147 -0.11056527818495961 -0.10511091232091346 -0.10172449904118873
leaf_weight=8.5678711151704174 5.2446362720802489 5.8249394409358493 7.557468691840767 8.3751537073403579 6.5833546472713378 6.3560887966305044 7.5231982357800034 6.847867018543182 6.1000345451757303 5.1936933482065797 7.8906646966934195 6.5086481105536276 8.5109639531001431 5.6840732507407692 7.9486059024930054 5.2462922651320687 7.299085719510912 5.0143451141193491 8.4007445685565489 8.0120379123836738 7.8085980070754877 7.6727383537218001 5.0389392962679294 5.0196118559688347 6.8139749681577069 7.5883937291800976 5.120449327863752 7.2880715923383823 6.3746218252927065 7.2291946588084084 5.0097602196037752 5.0147942611947647 6.139613320119679 5.0644693383947006 5.4009572090581059 7.1333579448983073 5.316351062618196 6.9586894707754254 6.3867027899250379 8.4007391361519677
leaf_count=376 110 175 97 293 81 339 82 106 109 77 144 138 129 48 341 71 138 162 172 72 130 158 104 171 276 152 123 94 170 161 118 112 158 227 149 162 131 118 194 574
internal_value=0 0.0423076 0.0751816 0.0223855 -0.0131062 -0.0194536 0.00173267 0.0576197 -0.0376779 -0.00428056 -0.0118511 -0.0211006 0.0139815 0.0357916 -0.0516637 -0.000123777 -0.043641 -0.0244839 -0.0105313 0.0105127 0.038907 -0.024503 0.00198265 -0.0704196 -0.0425499 -0.00992867 -0.0176292 0.00117234 -0.0314486 -0.0302906 -0.0603349 -0.0801583 -0.0568187 -0.0972876 -0.087636 -0.0928615 -0.097313 -0.107189 -0.103139 -0.102286
internal_weight=0 27.0022 21.1773 13.6198 244.468 216.38 100.059 19.5648 116.321 12.0416 80.4941 72.6035 33.8028 28.0881 38.8007 13.8142 110.221 64.2541 53.9234 21.5047 15.8206 46.6243 26.8085 45.9665 24.8229 14.4024 25.2918 20.1713 12.8833 18.4077 19.8159 24.9866 13.3688 19.9718 10.4206 12.1431 10.3307 14.9073 21.1435 14.7568
internal_count=6742 675 500 403 6067 5736 2308 265 3428 183 2043 1899 654 331 1245 447 3319 1464 1171 250 202 1033 595 1855 748 428 525 402 308 423 438 798 319 686 320 280 293 459 1107 913
is_linear=0
shrinkage=0.1


Tree=17
num_leaves=39
num_cat=0
split_feature=54 205 78 214 404 24 69 70 29 500 386 91 507 439 470 435 476 435 438 312 263 342 512 392 412 231 386 474 387 103 383 203 71 408 435 411 220 377
split_gain=6.9469 7.4812 9.63746 8.67602 7.24645 5.72343 7.98665 6.77147 6.65553 6.58401 8.49068 9.42884 5.41536 5.12603 10.2662 4.8236 9.77881 5.65402 5.35718 4.16242 13.7006 7.07803 5.33137 4.6158 4.86512 4.83871 5.88288 3.36505 3.50535 3.0474 2.97946 2.18186 2.0688 4.27648 0.750063 0.501369 0.129878 0.00805089
threshold=5.2415464284340549 1.7719590507311473 3.4695737246174407 0.601383934499232 69822.714285714304 8.5086189445298874 3.4554943477513769 3.4101292612745406 6.7984098907798947 123.73069655568614 7905.4051094890519 1.7132665118062629 105874.3695806625 61783.805555555562 53654.766670544384 18259.666666666668 52600.543599256758 14146.736111111113 53957.145833333336 80.387233949596677 89.653729452865136 105.56001090139023 23.751247504990022 14891.182539682542 10060.000000000002 0.24479923954452443 8140.0263157894742 38502.803976665651 72051.000000000015 1.2793309323623518 67455.250000000015 1.6868735813645648 3.41632994011536 8772.6666666666697 30728.600000000002 55456.900000000009 0.59916762741178597 16273.66666666667
decision_type=2 2 2 2 2 2 2 2 2 2 2 2 2 2 2 2 2 2 2 2 2 2 2 2 2 2 2 2 2 2 2 2 2 2 2 2 2 2
left_child=1 4 3 -3 5 6 12 31 -9 -10 11 -11 13 14 15 17 34 19 -18 22 -21 -22 -1 24 25 29 -27 28 -6 -24 -15 -7 33 -2 -17 -29 -33 -36
