tree
version=v4
num_class=1
num_tree_per_iteration=1
label_index=0
max_feature_idx=514
objective=binary sigmoid:1
feature_names=Column_0 Column_1 Column_2 Column_3 Column_4 Column_5 Column_6 Column_7 Column_8 Column_9 Column_10 Column_11 Column_12 Column_13 Column_14 Column_15 Column_16 Column_17 Column_18 Column_19 Column_20 Column_21 Column_22 Column_23 Column_24 Column_25 Column_26 Column_27 Column_28 Column_29 Column_30 Column_31 Column_32 Column_33 Column_34 Column_35 Column_36 Column_37 Column_38 Column_39 Column_40 Column_41 Column_42 Column_43 Column_44 Column_45 Column_46 Column_47 Column_48 Column_49 Column_50 Column_51 Column_52 Column_53 Column_54 Column_55 Column_56 Column_57 Column_58 Column_59 Column_60 Column_61 Column_62 Column_63 Column_64 Column_65 Column_66 Column_67 Column_68 Column_69 Column_70 Column_71 Column_72 Column_73 Column_74 Column_75 Column_76 Column_77 Column_78 Column_79 Column_80 Column_81 Column_82 Column_83 Column_84 Column_85 Column_86 Column_87 Column_88 Column_89 Column_90 Column_91 Column_92 Column_93 Column_94 Column_95 Column_96 Column_97 Column_98 Column_99 Column_100 Column_101 Column_102 Column_103 Column_104 Column_105 Column_106 Column_107 Column_108 Column_109 Column_110 Column_111 Column_112 Column_113 Column_114 Column_115 Column_116 Column_117 Column_118 Column_119 Column_120 Column_121 Column_122 Column_123 Column_124 Column_125 Column_126 Column_127 Column_128 Column_129 Column_130 Column_131 Column_132 Column_133 Column_134 Column_135 Column_136 Column_137 Column_138 Column_139 Column_140 Column_141 Column_142 Column_143 Column_144 Column_145 Column_146 Column_147 Column_148 Column_149 Column_150 Column_151 Column_152 Column_153 Column_154 Column_155 Column_156 Column_157 Column_158 Column_159 Column_160 Column_161 Column_162 Column_163 Column_164 Column_165 Column_166 Column_167 Column_168 Column_169 Column_170 Column_171 Column_172 Column_173 Column_174 Column_175 Column_176 Column_177 Column_178 Column_179 Column_180 Column_181 Column_182 Column_183 Column_184 Column_185 Column_186 Column_187 Column_188 Column_189 Column_190 Column_191 Column_192 Column_193 Column_194 Column_195 Column_196 Column_197 Column_198 Column_199 Column_200 Column_201 Column_202 Column_203 Column_204 Column_205 Column_206 Column_207 Column_208 Column_209 Column_210 Column_211 Column_212 Column_213 Column_214 Column_215 Column_216 Column_217 Column_218 Column_219 Column_220 Column_221 Column_222 Column_223 Column_224 Column_225 Column_226 Column_227 Column_228 Column_229 Column_230 Column_231 Column_232 Column_233 Column_234 Column_235 Column_236 Column_237 Column_238 Column_239 Column_240 Column_241 Column_242 Column_243 Column_244 Column_245 Column_246 Column_247 Column_248 Column_249 Column_250 Column_251 Column_252 Column_253 Column_254 Column_255 Column_256 Column_257 Column_258 Column_259 Column_260 Column_261 Column_262 Column_263 Column_264 Column_265 Column_266 Column_267 Column_268 Column_269 Column_270 Column_271 Column_272 Column_273 Column_274 Column_275 Column_276 Column_277 Column_278 Column_279 Column_280 Column_281 Column_282 Column_283 Column_284 Column_285 Column_286 Column_287 Column_288 Column_289 Column_290 Column_291 Column_292 Column_293 Column_294 Column_295 Column_296 Column_297 Column_298 Column_299 Column_300 Column_301 Column_302 Column_303 Column_304 Column_305 Column_306 Column_307 Column_308 Column_309 Column_310 Column_311 Column_312 Column_313 Column_314 Column_315 Column_316 Column_317 Column_318 Column_319 Column_320 Column_321 Column_322 Column_323 Column_324 Column_325 Column_326 Column_327 Column_328 Column_329 Column_330 Column_331 Column_332 Column_333 Column_334 Column_335 Column_336 Column_337 Column_338 Column_339 Column_340 Column_341 Column_342 Column_343 Column_344 Column_345 Column_346 Column_347 Column_348 Column_349 Column_350 Column_351 Column_352 Column_353 Column_354 Column_355 Column_356 Column_357 Column_358 Column_359 Column_360 Column_361 Column_362 Column_363 Column_364 Column_365 Column_366 Column_367 Column_368 Column_369 Column_370 Column_371 Column_372 Column_373 Column_374 Column_375 Column_376 Column_377 Column_378 Column_379 Column_380 Column_381 Column_382 Column_383 Column_384 Column_385 Column_386 Column_387 Column_388 Column_389 Column_390 Column_391 Column_392 Column_393 Column_394 Column_395 Column_396 Column_397 Column_398 Column_399 Column_400 Column_401 Column_402 Column_403 Column_404 Column_405 Column_406 Column_407 Column_408 Column_409 Column_410 Column_411 Column_412 Column_413 Column_414 Column_415 Column_416 Column_417 Column_418 Column_419 Column_420 Column_421 Column_422 Column_423 Column_424 Column_425 Column_426 Column_427 Column_428 Column_429 Column_430 Column_431 Column_432 Column_433 Column_434 Column_435 Column_436 Column_437 Column_438 Column_439 Column_440 Column_441 Column_442 Column_443 Column_444 Column_445 Column_446 Column_447 Column_448 Column_449 Column_450 Column_451 Column_452 Column_453 Column_454 Column_455 Column_456 Column_457 Column_458 Column_459 Column_460 Column_461 Column_462 Column_463 Column_464 Column_465 Column_466 Column_467 Column_468 Column_469 Column_470 Column_471 Column_472 Column_473 Column_474 Column_475 Column_476 Column_477 Column_478 Column_479 Column_480 Column_481 Column_482 Column_483 Column_484 Column_485 Column_486 Column_487 Column_488 Column_489 Column_490 Column_491 Column_492 Column_493 Column_494 Column_495 Column_496 Column_497 Column_498 Column_499 Column_500 Column_501 Column_502 Column_503 Column_504 Column_505 Column_506 Column_507 Column_508 Column_509 Column_510 Column_511 Column_512 Column_513 Column_514
feature_infos=[0:7347.5018542547159] [0:1877.6238823190079] [0:100] [0:24.757281553398059] [0:0.11399723149580653] [0:65.167237001876586] [0:63.965607087024495] [0:5.7692307692307692] [0:54.265536723163841] [0:40.070765148164533] [0:40.070765148164533] [0:53.944795427196148] [0:49.514563106796118] [0:0.76452599388379205] [0:49.553602566785237] [0:26.528705899259901] [0:58.757847533632287] [0:24.089925689022667] [0:21.117633605245103] [0:17.488789237668161] [0:34.417040358744394] [0:46.483904933814678] none [0:20.302648171500632] [0:27.375724574038294] [0:49.995667995148153] [0:24.757281553398059] [0:34.417040358744394] [0:20.445934129991254] [0:20.445934129991254] [0:11.744628871164764] [0:62.856885526434297] [0:30.312693772699088] [0:16.760664071808723] [0:10.806926780196882] [0:17.386134991768795] [0:9.5305544314042905] [0:49.996661324786331] [0:16.445711746407937] none [0:10.821297693468422] [0:10.810519508514767] [0:10.810519508514767] [0:10.810519508514767] [0:10.806926780196882] [0:10.806926780196882] [0:49.896501068376068] [0:10.806926780196882] [0:10.806926780196882] [0:10.806926780196882] [0:49.997451320216129] [0:17.179003440239708] [0:17.179003440239708] [0:17.179003440239708] [0:17.179003440239708] [0:17.179003440239708] [0:17.488789237668161] [0:10.952046372738451] [0:30.325149303251493] [0:16.564201651150537] [0:15.283143834860359] [0:24.757281553398059] [0:24.757281553398059] [0:24.757281553398059] [0:24.757281553398059] [0:31.082762912258872] [0:31.082762912258872] [0:75.082731648616118] [0:10.162423178226515] [0:5.133016889281377] [0:11.300427425493297] [0:10.963756660226009] [0:20.563873845173621] [0:11.399964869137538] [0:11.092569822589144] [0:11.092569822589144] [0:17.111853088480803] [0:22.368421052631579] [0:11.124773113179929] [0:21.530802738021158] [0:10.361496427070199] [0:10.178884986830553] [0:5.1955477624456821] [0:5.5482815057283137] [0:6.2661618027336532] [0:6.1645733284078315] [0:10.790262955988002] [0:4.4752461891272093] [0:4.9732175840413744] [0:49.73267230485078] [0:4.0834486849911018] [0:5.6531412846185374] [0:4.3448464912280702] [0:4.3842736189118954] [0:4.3221278167713333] [0:4.3036571850757293] [0:4.3036571850757293] [0:4.3036571850757293] [0:62.340707513508001] [0:3.1180910269116415] [0:50.008278145695364] [0:5.133016889281377] [0:3.8127769571639587] [0:41.757859996525966] [0:5.5096902628959548] [0:5.5096902628959548] [0:15.573770491803279] [0:5.5096902628959548] [0:5.4921248316646176] [0:5.4921248316646176] [0:23.45315631262525] [0:2.9656171380651069] [0:3.9210549297004627] [0:24.919801691455234] [0:5.7692307692307692] [0:12.295081967213115] [0:25.255588286258881] [0:5.4687042566895023] [0:5.4687042566895023] [0:12.5] [0:5.6531412846185374] [0:5.4716318285613914] [0:10.765401369010579] [0:10.765401369010579] [0:10.765401369010579] [0:10.765401369010579] [0:10.765401369010579] [0:12.5] [0:10.765401369010579] [0:2.7184317329045102] [0:48.918650793650798] [0:7.3249422448817016] [0:4.7079296397328569] [0:34.100015410695022] [0:49.997451320216129] [0:2.579578932241144] [0:2.579578932241144] [0:5.0347222222222223] [0:2.0927041244186935] [0:2.0888922771975302] [0:2.0888922771975302] [0:2.0888922771975302] [0:2.0774567355340401] [0:2.0774567355340401] [0:2.0774567355340401] [0:2.0774567355340401] [0:2.0774567355340401] [0:2.0774567355340401] [0:2.0774567355340401] [0:2.7290192996244866] [0:1.9821605550049557] [0:2.1468574984443061] [0:1.8211250505868071] [0:1.8211250505868071] [0:1.8211250505868071] [0:2.3323881825665422] [0:1.8110115629068075] [0:2.2065356896041068] [0:2.2065356896041068] [0:2.0679146713104051] [0:2.0679146713104051] [0:2.0679146713104051] [0:2.0679146713104051] [0:2.2717746667784389] [0:3.3106710020691694] [0:1.8076352353972749] [0:1.8076352353972749] [0:1.8076352353972749] [0:1.6716196136701336] [0:1.6623328380386329] [0:1.6499504705299652] [0:1.5715332627636185] [0:3.414542376069984] [0:17.934782608695652] [0:1.5917295700689202] [0:2.1041160197837203] [0:3.2546326780171198] none [0:1.355245384961729] [0:1.355245384961729] [0:3.0194713573511427] [0:49.896501068376068] [0:3.0194713573511427] [0:3.1996224634261443] [0:3.0194713573511427] [0:1.2192910887498867] none [0:1.7040476607674786] [0:1.158283756985758] [0:1.1518686968558434] [0:1.1513008793400417] [0:1.1377028374580727] [0:1.1286374762034266] [0:6.952420016406891] [0:13.511659807956105] [0:1.0863764580315622] [0:2.7231680933120122] [0:5.1912568306010929] [0:5.199249365272105] [0:5.0528401585204756] [0:5.7692307692307692] [0:5.254308532997058] [0:5.199249365272105] [0:5.1968155683325961] [0:5.0921861281826164] [0:5.4945054945054945] [0:5.0279942913601934] [0:2.5729178218919819] [0:2.6689625484287562] [0:2.5604078918199957] [0:2.588125493574557] [0:2.6403004860804242] [0:2.5580849565829618] [0:2.5974025974025974] [0:2.6190476190476191] [0:2.6213268032056991] [0:2.6051385101191329] [0:2.5746310065475528] [0:2.6689625484287562] [0:2.610777109775106] [0:2.5581395348837206] [0:2.5729178218919819] [0:2.5431274346132446] [0:2.650548963069757] [0:2.6289180990899896] [0:2.6067665002773155] [0:2.615179167594035] [0:2.6380231522707032] [0:2.8846153846153846] [0:2.7035623409669212] [0:2.8846153846153846] [0:2.7035623409669212] [0:2.6981450252951102] [0:2.8305785123966944] [0:2.7884615384615388] [0:2.6255943766797603] [0:2.6611535199321459] [0:2.6611535199321459] [0:2.6753357493071843] [0:2.7141645462256152] [0:2.7038535235256549] [0:2.7754237288135593] [0:2.6602564102564106] [0:2.7647809442790301] [0:2.7748132337246529] [0:3336.3333333333335] [0:136.65128205128204] [0:137] [0:602.84210526315792] [0:2343.2105263157896] [0:307861] [0:144.28787878787878] [0:133.50724637681159] [0:146.80303030303031] [0:249589.66666666666] [0:137.03174603174602] [0:140.93181818181819] [0:142.77358490566039] [0:134.86772486772486] [0:141.00487804878048] [0:2449.3333333333335] [0:2837] [0:138.44736842105263] [0:4254.333333333333] [0:7044] [0:136.17676767676767] [0:136.04040404040404] [0:32007] [0:763660] [0:5804.5333333333338] [0:133.03664921465969] [0:133.5257731958763] [0:140.41145833333334] [0:139.1356783919598] [0:141.83854166666666] [0:137.19999999999999] [0:139.74489795918367] [0:138.59895833333334] [0:141.83419689119171] [0:143.76616915422886] [0:149.13903743315507] [0:144.75916230366491] [0:141.12562814070353] [0:738.66666666666663] [0:144.89340101522842] [0:85007] [0:4164] [0:104528.75] [0:50251] [0:122281.71428571429] [0:995672] [0:5003.333333333333] [0:134.25853658536585] [0:136.1105527638191] [0:151.11052631578949] [0:507.33333333333331] [0:146.47979797979798] [0:139.5612244897959] [0:143.69035532994923] [0:372514] [0:143.36040609137055] [0:1308.6666666666667] [0:183084] [0:134.96938775510205] [0:152.60824742268042] [0:1624] [0:760] [0:140.44162436548223] [0:139.47395833333334] [0:1314.5] [0:689.31578947368416] [0:4708.3273392292231] [0:144.5597615366998] [0:147.3141032833517] none none [0:533209.24303972826] [0:145.31818041082875] [0:148.08006338992109] [0:187.86458723766648] [0:432301.98371084692] [0:148.13611078549636] [0:144.70988103067461] [0:145.71972913749983] [0:151.23779800621455] [0:145.77781045196116] [0:4192.2090040136754] [0:13038.332756949998] [0:154.42787498692294] [0:3790.1683779659888] [0:8927.2559747155919] [0:146.98224044072509] [0:145.2965678072965] [0:178615.1604373286] none [0:7053.3901423358111] [0:147.87147517003748] [0:148.54589912222011] [0:154.04613599378612] [0:142.37956630169606] [0:145.8499171253932] [0:151.56396134341915] [0:153.05399206127206] [0:146.21972662042066] [0:156.96812797342608] [0:162.46440097079301] [0:148.27066298338184] [0:154.45869693982021] [0:148.66918579581977] [0:831.12233355465389] [0:176.30596091038879] [0:103650.54041344888] [0:3266.5819238386412] none none [0:155608.24697266132] none [0:4862.2852517086449] [0:139.00416366353272] [0:139.54031822033164] [0:155.94573535490773] [0:817.66330828421405] [0:143.41417089827362] [0:159.46498422110426] [0:151.75870535624543] none [0:146.41076870306961] [0:1243.7401925911483] [0:20180.827535064065] [0:150.12960853712332] [0:152.88185398790094] [0:1451.9528229250425] [0:1031.5501511248565] [0:145.24684440494005] [0:155.75996728987209] [0:1238.1439738576448] none [0:376648] none none none none [0:34241.952380952382] [0:1195138] [0:1164823] none [0:11827.735294117647] [0:1160487] none none none none [0:1167054] [0:1165668] none [0:8256.1908396946565] none [0:1187563] [0:1103744] [0:1138301] none none none [0:1197391] [0:1195859] [0:1146096] [0:1190284] none [0:1188775] none [0:1198597] [0:1178843] [0:1172221] none none [0:1135067] none none none none none none none none none none [0:1161059] [0:1181081] none none [0:1165355] none none [0:32485.18181818182] [0:3538.8407079646017] [0:1176263] none [0:14291.879999999999] [0:1169594] [0:1168538] none [0:1150907] none [0:339147.84902531817] none none none none [0:156887.23960777567] [0:823467.56599182461] [0:782367.6914421377] none [0:38218.134012230526] [0:816651.05662118632] none none none none [0:815110.27094498079] [0:717656.81436185085] none [0:31776.817465700486] none [0:791718.47151654866] [0:840286.10078234668] [0:784052.01979492407] none none none [0:819874.04932983452] [0:831348.27106814866] [0:790768.82710941508] [0:806051.52597119997] none [0:813206.73949002661] none [0:803749.89339843777] [0:835010.3770879138] [0:836444.38964016014] none none [0:790609.02097686694] none none none none none none none none none none [0:812957.83790304896] [0:801929.80054366356] none none [0:812271.94432529795] none none [0:152211.77341161302] [0:21847.331889417252] [0:787422.09071405919] none [0:102101.15670943994] [0:759784.82217138296] [0:808812.77795173344] none [0:781188.23733111855] none [0:1209451.3897518471] [0:517000.1568181818] [0:66.666666666666671] [0:50.000000000000007] [0:13.899253731343283] [0:6347150]
tree_sizes=3772 4854 4739 4730 4822 5066 4719 5036 4725 4724 4696 4080 4387 4702 4074 4493 4694 4700 4384 4081 4071 4169 4190 4087 3864 4063 4294 3867 4192 3870 3953 3880 3970 3862 3647 3968 3855 3653 3879 3651 3442 3545 3566 3339 3655 3557 3433 3243 3451 3125 3435 3228 3344 3443 3140 3238 3325 3133 3136 3233 3026 3138 3015 3019 3121 2999 3222 3013 2904 3241 3002 2811 2795 2799 3028 2704 2699 2696 2592 2700 2907 2692

Tree=0
num_leaves=35
num_cat=0
split_feature=264 244 238 461 77 443 245 408 471 25 514 386 340 261 459 9 35 459 459 507 458 406 0 217 406 282 343 115 212 8 2 50 2 0
split_gain=91.2701 37.5056 53.3703 45.7959 38.8179 28.651 30.5711 17.4759 29.216 16.7194 16.5929 29.0892 15.2233 15.1735 13.8594 10.9318 10.2362 10.0942 6.93825 14.6769 3.85675 3.68192 3.81108 3.12918 3.00746 2.77873 3.25402 1.08448 0.498386 0.486094 0.409093 0.15569 0.119269 1.42109e-14
threshold=2.6280788177339907 0.11744830395724061 0.1721977569517045 416.18637479088517 6.5879681169295123 8151.3666877698679 1.0000000180025095e-35 21677.936507936512 36315.831708645223 1.7218131440626168 13998.500000000002 8168.8984962406021 65.367105800129806 75.775397939404897 20403.689389094936 23.98231045162342 0.002584940996780671 24529.559509486342 1.0000000180025095e-35 67130.465882481032 1.0000000180025095e-35 92188.944444444453 116.54881361637102 0.64748331405397197 60588.666666666679 100.84489908256882 74.002290000346576 1.6790645887630629 1.1835511029145447 0.002690197420831048 0.14909620149096203 5.1203751959206532 0.015247970136135842 76.859795436898665
decision_type=2 2 2 2 2 2 2 2 2 2 2 2 2 2 2 2 2 2 2 2 2 2 2 2 2 2 2 2 2 2 2 2 2 2
left_child=1 5 3 -3 10 12 7 -7 -9 -5 11 13 18 -4 25 -12 -16 -10 19 24 -8 22 28 27 32 26 -14 -17 30 -22 33 -29 -1 -20
right_child=-2 2 4 9 -6 6 20 8 17 -11 15 -13 14 -15 16 23 -18 -19 21 -21 29 -23 -24 -25 -26 -27 -28 31 -30 -31 -32 -33 -34 -35
leaf_value=-3.2348157025700703 -2.7170828660673791 -2.6787322855856988 -3.2242976108767825 -2.9211536701536742 -2.8682292714951805 -3.1488575049387171 -3.1161115248886775 -2.7599989918444985 -3.1550464951681745 -3.1620335790281944 -3.0665907636473602 -2.8704851879941029 -3.1366744533059268 -3.0337844339160984 -2.9522997596883549 -3.1813988226134438 -3.1275990259546189 -2.96489601191875 -3.2348157025700708 -3.0115809803632718 -3.1949310988691226 -3.1351041933177006 -3.1424902310400982 -3.1351041933177006 -3.1351041933177006 -3.1161115248886775 -3.2348157025700708 -3.2148734007195965 -3.2020158640002121 -3.2348157025700708 -3.2114092449990919 -3.2348157025700708 -3.2148734007195965 -3.2348157025700708
leaf_weight=7.4615255892276817 5.2150447666645041 5.2150447666645077 9.5074277669191414 6.0574750751256925 5.4557391405105582 6.9801368415355709 5.0545818507671383 5.0545818507671383 5.0144661217927915 5.4958548694849014 6.5388638228178015 5.2150447666645041 5.0946975797414806 7.4615255892276755 6.0173593461513502 5.6162020564079311 7.4615255892276764 6.2981694489717484 38.99248856306076 5.3755076825618735 5.0144661217927915 5.0144661217927924 5.4156234115362158 5.0144661217927924 5.0144661217927924 5.0545818507671347 10.028932243585585 5.0144661217927959 6.0975908041000357 7.8225671499967575 8.544650271534918 17.851499393582344 5.0144661217927933 20.218327403068542
leaf_count=186 130 130 237 151 136 174 126 126 125 137 163 130 127 186 150 140 186 157 972 134 125 125 135 125 125 126 250 125 152 195 213 445 125 504
internal_value=-3.13045 -3.1395 -3.08442 -2.92471 -3.12399 -3.16505 -3.09175 -3.01638 -2.95988 -3.03574 -3.14642 -3.07704 -3.18652 -3.14053 -3.12785 -3.18486 -3.04934 -3.04918 -3.20495 -3.1561 -3.1901 -3.21821 -3.22346 -3.20795 -3.20051 -3.1803 -3.20175 -3.22077 -3.2294 -3.21924 -3.23186 -3.23044 -3.2268 -3.23482
internal_weight=0 266.489 84.4436 16.7684 67.6752 182.045 41.239 23.3474 16.3672 11.5533 62.2195 22.184 140.806 16.969 33.6571 40.0355 13.4789 11.3126 107.149 22.866 17.8916 84.2831 79.2687 33.4966 17.4905 20.1782 15.1236 28.4822 73.8531 12.837 67.7555 22.866 12.476 59.2108
internal_count=6773 6643 2105 418 1687 4538 1028 582 408 288 1551 553 3510 423 839 998 336 282 2671 570 446 2101 1976 835 436 503 377 710 1841 320 1689 570 311 1476
is_linear=0
shrinkage=1


Tree=1
num_leaves=44
num_cat=0
split_feature=330 357 244 430 461 206 449 91 441 478 263 449 339 387 449 509 235 233 340 303 441 501 459 261 72 316 29 496 500 261 492 393 237 443 244 229 507 9 472 504 501 78 500
split_gain=44.4886 36.9 52.5826 20.6245 18.5888 22.2273 17.1974 12.2952 15.0102 14.1914 10.3124 9.15612 8.77044 9.79873 8.72296 8.14908 7.33771 27.1697 7.62277 17.3564 7.29554 6.08549 14.1976 5.92333 5.89902 3.46826 1.94689 1.23896 1.03723 0.436496 0.167284 0.154051 0.124263 0.000141903 0.000119652 0.000380024 2.64864e-05 2.07916e-05 1.1224e-05 7.77127e-06 6.85743e-06 5.41882e-06 1.7502e-06
threshold=14.263704325992668 59.078612894188673 0.25623374674160027 74717.090277777796 309.94307814214289 1.774083247556377 79161.392913346455 1.7564681547476013 72088.194444444453 9427.7964049350412 18.214546513707443 34790.769175784422 97.527605040032384 120582.75000000001 49849.882855440177 0.48240048291102255 0.23587159760465001 0.25294696309931836 65.367105800129806 76.200985090521854 67855.595959595972 33514.218845823816 196.77896177875559 76.245342846374157 3.3945967333925702 79.921544521156946 6.9616236714424158 67422.3278081764 2163.3395322552774 49.068802135141404 95031.84366701782 155.07414350355529 0.27790475378383356 6477.7623634453148 0.12125781925265085 0.17828584425505667 67130.465882481032 23.689600122095751 66724.650121943836 50651.436021039066 37462.268991984165 3.4402995425356537 18062.85392679866
decision_type=2 2 2 2 2 2 2 2 2 2 2 2 2 2 2 2 2 2 2 2 2 2 2 2 2 2 2 2 2 2 2 2 2 2 2 2 2 2 2 2 2 2 2
left_child=1 3 10 4 5 6 7 8 9 21 -3 -10 13 16 -13 -8 18 -18 20 -20 26 22 23 24 -1 28 29 31 30 -6 36 -11 -19 39 37 -36 38 -31 40 -33 -5 -37 -39
right_child=-2 2 -4 25 12 -7 15 -9 11 27 -12 14 -14 -15 -16 -17 17 32 19 -21 -22 -23 -24 -25 -26 -27 -28 -29 -30 34 -32 33 -34 -35 35 41 -38 42 -40 -41 -42 -43 -44
leaf_value=0.032989151778415125 0.27184102794900245 0.087201495215576366 0.38609459343986702 -0.1041643695935375 -0.077863579077953604 0.22811911730987702 0.04773737309539814 0.15035686276605026 0.15103886949969336 -0.084242115713206708 -0.086053366272710943 -0.085416224721511808 0.09285798867449846 0.093482707321354039 0.090959284234363169 0.22477117711823988 0.12927100352551329 -0.084611760116549362 0.14589657898085981 -0.091385377803949175 0.034842544153060283 -0.087058199641433423 0.16283302710154446 0.053742825615312184 -0.094327926043125801 -0.0046281694246983664 -0.048660305562824774 -0.04438776333371023 -0.056050914823664866 -0.10418591845622888 -0.08422542699964812 -0.10416855138460274 -0.10509743653069169 -0.10473046862113605 -0.10512835284807119 -0.10416572802749716 -0.10436501784378971 -0.10402226360367964 -0.10425156228906979 -0.10400309341208121 -0.10402312025807912 -0.10402628402111527 -0.10394708994674043
leaf_weight=5.8204394392669263 5.8132197707891455 9.3894355893135089 5.4922957383096209 5.6395523585379221 7.5783408582210532 5.1013474799692622 5.2409730441868287 5.0913381502032271 7.8211596123874214 5.0018697343766751 5.4177676960825911 5.1676729507744295 5.0637639984488478 5.0546886809170237 6.1306474320590496 5.1602008007466793 9.4090702831745165 5.0153333321213704 5.1901456974446756 7.5919379778206348 5.0298405997455111 5.8042773082852355 5.9869816601276389 9.4652225933969003 9.7109346464276296 5.0188761390745631 8.9766001626849157 5.0141343027353278 6.2172694690525523 7.6161406598985222 5.0348757579922667 6.1316056847572344 7.2289134822785854 5.0068525895476332 5.1540380902588394 5.1904894858598691 5.897560626268386 5.1947574689984304 5.043885923922061 5.2857777923345566 8.8007724769413453 6.0177381783723831 7.6698843985795975
leaf_count=146 100 233 112 148 197 115 121 118 186 129 134 121 121 128 144 124 231 123 125 184 128 150 151 226 238 129 228 130 159 199 134 161 160 119 114 136 149 140 130 143 237 162 210
internal_value=0 -0.00778529 0.121831 -0.0184129 -0.00543191 0.024619 0.0140086 -0.000451216 -0.00977529 -0.0332527 0.0238097 0.0678646 -0.0354711 -0.0421075 0.0102879 0.135567 -0.0494879 0.00148816 -0.0649886 0.0049626 -0.0802916 0.00691139 0.0245151 -0.0086137 -0.0466154 -0.0825883 -0.0911367 -0.0891354 -0.0932689 -0.0997203 -0.100876 -0.0996073 -0.0967064 -0.104287 -0.104216 -0.104418 -0.104179 -0.104055 -0.104123 -0.104092 -0.104078 -0.104091 -0.103977
internal_weight=0 267.875 20.2995 247.576 205.923 102.941 97.8401 87.4389 82.3476 63.2281 14.8072 19.1195 102.982 97.9179 11.2983 10.4012 92.8632 21.6533 71.2099 12.7821 58.4278 36.7879 30.9836 24.9966 15.5314 41.6528 53.398 26.4402 36.6339 44.4214 30.4166 21.4261 12.2442 16.4242 36.843 16.3623 25.3818 20.4808 19.4842 11.4174 14.4403 11.2082 12.8646
internal_count=6773 6673 479 6194 5108 2522 2407 2162 2044 1593 367 451 2586 2465 265 245 2337 514 1823 309 1514 911 761 610 384 1086 1386 682 957 1158 798 552 283 423 961 412 664 549 515 304 385 298 350
is_linear=0
shrinkage=0.1


Tree=2
num_leaves=43
num_cat=0
split_feature=244 242 357 443 510 311 514 514 224 108 443 9 430 510 465 439 384 501 459 452 201 364 449 127 108 14 458 327 237 67 91 459 493 134 235 461 459 461 327 430 9 204
split_gain=29.3496 36.8007 37.9183 30.2687 28.6369 28.4526 21.8129 16.9522 15.1305 17.7213 13.687 11.8897 18.8454 11.5102 10.1021 9.05016 8.44032 14.2494 8.24861 11.0445 7.70463 5.8514 5.40633 5.33115 10.1173 3.82109 3.51562 2.40775 2.20654 1.39342 0.468981 0.416313 0.165659 0.0021924 0.00021986 0.000186404 7.11306e-05 4.92757e-05 3.78781e-05 1.77979e-05 1.46913e-05 2.01333e-06
threshold=0.13083341674552018 0.16420364900024845 59.078612894188673 8151.3666877698679 3989.4471290566148 24.728782207526425 3.5000000000000004 14304.000000000002 0.68505195916368533 1.7039709468870488 17050.97141489045 16.675270678026273 53616.211111111115 2790.3486872781823 29140.340540595109 57188.111111111117 17418.500000000004 34485.382530282783 17049.538452253935 29347.375266637613 1.7471229781888387 81.174756789565251 80542.701121719423 1.742957056407044 1.7158967209771361 0.054617503989948961 1.0000000180025095e-35 79.476561851209922 0.12810265204405344 0.11397342282381358 0.018690390937723966 192.40802223538043 73212.101057258857 0.0036916719108904977 0.23613488428079124 307.04858770607569 1284.6142259328169 19758.232522657559 64.573667505823067 74717.090277777796 23.944185088334791 1.7436867056891001
decision_type=2 2 2 2 2 2 2 2 2 2 2 2 2 2 2 2 2 2 2 2 2 2 2 2 2 2 2 2 2 2 2 2 2 2 2 2 2 2 2 2 2 2
left_child=3 4 7 11 -2 6 10 8 9 -3 -5 12 15 -4 -12 16 18 -18 25 -20 -11 -21 29 27 -25 31 -7 -9 33 32 -28 -1 36 35 37 -13 -14 -29 39 -38 -37 -42
right_child=1 2 13 5 -6 26 -8 23 -10 20 14 28 22 -15 -16 -17 17 -19 19 21 -22 -23 -24 24 -26 -27 30 34 -30 -31 -32 -33 -34 -35 -36 40 38 -39 -40 -41 41 -43
leaf_value=-0.064682263032225934 0.33317007434921059 0.24579687314785315 0.087497624636166116 0.15942312624201854 0.060306744808809154 0.011361668428576312 0.24619422188050982 -0.026551810467776778 -0.077564834444782918 0.098866909478157114 0.096434590520519781 -0.10429007970801984 -0.10414573887147956 0.29882122367191277 -0.080234459868611774 -0.091012678417496731 0.20554278723777092 -0.015131656070115221 0.17466979528464982 -0.061771373153437073 -0.045222390845641884 0.07585527041726714 0.0071046414894772748 0.099342990190332436 -0.072398973097958161 0.015275394624143457 -0.10413935676601319 -0.10417529194436011 -0.039016065182682191 -0.044077047755305347 -0.063982468353006305 -0.1045167349340678 -0.084135006652166097 -0.10612356948670901 -0.10469141066455062 -0.10383747067531379 -0.10381129436024028 -0.10374978560111965 -0.10400422737531688 -0.10358727569548593 -0.10363202527560895 -0.10370770055522499
leaf_weight=5.0107207857072371 7.0498853623867026 5.4086100310087266 5.139681898057459 7.5548621118068757 8.4639542177319509 5.1774217747151878 7.9536793641746035 5.1458401158452061 7.2505990229547015 8.3335270099341852 5.4332634657621375 7.6313067749142673 7.4433989934623268 5.1701576448976994 8.005488093942402 7.6011249125003806 6.1164922639727575 5.6098987869918346 5.011068910360339 6.9949186444282514 6.6901428177952758 5.5327801406383514 6.2830168679356566 5.3993874602019778 9.4050300642847997 5.8509227260947219 6.9346965402364713 5.5898556746542472 6.1154546663165084 5.0032697133719912 5.0089087747037411 5.5072267539799213 5.0344092473387709 5.0309164635837069 6.8422983661293975 6.825403522700074 6.9121525175869483 5.3039618879556656 5.5618554651737204 7.2836060300469398 9.352105434983967 5.6333650201559058
leaf_count=121 130 116 89 164 191 127 161 135 163 189 108 197 198 86 175 202 143 147 120 170 153 127 162 138 245 147 184 149 158 135 140 138 138 107 166 193 197 153 152 218 277 164
internal_value=0 0.0439969 0.0152349 -0.0254191 0.184303 0.0447243 0.105164 -0.0128761 0.0465412 0.0905814 0.0517328 -0.0489466 -0.0298903 0.193472 -0.00880748 0.0100136 0.0268412 0.0999723 0.0015501 0.0491988 0.034703 -0.000989423 -0.0787001 -0.0565216 -0.00976217 -0.0495041 -0.0574634 -0.0867745 -0.094374 -0.0931773 -0.0872984 -0.0855397 -0.100798 -0.104194 -0.104247 -0.103865 -0.103882 -0.103968 -0.103783 -0.103696 -0.103716 -0.10366
internal_weight=0 91.1929 75.6791 183.414 15.5138 46.0683 28.9473 65.3693 27.6829 20.4323 20.9936 137.345 96.7569 10.3098 13.4388 53.2352 45.634 11.7264 33.9076 17.5388 15.0237 12.5277 43.5217 37.6864 14.8044 16.3689 17.121 22.882 40.5886 37.2387 11.9436 10.5179 32.2354 34.4731 17.7361 29.4422 27.201 10.8938 19.7576 14.1958 21.8109 14.9855
internal_count=6773 2103 1782 4670 321 1059 608 1607 621 458 447 3611 2515 175 283 1315 1113 290 823 417 342 297 1200 986 383 406 451 603 1096 1038 324 259 903 938 468 831 765 302 567 415 634 441
is_linear=0
shrinkage=0.1


Tree=3
num_leaves=43
num_cat=0
split_feature=264 234 232 357 115 203 430 512 383 476 91 430 239 233 452 481 101 450 384 512 509 469 100 103 201 406 37 37 459 514 302 16 410 458 134 461 514 377 406 216 81 500
split_gain=33.8793 23.5753 23.8008 22.3778 20.2009 16.9237 16.3625 14.1424 14.0815 15.2091 12.8447 11.2189 11.1061 12.7089 15.9883 11.0025 10.6891 9.91208 15.1555 7.51692 7.21174 5.93459 4.67109 4.23063 4.13315 3.95064 2.21169 1.32036 1.25855 1.02934 0.666985 0.466645 0.151345 0.121903 0.000497177 0.000490014 0.000155792 0.000150893 7.34164e-05 5.79134e-05 3.96202e-05 2.37803e-05
threshold=64.089285714285737 0.12039267679337123 0.1618134751390089 59.078612894188673 0.016100131486505537 1.6956946609948909 73113.444444444453 24.229209185664228 74295.450000000012 66040.688755045951 1.7387362403741704 59124.375000000007 0.2331581462867838 0.25473310456997755 29650.691736881981 63099.810274814256 1.7426334931552157 12552.001283209815 15683.944444444447 23.439408171162011 4562.3583403686362 73959.470628384603 0.52600026537569178 0.20597344194136866 1.6907475676460963 85782.464285714304 0.01378790110371172 0.0009558310788287534 22971.103447126679 4100.5000000000009 28.000000000000004 15.3087210987382 35852.92857142858 55275.391037365778 0.0021174696271939282 1744.1666422628193 18652.500000000004 6688.6000000000013 56924.842857142867 0.61374588705247801 3.4567736462311411 18313.186442114089
decision_type=2 2 2 2 2 2 2 2 2 2 2 2 2 2 2 2 2 2 2 2 2 2 2 2 2 2 2 2 2 2 2 2 2 2 2 2 2 2 2 2 2 2
left_child=1 4 5 12 6 -3 8 -5 11 -10 -7 15 24 14 16 17 -14 18 20 -15 22 28 23 29 -4 30 32 35 37 -1 34 -21 -8 -13 36 -26 39 -19 -34 -6 -37 -38
right_child=-2 2 3 7 25 10 26 -9 9 -11 -12 33 13 19 -16 -17 -18 21 -20 31 -22 -23 -24 -25 27 -27 -28 -29 -30 -31 -32 -33 38 -35 -36 40 41 -39 -40 -41 -42 -43
leaf_value=-0.052512415730116585 0.24672410292377878 -0.027046717829084511 0.0017630367778696998 0.25058507300633848 -0.10414525581977592 0.10316370899437921 -0.083494860166380622 0.042833153636681609 0.021890165963777488 0.23353169975406973 0.29419463554819519 -0.10409209039401263 -0.049297668205995196 0.050054533577726039 0.215578576572899 0.10845914789746341 0.13215639642254173 -0.10419960473154324 0.17226688026113368 -0.064913342328122778 0.076983604481685147 0.02655765680542917 0.046978587082121465 0.018425952777806572 -0.10511068843169294 -0.0045762900538066963 -0.023984763631171122 -0.045097647466495742 -0.045617839381344907 -0.10472898348034845 -0.06488206254326194 -0.10457677549094405 -0.10343562355164899 -0.083857204579009609 -0.10466705884577049 -0.10370875405064744 -0.1035270796807988 -0.10490160621047136 -0.10388594311097044 -0.10368098448377278 -0.10410543103454589 -0.10329976942384794
leaf_weight=7.6763576492667251 5.3337669000029555 5.03046437352896 6.5597371980547932 5.2961650341749182 5.0527202710509318 8.1016254909336549 5.0120864529162708 8.5932148955762369 9.4267274849116784 5.3070888798683873 6.2237351201474658 7.3381644450128061 9.044974500313403 5.8067986927926567 5.5966600570827714 9.3524204771965724 5.0640072152018538 7.783513039350515 5.7684196159243575 5.067024212330578 8.8054366093128902 6.0776950921863309 6.5915204957127562 6.4744833670556536 5.0963215008378056 5.0207229852676383 5.008868481963872 5.0093247797340146 5.0678758211433879 7.4286303278058767 5.0644726213067761 7.154473714530468 7.5357445199042541 5.0097922515124083 5.0927647072821847 5.0293865203857404 9.7832174804061669 5.047541668638587 6.9679231829941273 5.7380021531134844 5.0423195194453001 8.6907886248081905
leaf_count=189 69 97 161 87 137 153 157 133 213 115 110 201 225 135 115 205 121 208 134 131 214 141 157 145 117 136 142 124 126 179 133 182 237 146 135 148 302 120 201 170 140 282
internal_value=0 -0.00778323 0.0314462 0.00691779 -0.0300543 0.130747 -0.00984248 0.122051 0.00761241 0.098123 0.186158 -0.00746946 -0.0178861 0.0170513 0.0725612 0.00688132 0.01583 -0.00735695 0.02151 -0.0436232 -0.00200841 -0.0588202 -0.026699 -0.0492041 -0.067193 -0.0881211 -0.0832614 -0.0896109 -0.0878108 -0.0781925 -0.0987612 -0.0881323 -0.0984752 -0.0958824 -0.103755 -0.104312 -0.103596 -0.104476 -0.103652 -0.103898 -0.103907 -0.10342
internal_weight=0 269.839 97.7162 78.3604 172.123 19.3558 127.68 13.8894 103.156 14.7338 14.3254 88.4219 64.471 37.7339 19.7056 76.0739 14.109 66.7215 42.7448 18.0283 36.9764 23.9766 28.171 21.5795 26.7371 44.4427 24.5246 20.1774 17.8989 15.105 39.422 12.2215 19.5158 12.348 34.3575 15.168 29.2647 12.8311 14.5037 10.7907 10.0717 18.474
internal_count=6773 6704 2179 1819 4525 360 3230 220 2493 328 263 2165 1599 909 461 1818 346 1613 1018 448 884 595 670 513 690 1295 737 529 454 368 1159 313 595 347 1026 405 891 328 438 307 288 584
is_linear=0
shrinkage=0.1


Tree=4
num_leaves=44
num_cat=0
split_feature=264 244 9 231 235 510 2 119 430 68 27 439 449 507 392 459 199 395 478 98 465 434 51 10 392 223 50 33 121 463 481 471 6 284 2 207 514 121 449 514 510 11 511
split_gain=27.085 22.2216 19.8768 18.8581 19.547 16.6791 14.5834 18.2216 13.8431 13.43 9.96414 9.38579 12.8624 11.4725 9.59663 10.9158 9.14077 7.56987 15.4751 9.48872 7.08218 6.63647 5.6196 5.01001 4.76898 4.21748 2.98725 2.82191 2.23031 1.9231 1.52571 1.1478 0.614895 0.530842 0.00164961 0.00155852 0.000494057 9.43338e-05 8.83364e-05 7.35598e-05 2.39071e-05 2.20374e-05 1.95471e-05
threshold=347.05000000000007 0.11744830395724061 16.675270678026273 0.17025031808617755 0.2387699746501819 2748.9596864714936 0.015247970136135842 1.7103623323276931 70445.64285714287 3.393639043210146 6.9447361814103052 66583.250000000015 79161.392913346455 87197.799132465196 52170.023809523816 15479.214619205295 1.7701063124693646 4166.4872598162083 9427.7964049350412 0.01511972725777618 32440.194063799507 3118.8141210374647 5.1504650853062843 18.828016261479842 5216.0000000000009 1.1413563511565259 5.1525877667788285 0.10131722659746575 1.7344298710603137 48419.595652189477 13026.322863762292 58998.621915208867 0.70355342864774484 65.115487179487204 0.015127448777403346 0.98081971558793624 15501.500000000002 1.6117649147992885 53142.177591545777 29899.500000000004 0.3110579479000532 18.68249553257068 0.49164398594197933
decision_type=2 2 2 2 2 2 2 2 2 2 2 2 2 2 2 2 2 2 2 2 2 2 2 2 2 2 2 2 2 2 2 2 2 2 2 2 2 2 2 2 2 2 2
left_child=1 2 8 6 23 10 7 -3 11 -7 16 12 13 14 15 20 21 18 -17 -19 27 28 -9 -5 -10 35 -25 30 34 -13 33 -16 38 -1 -6 37 -28 -4 40 -39 -26 -41 -43
right_child=-2 3 25 4 5 9 -8 22 24 -11 -12 29 -14 -15 31 17 -18 19 -20 -21 -22 -23 -24 26 32 -27 36 -29 -30 -31 -32 -33 -34 -35 -36 -37 -38 39 -40 41 -42 42 -44
leaf_value=-0.10464162895967544 0.22742354951968419 0.20854712247760643 -0.10372034232360641 0.033507678990080975 -0.10464979455999275 0.24479805571124566 0.24414559662614044 -0.088020526487851733 0.012332631455967445 0.04272507612061667 0.12537778809591874 -0.10419815708209053 0.1286568988238502 0.11823893954109597 -0.10445419637747061 0.20563472377479297 0.084117540326226314 -0.10467324843449649 0.0056013314066937102 0.063466909531229174 0.074959348212047125 0.051152450055147326 0.053348440567410796 -0.033022393718142591 -0.10314389426369204 -0.0065476249339898214 -0.10501749771554188 0.0092400626743961416 -0.025156350096652735 -0.024999060689842145 -0.026332820564086645 -0.044528266783543241 -0.063525874332389043 -0.064085317440159259 -0.10711489834850917 -0.1051323131398284 -0.10380217681604412 -0.10353701767665931 -0.1037656702392435 -0.10331206556647882 -0.10342970159388605 -0.10321564257308365 -0.1029584908911436
leaf_weight=9.1004955898970454 5.0017799064517012 5.6835083179175916 5.1535873059183386 5.039731094613674 5.9192805383354479 6.4578755050897581 5.9604528658092013 5.1493308208882791 5.1781860403716591 6.7025104444473982 6.0661525484174481 7.9149335119873268 9.3504613079130632 8.0317673459649068 8.8053733110427839 7.3868590109050301 6.8628171682357779 5.3915344011038533 8.1174725145101529 8.8913909010589105 5.0129274092614642 5.0422158967703572 6.1945075243711472 9.7783629968762416 6.8473320994526201 5.1358293872326604 5.0957426130771628 5.2774762902408829 5.0003157630562773 5.0044290032237768 5.0779546350240699 5.0175133738666764 5.0030669011175624 5.0008573066443196 5.0141705926507711 5.7676590606570235 9.7359711844474059 6.4476367682218578 5.0263104215264311 5.2792906276881721 5.1114836279302835 5.1222733054310066 6.9896333608776331
leaf_count=224 52 92 156 117 149 77 99 93 161 137 138 219 175 164 234 157 162 132 188 196 130 92 103 259 234 151 122 132 117 126 117 137 157 135 94 143 289 199 150 176 165 172 251
internal_value=0 -0.00742407 -0.0293598 0.0300753 0.00626839 0.0463329 0.109524 0.0623996 -0.0104815 0.141883 0.00924444 0.00621123 0.017598 0.00479527 -0.00767264 0.00982946 -0.0160613 0.0525199 0.100905 -2.8228e-06 -0.033321 -0.0488374 -0.0108235 -0.057329 -0.0740055 -0.0911334 -0.0759308 -0.0555153 -0.080479 -0.0735197 -0.0733337 -0.0827019 -0.094338 -0.0902589 -0.10578 -0.103631 -0.10422 -0.103332 -0.103414 -0.103249 -0.103266 -0.103142 -0.103067
internal_weight=0 270.147 170.444 99.7029 76.7151 47.0653 22.9878 17.0273 130.548 13.1604 33.905 103.381 90.4621 81.1116 73.0799 59.257 27.8388 29.7873 15.5043 14.2829 29.4697 20.976 11.3438 29.6498 27.1664 39.8959 24.6101 24.4568 15.9338 12.9194 19.1793 13.8229 21.9882 14.1014 10.9335 34.7601 14.8317 28.9924 16.9851 23.8388 11.9588 17.3912 12.1119
internal_count=6773 6721 4581 2140 1753 966 387 288 3333 214 752 2466 2121 1946 1782 1411 614 673 345 328 738 452 196 787 867 1248 670 608 360 345 476 371 706 359 243 1097 411 954 549 798 399 599 423
is_linear=0
shrinkage=0.1


Tree=5
num_leaves=46
num_cat=0
split_feature=286 264 430 285 327 76 223 198 222 441 329 505 61 459 476 509 405 415 449 235 340 360 514 512 311 219 27 322 14 512 327 474 404 329 463 399 263 459 239 514 449 225 12 406 492
split_gain=27.333 26.6332 16.5777 14.9782 12.0011 11.1606 12.3433 15.7502 15.1379 13.7664 12.4783 11.7017 15.109 10.43 10.3532 11.2032 9.06287 9.13549 7.73982 7.48096 11.6324 9.66854 9.33804 9.51873 6.27184 6.78575 6.17172 4.8236 3.54089 2.89317 1.89705 1.14089 0.645866 0.598022 0.525896 0.157064 0.13439 0.126342 0.000996509 0.00082107 0.000797038 0.000191555 0.000178918 4.53238e-05 1.06149e-05
threshold=1.0000000180025095e-35 1311.5454545454547 76302.930555555577 1.0000000180025095e-35 126.67659486066999 1.0000000180025095e-35 0.62394893501469617 1.6898722409567781 0.71677619232785772 72088.194444444453 60.531506259095345 37533.994977427523 5.117920501898694 28147.439588820602 43722.599675148005 0.48240048291102255 15900.500000000002 15529.888888888891 52641.08113047816 0.16093726675543021 62.030496887941659 72.680399560170258 29448.000000000004 24.150214341387375 44.328354296760317 0.64234538852823941 6.8589131225009092 98.52878585166853 0.003181129118029201 23.495484945795209 79.086214624419696 52747.072134525675 103845.25000000001 63.798973294572541 8050.4603205765625 61172.805555555562 23.166963727984836 20403.689389094936 0.11127138459899012 16094.500000000002 51640.031669310723 0.65105040313631735 18.985302442782537 61683.041666666679 47435.216830502344
decision_type=2 2 2 2 2 2 2 2 2 2 2 2 2 2 2 2 2 2 2 2 2 2 2 2 2 2 2 2 2 2 2 2 2 2 2 2 2 2 2 2 2 2 2 2 2
left_child=1 2 3 4 5 6 9 8 -8 11 14 12 13 16 15 -11 17 19 34 20 37 -22 23 -21 -9 -26 -27 -23 32 -14 -31 35 38 39 -18 40 -6 -1 43 -32 -13 -7 -41 44 -4
right_child=-2 -3 28 -5 36 41 7 24 -10 10 -12 31 29 -15 -16 -17 18 -19 -20 22 21 27 -24 -25 25 26 -28 -29 -30 30 33 -33 -34 -35 -36 -37 -38 -39 -40 42 -42 -43 -44 -45 -46
leaf_value=-0.10547825061453045 0.22573004669497934 0.21917686496224073 -0.10299250284150792 0.13801296710828689 -0.084166991520688211 -0.10318903947044988 0.24719916393415764 -0.075935119410914464 0.037295195056819525 0.067805540243762577 -0.061576891300137861 -0.10372162351426968 -0.013751984776023941 0.14917025890325217 0.012687984759885328 0.2594915559616699 -0.064607177753560396 0.14950907622310097 0.044456605216637329 0.11206235443762212 0.13341129876720006 -0.054820572082580933 0.18103244390757628 -0.072340944840618232 0.12889504136696875 0.069212065983578569 -0.086787130648942612 0.062853386317764937 -0.0039903481198703995 -0.026813124231627673 -0.10568403044537687 -0.044530641737266258 -0.063525172428240073 -0.064957506472059265 -0.10470040460463514 -0.083590768273113625 -0.10451740846717422 -0.084222807299841981 -0.10458353540757204 -0.10455485276148727 -0.10531089652658093 -0.1040554965461153 -0.10371089061622821 -0.10324901328012437 -0.10278664710678626
leaf_weight=6.3211817257106286 5.1098544001579276 5.0753435790538779 5.0185705088079064 7.3004051130264989 5.0997199527919284 5.0979868043214065 6.7767514456063491 6.7313839960843351 6.9690367374569178 6.9002928733825737 6.9305444471538058 6.8286119177937561 8.5598320327699167 5.4410082865506402 9.2647624593228084 5.4629220645874739 5.0160414855927256 5.4777296744287005 5.9922053944319478 5.4732014201581496 6.2882644273340729 9.9975118078291398 5.0955734625458708 5.7296721655875444 5.5044233836233607 5.0579142272472364 5.0864600986242294 5.346266444772481 5.0260132011026135 5.1559967845678356 5.1572167817503241 5.020900158211588 5.0318633262068024 5.0557776018977156 9.4071502517908794 5.0398854799568644 8.9227394461631757 5.0151142571121454 5.4988297186791888 5.0117998681962472 5.8666805941611528 5.1081289295107126 5.0359838176518679 5.4065607935190192 5.0010182224214077
leaf_count=151 102 44 181 134 160 180 137 154 158 140 168 210 183 91 187 104 133 118 134 110 145 238 60 116 114 86 109 115 157 150 122 143 171 147 246 165 253 144 148 143 142 146 159 184 191
internal_value=0 -0.00773221 -0.0120857 -0.00296777 -0.00751686 -0.00159669 0.00355775 0.056527 0.140779 -0.00797725 0.0551937 -0.0211136 -0.00810492 0.0154721 0.0926121 0.152506 0.00579332 0.0269988 -0.0510699 0.0133775 -0.0140209 0.0289796 0.0687988 0.0177499 0.00477985 0.0394997 -0.00900702 -0.0138192 -0.0808166 -0.0640353 -0.0809697 -0.086613 -0.0956924 -0.0947516 -0.0907569 -0.0985267 -0.0971163 -0.096075 -0.103428 -0.104658 -0.104456 -0.103623 -0.104132 -0.103016 -0.10289
internal_weight=0 269.605 264.53 233.547 226.247 212.224 202.018 36.126 13.7458 165.892 28.5585 137.334 114.578 80.6009 21.628 12.3632 75.1599 54.7445 20.4154 49.2668 32.9683 21.632 16.2984 11.2029 22.3802 15.6488 10.1444 15.3438 30.9829 33.9766 25.4168 22.7561 25.9568 20.2608 14.4232 17.7352 14.0225 11.3363 20.925 15.205 12.6953 10.2061 10.0478 15.4261 10.0196
internal_count=6773 6671 6627 5595 5461 5048 4722 758 295 3964 599 3365 2705 1801 431 244 1710 1197 513 1079 793 498 286 226 463 309 195 353 1032 904 721 660 875 571 379 517 413 295 704 424 352 326 302 556 372
is_linear=0
shrinkage=0.1


Tree=6
num_leaves=43
num_cat=0
split_feature=264 392 327 430 441 223 510 505 514 21 427 91 12 415 435 393 320 510 89 19 24 507 361 504 405 5 50 427 399 329 393 102 415 327 507 496 406 207 443 244 430 207
split_gain=19.7201 15.8036 13.8869 10.1099 10.7066 14.112 21.7843 9.70592 13.4234 12.6907 9.57945 9.4876 20.1567 14.0916 8.92809 9.88811 7.24259 10.1545 6.56096 7.85142 5.55204 5.12379 5.05331 4.71923 3.51586 3.46761 8.86689 3.40465 2.81944 2.36917 2.25308 1.26201 1.00606 1.00084 0.473314 0.171866 0.115766 0.00233719 0.00124112 0.000520992 0.000427512 0.000408642
threshold=1391.6944444444446 54887.71717171718 116.96636369931953 74717.090277777796 72088.194444444453 0.69254227933528989 2646.5216523046097 38973.016697484309 13998.500000000002 13.328910002131387 63360.187500000007 1.7366149710721674 18.839560909000742 48962.983333333344 16794.92063492064 4614.2596153846162 31.82831434839532 3949.0928366834173 1.7273622412530669 10.337709363079798 8.5525062656641619 91553.912780396306 65.650705674198775 46691.851235249662 84961.833333333358 36.268708290670823 5.1349833500157507 57870.666666666679 12112.944444444447 58.660154949635583 4152.401006244284 1.7415393079781352 11949.444444444447 130.50548762398356 39892.031660263114 80077.997292474378 54879.805555555562 0.61915896240704515 8699.0266983124584 0.13083341674552018 47380.750000000007 0.53474241758842689
decision_type=2 2 2 2 2 2 2 2 2 2 2 2 2 2 2 2 2 2 2 2 2 2 2 2 2 2 2 2 2 2 2 2 2 2 2 2 2 2 2 2 2 2
left_child=1 2 3 4 5 7 20 8 11 16 23 13 -13 14 15 18 25 30 19 22 -7 24 29 -6 35 31 -27 -26 -5 -1 -18 37 -16 -4 -9 38 -30 39 40 -10 -3 -35
right_child=-2 21 33 28 10 6 -8 34 9 -11 -12 12 -14 -15 32 -17 17 -19 -20 -21 -22 -23 -24 -25 27 26 -28 -29 36 -31 -32 -33 -34 41 -36 -37 -38 -39 -40 -41 -42 -43
leaf_value=0.00083461918346731706 0.18128240368048096 -0.10403626110940545 -0.051542848745818527 -0.0038054003814321866 0.093039584192424807 -0.041130401753511604 0.23475095982946301 -0.10460916303116277 -0.10328962622820359 0.086306774230477307 0.15947796909771128 0.25160732739896213 0.012823874286932045 0.13898576706022361 -0.046595363519125084 0.12408633277874422 -0.017789363173549292 0.088904789177944032 -0.07431702889321222 0.12924082910555731 0.085449802186567905 0.0060414213553791818 0.07452459506945755 -0.038674458660878236 0.024392134498397913 -0.10418119409524756 0.072608139429888446 -0.08627487051503499 -0.083125013296410269 -0.090393456823640875 -0.10508228935646234 -0.051228654984006285 -0.10594731244004425 -0.1030442386765224 -0.064555819158770553 -0.083185610272700217 -0.10372009885026399 -0.10648803048889582 -0.10504824664896371 -0.10458110736219135 -0.1028816470357886 -0.10428387045481576
leaf_weight=5.5543533693999141 5.6492410451173773 5.4007236491888815 5.6386815831065205 5.0054085589945343 5.0285926479846257 7.7826069705188292 6.669629553332924 7.0616931915283185 5.0428582951426568 8.5007224027067405 9.3790801577270013 5.8037536833435288 9.0441004075109941 8.1069776527583581 5.0739157292991859 7.3840999845415345 6.8935155794024485 8.2136589121073467 9.4240310695022327 5.4700293578207484 6.2462148349732161 8.9219277035444957 5.017167802900075 5.9258518554270267 5.4580983426421863 6.4220571238547546 5.0820325333625078 5.6655546259135008 5.0153528321534377 5.8395108841359615 5.1775166485458612 5.7048500068485728 6.5335407126694918 5.3988493066281062 5.0675240438431501 5.0294924713671199 5.9878192879259586 5.859606832265853 6.3705547060817471 8.2072471268475038 7.8942021913826466 5.240475982427597
leaf_count=116 42 162 158 161 109 194 102 198 186 109 174 94 168 147 120 164 172 184 205 97 135 197 121 119 174 188 151 180 186 109 124 186 151 200 151 183 195 127 161 222 299 152
internal_value=0 -0.00750831 0.00333813 0.0103146 0.0166959 0.00854702 0.0859648 -0.00210142 0.0054181 -0.0276216 0.0852993 0.034783 0.10616 0.0166369 -0.00308363 0.0199936 -0.0447315 0.00313227 -0.00455933 0.0254849 0.0152284 -0.0617649 -0.00909848 0.0217883 -0.0786545 -0.0714643 -0.026083 -0.0319733 -0.0660275 -0.045921 -0.0552311 -0.0925033 -0.0800031 -0.0856033 -0.0878751 -0.0996817 -0.0943327 -0.104825 -0.103901 -0.10409 -0.103351 -0.103655
internal_weight=0 268.544 223.803 207.525 191.517 171.183 20.6985 150.485 138.356 65.1041 20.3335 73.2515 14.8479 58.4036 50.2966 38.6892 56.6033 20.2847 31.3051 21.8811 14.0288 44.7406 16.411 10.9544 35.8186 36.3187 11.5041 11.1237 16.0086 11.3939 12.071 24.8146 11.6075 16.278 12.1292 24.695 11.0032 19.1097 19.6655 13.2501 13.2949 10.6393
internal_count=6773 6731 5375 4865 4323 3921 431 3490 3141 1649 402 1492 262 1230 1083 812 1540 480 648 443 329 1356 346 228 1159 1060 339 354 542 225 296 721 271 510 349 805 381 535 622 408 461 352
is_linear=0
shrinkage=0.1


Tree=7
num_leaves=46
num_cat=0
split_feature=286 264 430 327 392 387 12 514 335 229 228 236 115 461 220 103 434 205 68 496 392 449 453 458 364 362 507 474 226 221 399 31 512 28 335 115 21 276 505 234 398 223 58 226 514
split_gain=17.897 14.9835 13.0432 10.4461 9.22846 10.3361 10.971 9.24633 10.1246 11.3833 16.8266 13.8245 11.5839 9.21037 8.02119 8.63579 7.80992 7.22207 7.74506 6.81622 9.57414 13.7647 7.25653 6.60491 5.74785 17.3527 5.4998 4.62306 4.01441 5.52529 3.75089 3.29742 2.36145 2.2197 2.34957 2.04339 1.79072 0.921454 0.620065 0.00153697 0.000771182 0.000540386 0.00047492 0.000313384 2.574e-05
threshold=1.0000000180025095e-35 1391.6944444444446 76302.930555555577 130.50548762398356 56830.888888888898 120582.75000000001 18.917587543187135 50501.000000000007 47.424245838132272 0.1467387675421172 0.17072115723040268 0.23964556216700525 1.0000000180025095e-35 276.51693581660476 0.59251127525688208 0.027003204893327429 3074.166852533212 1.7154369090173804 3.4069412561223222 52025.685206808492 45944.520833333336 50444.188867325363 52955.573754469835 16003.691098190759 71.221650447306288 86.18558934841424 91553.912780396306 41758.725256293423 0.59623201240175405 0.60588902099648412 18472.944444444449 0.046251017049787901 23.701297405189624 6.7978680151269844 2814.5209419199077 0.0027869904352159792 10.273421729245024 57.591383812010456 69842.183684103031 0.12941608307065941 60476.666666666679 0.5771388805366654 5.0770985387115823 0.57163836072428287 2.5000000000000004
decision_type=2 2 2 2 2 2 2 2 2 2 2 2 2 2 2 2 2 2 2 2 2 2 2 2 2 2 2 2 2 2 2 2 2 2 2 2 2 2 2 2 2 2 2 2 2
left_child=1 2 3 4 5 6 7 8 9 12 -11 -12 19 17 15 -13 -16 18 -8 20 22 -22 23 24 30 -26 35 -21 39 -30 37 38 -14 34 -10 40 -31 -1 42 -15 -6 -41 44 -5 -4
right_child=-2 -3 31 43 26 -7 13 -9 33 10 11 14 32 28 16 -17 -18 -19 -20 27 21 -23 -24 -25 25 -27 -28 -29 29 36 -32 -33 -34 -35 -36 -37 -38 -39 -40 41 -42 -43 -44 -45 -46
leaf_value=-0.085439403161490693 0.16392302031253903 0.14409788480415572 -0.10243417286506662 -0.10280046261132401 -0.10313358037779048 0.12004527917862831 -0.010381059921164596 -0.075483138060281424 0.030410440534921781 0.23997190657938283 -0.050994570870469762 0.12161244764965853 -0.010749924653953963 -0.10248100289287797 0.073215494365300546 -0.045822768504517664 0.24986729417603171 -0.05412758895012984 0.16225595117391831 0.026601010176986885 0.011611300345441973 0.23686063777631886 -0.086710554152015173 0.13073250753328391 0.21350303818138455 -0.0318003391512768 0.020143519195141041 -0.10531277999097677 0.054122950662969328 -0.026690350595030089 0.04945124356852585 -0.0042335956481970157 -0.094361534089732246 -0.091652720611407612 -0.066059747812042977 -0.03186472874622015 -0.10586276386248646 -0.025179538723199793 -0.062871479353244067 -0.10531907963576211 -0.104658978162655 -0.10391270635857706 -0.10372541258139863 -0.10391613726626288 -0.10273016081321923
leaf_weight=5.1428189203143138 6.2215624172240487 6.3523689731955519 5.9385561011731713 5.0079721473157388 7.8148959577083641 7.9253607355058184 5.2476715520024317 9.8389103282242996 5.0772501546889561 5.6590665783733121 9.1314083840698022 6.4042125940322894 5.1712251994758835 5.0158114973455659 5.0051466953009349 5.9352493584156036 5.0056903809309006 7.403154792264103 5.1480969022959471 5.2917372174561006 5.0999066904187185 5.7963658291846514 5.029614256694912 6.7243566997349253 5.0126597415655834 6.7900862731039524 7.1120701897889367 5.335415456444025 5.0057692937552956 5.0444789193570596 5.0940056089311829 5.0517127495259038 9.7404377125203592 6.7429185677319756 5.0216835513710976 5.573823355138301 6.5873480159789324 5.0092062745243311 5.0002563055604687 5.3073436580598337 5.754965091124177 5.6307776086032391 5.2390209287405005 5.06306810118258 5.8149959556758404
leaf_count=128 102 42 262 202 284 156 129 245 107 71 229 82 120 217 104 87 82 144 91 140 112 98 104 138 110 148 144 137 128 133 101 171 264 148 121 181 165 120 195 130 161 173 172 163 232
internal_value=0 -0.00764644 -0.0113433 -0.0037349 0.0007517 0.00816079 0.00348026 0.0179663 0.0250816 0.0359178 0.0812164 0.0526789 0.0135564 -0.036496 0.0950356 0.0410765 0.161546 0.0213562 0.0751107 0.0330647 0.0486083 0.131435 0.0253497 0.0420381 0.0199886 0.0723807 -0.0549454 -0.039627 -0.0680903 -0.0337228 -0.0205709 -0.0770901 -0.0653658 -0.0472238 -0.0175593 -0.0828417 -0.0715274 -0.055706 -0.0938251 -0.10393 -0.103781 -0.104595 -0.102934 -0.103361 -0.102581
internal_weight=0 267.099 260.747 233.702 223.631 197.375 189.45 139.059 129.22 112.379 37.1408 31.4817 75.2378 50.3905 22.3503 12.3395 10.0108 17.7989 10.3958 60.3262 49.699 10.8963 38.8027 33.7731 27.0488 11.8027 26.2558 10.6272 32.5915 16.6376 15.246 27.0445 14.9117 16.8419 10.0989 19.1437 11.6318 10.152 21.9928 15.9539 13.5699 10.9381 16.9926 10.071 11.7536
internal_count=6773 6671 6629 5597 5232 4462 4306 2996 2751 2375 655 584 1720 1310 355 169 186 364 220 1336 1059 210 849 745 607 258 770 277 946 426 349 1032 384 376 228 626 298 248 861 520 445 303 666 365 494
is_linear=0
shrinkage=0.1


Tree=8
num_leaves=43
num_cat=0
split_feature=310 286 26 330 392 245 492 234 263 449 377 450 504 469 245 430 514 108 367 338 116 347 383 461 19 408 91 35 273 510 450 16 0 205 505 439 2 261 459 514 430 514
split_gain=16.1366 16.4415 14.4061 14.7267 10.0519 9.8578 13.7177 11.1976 9.93954 9.28692 9.24935 14.9354 8.47273 8.4278 8.2789 7.81124 7.5759 7.47829 6.87474 7.47291 6.34955 5.52398 4.89241 4.70704 3.78609 3.68392 3.15503 2.95853 2.97692 2.5828 1.84293 3.6699 3.08637 1.51445 0.518818 0.160402 0.156718 0.108172 0.00463345 0.00251279 0.00212245 0.000658076
threshold=24.458333333333339 1.0000000180025095e-35 8.6463985907420611 0.69858617026445102 51034.000000000007 15.084415002849036 60749.17162619187 0.25019383822137492 19.007632743362837 77351.575312165965 16075.888888888891 13026.617516715947 12075.757432624465 72626.740675381472 12.540934196027296 53616.211111111115 13149.000000000002 1.6933511947932745 66.163431989592411 60.178478162029286 0.025438822565402617 85.279889865953962 91481.85000000002 19244.97909482972 10.247520808725225 17760.694444444449 1.7892090823690714 0.0041435797815228123 84.824242551288521 2954.8171783945572 7753.9167292473958 15.504164263112887 30.716046130420811 1.7008917411844078 40723.813496393494 70255.805555555577 0.018351991345565973 85.287210338680936 1.0000000180025095e-35 14304.000000000002 60201.53333333334 14700.000000000002
decision_type=2 2 2 2 2 2 2 2 2 2 2 2 2 2 2 2 2 2 2 2 2 2 2 2 2 2 2 2 2 2 2 2 2 2 2 2 2 2 2 2 2 2
left_child=1 2 3 4 5 6 7 9 -7 10 14 -12 -5 25 30 -15 -9 18 19 -10 27 -22 24 -18 -4 -6 33 28 -20 36 31 32 -1 -19 -32 40 38 -29 -26 -35 -27 -40
right_child=-2 -3 22 12 13 8 -8 16 17 -11 11 -13 -14 15 -16 -17 23 26 20 -21 21 -23 -24 -25 29 35 -28 37 -30 -31 34 -33 -34 39 -36 -37 -38 -39 41 -41 -42 -43
leaf_value=-0.066988885317724553 0.17556601689279752 0.15609736692796117 -5.1256512993860382e-05 0.042309214547523316 -0.0036865011301299988 0.10348511592951533 0.16400097654811641 0.00020637227563744952 -0.0015982923697853747 0.10777850058836468 0.19160457253610996 -0.041792025910150757 0.20918952925857501 0.079776109311242072 0.07301483992448464 -0.071884247234504317 0.078204043530069101 -0.047806441567452305 -0.072354757945215981 0.14014835191283723 -0.031996165282993851 0.11322678745171717 0.034868550362949495 0.21305776231799795 -0.10714055200460532 -0.10513473122704886 -0.014005109673080385 -0.10474337211726902 0.027002570624511224 -0.03819599991542174 -0.10532320985592968 -0.1049508320455057 0.033968248715504239 -0.10650292619951794 -0.064260919812658621 -0.083518822852869115 -0.086100051543381059 -0.084461266210726901 -0.10471922890522141 -0.10377018483562768 -0.10282853391009875 -0.10319602067220256
leaf_weight=5.2739311158657127 5.1875027865171424 6.3787306062877169 6.5154497884213916 7.6320651769638044 5.0194350052624968 6.5507139507681122 7.4024909269064656 5.518146125599741 9.4956894516944867 6.9096302557736626 5.00941847078502 6.0566984433680773 5.0590844545513391 8.0385304372757655 5.4707137905061236 5.8803630657494059 5.2038231436163169 6.8815875686705175 6.0217021703720111 6.1141465902328482 5.4575868006795627 5.0364312306046486 5.0354292150586835 5.1498435400426388 6.858642300590879 7.6936499364674118 8.6194873284548503 5.5379273481667024 6.0405427925288677 9.1534436512738448 7.8660044837743026 5.8821146059781304 7.1111012939363718 7.7309579607099277 5.0540298484265804 5.0661013200879088 5.695945043116807 5.0071815252304077 5.0204114411026222 5.9579064678400755 8.2913565915077907 6.5197178218513727
leaf_count=146 68 95 165 104 183 121 181 94 234 110 96 112 34 163 123 162 83 181 141 150 126 118 166 58 143 211 211 140 140 339 202 167 180 175 171 191 201 133 142 206 342 240
internal_value=0 -0.00251501 -0.00640874 0.00433844 -0.00221535 0.00884594 0.0345005 0.020904 -0.0148207 -0.000575959 -0.0162639 0.0638621 0.108833 -0.0471249 -0.0404519 0.0157036 0.0948419 -0.0247691 -0.00078452 0.0539218 -0.0265828 0.0377012 -0.0579964 0.145279 -0.0697563 -0.0806687 -0.0647937 -0.0564225 -0.0225985 -0.083416 -0.0603557 -0.0399119 -0.00902243 -0.0860753 -0.0892606 -0.0990244 -0.100595 -0.0951127 -0.105082 -0.105314 -0.103939 -0.103859
internal_weight=0 266.218 259.839 215.04 202.349 162.36 77.9079 70.5055 84.4519 54.6336 47.724 11.0661 12.6911 39.9894 36.6579 13.9189 15.8718 77.9011 48.7112 15.6098 33.1014 10.494 44.799 10.3537 39.7636 26.0705 29.1899 22.6074 12.0622 33.2482 31.1872 18.2671 12.385 20.5705 12.92 21.0511 24.0947 10.5451 18.3988 13.6889 15.985 11.5401
internal_count=6748 6680 6585 5189 5051 3799 1723 1542 2076 1307 1197 208 138 1252 989 325 235 1955 1182 384 798 244 1396 141 1230 927 773 554 281 1065 866 493 326 562 373 744 726 273 525 381 553 382
is_linear=0
shrinkage=0.1


Tree=9
num_leaves=43
num_cat=0
split_feature=392 76 311 223 222 8 37 215 222 26 514 514 387 481 386 500 450 237 238 338 331 452 387 408 238 181 384 377 3 181 514 11 23 492 398 514 477 477 211 512 430 221
split_gain=13.3571 13.6509 16.103 12.1756 24.7658 9.80254 12.9149 7.39494 13.8324 6.8196 6.73774 16.1147 13.0513 11.5139 10.4916 18.4684 7.02736 6.32512 10.504 6.94502 8.95566 8.10131 4.87279 6.18797 4.61021 3.97345 3.60788 3.27203 2.67343 2.37591 2.29827 1.95164 1.93907 1.80723 1.2554 0.160875 0.145497 0.00438397 0.00141754 0.0012664 0.000740634 7.2056e-05
threshold=54887.71717171718 1.0000000180025095e-35 47.576725555508922 0.69254227933528989 0.73478825727948271 25.934271508220167 0.0019062869592476799 0.63520570001596699 0.6572392130446606 8.5999792056867452 3.5000000000000004 7.5000000000000009 68304.381944444453 51816.044229376595 8082.7798507462694 18623.181981615242 7379.8089839154163 0.16525160280982276 0.15072821397271374 60.178478162029286 66.166059978380531 30045.980123349484 73204.312500000015 58045.652777777788 0.3036675929083108 1.4308090300925154 34737.392857142862 11941.875000000002 8.6169308246548209 0.0071354005928700752 13301.500000000002 18.940771007038617 0.0051092841396191699 11198.101246587708 60476.666666666679 19899.500000000004 62590.62586618655 27413.00368375333 0.147490542434942 23.84769076305221 60992.604166666679 0.67231298210590851
decision_type=2 2 2 2 2 2 2 2 2 2 2 2 2 2 2 2 2 2 2 2 2 2 2 2 2 2 2 2 2 2 2 2 2 2 2 2 2 2 2 2 2 2
left_child=1 2 3 5 -5 6 10 17 -9 -10 12 -12 16 -14 26 -16 27 18 19 31 -21 25 32 -24 35 29 28 -1 -13 30 -22 38 36 -18 37 39 40 -35 -4 -19 -2 -3
right_child=22 41 7 4 -6 -7 -8 8 9 -11 11 14 13 -15 15 -17 33 24 -20 20 21 -23 23 -25 -26 -27 -28 -29 -30 -31 -32 -33 -34 34 -36 -37 -38 -39 -40 -41 -42 -43
leaf_value=-0.019288823486750237 -0.10389058831808295 -0.10271622464955642 -0.10330675065212198 0.30488614448462253 0.032531379853754386 -0.079704433331468982 0.15309539722290039 0.1576230977155173 0.039128143507382675 -0.10675060261352881 0.16439517697864642 -0.091946223134243416 -0.01684170543247375 0.18140225082711625 0.21856789036686752 -0.017256015624538934 -0.018500412587343595 -0.10657244606858568 0.11934419728973877 0.097353692155402169 -0.0029246301482380873 0.091690097391734449 0.045287693962030674 -0.087625520999095999 0.0097644173775815694 0.034074047967355435 0.047013294675888384 0.087175393518232169 -0.0085057035164228106 -0.10475516803113061 -0.086826329415932421 -0.029007564352839105 -0.029204191728653781 -0.10900478237658147 -0.046264484283483787 -0.084098736097417581 -0.083133582086572538 -0.10493613633101979 -0.10560669220158954 -0.10449151764639349 -0.10239950526163738 -0.10324438889429724
leaf_weight=6.7757764160633069 6.2315367888659292 5.1889558769762498 5.6812484133988601 5.0239946171641341 9.9532630275934917 7.8877792637795201 8.6141991596668941 6.6800340749323395 8.1105372104793769 5.2978909667581311 9.9598288629204017 7.5513017810881156 5.5645667612552625 6.187180308625102 6.0203293338417989 7.4062568284571171 5.0243662893772152 5.5807515140622908 5.6097978614270678 7.3938954267650834 7.8317854776978546 5.0500526726245871 8.6195445880293828 5.9006470721215001 5.0706662945449343 5.0284025631844989 5.1765054687857619 5.0295405574142933 7.8125549480319023 8.7980331480503065 5.5987727176398039 5.0457560345530501 5.3396341260522595 5.3041787240654212 5.0206325426697722 5.0267503820359698 5.0218780245631924 5.2890613097697496 5.0723721459507942 6.1444672308862209 7.1572435088455677 5.143427886068821
leaf_count=143 215 221 221 67 247 229 141 113 158 127 138 200 127 91 112 147 84 121 84 173 200 104 225 181 100 118 122 76 153 222 144 143 175 109 133 165 208 151 149 192 333 186
internal_value=0 0.0093854 0.0146005 0.0395616 0.12389 0.0274897 0.0362302 -0.0143779 0.0400591 -0.018511 0.0248063 0.0525419 -0.00276087 0.0875318 0.0197441 0.0884848 -0.0354668 -0.0275639 -0.0110607 -0.0242416 -0.00192601 -0.0246475 -0.0543607 -0.00872495 -0.073778 -0.046202 -0.0251894 0.0260692 -0.0495165 -0.0643615 -0.0379006 -0.0803166 -0.082261 -0.0706661 -0.0874525 -0.0990655 -0.097649 -0.106973 -0.104392 -0.105482 -0.103093 -0.102979
internal_weight=0 232.955 222.623 119.601 14.9773 104.624 96.7363 103.021 20.0885 13.4084 88.1221 43.9268 44.1953 11.7517 33.9669 13.4266 32.4436 82.9328 61.1101 55.5003 39.7009 32.307 38.2705 14.5202 21.8226 27.257 20.5404 11.8053 15.3639 22.2286 13.4306 15.7994 23.7503 20.6382 15.6139 16.752 18.4107 10.5932 10.7536 11.7252 13.3888 10.3324
internal_count=6748 5411 5004 2470 314 2156 1927 2534 398 285 1786 872 914 218 734 259 696 2136 1558 1474 961 788 1337 406 578 684 475 219 353 566 344 513 931 477 393 478 756 260 370 313 548 407
is_linear=0
shrinkage=0.1


Tree=10
num_leaves=43
num_cat=0
split_feature=392 245 58 71 377 415 449 472 510 496 244 263 210 452 71 450 241 329 500 69 61 349 306 197 504 510 198 430 399 327 509 238 230 214 300 404 387 463 226 235 377 430
split_gain=11.209 10.4667 8.52187 10.1756 9.77709 12.4286 10.8158 9.172 10.3462 11.502 8.01967 7.50782 13.477 7.22278 6.52599 8.77229 6.48095 6.39213 8.54131 5.8079 6.61739 5.47329 9.25139 4.99905 4.742 7.58574 4.41432 5.57592 7.81661 4.10943 3.62124 3.39305 2.0905 3.24482 2.00833 1.82377 0.53129 0.454041 0.123564 0.00146141 0.001173 0.000334185
threshold=54887.71717171718 15.603063986744049 5.2099854576764608 3.4628523551241717 16075.888888888891 61941.694444444453 76772.898342058834 66184.747011946863 0.34353400222965447 22263.490897887576 0.25061698140333927 19.007632743362837 0.60319665911355524 29190.576055415833 3.3753459937601114 47928.744521686102 0.25570654924291747 61.702004149860912 18695.401485626098 3.4687408419935459 5.1369402063516461 87.065076504660695 100.75817784600852 1.7369370700779103 73550.554408858588 0.2683454756625489 1.6941600310887708 52111.971428571436 18472.944444444449 62.031474588471937 3679.7894479381644 0.86206959045430642 0.16554289539099568 0.41167502649549942 74.340782952404382 21254.785714285717 97882.888888888905 38081.05060273697 0.5951068538443286 0.24246552065733348 3980.7500000000005 53100.511111111118
decision_type=2 2 2 2 2 2 2 2 2 2 2 2 2 2 2 2 2 2 2 2 2 2 2 2 2 2 2 2 2 2 2 2 2 2 2 2 2 2 2 2 2 2
left_child=1 2 4 13 6 7 10 8 9 -6 23 12 -3 -4 15 17 -12 -13 21 32 -21 29 -23 26 25 -2 27 28 30 -19 35 -15 33 -16 -31 -1 40 -29 -28 -34 41 -27
right_child=24 11 3 -5 5 -7 -8 -9 -10 -11 16 14 -14 31 19 -17 -18 18 -20 20 -22 22 -24 -25 -26 36 38 37 -30 34 -32 -33 39 -35 -36 -37 -38 -39 -40 -41 -42 -43
leaf_value=-0.094675980392272319 0.031858724675924682 -0.039995326807644865 -0.029873969499993453 0.20615481482906542 -0.038618162569463606 -0.053463808063218349 0.12327068862813191 -0.016374159400892114 0.22738912913374856 0.16880915871204796 0.14757509170011801 0.10977873535982573 0.18202947914685952 0.140760870239372 -0.10339389186029052 -0.10488597705112855 -0.013064032214292641 0.025621594212752133 0.091559221376489489 0.08772290386208248 -0.062779053223681075 0.13424962421462183 -0.052174751203432679 0.035961766201150255 0.02110414803586692 -0.10332501901628761 -0.086467149744270277 -0.10337136235208218 0.072997424529995247 -0.10532976523893095 0.032779434564846728 0.033564144148230758 -0.10389282001077629 0.010083594961671093 -0.035864715021131345 -0.018747473177470771 -0.067052191046921214 -0.063090539544087623 -0.10767134539002934 -0.10578378989728332 -0.10442605559937068 -0.10226502827791338
leaf_weight=8.551407162100082 5.8843637937679913 5.9367905519902688 7.521985109895474 5.0563491312786928 5.0544867478311151 7.0660339146852484 6.0780949853360644 5.3718667775392523 6.9969710782170287 5.6743993628770113 5.000275641679762 5.9661229364573947 5.0676764883100986 6.9133431091904622 5.0686577064916509 7.2828920138999811 5.046004306524992 5.2413646671921041 8.0161115769296867 5.0808247923850995 6.8740723775699735 5.0137389376759511 5.6750171668827534 9.7279062950983626 7.1768745929002753 5.147611006163066 5.0287254918366653 6.3521093986928445 9.1896431539207679 9.742018138989808 5.0255523212254039 5.1541366428136826 7.9083446329459575 5.010989342816174 7.2663601581007233 5.0208244062960139 5.2135676546022287 5.0017913179472089 6.0599727556109428 8.4580587428063136 5.942280761897563 7.0447420850396156
leaf_count=231 222 153 159 114 62 103 139 89 105 80 79 133 68 102 215 199 89 105 162 118 195 122 139 252 242 193 146 243 182 256 143 42 266 124 191 80 146 199 130 196 186 348
internal_value=0 0.00790648 0.0267029 0.0796809 0.0144136 0.0625915 -0.00468708 0.098095 0.132785 0.071088 -0.015797 -0.0158395 0.0622495 0.047036 -0.025119 -0.00277489 0.0668899 0.0130745 -0.00101306 -0.0566582 0.0011842 -0.023542 0.0352707 -0.0296516 -0.0517308 -0.0696124 -0.0423588 -0.02658 -0.00245383 -0.0517956 -0.0397362 0.0949761 -0.0828058 -0.0469798 -0.0756527 -0.0665875 -0.0951858 -0.0856262 -0.0980552 -0.10487 -0.103274 -0.102713
internal_weight=0 234.501 130.892 24.6458 106.246 30.1638 76.0823 23.0977 17.7259 10.7289 70.0042 103.609 11.0045 19.5895 92.6046 54.2036 10.0463 46.9207 40.9546 38.4009 11.9549 32.9385 10.6888 59.9579 36.4094 29.2326 50.23 39.1413 27.7874 22.2497 18.5978 12.0675 26.4461 10.0796 17.0084 13.5722 23.3482 11.3539 11.0887 16.3664 18.1346 12.1924
internal_count=6748 5411 2769 417 2352 439 1913 336 247 142 1774 2642 221 303 2421 1307 168 1108 975 1114 313 813 261 1606 1337 1095 1354 1078 636 552 454 144 801 339 447 311 873 442 276 462 727 541
is_linear=0
shrinkage=0.1


Tree=11
num_leaves=37
num_cat=0
split_feature=76 223 222 19 496 441 408 481 411 26 34 510 203 243 229 415 26 465 511 443 411 121 28 377 514 302 336 78 514 104 511 214 403 393 427 213
split_gain=11.6867 11.1163 26.1903 8.89035 9.05654 8.55478 15.0454 14.1604 9.28239 9.01781 8.43326 7.60103 7.21112 8.2075 14.1681 9.02913 15.0869 8.11078 7.17729 7.11646 6.7807 5.96946 7.20466 5.73798 5.52767 8.12419 14.6455 7.93706 4.82391 3.41931 2.4303 3.04201 2.00485 1.81249 0.00510483 6.50116e-05
threshold=1.0000000180025095e-35 0.69254227933528989 0.71677619232785772 10.463984904676099 96053.523113623247 72088.194444444453 56537.687500000007 51816.044229376595 45088.166666666679 8.6609137131710856 0.059087018671986687 0.3110579479000532 1.7295235506844429 0.25133823302315506 0.88271219007652479 15529.888888888891 0.39742678980187868 34419.42621463017 0.043507287259050308 1.0000000180025095e-35 36409.055555555562 1.7268687202003872 6.7812671412441139 30305.277777777785 38647.500000000007 67.023446915292297 82.42803183664374 3.4711117576023378 13301.500000000002 1.7299083203802408 0.69965034965034978 0.5794287866451554 71585.333333333358 13970.111111111113 41438.750000000007 0.67095469767811744
decision_type=2 2 2 2 2 2 2 2 2 2 2 2 2 2 2 2 2 2 2 2 2 2 2 2 2 2 2 2 2 2 2 2 2 2 2 2
left_child=1 3 -3 4 5 8 7 20 9 10 12 -8 13 15 -15 19 17 -17 -14 24 -7 22 -4 32 25 27 -27 28 33 -11 31 -20 34 -1 -10 -2
right_child=35 2 21 -5 -6 6 11 -9 23 29 -12 -13 18 14 -16 16 -18 -19 30 -21 -22 -23 -24 -25 -26 26 -28 -29 -30 -31 -32 -33 -34 -35 -36 -37
leaf_value=0.030438275078932483 -0.10246141390803253 0.20328836303916009 0.091483573156663126 -0.10470389955387041 -0.10316893106721631 0.10857891240103584 -0.10702522389038592 0.20400063061948354 -0.10675676134149568 -0.10543602914432285 -0.090696168462117741 0.034971206445661526 0.051181412500481208 0.17848606642188625 -0.02624103578230122 -0.051553999346800855 0.16951935173297833 0.10053650380543772 0.014092320019007482 -0.084708152670206815 -0.050212895307109366 -0.091368289635473096 -0.04774483512915325 0.026069362676683323 -0.05393898867846806 0.21863305287216506 0.0031545884528084455 0.10157316462822352 -0.092432814571693722 -0.0086073452634696929 -0.10460191160764781 -0.087732709517478399 -0.0448393862834012 -0.042758799685557763 -0.10272873112488815 -0.10295375524421276
leaf_weight=9.9283618014305883 5.5944663044065219 9.0380500275641698 8.5804143408313411 8.3951454823836666 8.1743468511849624 5.5640196120366472 6.4422268653288475 8.5860621612519008 5.05669768247754 9.2633607750758511 7.3030524756759396 9.0875450950115901 8.5053199194371718 9.0603314507752639 5.392084937542676 8.9124665856361407 9.5914730913937074 5.780599581077694 6.5843775011599082 8.5648748427629453 5.2046597953885794 5.3908263668417922 6.5568944159895173 6.6877131825312963 9.7664696769788844 5.5271515334025008 7.3471969701349735 6.0702756792306891 7.5524577591568223 6.0150547586381427 7.2987231137230983 5.2920191828161478 9.8673430653288943 5.1312760515138498 8.3278518477454764 5.1517596961930394
leaf_count=203 266 111 252 294 337 120 133 138 165 285 198 184 138 122 49 200 131 157 170 204 109 120 128 147 274 115 160 123 212 155 226 131 309 98 379 205
internal_value=0 0.00372124 0.0614448 -0.00369 0.000131909 0.00408312 0.0493823 0.108209 -0.0047536 0.00546305 0.0137854 -0.0239333 0.0198266 0.0324851 0.102104 0.0205315 0.0719646 0.008282 -0.0252756 -0.000324533 0.0318325 -0.00100552 0.0311752 -0.0555601 0.0137575 0.0296672 0.0956627 4.45286e-05 -0.0272111 -0.0673149 -0.0591889 -0.03128 -0.0790384 0.00549781 -0.104251 -0.102697
internal_weight=0 259.847 29.5662 230.281 221.885 213.711 34.8845 19.3547 178.827 148.887 133.609 15.5298 126.305 98.625 14.4524 84.1726 24.2845 14.6931 27.6804 59.8881 10.7687 20.5281 15.1373 29.9396 51.3232 41.5567 12.8743 28.6824 22.6121 15.2784 19.1751 11.8764 23.2519 15.0596 13.3845 10.7462
internal_count=6748 6277 611 5666 5372 5035 684 367 4351 3351 2911 317 2713 2048 171 1877 488 357 665 1389 229 500 380 1000 1185 911 275 636 513 440 527 301 853 301 544 471
is_linear=0
shrinkage=0.1


Tree=12
num_leaves=40
num_cat=0
split_feature=76 465 223 221 415 481 24 8 405 207 202 327 35 37 337 434 223 116 216 210 377 201 492 377 377 459 5 357 236 458 237 453 2 504 452 406 20 441 458
split_gain=10.4241 9.89864 10.3491 17.5218 12.4991 13.9763 10.4367 8.67238 8.8598 9.28944 8.65652 7.55672 7.49417 9.21433 11.3148 10.0966 7.32773 12.9093 9.7191 9.61033 8.16794 7.08045 6.62527 6.29761 6.5602 4.44469 4.1963 4.0167 6.94036 4.96715 3.67445 3.45218 3.17285 1.87804 1.14789 0.559692 0.111362 0.00486585 0.00127661
threshold=1.0000000180025095e-35 45181.407025940112 0.69254227933528989 0.68455049651494504 62695.166666666672 36063.721538187187 8.3663928176539404 25.984607790010617 57033.525000000009 0.66566051442335705 1.763469519845936 91.950786322179937 0.0041435797815228123 0.0038019200039316504 57.135380208055658 3136.4275362318845 0.59905591825378102 1.7084064860241643 0.53781863664732221 0.38724969608644449 16075.888888888891 1.7265206810414651 75026.594322962032 20581.133333333335 28284.083333333339 25353.971244300552 0.36314819399359533 326.18174437449272 0.15715222145668331 17164.551886939909 0.26953666743909255 28106.578376652924 0.27732594290496348 73550.554408858588 26653.18611045364 66297.500000000015 10.44705502223219 81087.666666666672 46164.562634516893
decision_type=2 2 2 2 2 2 2 2 2 2 2 2 2 2 2 2 2 2 2 2 2 2 2 2 2 2 2 2 2 2 2 2 2 2 2 2 2 2 2
left_child=1 2 4 -4 7 -6 -5 8 9 10 12 -8 13 15 -15 16 18 -18 19 20 27 -19 25 -22 -25 33 34 28 29 32 -12 -10 -1 37 -14 -33 -9 38 -3
right_child=-2 22 3 6 5 -7 11 36 31 -11 30 -13 26 14 -16 -17 17 21 -20 -21 23 -23 -24 24 -26 -27 -28 -29 -30 -31 -32 35 -34 -35 -36 -37 -38 -39 -40
leaf_value=-0.10464587080574644 -0.10243584343107884 -0.10456365644918375 0.22814407642798026 0.12456848568835666 -0.029751433771243885 0.18067919772874663 0.054847685924144934 -0.10495270667627399 0.0045886350372329075 -0.086180187253446019 -0.095164517789903424 -0.086893998529015859 -0.041888238462201348 0.19232989514413815 0.029105879656587744 -0.076174668771471554 0.22687170984585842 0.113196449295837 -0.081617280082048604 0.16011189029492601 0.16079042319606102 -0.050921281479965032 0.035200957381771973 -0.038167310432138703 0.11201338824429714 -0.0027727619065023752 0.034270017223717766 -0.080111751818811749 0.10895920894385014 0.036339936426463597 0.0050961049952453884 -0.10562394114767074 -0.0043202850590197709 -0.039494630977039424 -0.10470453453848841 -0.063503348135924273 -0.083871492394705413 -0.10716010256148532 -0.10241628234224959
leaf_weight=6.7801189189776832 9.7471544872969371 5.8230937756598085 5.4868808239698437 7.5964786773547557 5.2440896136686188 7.9278079094365239 7.2023659758269769 5.0094712255522591 5.3844132395461228 9.5132672684267146 9.1738401511684042 7.8726401245221496 6.3949541971087474 7.6305255591869381 9.5776953883469087 9.4480296587571484 5.013596447184681 5.3050100747495872 8.4572117542847973 5.4056936083361498 5.8080366905778673 5.2108418671414256 8.498952095396815 6.1087030852213484 5.5523684658110142 8.5117303552106005 5.6766003575175992 6.3420479996129862 5.4808985255658618 9.9735023751854879 6.0766403041779986 8.5428203018382174 5.891364173963666 5.9929443309083572 5.336842305958271 5.0017911177128545 5.0136769451200962 5.5915993731468907 5.2776665687561035
leaf_count=249 471 199 62 169 128 161 118 162 164 207 265 151 184 99 204 245 97 99 253 71 76 115 269 88 64 190 118 135 42 251 123 252 145 185 138 195 214 129 261
internal_value=0 0.00289811 0.0111759 0.0677962 0.00288427 0.0969011 0.0289893 -0.00402981 0.00132762 0.00945494 0.0159237 -0.0191743 0.0245757 0.0343914 0.101483 0.0216731 0.0330401 0.0948269 0.0184578 0.0332174 0.02001 0.0318724 -0.0430703 0.0757144 0.0333406 -0.0643936 -0.0363117 -0.0082223 0.00798791 -0.0164508 -0.0552151 -0.0631438 -0.0580014 -0.0875143 -0.0704636 -0.0900695 -0.0944077 -0.104754 -0.103543
internal_weight=0 260.136 220.44 28.1584 192.282 13.1719 22.6715 179.11 169.087 150.158 140.645 15.075 125.394 107.986 17.2082 90.7774 81.3294 15.5294 65.7999 57.3427 51.937 10.5159 39.696 17.4691 11.6611 31.197 17.4084 34.4679 28.1259 22.645 15.2505 18.929 12.6715 22.6853 11.7318 13.5446 10.0231 16.6924 11.1008
internal_count=6748 6277 5044 500 4544 289 438 4255 3879 3268 3061 269 2673 2233 303 1930 1685 311 1374 1121 1050 214 1233 228 152 964 440 822 687 645 388 611 394 774 322 447 376 589 460
is_linear=0
shrinkage=0.1


Tree=13
num_leaves=43
num_cat=0
split_feature=327 408 443 449 415 463 465 439 439 217 220 0 3 263 198 202 58 500 434 232 469 405 514 137 229 6 232 511 507 392 415 461 395 405 458 339 61 505 12 493 458 377
split_gain=8.66343 8.91263 12.4175 9.01988 7.51277 11.4921 12.5565 9.63509 13.3809 6.87765 9.75327 13.3209 8.85191 9.06303 6.39179 7.18307 8.75503 7.08515 7.51447 8.05351 6.24073 9.627 5.30992 4.99586 5.20234 7.59835 3.9628 3.84124 3.34416 4.33446 4.05117 3.22746 6.35816 4.28456 6.31011 5.55172 2.70305 1.05828 0.540524 0.424276 0.0112331 0.00657963
threshold=130.50548762398356 58045.652777777788 36996.791881231118 86911.605815023213 61740.000000000007 18627.281714689154 44895.602387008184 16900.833333333339 14874.722222222224 1.1142729535079738 0.64654785316646235 77.400895045907603 8.4990372897441144 17.418663621732815 1.7382491472779831 1.763469519845936 5.1693110175782317 18626.75847741526 3060.9519774011305 0.15634657655594966 73444.128167704082 50374.450000000004 13604.500000000002 0.00264904876849313 0.16020286671028736 29.252195218145921 0.24385351488643295 17.029156816390863 35770.099055619568 50445.833333333336 62425.333333333336 20349.313807420902 3909.737787249815 20962.527777777781 5923.6598412515405 66.134354385015513 5.1494779726297413 25901.111641256946 18.941205521670405 54922.660591696585 26621.085616648783 2854.2000000000003
decision_type=2 2 2 2 2 2 2 2 2 2 2 2 2 2 2 2 2 2 2 2 2 2 2 2 2 2 2 2 2 2 2 2 2 2 2 2 2 2 2 2 2 2
left_child=1 2 4 28 7 -6 -7 8 9 10 14 12 -12 -14 15 16 23 18 19 -18 27 -22 26 24 25 31 -16 37 41 30 -30 32 33 34 35 -1 -15 -9 -24 -31 -39 -3
right_child=-2 3 -4 -5 5 6 -8 20 -10 -11 11 -13 13 36 22 -17 17 -19 -20 -21 21 -23 38 -25 -26 -27 -28 -29 29 39 -32 -33 -34 -35 -36 -37 -38 40 -40 -41 -42 -43
leaf_value=-0.074486693800488488 -0.10266145965223424 -0.10297136854107343 0.14059699850300414 0.060384081925456495 -0.042745930209020157 0.22188421392256036 0.015828269086533297 -0.058479667712191513 0.15286838435899908 -0.10611480341795571 0.12117251888629546 0.16853385758235254 0.073227007793397247 -0.012196390974074371 -0.056848469157095384 -0.10527274101831388 0.13767000171338337 -0.020559594284564942 0.17470074836074634 -0.033341584545528033 -0.071657899376392914 0.11630597979642499 -0.10479380312958081 -0.09101982493370378 -0.077514196014491429 0.12660994631895892 0.067823579836930811 -0.0029646535252044414 0.070432076959450154 -0.064968217333292513 -0.053423123383897021 0.056331552353166836 -0.10556355540666416 -0.059781588013115831 0.12979035986500242 0.069144686680579229 -0.10861141780371515 -0.10898173872923902 -0.063952457640817625 -0.10580743069859798 -0.1031781668792762 -0.10768311950260148
leaf_weight=5.6408540485426837 8.16604001726955 7.2116870796307904 7.030355153605341 7.156628160737454 6.238217148929837 6.2829150119796378 5.5871144868433475 7.2638411102816525 6.3729388266801825 5.3786558452993622 6.591827602125707 8.0217219861224276 7.478989657014611 5.0870268112048489 5.1911748442798871 5.3058391017839304 5.0379143813625031 7.2715342724695793 7.3169594481587401 6.0739233801141381 5.5976205160841328 5.3093819990754128 9.1144447112455946 6.3600064534693947 6.8552825879305592 5.4474780280143014 5.0102528668940067 6.6978124585002652 5.0602768706157821 5.033018955960868 5.5236123381182551 7.937708342447876 6.1746477708220473 6.4140886142849913 5.0161569761112323 5.1462132129818201 6.787742511369288 5.2379385074600568 5.0282509103417388 5.1436412176117301 9.1806156300008279 5.0314372004941106
leaf_count=137 405 316 150 173 156 102 146 163 60 151 78 124 121 94 99 166 85 137 89 106 135 118 291 169 193 124 80 189 157 172 114 157 153 177 127 122 150 152 199 158 406 147
internal_value=0 0.00194003 0.00983195 -0.041388 0.00552511 0.0671438 0.124896 -0.00018675 0.0109562 0.00491434 0.00905257 0.0559089 0.0210881 -0.0130004 -0.00537143 0.0074339 0.0148448 0.0630277 0.0960092 0.0441921 -0.0444502 0.0198404 -0.0506078 -0.00767321 0.00322661 0.0164755 0.00438203 -0.0691581 -0.0634567 -0.0390117 0.00579345 -3.86789e-05 -0.0157984 0.00914913 0.0371262 -0.00596411 -0.0673082 -0.0896057 -0.0902732 -0.0856098 -0.105286 -0.104908
internal_weight=0 260.648 220.487 40.1603 213.457 18.1082 11.87 195.349 156.062 149.689 144.31 33.9673 25.9456 19.3538 110.343 85.9986 80.6928 25.7003 18.4288 11.1118 39.2872 10.907 24.3441 54.9924 48.6324 41.7771 10.2014 28.3802 33.0037 20.7605 10.5839 36.3297 28.392 22.2173 15.8032 10.7871 11.8748 21.6824 14.1427 10.1767 14.4186 12.2431
internal_count=6748 6343 5106 1237 4956 404 248 4552 3389 3329 3178 567 443 365 2611 1942 1776 417 280 191 1163 253 669 1359 1190 997 179 910 1064 601 271 873 716 563 386 259 244 721 490 330 558 463
is_linear=0
shrinkage=0.1


Tree=14
num_leaves=37
num_cat=0
split_feature=76 496 286 200 458 387 411 443 311 470 73 201 52 37 398 443 461 291 512 510 459 214 207 236 469 133 325 366 302 236 11 387 453 439 509 261
split_gain=9.17177 8.17263 7.2136 6.47005 6.07865 9.2898 11.3422 8.73824 8.72445 8.28952 7.92248 8.66314 7.15542 8.63473 5.58093 5.78832 5.36147 4.55088 4.5502 4.36403 7.03305 4.31739 9.89445 6.05243 4.25213 3.52525 4.92713 5.83094 9.69188 6.83538 2.16515 1.26925 1.01264 0.154343 0.146517 0.00260876
threshold=1.0000000180025095e-35 96053.523113623247 1.0000000180025095e-35 1.7639707605922288 20217.193060548176 68304.381944444453 40590.253968253972 33527.470477896859 47.576725555508922 53654.766670544384 3.480144147733792 1.7012701198666369 5.2200898642762192 0.0019062869592476799 60476.666666666679 5273.2817560825233 20222.33121573208 214.49938827367697 23.45138436482085 2926.5518735739192 8198.0448924936391 0.63407362010281576 0.6759754062683464 0.15715222145668331 15494.661346534629 0.16796979502112805 92.582501512829666 74.511510981054926 67.023446915292297 0.1228151779201089 18.952827283155262 1.0000000180025095e-35 28106.578376652924 56258.865079365089 3440.7442473382966 50.024857537323676
decision_type=2 2 2 2 2 2 2 2 2 2 2 2 2 2 2 2 2 2 2 2 2 2 2 2 2 2 2 2 2 2 2 2 2 2 2 2
left_child=1 2 3 4 7 14 -7 8 10 -8 11 12 13 17 32 -16 -13 19 -5 20 -1 23 -23 25 31 26 27 28 29 -10 -20 -22 -6 -34 -25 -32
right_child=-2 -3 -4 18 5 6 9 -9 21 -11 -12 16 -14 -15 15 -17 -18 -19 30 -21 24 22 -24 34 -26 -27 -28 -29 -30 -31 35 -33 33 -35 -36 -37
leaf_value=0.086409090719004239 -0.10221258544199713 -0.091781379288167333 0.10003133935118154 0.01253259784162966 -0.054514396043468499 0.12407818776926985 -0.093762381256812966 0.14544480474691446 -0.083013204190411527 0.043228075712943265 0.13316746856660738 -0.086382372562084919 0.14090103943081583 0.15242294840705795 -0.069134163796975331 0.070151749622009332 0.033454743214810213 -0.043965727562911144 -0.031675737558726318 0.11016107876473097 -0.0264133173234785 0.11017908415958572 -0.046476988584639722 -0.10779465453598672 0.039309860472134181 -0.068627063007963396 0.079247949808545215 -0.091576387146728333 0.11663814537256133 0.061535433194022951 -0.1068780386452005 -0.092526210826631941 -0.10550882155517467 -0.083756997320884513 -0.08365728839802837 -0.10366136097512929
leaf_weight=9.9561554435640591 8.7519419705495221 8.9936180841177684 7.7791116014122954 8.8681764639914054 8.6521695842966455 8.1450578626245278 8.0214115735143441 5.2242036210373035 9.3726027617231065 9.8308515064418298 7.6268917471170417 9.5961054777726513 6.7322501167654982 5.2694051433354607 5.7804519878700358 6.1663437364622951 6.1107687186449757 9.5985101126134378 6.6244685314595726 6.1596287460997692 6.8124488741159457 8.1995668122544902 7.9320093039423218 5.0428816173225623 8.1195822246372682 8.1978637650608999 7.0016184486448756 7.2717714766040435 6.24126087501645 5.0255134701728812 5.0255815051496011 5.0612572589889169 9.2700379183515889 5.0332815162837496 5.016482881270349 5.0595892909914255
leaf_count=173 471 413 93 167 245 169 208 89 367 224 151 245 156 55 239 130 116 153 208 70 115 132 156 124 120 212 155 176 144 72 126 127 320 242 202 183
internal_value=0 0.00187423 0.0052458 0.00219949 0.00781953 -0.0189635 0.0262906 0.0183041 0.0138862 -0.0183247 0.0361623 0.0260849 0.0440059 0.0312095 -0.0526716 0.00275832 -0.0397597 0.0172354 -0.0453636 0.0335039 0.017738 -0.012164 0.0331502 -0.0259121 -0.0164585 -0.00961451 0.00424222 -0.0145732 0.0125569 -0.03256 -0.0760904 -0.0545944 -0.0815191 -0.0978544 -0.0957576 -0.105264
internal_weight=0 258.819 249.825 242.046 216.468 60.8996 25.9973 155.569 150.345 17.8523 81.043 73.4161 57.7092 50.977 34.9023 11.9468 15.7069 45.7076 25.5778 36.1091 29.9494 69.3016 16.1316 53.17 19.9933 43.1106 34.9128 27.9111 20.6394 14.3981 16.7096 11.8737 22.9555 14.3033 10.0594 10.0852
internal_count=6748 6277 5864 5771 5087 1777 601 3310 3221 432 1481 1330 969 813 1176 369 361 758 684 605 535 1740 288 1452 362 1126 914 759 583 439 517 242 807 562 326 309
is_linear=0
shrinkage=0.1


Tree=15
num_leaves=41
num_cat=0
split_feature=76 327 496 204 199 261 329 215 514 203 411 426 392 387 481 470 501 514 514 68 70 377 514 496 504 510 1 246 37 386 509 209 223 75 434 410 449 392 2 202
split_gain=8.22629 7.55833 7.54405 5.742 11.8651 10.7953 9.38269 7.61137 6.20899 8.64683 6.07819 6.7071 8.10907 6.40995 9.59941 9.94586 7.98102 5.67045 21.0824 5.91531 6.95581 5.28521 11.7754 5.39854 8.99277 3.89928 3.28584 4.32998 4.50313 5.86806 7.0669 3.07053 2.62474 2.48177 2.21869 1.52859 1.47959 0.867115 0.15046 0.000964594
threshold=1.0000000180025095e-35 130.50548762398356 96053.523113623247 1.7261488450250766 1.7258316429572129 74.110943109983708 42.694128207448081 0.63645419488869626 11492.500000000002 1.7578001414941322 94171.083333333358 122918.37500000001 76413.437500000015 73204.312500000015 66366.416290651556 52496.926659230608 46745.951621809254 39602.000000000007 30501.500000000004 3.4263523112497385 3.4171219284177248 16075.888888888891 4.5000000000000009 18541.490330476361 26241.885258453662 2730.0514000000007 251.95754753872328 83.779592344021893 0.0034224731390851948 7960.4742647058829 0.58443241074988583 0.62310946542595314 0.63070940432381339 3.4244572155338298 3067.0713506561174 16254.805555555557 45816.239863183058 41842.188888888901 0.011529371077065085 1.7470692862559385
decision_type=2 2 2 2 2 2 2 2 2 2 2 2 2 2 2 2 2 2 2 2 2 2 2 2 2 2 2 2 2 2 2 2 2 2 2 2 2 2 2 2
left_child=1 2 3 4 10 25 -5 -7 9 31 11 12 13 16 15 -15 17 18 19 20 21 26 23 -23 -25 -6 27 28 29 30 35 -8 38 -21 -19 -1 -12 -18 -10 -40
right_child=-2 -3 -4 6 5 7 8 -9 32 -11 36 -13 -14 14 -16 -17 37 34 -20 33 -22 22 -24 24 -26 -27 -28 -29 -30 -31 -32 -33 -34 -35 -36 -37 -38 -39 39 -41
leaf_value=-0.014327206181645178 -0.10199898954196307 -0.10241868516697453 -0.090404041008931485 0.066629389106333134 -0.054649040976418442 0.064796160305266845 0.0033217125932196406 0.20714720860985364 -0.084104329353262106 0.10739758853274101 -0.1067940971939515 0.12220000872003925 -0.091949050778760699 0.036174046160737598 -0.054278672474206584 0.19651137937507623 -0.047671198629567361 -0.010308161349036286 0.17111165636454942 -0.013391539150494193 0.11959691325240716 -0.067828143024262808 0.17860910645909925 0.14633810568717376 -0.037980208968705957 0.065919682315907446 0.04265170590731987 -0.1050767383711103 0.051181598032844368 -0.11273532855949309 0.07005644526128145 -0.094192460838833536 -0.018545282737960543 -0.109683226497093 -0.097030460829188495 -0.079215592524637612 -0.03079314315889467 -0.10399165128262411 -0.10568655728058292 -0.10388407136024601
leaf_weight=7.2172344857826882 7.934823657386004 6.8306125896051517 8.1570523958653194 9.491313621401785 5.7250228673219699 7.8434607014060003 6.5781137431040424 7.2079266794025898 5.0025889165699544 5.2742007430642834 5.1752749141305667 5.1808216404169789 7.9306790390983215 9.5753549216315204 5.2967792339622966 6.4915975704789153 5.0555595271289331 5.7984103327617031 8.3362054070457798 5.0254253158345801 5.8189991023391476 6.1709667835384669 5.2128440542146555 5.0536945611238462 5.558374872431159 5.0470471177250147 9.4029903849586827 5.5457635447382918 9.0306694246828538 6.5789916561916462 8.0047749355435354 6.3424555212259293 5.3985100947320452 5.7267384696751833 6.0055939666926861 7.305022768676281 5.071958583779633 5.9521007854491472 5.8983800765126926 5.9778955699875951
leaf_count=177 471 377 407 225 157 188 110 88 203 76 154 115 314 190 83 123 149 133 107 97 94 90 64 54 105 114 215 141 179 112 143 115 104 124 139 233 117 274 179 208
internal_value=0 0.00137318 0.00419249 0.00736387 0.0151731 0.0782684 -0.0228561 0.132966 -0.0438417 -0.000501487 0.00544707 0.0103092 0.00649781 0.0119135 0.062468 0.100956 0.00311848 0.0111181 0.0188563 0.00500803 0.0142697 0.00610657 0.0473241 0.00654677 0.0497961 0.00184113 -0.0109719 -0.0225148 -0.0105088 -0.0296493 -0.00538413 -0.0445461 -0.0792393 -0.0646777 -0.0544304 -0.0469675 -0.0691768 -0.078125 -0.0986516 -0.104779
internal_weight=0 258.297 251.467 243.31 193.346 25.8235 49.9635 15.0514 40.4721 18.1948 167.523 157.276 152.095 144.164 21.3637 16.067 122.8 111.793 99.9887 91.6525 80.9003 75.0813 21.9959 16.783 10.6121 10.7721 53.0854 43.6825 38.1367 29.106 22.527 12.9206 22.2774 10.7522 11.804 14.5223 10.2472 11.0077 16.8789 11.8763
internal_count=6748 6277 5900 5493 4273 547 1220 276 995 301 3726 3455 3340 3026 396 313 2630 2207 1935 1828 1607 1513 313 249 159 271 1200 985 844 665 553 225 694 221 272 410 271 423 590 387
is_linear=0
shrinkage=0.1


Tree=16
num_leaves=43
num_cat=0
split_feature=392 118 411 377 449 472 472 512 244 109 233 340 5 325 362 393 77 75 1 403 403 261 199 114 100 509 77 470 3 228 415 507 206 393 103 453 469 8 496 8 412 244
split_gain=8.9057 6.73201 8.68721 8.30592 7.49375 10.2257 12.2091 9.72506 8.02626 11.8409 9.37323 9.10035 8.9641 7.24026 11.0522 6.19535 6.01077 5.94384 5.0485 6.53892 4.72849 4.51563 6.11142 4.43927 3.95369 5.36782 3.89121 3.59618 4.48503 3.93582 2.91282 2.3581 1.57082 1.48329 1.42758 1.36378 0.615266 0.446735 0.153403 0.133681 0.1196 0.00489456
threshold=51486.361111111117 1.7313541227397267 66442.666666666672 29437.291666666668 75435.424107001963 22137.89788507191 17099.963289434283 24.150214341387375 0.13213064403635236 1.6774221325106644 0.15769224950347868 62.030496887941659 0.017218815620388756 68.03762406416125 85.601720188691289 31902.944444444449 3.4045411822049756 3.4815096844592359 59.19393726088353 75156.500000000015 130994.46666666669 76.637313196888911 1.7788479822120833 1.755044047697438 1.6934176338336613 0.47224154689747155 3.4798810737031847 16737.077754432587 8.4835641631135754 0.82545671384678043 59418.152777777788 81882.026648583851 1.7319136593249151 4285.3625564652748 1.7426350497509515 55989.403013198709 32332.943247780917 25.758175568488721 42024.418166235853 25.844430869073083 64437.055555555562 0.13213064403635236
decision_type=2 2 2 2 2 2 2 2 2 2 2 2 2 2 2 2 2 2 2 2 2 2 2 2 2 2 2 2 2 2 2 2 2 2 2 2 2 2 2 2 2 2
left_child=1 2 3 4 5 6 7 8 11 -10 -11 -1 -13 24 -15 -5 -12 32 19 35 40 22 23 26 25 -9 34 28 33 -30 38 -21 -18 -27 39 -2 -20 -26 -7 -3 -4 -38
right_child=18 21 20 15 -6 30 -8 13 9 10 16 12 -14 14 -16 -17 17 -19 36 31 -22 -23 -24 -25 37 27 -28 -29 29 -31 -32 -33 -34 -35 -36 -37 41 -39 -40 -41 -42 -43
leaf_value=-0.10458804540258787 -0.038183347977688548 -0.10873292894476932 -0.10608252340623128 0.16044228086289089 0.099699609591742386 -0.10765945909097979 0.16461198552567211 -0.10378832744807605 0.16214862347857656 0.13987390293973703 0.098846251151471484 -0.034321042141487436 0.12581641156619286 0.15527988038856799 -0.048921080034983522 0.015611424223859785 -0.10627759536944988 0.051135192554028645 -0.062970331836980351 -0.0090622380244954875 0.01498085563760896 -0.10786597301279253 0.079821917485963997 0.039763919686710558 -0.10708205872558102 -0.033877143120553149 0.013933350147779383 0.064535916827083331 0.050918697551826722 -0.055309433248568789 -0.012511960502949719 0.087506345914177108 -0.03282180426702009 -0.11004186992167958 -0.039646941501818106 -0.10621085183668469 -0.10291895877622843 -0.067228573274734901 -0.084448623439169174 -0.087549691948488939 -0.085453171144229997 -0.10698042597789653
leaf_weight=7.2992179756984141 6.1430895319208521 7.2281573014333933 6.4089278969913739 6.566301975399254 8.5347448624670488 6.4731879876926559 5.114314184524118 6.6620198572054496 9.0966936172917467 6.3282624129205969 5.101243267767134 8.3748415708541852 5.9999015927314749 5.3104001870378834 5.2917788904160261 5.3681719237938523 5.422167085111143 6.7228009002283207 5.0013391729444292 5.1086530946195108 5.625675610266625 7.3280940782278767 5.083181405439972 5.7733227564021936 6.3344151191413385 5.027520279400056 5.7123332088813177 6.0185178155079475 9.7784018116071802 5.421694077551364 6.2054797019809476 5.007010723464191 6.2865417813882232 5.2032144237309694 5.752306248061358 5.6642084894701838 7.2747289659455401 5.0590076027438045 5.0836251564323902 5.0678203674033284 5.0051382090896368 5.0111465025693178
leaf_count=299 366 165 199 124 156 172 55 127 92 68 94 189 130 109 124 72 148 135 231 154 147 286 114 153 160 127 156 112 196 43 154 75 111 130 162 201 359 191 201 146 168 141
internal_value=0 -0.000453736 0.00790625 0.0149637 0.00866249 0.00325235 0.0132769 0.00686655 0.0351242 0.0622623 0.0318334 -0.013655 0.032519 -0.0216377 0.0533587 0.0952968 0.00277995 -0.0238081 -0.0521307 -0.0202671 -0.0600539 -0.0365531 -0.0214569 -0.0388883 -0.0376993 -0.0222476 -0.0579991 -0.00497455 -0.021425 0.0130284 -0.0677755 0.0387369 -0.0668383 -0.0726135 -0.0807659 -0.0708176 -0.0925388 -0.089386 -0.0974494 -0.100002 -0.0970364 -0.104576
internal_weight=0 223.069 181.124 164.084 152.15 143.615 125.853 120.739 60.6317 38.9577 29.861 21.674 14.3747 60.107 10.6022 11.9345 23.5328 18.4315 39.2102 21.923 17.0397 41.9452 34.6171 29.5339 49.5048 38.1114 23.7606 31.4493 25.4308 15.2001 17.7623 10.1157 11.7087 10.2307 18.0483 11.8073 17.2872 11.3934 11.5568 12.296 11.4141 12.2859
internal_count=6742 5215 4033 3519 3323 3167 2640 2585 1266 648 556 618 319 1319 233 196 488 394 1527 796 514 1182 896 782 1086 735 629 608 496 239 527 229 259 257 473 567 731 351 373 311 367 500
is_linear=0
shrinkage=0.1


Tree=17
num_leaves=43
num_cat=0
split_feature=430 514 510 198 500 386 59 70 101 115 6 75 223 221 439 439 383 405 384 511 430 238 239 118 5 441 481 507 404 86 32 8 386 514 32 219 205 320 199 472 226 386
split_gain=7.80245 6.59746 8.48662 6.825 5.76094 6.75903 6.83239 5.76986 5.78853 6.69599 5.66497 5.47964 9.89055 8.14176 6.11975 10.643 9.2806 7.13483 7.1064 6.29617 5.45073 6.11326 6.07214 5.11914 10.6767 5.84177 4.69954 4.65075 3.56303 3.38246 5.79131 3.30731 3.26081 2.96105 2.30655 1.91315 1.64126 1.62894 1.18258 0.198498 0.00152034 0.00139515
threshold=76302.930555555577 14700.000000000002 2737.6058233607532 1.7489788139709797 2025.829149864762 8664.8280000000013 5.2112943900511741 3.4584181340547349 1.7295387680594942 1.678167293963569 28.840860306172402 3.4849940489901132 0.64492639608853486 0.68455049651494504 16900.833333333339 15320.833333333334 47403.05000000001 50374.450000000004 72237.027777777796 10.577348903340095 13922.850000000002 0.25711199631210008 0.24153760727399912 1.6954690015807439 0.21163339462895422 14647.67307692308 39780.059742602207 72792.034305655106 51138.311111111114 0.41457651281283664 0.002941619814481094 25.852999710645783 8140.0263157894742 2.5000000000000004 0.010191344366515444 1.13569469742769 1.7596878168178314 31.82831434839532 1.7779160906585505 39251.880974558662 0.58928706375985651 335.23545664609236
decision_type=2 2 2 2 2 2 2 2 2 2 2 2 2 2 2 2 2 2 2 2 2 2 2 2 2 2 2 2 2 2 2 2 2 2 2 2 2 2 2 2 2 2
left_child=1 2 11 4 37 6 7 8 9 10 29 13 36 14 15 20 33 26 19 -19 21 22 23 24 25 34 -18 -21 -2 30 32 -25 -6 39 -1 -15 -13 -3 40 -16 -5 -30
right_child=28 3 -4 38 5 -7 -8 -9 -10 -11 -12 12 -14 35 16 -17 17 18 -20 27 -22 -23 -24 31 -26 -27 -28 -29 41 -31 -32 -33 -34 -35 -36 -37 -38 -39 -40 -41 -42 -43
leaf_value=-0.06745870821557215 -0.016076683996427733 -0.10499084851815316 0.13773212015269928 -0.10341068936412084 -0.071121347119639425 -0.087392012900784466 0.1251306491045576 -0.093854261303692565 0.11213199231293558 -0.082785925686267248 0.11622025267965293 0.045729814666359628 0.17703993783526817 -0.10697982134974003 -0.11037815446385189 0.16104784618167856 0.021005600896454969 0.002983684386371724 -0.032190102029021658 0.19884970695029469 -0.075915248592412055 -0.06526044819638753 0.13878787654607802 -0.091411751717371537 0.14700381166844134 0.086051808144978523 -0.096102840290638203 0.063765415491965738 -0.10184287456389192 -0.060283231808620399 0.10927049317738993 0.020436962516824125 0.040431235728627626 -0.020371711882480662 0.017735618640602812 -0.028265682561215623 -0.035095358157790267 -0.036166798610159437 -0.045421389256822493 -0.084858068773329007 -0.10583824919746154 -0.10403152652068855
leaf_weight=7.2344831656664663 7.8866231720894602 6.7697734609246236 5.0130683556199065 5.1752467607147974 5.4504780303686911 7.406343904323875 5.0595395490527144 5.4551099985837928 5.3954661637544623 7.5187999131157985 5.3346667485311619 5.0161029491573554 5.0280495695769778 7.9216092452406865 7.7050168644636887 5.5656313616782418 6.1492635132744891 6.0914877466857495 7.893939182162284 5.1105636386200768 5.7806129483506075 6.3119810316711655 5.4482416212558737 5.0726815983653051 7.8743517510592929 6.5282938312739125 7.7397587979212403 5.0841812733560801 6.7506314041092974 6.3407899634912601 5.4886740427464238 5.5211023101583123 5.0466340379789472 7.2878216584213069 5.667462982237339 5.0601593479514122 5.0333973746746778 6.9895106554031372 5.0138580836355677 5.0424549235031009 5.1443797508254647 5.1226264126598835
leaf_count=194 345 252 72 232 77 202 161 181 162 218 75 115 77 187 180 44 129 120 221 119 122 109 85 99 141 116 177 71 448 141 125 106 65 154 133 150 107 204 203 223 165 235
internal_value=0 -0.00280283 0.00978163 -0.0246676 -0.0118086 0.00188585 0.0148281 0.00270402 0.0156856 0.000893934 0.0236396 0.00542319 0.0625368 -0.00109605 0.00710023 0.0292218 -0.0161256 0.0128675 0.0456778 0.0834204 0.0159876 0.0266858 0.0400746 0.0258837 0.0487763 0.00896842 -0.0442539 0.131482 -0.068179 0.00151851 0.0260323 -0.0331202 -0.0174909 -0.0712155 -0.0300352 -0.0762979 0.00524768 -0.0700293 -0.0852634 -0.100283 -0.104621 -0.102787
internal_weight=0 239.771 152.182 87.5893 72.2558 58.4965 51.0902 46.0306 40.5755 35.18 27.6612 147.169 15.0775 132.091 119.109 61.0048 58.1045 38.0692 24.1802 16.2862 55.4392 49.6586 43.3466 37.8984 27.3046 19.4302 13.889 10.1947 19.7599 22.3266 15.9858 10.5938 10.4971 20.0353 12.9019 12.9818 10.0495 13.7593 15.3335 12.7475 10.3196 11.8733
internal_count=6742 5714 3251 2463 1863 1407 1205 1044 863 701 483 3179 299 2880 2543 1149 1394 837 531 310 1105 983 874 789 584 443 306 190 1028 408 267 205 142 557 327 337 222 456 600 403 397 683
is_linear=0
shrinkage=0.1


Tree=18
num_leaves=40
num_cat=0
split_feature=392 67 76 438 481 439 477 198 115 27 392 1 241 2 500 514 514 439 465 459 235 405 443 384 228 511 65 211 2 25 470 263 263 439 245 239 459 434 469
split_gain=7.13597 6.88087 6.19468 6.04975 8.02373 7.64046 6.70501 7.53051 7.31203 9.31698 7.29594 6.84071 10.3572 6.83851 6.52981 5.39786 9.47239 5.90866 8.19423 6.13122 7.97434 4.95471 4.94705 5.73898 4.06466 3.55702 3.19759 3.06811 5.35321 2.86047 2.39618 2.35375 3.67331 2.1057 1.83121 1.55003 1.51696 0.994226 0.00187538
